0.3534385
0.7292416
0.1465179
-999
-999
0.2892448
0.8648535
0.03814344
-999
-999
0.5201666
0.136888
0.4961776
0.1232426
-999
0.07215971
0.1949592
0.9219028
-999
-999
0.6030677
0.3097447
0.2841259
0.08867394
-999
0.2351122
0.07331191
0.8934593
-999
-999
0.5935255
0.480805
0.1110533
0.05502181
-999
0.3715114
0.8127015
-999
-999
-999
0.5100926
0.6436064
0.02933916
-999
-999
0.4582235
0.7084109
0.02468917
-999
-999
0.3827369
0.7905187
0.01505296
-999
-999
0.4787855
0.05138217
0.5980762
0.1101831
-999
0.237156
0.9100205
0.01354514
-999
-999
0.4293821
0.1764597
0.4881355
0.215957
-999
0.08977924
0.9842819
0.02437239
-999
-999
0.3202935
0.2912246
0.3785794
0.3468611
-999
0.9904639
0.0546389
0.04546922
-999
-999
0.1718564
0.3725058
0.2664264
0.5041023
-999
0.9087782
0.214205
0.07223731
-999
-999
0.006516096
0.3913605
0.148344
0.6783714
-999
0.7367098
0.3864779
0.09685228
-999
-999
0.327241
0.02326086
0.8380853
-999
-999
0.4973476
0.5358722
0.1068431
0.1277079
-999
0.185041
0.9214044
0.08892509
-999
-999
0.2315837
0.5989519
0.08727124
0.3640717
-999
0.8576461
0.311496
-999
-999
-999
0.5180265
0.02565244
0.6367578
-999
-999
0.6306628
0.5233648
0.0245489
-999
-999
0.3020521
0.8616926
0.0143732
-999
-999
0.3103412
0.6173821
0.07654641
0.2755544
-999
0.02818783
0.8837234
0.2692292
-999
-999
0.4956897
0.05333345
0.640946
-999
-999
0.6296394
0.4873873
0.07494252
0.01104463
-999
0.2046069
0.9290146
0.02654571
-999
-999
0.2357614
0.5079288
0.1637335
0.4020766
-999
0.8657888
0.2760198
0.06285813
-999
-999
0.2708923
0.1117144
0.8436679
-999
-999
0.4503173
0.3828978
0.2724869
0.2202071
-999
0.9793227
0.07742118
0.06894013
-999
-999
0.2159262
0.3008796
0.7171754
-999
-999
0.5806097
0.2008819
0.403788
0.09581967
-999
0.08540861
0.9630321
0.1086685
-999
-999
0.04395636
0.07565304
0.5170798
0.5849845
-999
0.5743486
0.01090397
0.5748023
0.01086169
-999
0.2323885
0.8195729
0.1887994
-999
-999
0.00365956
0.7371712
0.4417042
-999
-999
0.4153523
0.7752944
-999
-999
-999
0.3108209
0.5630255
0.123266
0.3035177
-999
0.8655529
0.2671532
0.07883743
-999
-999
0.1502889
0.1256758
0.9249001
-999
-999
0.2469467
0.2388929
0.4255214
0.4150097
-999
0.7509532
0.05351516
0.4027211
-999
-999
0.2720158
0.8548296
0.09148857
-999
-999
0.03311077
0.7357477
0.4287187
-999
-999
0.3798144
0.8056147
-999
-999
-999
0.242362
0.4913856
0.179177
0.4013429
-999
0.7661269
0.2503255
0.2252149
-999
-999
0.1077182
0.9745868
0.04569154
-999
-999
0.02558596
0.5372941
0.6117758
-999
-999
0.357101
0.7613667
0.1071188
-999
-999
0.0669105
0.5615231
0.05624072
0.5390937
-999
0.5525957
0.4064588
0.2123965
0.1213085
-999
0.9447909
0.05896794
0.1639134
-999
-999
0.3371728
0.8403932
-999
-999
-999
0.0926825
0.7537822
0.37453
-999
-999
0.3397429
0.8374988
-999
-999
-999
0.1755494
0.3648458
0.2750522
0.5009608
-999
0.5910559
0.1488524
0.4478741
0.07216579
-999
0.05186809
0.8016661
0.3537507
-999
-999
0.5063536
0.5946546
0.03955056
0.08084306
-999
0.9228562
0.1880427
0.08060096
-999
-999
0.1991751
0.9362314
-999
-999
-999
0.6383759
0.5373062
-999
-999
-999
0.1970639
0.9143505
0.08727604
-999
-999
0.2466908
0.2335218
0.7613718
-999
-999
0.2599204
0.1022603
0.5852923
0.3434666
-999
0.4722424
0.7222709
-999
-999
-999
0.1478426
0.4289445
0.2049239
0.5186551
-999
0.4928183
0.1708073
0.4736941
0.1589311
-999
0.6637859
0.5323005
-999
-999
-999
0.3061768
0.5068253
0.1722922
0.3315503
-999
0.6567443
0.1672141
0.3897277
0.02794489
-999
0.04144176
0.7499191
0.4107534
-999
-999
0.4236139
0.4956588
0.1706205
0.2189271
-999
0.7431769
0.1176596
0.3650846
-999
-999
0.1177109
0.7431634
0.3650762
-999
-999
0.4956849
0.4235869
0.2189614
0.170602
-999
0.7499364
0.0413697
0.4107586
-999
-999
0.1672918
0.6567279
0.02796459
0.3897031
-999
0.5068483
0.3061261
0.3315675
0.1722501
-999
0.6637895
0.5323038
-999
-999
-999
0.1708552
0.4928015
0.1589536
0.4736762
-999
0.4289621
0.1478211
0.5186912
0.204899
-999
0.4722421
0.7222643
-999
-999
-999
0.1022993
0.2599062
0.3434936
0.5852671
-999
0.2467245
0.7614097
0.2334931
-999
-999
0.1970574
0.08730222
0.9143404
-999
-999
0.5373378
0.6383446
-999
-999
-999
0.9362484
0.1991457
-999
-999
-999
0.1880719
0.9228245
0.08059415
-999
-999
0.5947151
0.5062943
0.08089077
0.03953462
-999
0.8016763
0.0518318
0.3537544
-999
-999
0.1488907
0.5910136
0.07219587
0.4478505
-999
0.3648755
0.1755198
0.5009804
0.274986
-999
0.3397483
0.8374981
-999
-999
-999
0.09267075
0.3745755
0.7537413
-999
-999
0.8404304
0.3371257
-999
-999
-999
0.05900761
0.9447858
0.1639057
-999
-999
0.4065031
0.5525716
0.1213318
0.212378
-999
0.5615462
0.06687885
0.5391068
0.05621704
-999
0.357097
0.1071432
0.7613512
-999
-999
0.02560828
0.611805
0.5372619
-999
-999
0.9745972
0.1076909
0.04569098
-999
-999
0.2503552
0.7661088
0.2251948
-999
-999
0.491409
0.2423399
0.4013644
0.1791406
-999
0.3798265
0.8056107
-999
-999
-999
0.0331008
0.428765
0.7357039
-999
-999
0.8548639
0.2719719
0.0914924
-999
-999
0.05355349
0.7509454
0.4027106
-999
-999
0.2389269
0.2469312
0.4150318
0.4254935
-999
0.1502975
0.9249099
0.1256339
-999
-999
0.2671991
0.8655627
0.07882631
-999
-999
0.5629991
0.3107851
0.3035521
0.1232434
-999
0.4153602
0.7752872
-999
-999
-999
0.0036513
0.4417507
0.7371272
-999
-999
0.8195953
0.2323613
0.1888027
-999
-999
0.01092773
0.5743453
0.01088086
0.5747806
-999
0.07567955
0.04394106
0.5850246
0.5170318
-999
0.9630474
0.08538275
0.1086634
-999
-999
0.2009095
0.5805897
0.09583699
0.403758
-999
0.2159764
0.7171944
0.3008489
-999
-999
0.07744793
0.9793168
0.06893265
-999
-999
0.3829267
0.4502976
0.2202294
0.2724634
-999
0.2709101
0.8436753
0.1116731
-999
-999
0.2760657
0.865769
0.0628395
-999
-999
0.5079539
0.2357308
0.4020876
0.1636953
-999
0.2046145
0.02658094
0.9290029
-999
-999
0.4874197
0.6296008
0.01105833
0.07491586
-999
0.4957055
0.6409494
0.0533462
-999
-999
0.02818752
0.2692146
0.8836571
-999
-999
0.6173682
0.3103177
0.275562
0.07651226
-999
0.3020576
0.01440621
0.8616629
-999
-999
0.5234136
0.6306356
0.02453173
-999
-999
0.518073
0.6367589
0.02562745
-999
-999
0.3115258
0.8576579
-999
-999
-999
0.5989907
0.2315624
0.364065
0.0872469
-999
0.1850453
0.08894949
0.9213911
-999
-999
0.5359196
0.4973117
0.1277165
0.1068218
-999
0.3272523
0.8380839
0.02322244
-999
-999
0.3865259
0.7366876
0.09682639
-999
-999
0.3913605
0.006516096
0.6783791
0.1483019
-999
0.2142488
0.9087631
0.07221787
-999
-999
0.3725304
0.171834
0.504122
0.2663828
-999
0.05467716
0.99046
0.04546021
-999
-999
0.2912518
0.3202738
0.3468852
0.3785509
-999
0.9842951
0.0897408
0.02436671
-999
-999
0.1765002
0.4293691
0.2159833
0.4880959
-999
0.91005
0.2371279
0.01354149
-999
-999
0.05140736
0.4787833
0.1102015
0.5980536
-999
0.7905459
0.3827078
0.01505378
-999
-999
0.4582307
0.02471736
0.708394
-999
-999
0.6436536
0.5100653
0.02934463
-999
-999
0.3715271
0.8126882
-999
-999
-999
0.4808375
0.5934921
0.0550325
0.1110216
-999
0.2351325
0.8934609
0.07327193
-999
-999
0.309791
0.6030536
0.08871017
0.284091
-999
0.07220884
0.9219224
0.1949378
-999
-999
0.1369085
0.5201616
0.1232661
0.4961407
-999
0.8648885
0.2891618
0.03813575
-999
-999
0.3534385
0.1465535
0.7292123
-999
-999
0.6362708
0.1761102
0.3921265
0.04433373
-999
0.1767064
0.211517
0.8458257
-999
-999
0.7412372
0.3070085
0.1848779
-999
-999
0.3692615
0.1008446
0.7501763
-999
-999
0.748283
0.4195702
0.02291134
-999
-999
0.5412076
0.6331112
-999
-999
-999
0.6806491
0.5167591
-999
-999
-999
0.6737353
0.5227672
-999
-999
-999
0.5711386
0.604989
-999
-999
-999
0.7522793
0.431034
-999
-999
-999
0.06524951
0.4453458
0.6909066
-999
-999
0.7689886
0.08965983
0.3598894
-999
-999
0.134755
0.3175583
0.7782369
-999
-999
0.7231136
0.2016023
0.3065411
-999
-999
0.171179
0.193509
0.8647114
-999
-999
0.6198272
0.3159895
0.2654412
0.07201231
-999
0.1640604
0.07407532
0.9385585
-999
-999
0.4705765
0.418925
0.2291105
0.1928051
-999
0.1083309
0.9760251
0.03231896
-999
-999
0.2911462
0.4855504
0.1883021
0.3511414
-999
0.009471458
0.9444017
0.1809945
-999
-999
0.09991458
0.4842583
0.1333174
0.5460462
-999
0.8174615
0.3429647
0.03510394
-999
-999
0.3937085
0.05622081
0.7563918
-999
-999
0.5979258
0.4825559
0.1029248
0.04666183
-999
0.2228219
0.9194919
0.006052261
-999
-999
0.3237572
0.5360999
0.1443958
0.2996968
-999
0.009915904
0.9333645
0.1998318
-999
-999
0.04642499
0.4471723
0.1310603
0.614589
-999
0.7358843
0.3728479
0.1123008
-999
-999
0.2290418
0.04545906
0.9066117
-999
-999
0.3933838
0.4298352
0.2357443
0.2642995
-999
0.9753879
0.1111065
0.02919632
-999
-999
0.03668417
0.3001815
0.2545536
0.6623851
-999
0.6996472
0.2473473
0.2808134
0.005868848
-999
0.03876814
0.1268589
0.9672532
-999
-999
0.2547009
0.2140579
0.452193
0.3979367
-999
0.8565703
0.03132156
0.2998735
-999
-999
0.005393391
0.3818408
0.7929327
-999
-999
0.3848825
0.04437158
0.6386434
0.1823613
-999
0.0910437
0.8106086
0.3181634
-999
-999
0.6432576
0.555546
-999
-999
-999
0.3657995
0.8047231
0.01440713
-999
-999
0.2525322
0.5969547
0.08980831
0.3416547
-999
0.843015
0.3070556
0.05038072
-999
-999
0.201295
0.09994797
0.9037381
-999
-999
0.3127058
0.2984607
0.3684219
0.352915
-999
0.8541762
0.06530472
0.2862156
-999
-999
0.3291389
0.8454238
-999
-999
-999
0.2067326
0.7112075
0.3112215
-999
-999
0.59927
0.5897814
-999
-999
-999
0.465685
0.5748624
0.07858841
0.1365124
-999
0.9481871
0.1744067
0.007843102
-999
-999
0.1905002
0.2149425
0.8314006
-999
-999
0.3475363
0.178428
0.4968538
0.2909296
-999
0.7690193
0.4202611
-999
-999
-999
0.408885
0.7215006
0.08038853
-999
-999
0.01224574
0.8807352
0.2761647
-999
-999
0.2484115
0.1058418
0.8643765
-999
-999
0.2697096
0.2518459
0.4133206
0.3911929
-999
0.703355
0.02394624
0.4608778
-999
-999
0.2575478
0.7773322
0.2038778
-999
-999
0.7680896
0.4087207
0.002981793
-999
-999
0.09161013
0.01689214
0.9838944
-999
-999
0.02766443
0.1502887
0.4077281
0.6486929
-999
0.3911898
0.01028783
0.6721035
0.1505186
-999
0.01743179
0.5910428
0.002683599
0.5557813
-999
0.471678
0.4311498
0.2168805
0.1889436
-999
0.873257
0.0796921
0.2546808
-999
-999
0.2862768
0.8425281
0.08736724
-999
-999
0.7672915
0.4219752
-999
-999
-999
0.08692154
0.005866325
0.9860861
-999
-999
0.09658471
0.4139904
0.7011195
-999
-999
0.2441826
0.770152
0.2248195
-999
-999
0.3781886
0.0607014
0.7698641
-999
-999
0.2462328
0.2580098
0.4025132
0.4173822
-999
0.5444838
0.6076827
0.01573266
-999
-999
0.1057975
0.5705507
0.0684512
0.4966735
-999
0.4994394
0.3009828
0.3364954
0.1765019
-999
0.7510329
0.4387592
-999
-999
-999
0.2894348
0.6239339
0.06928325
0.2897303
-999
0.6922535
0.2499216
0.2837642
0.01197024
-999
0.03407995
0.8338991
0.3251035
-999
-999
0.4469987
0.5673446
0.09314033
0.1605494
-999
0.8075446
0.1510361
0.2755514
-999
-999
0.1510898
0.8075296
0.2755363
-999
-999
0.5674543
0.4469126
0.1605642
0.0931237
-999
0.8339059
0.03405559
0.3251097
-999
-999
0.2499493
0.6922127
0.01198803
0.2837518
-999
0.6240022
0.2894078
0.2897438
0.06926411
-999
0.7510299
0.4387546
-999
-999
-999
0.3010086
0.4994177
0.1765221
0.336477
-999
0.5705659
0.1057747
0.4966854
0.06842887
-999
0.5444698
0.01575429
0.6076628
-999
-999
0.2580708
0.2462141
0.4174297
0.4024876
-999
0.3782102
0.7698725
0.06065142
-999
-999
0.2441664
0.2248746
0.7701316
-999
-999
0.09659741
0.7011461
0.413928
-999
-999
0.08692338
0.9860866
0.005841308
-999
-999
0.4220073
0.7672354
-999
-999
-999
0.8425744
0.2862469
0.08737934
-999
-999
0.07971845
0.873249
0.2546745
-999
-999
0.4311776
0.4716415
0.1889601
0.2168513
-999
0.5910602
0.01740046
0.5557876
0.00266129
-999
0.01031915
0.3911729
0.1505428
0.6720765
-999
0.150304
0.0276435
0.6487308
0.4076974
-999
0.09162117
0.9838979
0.01686683
-999
-999
0.4087527
0.7680492
0.00297061
-999
-999
0.777355
0.25752
0.2038981
-999
-999
0.02397048
0.7033502
0.4608594
-999
-999
0.2518794
0.2696842
0.3912151
0.4132941
-999
0.2484244
0.86439
0.1058013
-999
-999
0.01224241
0.2762097
0.8807131
-999
-999
0.7215434
0.4088551
0.08039618
-999
-999
0.769022
0.4202564
-999
-999
-999
0.1784514
0.347522
0.2909635
0.4968289
-999
0.1905176
0.8314247
0.2149572
-999
-999
0.1743925
0.9481648
0.007831768
-999
-999
0.5749074
0.4656177
0.1365451
0.07856024
-999
0.5992789
0.5897804
-999
-999
-999
0.2067253
0.311262
0.7111815
-999
-999
0.8454601
0.3291081
-999
-999
-999
0.06533096
0.8541593
0.286202
-999
-999
0.2984855
0.3126888
0.3529343
0.3683825
-999
0.201304
0.9037637
0.09990711
-999
-999
0.307102
0.8429932
0.05036291
-999
-999
0.5969919
0.2524974
0.3416688
0.08977402
-999
0.3658035
0.01444001
0.8047077
-999
-999
0.5555773
0.6432112
-999
-999
-999
0.8106241
0.09100848
0.3181631
-999
-999
0.04440592
0.3848758
0.1823949
0.6386097
-999
0.005412874
0.7929578
0.3817933
-999
-999
0.03135982
0.8565692
0.2998643
-999
-999
0.2140815
0.2546812
0.3979577
0.45215
-999
0.03878119
0.9672637
0.1268177
-999
-999
0.2473916
0.6996244
0.005889462
0.2807958
-999
0.3002003
0.03667004
0.6624005
0.2545095
-999
0.111147
0.975374
0.0291836
-999
-999
0.4298781
0.3933541
0.2643127
0.2356956
-999
0.2290559
0.906614
0.04543305
-999
-999
0.3728797
0.7358511
0.1122761
-999
-999
0.4472394
0.04640032
0.614601
0.1310199
-999
0.009918319
0.199874
0.9333387
-999
-999
0.536142
0.3237252
0.2997063
0.1443595
-999
0.2228286
0.006085888
0.9194847
-999
-999
0.482604
0.5978896
0.0466885
0.1028667
-999
0.3937505
0.7563956
0.05619478
-999
-999
0.3429957
0.8174391
0.03508949
-999
-999
0.4842802
0.09988062
0.5460537
0.1332905
-999
0.009474171
0.181022
0.944378
-999
-999
0.4855781
0.2911274
0.3511565
0.1882761
-999
0.1083409
0.03234265
0.9760187
-999
-999
0.4189707
0.4705484
0.1928163
0.2290865
-999
0.164077
0.9385635
0.07403563
-999
-999
0.3160355
0.6198033
0.07200051
0.2654088
-999
0.1712312
0.8647287
0.1934654
-999
-999
0.2016461
0.7231033
0.3065222
-999
-999
0.134781
0.7782643
0.3175117
-999
-999
0.08970033
0.7689858
0.3598651
-999
-999
0.06526788
0.6909301
0.4453135
-999
-999
0.7522845
0.4310144
-999
-999
-999
0.6050302
0.5711069
-999
-999
-999
0.6737531
0.5227579
-999
-999
-999
0.5168043
0.6806199
-999
-999
-999
0.5411994
0.6331047
-999
-999
-999
0.4196723
0.7482533
0.02289431
-999
-999
0.3692837
0.7501801
0.1008105
-999
-999
0.3070472
0.7412174
0.1848583
-999
-999
0.1767275
0.8458369
0.2114878
-999
-999
0.1761389
0.6362589
0.04434336
0.3921041
-999
0.7952008
0.3466325
0.06719584
-999
-999
0.01175753
0.5109336
0.05539235
0.6107721
-999
0.7913114
0.3902805
-999
-999
-999
0.055884
0.6921595
0.4482358
-999
-999
0.08220273
0.7159029
0.4098651
-999
-999
0.06115127
0.8286828
0.3150715
-999
-999
0.1601842
0.05906655
0.6091693
0.421194
-999
0.03497244
0.9171056
0.2156166
-999
-999
0.1991886
0.1596831
0.4984348
0.4372296
-999
0.9618008
0.1475851
-999
-999
-999
0.1972756
0.2490665
0.3967006
0.4676529
-999
0.9685229
0.06424925
0.1066668
-999
-999
0.1576237
0.3207034
0.3069631
0.5189644
-999
0.9398056
0.1485927
0.0892126
-999
-999
0.08685338
0.3651874
0.2271773
0.5943316
-999
0.8736021
0.2444065
0.09129493
-999
-999
0.3712067
0.1524366
0.6933268
-999
-999
0.7655734
0.3467376
0.1085429
-999
-999
0.3286593
0.07708617
0.8070106
-999
-999
0.6139638
0.4413248
0.1348479
0.04656548
-999
0.2346693
0.9116659
-999
-999
-999
0.4250772
0.5013543
0.1599719
0.2099927
-999
0.09782146
0.9634889
0.0904578
-999
-999
0.2143637
0.4919334
0.1690033
0.4242812
-999
0.9085723
0.2342038
0.01763148
-999
-999
0.002080657
0.3895208
0.1438996
0.6784992
-999
0.7200152
0.3535055
0.1486763
-999
-999
0.2050669
0.07097813
0.9125301
-999
-999
0.4322987
0.3895482
0.2650049
0.2314127
-999
0.9946721
0.04878243
0.0138795
-999
-999
0.1195475
0.2954677
0.313481
0.5625538
-999
0.8137683
0.1665794
0.2529035
-999
-999
0.09051349
0.2434239
0.8750445
-999
-999
0.438201
0.1786803
0.4781719
0.2053705
-999
0.0608047
0.9385466
0.1693848
-999
-999
0.04373663
0.05026919
0.5475599
0.5620998
-999
0.6297979
0.5485597
-999
-999
-999
0.3621551
0.7762754
0.07227143
-999
-999
0.1698704
0.8104413
0.2537046
-999
-999
0.0312397
0.5932326
0.009274568
0.5417012
-999
0.6515663
0.477203
0.06040521
-999
-999
0.154661
0.9578943
0.005536711
-999
-999
0.1932117
0.3693753
0.2733388
0.4760197
-999
0.8078226
0.1697742
0.2561729
-999
-999
0.007119073
0.2276741
0.9148806
-999
-999
0.2313314
0.07888658
0.6049184
0.3553005
-999
0.7055557
0.4880862
-999
-999
-999
0.4755309
0.6649697
0.04810761
-999
-999
0.09928555
0.9171774
0.17917
-999
-999
0.3748875
0.1539947
0.6865938
-999
-999
0.5504612
0.2942081
0.3202938
0.129763
-999
0.01435446
0.9552576
0.1578378
-999
-999
0.4942156
0.6834852
-999
-999
-999
0.3241341
0.7741746
0.127797
-999
-999
0.0891602
0.5723276
0.05774482
0.5078172
-999
0.6419051
0.3828003
0.1792258
0.03929126
-999
0.005454662
0.9932691
0.05766879
-999
-999
0.05080764
0.4511257
0.6928289
-999
-999
0.3403845
0.7369054
0.1479466
-999
-999
0.05226959
0.5719569
0.03757165
0.5396832
-999
0.5680341
0.397533
0.2081293
0.1042772
-999
0.9587158
0.02076619
0.1492244
-999
-999
0.4144001
0.7720403
-999
-999
-999
0.1461672
0.8258512
0.2579565
-999
-999
0.3547839
0.07790028
0.7801784
-999
-999
0.3199627
0.2816704
0.383799
0.341697
-999
0.710457
0.004789618
0.4619477
-999
-999
0.2724441
0.7195297
0.23717
-999
-999
0.7776759
0.3421553
0.09940973
-999
-999
0.06769609
0.9875401
0.03809739
-999
-999
0.5329238
0.6535841
-999
-999
-999
0.1576612
0.8985605
0.1565725
-999
-999
0.2463289
0.1951569
0.7947266
-999
-999
0.2554706
0.1091873
0.5718179
0.3488941
-999
0.4925664
0.7020817
-999
-999
-999
0.2058265
0.4279521
0.2230063
0.4521054
-999
0.5849066
0.1291787
0.4642025
0.06645141
-999
0.05204546
0.7057627
0.4391366
-999
-999
0.4820184
0.4417911
0.2005444
0.1739303
-999
0.8181836
0.05067143
0.3322275
-999
-999
0.2612138
0.7386572
0.2327066
-999
-999
0.7111774
0.3345707
0.1781331
-999
-999
0.02131886
0.9074054
0.2347901
-999
-999
0.4612043
0.6340987
0.01606612
0.09678928
-999
0.861879
0.1805227
0.1848638
-999
-999
0.1805785
0.8618626
0.1848571
-999
-999
0.6341555
0.4611742
0.09680174
0.01605133
-999
0.9074098
0.02129435
0.2347916
-999
-999
0.3346002
0.7111053
0.1781212
-999
-999
0.7386788
0.2611858
0.2327167
-999
-999
0.05069616
0.8181761
0.3322224
-999
-999
0.4418454
0.4819928
0.1739474
0.2005265
-999
0.7057735
0.05202216
0.4391485
-999
-999
0.129203
0.5848782
0.0664926
0.4641742
-999
0.4279719
0.2058046
0.452142
0.2229582
-999
0.4925673
0.7020795
-999
-999
-999
0.1092067
0.2554564
0.3489206
0.5717675
-999
0.246339
0.794743
0.1951009
-999
-999
0.1576536
0.1566272
0.8985453
-999
-999
0.6536144
0.5328918
-999
-999
-999
0.9875469
0.06765683
0.03809753
-999
-999
0.3422016
0.7776399
0.09939844
-999
-999
0.7195529
0.2724168
0.2371791
-999
-999
0.004813131
0.7104507
0.4619257
-999
-999
0.2816934
0.3199442
0.3417292
0.3837135
-999
0.3547927
0.7801865
0.07786184
-999
-999
0.1461614
0.2579992
0.8258179
-999
-999
0.7720678
0.4143683
-999
-999
-999
0.02079143
0.9587132
0.1492205
-999
-999
0.397577
0.5679988
0.1043
0.2081115
-999
0.571979
0.05224891
0.5396907
0.03753711
-999
0.3403788
0.1479832
0.7368782
-999
-999
0.05082142
0.692856
0.4510779
-999
-999
0.9932715
0.005430221
0.05766425
-999
-999
0.3828307
0.6418701
0.03930501
0.1792012
-999
0.5723533
0.08912881
0.5078296
0.05767451
-999
0.3241288
0.12787
0.7741491
-999
-999
0.6835139
0.4941675
-999
-999
-999
0.9552621
0.01433045
0.1578346
-999
-999
0.2942362
0.5504426
0.1297798
0.320264
-999
0.3749101
0.6866056
0.1539541
-999
-999
0.09928412
0.1792111
0.9171515
-999
-999
0.6650001
0.4754868
0.04811899
-999
-999
0.7055621
0.4880797
-999
-999
-999
0.07895955
0.2313166
0.3553256
0.6048907
-999
0.007128505
0.9149078
0.2276449
-999
-999
0.1698025
0.8078046
0.2561536
-999
-999
0.3693979
0.1931855
0.4760442
0.2732842
-999
0.1546682
0.005583639
0.9578901
-999
-999
0.4772509
0.6515269
0.06038087
-999
-999
0.5932483
0.03121084
0.5417043
0.009239436
-999
0.1698659
0.2537448
0.8103589
-999
-999
0.7762482
0.3621262
0.07227551
-999
-999
0.6297989
0.5485655
-999
-999
-999
0.05028709
0.04372364
0.5621265
0.5475281
-999
0.9385617
0.06078058
0.169381
-999
-999
0.1787061
0.4381839
0.2053896
0.4781358
-999
0.09053224
0.8750618
0.2433942
-999
-999
0.1666078
0.8137469
0.2528893
-999
-999
0.2954892
0.1195264
0.5625708
0.3134514
-999
0.04880768
0.9946657
0.01387229
-999
-999
0.3895915
0.4322801
0.2314602
0.2649808
-999
0.2050773
0.9125355
0.07095176
-999
-999
0.3535368
0.7199948
0.1486242
-999
-999
0.3895746
0.002058629
0.678524
0.1438583
-999
0.2342474
0.9085457
0.01763148
-999
-999
0.4919713
0.2143452
0.424291
0.1689641
-999
0.09782823
0.09049519
0.9634778
-999
-999
0.5013844
0.4250453
0.2100023
0.1599371
-999
0.2346783
0.9116622
-999
-999
-999
0.4413088
0.6139418
0.0465746
0.1348081
-999
0.3286733
0.8070134
0.0770464
-999
-999
0.3467844
0.7655532
0.1085261
-999
-999
0.3712253
0.6933191
0.1523948
-999
-999
0.2444507
0.873578
0.09127354
-999
-999
0.3652207
0.0868327
0.5943429
0.227134
-999
0.1486341
0.9397954
0.08920036
-999
-999
0.3207275
0.1575849
0.5189502
0.3069335
-999
0.06427496
0.9685182
0.1066563
-999
-999
0.2491036
0.1972646
0.4676785
0.3966702
-999
0.9618151
0.147576
-999
-999
-999
0.1597189
0.1991765
0.4372495
0.4984039
-999
0.9171328
0.03489602
0.2156089
-999
-999
0.05914402
0.160177
0.421217
0.6091385
-999
0.8286991
0.06112019
0.3150561
-999
-999
0.08220139
0.4098914
0.7158216
-999
-999
0.6922082
0.05586581
0.4482263
-999
-999
0.3903167
0.7912722
-999
-999
-999
0.5109889
0.01174659
0.610772
0.05537309
-999
0.3466555
0.7951859
0.06717865
-999
-999
0.07877914
0.7245147
0.402476
-999
-999
0.09410472
0.8328634
0.2874689
-999
-999
0.2268139
0.05530549
0.6312841
0.3413691
-999
0.1210999
0.9309281
0.1351062
-999
-999
0.3460982
0.156447
0.5163843
0.2798284
-999
0.115407
0.9727139
0.0250439
-999
-999
0.4259862
0.2457073
0.408278
0.2320352
-999
0.03927761
0.08752949
0.9808255
-999
-999
0.4632148
0.3241634
0.3191971
0.2051356
-999
0.09753137
0.04688197
0.9757413
-999
-999
0.4598994
0.3932682
0.2520541
0.2025798
-999
0.1276737
0.9700649
-999
-999
-999
0.420779
0.452151
0.2048467
0.2273199
-999
0.1255315
0.9672259
0.03261305
-999
-999
0.3511225
0.4966143
0.1737716
0.2820348
-999
0.08978928
0.9616446
0.1003595
-999
-999
0.2556594
0.5170352
0.1533081
0.3702201
-999
0.02238871
0.9391776
0.1831159
-999
-999
0.1396413
0.4998672
0.1362604
0.4942839
-999
0.8792873
0.2754906
0.006937542
-999
-999
0.009644123
0.4324089
0.1135272
0.6514091
-999
0.7621789
0.3627848
0.08722317
-999
-999
0.3103897
0.07487635
0.8234005
-999
-999
0.5811604
0.417484
0.1777508
0.08443376
-999
0.1445386
0.0113716
0.9614837
-999
-999
0.3512097
0.4037713
0.2597632
0.3053519
-999
0.9842481
0.0802658
0.03235117
-999
-999
0.1042834
0.2987242
0.2998191
0.5781819
-999
0.8266618
0.1659747
0.2370283
-999
-999
0.1157975
0.2606655
0.8431559
-999
-999
0.5170287
0.1751394
0.451286
0.1351984
-999
0.1294991
0.9492984
0.08731406
-999
-999
0.1624639
0.07860331
0.5828279
0.4313979
-999
0.7624547
0.4247182
-999
-999
-999
0.5150445
0.6792979
-999
-999
-999
0.36898
0.7687507
0.06911761
-999
-999
0.2506011
0.6735927
0.0235212
0.2905743
-999
0.8616166
0.3045874
-999
-999
-999
0.3643918
0.09280999
0.7562136
-999
-999
0.5466889
0.3707138
0.2425393
0.1263368
-999
0.004816247
0.9981514
0.02704731
-999
-999
0.08114248
0.1680591
0.4264838
0.5819824
-999
0.6643142
0.04551483
0.4753648
-999
-999
0.2941895
0.829462
0.08951561
-999
-999
0.1042861
0.7894493
0.3249585
-999
-999
0.4979601
0.01063623
0.6638538
-999
-999
0.5289425
0.4593888
0.1616385
0.1210464
-999
0.9927136
0.05109789
0.02559521
-999
-999
0.1563911
0.3687292
0.6883039
-999
-999
0.5129278
0.06526318
0.5602367
0.08836288
-999
0.1515357
0.7978075
0.2792099
-999
-999
0.7222299
0.4653964
-999
-999
-999
0.2077309
0.9283057
-999
-999
-999
0.1912255
0.313796
0.3251093
0.478744
-999
0.7169986
0.09296256
0.3983321
-999
-999
0.2442655
0.847433
0.1302493
-999
-999
0.7731909
0.4070421
-999
-999
-999
0.2633362
0.02004059
0.8857114
-999
-999
0.231884
0.3000354
0.350942
0.4334397
-999
0.707058
0.05293259
0.435015
-999
-999
0.2595925
0.7898294
0.1826424
-999
-999
0.7980837
0.3773521
-999
-999
-999
0.1149531
0.06393763
0.9642994
-999
-999
0.1003654
0.1342191
0.4800979
0.5419711
-999
0.4705655
0.6822061
0.03044986
-999
-999
0.1572458
0.5688381
0.08773778
0.4439296
-999
0.6601314
0.2864501
0.2639874
0.03498969
-999
0.05386469
0.9225664
0.1968161
-999
-999
0.5567274
0.6280825
-999
-999
-999
0.03430586
0.9627858
0.1344094
-999
-999
0.1121114
0.2809559
0.8270472
-999
-999
0.1896783
0.7029331
0.3276893
-999
-999
0.3859256
3.043397e-05
0.7868735
-999
-999
0.2274263
0.2938295
0.3562707
0.4378414
-999
0.5716257
0.007541583
0.5716954
0.007438314
-999
0.1424039
0.6015376
0.05724383
0.4393627
-999
0.5854847
0.2866269
0.3081094
0.09770222
-999
0.8200424
0.3523466
-999
-999
-999
0.4402601
0.5873531
0.07094168
0.1502032
-999
0.8563871
0.1479554
0.2190282
-999
-999
0.2215128
0.8425871
0.1634464
-999
-999
0.7095628
0.4174885
0.07525246
-999
-999
0.002534251
0.9632161
0.1421949
-999
-999
0.4637139
0.6910046
0.02926017
-999
-999
0.9006176
0.2040114
0.09478021
-999
-999
0.2040687
0.9005824
0.09476852
-999
-999
0.6910623
0.4636516
0.02927069
-999
-999
0.9632176
0.002485526
0.142195
-999
-999
0.4175501
0.7095084
0.07524128
-999
-999
0.8426254
0.2214562
0.1634534
-999
-999
0.1480097
0.8563732
0.2190213
-999
-999
0.5873805
0.4402317
0.1502167
0.07092519
-999
0.8200465
0.3523483
-999
-999
-999
0.2866538
0.5854635
0.09772065
0.3080935
-999
0.6015545
0.1423804
0.4393859
0.05722252
-999
0.007563424
0.5716182
0.007459164
0.571675
-999
0.2938496
0.2273883
0.4378636
0.3562453
-999
0.3859302
0.7868804
6.932019e-06
-999
-999
0.189658
0.3277175
0.7028832
-999
-999
0.1121213
0.8270683
0.2808961
-999
-999
0.03430242
0.1344642
0.9627733
-999
-999
0.6281291
0.5566807
-999
-999
-999
0.9225742
0.05382741
0.1968165
-999
-999
0.2864927
0.660111
0.03501409
0.263965
-999
0.568857
0.1571894
0.443947
0.08765928
-999
0.4705617
0.03052621
0.6821946
-999
-999
0.1342361
0.1003519
0.5420102
0.4800534
-999
0.1149604
0.9643052
0.06391165
-999
-999
0.3773834
0.798045
-999
-999
-999
0.789852
0.2595649
0.1826486
-999
-999
0.05295719
0.7070479
0.4349994
-999
-999
0.3000679
0.2318663
0.4334704
0.3509024
-999
0.2633474
0.8857146
0.02000334
-999
-999
0.4070886
0.7731633
-999
-999
-999
0.8474654
0.2442375
0.1302554
-999
-999
0.09298826
0.71699
0.39832
-999
-999
0.3138383
0.1912083
0.4787634
0.3250684
-999
0.2077377
0.9283035
-999
-999
-999
0.465444
0.722173
-999
-999
-999
0.7978258
0.1515109
0.2792147
-999
-999
0.06528687
0.5129198
0.0883831
0.5602101
-999
0.1564149
0.6883265
0.3686831
-999
-999
0.05113628
0.9927067
0.02558707
-999
-999
0.4594789
0.5289068
0.1210589
0.1616193
-999
0.4979774
0.6638576
0.0106124
-999
-999
0.1042792
0.3249869
0.7893978
-999
-999
0.8294984
0.2941469
0.08951887
-999
-999
0.04555184
0.6643097
0.4753447
-999
-999
0.1680873
0.08113033
0.5820053
0.4264533
-999
0.9981552
0.004792135
0.02704031
-999
-999
0.3707433
0.5466385
0.1263506
0.2425188
-999
0.3644114
0.75622
0.09278365
-999
-999
0.3046171
0.8615364
-999
-999
-999
0.6736175
0.2505773
0.2905835
0.02348928
-999
0.3689806
0.06915041
0.7687352
-999
-999
0.6793274
0.5149515
-999
-999
-999
0.7624611
0.4247217
-999
-999
-999
0.07867506
0.1624553
0.4314226
0.5827832
-999
0.9493122
0.1294603
0.08731052
-999
-999
0.1751793
0.5170127
0.1352158
0.4512529
-999
0.1158181
0.8431732
0.2606357
-999
-999
0.1660028
0.826646
0.2370144
-999
-999
0.2987454
0.1042628
0.5782384
0.2997897
-999
0.08029164
0.9842415
0.03233851
-999
-999
0.4038129
0.351192
0.3053718
0.2597378
-999
0.1445305
0.9614817
0.01134691
-999
-999
0.4175151
0.5811396
0.0844442
0.17772
-999
0.3104092
0.8234036
0.07483694
-999
-999
0.3628315
0.7621467
0.08720699
-999
-999
0.4324366
0.009629257
0.6514149
0.1135005
-999
0.2755199
0.8792576
0.006918429
-999
-999
0.4999021
0.1395811
0.494295
0.136221
-999
0.02239313
0.1831563
0.9391531
-999
-999
0.5170621
0.2556407
0.3702284
0.1532827
-999
0.08979426
0.1003842
0.9616268
-999
-999
0.4966578
0.3510937
0.2820438
0.1737345
-999
0.1255423
0.03264744
0.9672185
-999
-999
0.4522559
0.4207975
0.2273298
0.2048223
-999
0.1276826
0.9700579
-999
-999
-999
0.3932982
0.4598742
0.2025963
0.2519678
-999
0.09754664
0.9757441
0.04680688
-999
-999
0.3242514
0.4631869
0.2051545
0.3191717
-999
0.03929355
0.9808319
0.08749124
-999
-999
0.2457493
0.4259703
0.2320574
0.4082379
-999
0.9727307
0.1153819
0.02503524
-999
-999
0.1564727
0.3460861
0.2798595
0.5162854
-999
0.9309705
0.1210166
0.135099
-999
-999
0.055386
0.2268076
0.3413959
0.6312398
-999
0.8328908
0.0940731
0.287473
-999
-999
0.07877751
0.4025084
0.7244855
-999
-999
0.3332776
0.2022227
0.4639948
0.3074082
-999
0.09457289
0.9823434
-999
-999
-999
0.4868127
0.2859415
0.3478681
0.1805869
-999
0.1229852
0.1046661
0.9439968
-999
-999
0.5976243
0.3434152
0.2416602
0.08233883
-999
0.2322868
0.09331592
0.8784329
-999
-999
0.6638575
0.3827232
0.1570583
0.01364832
-999
0.317423
0.07097493
0.8167031
-999
-999
0.6918455
0.4131325
0.0967393
-999
-999
0.3743145
0.04522572
0.7756858
-999
-999
0.6899412
0.4419418
0.0600729
-999
-999
0.4003513
0.02020778
0.7625648
-999
-999
0.6643679
0.473109
0.0450577
-999
-999
0.3931719
0.7790694
-999
-999
-999
0.6165385
0.5057667
0.05003504
0.002062745
-999
0.3512325
0.8221912
-999
-999
-999
0.5444099
0.5336118
0.07259291
0.06731375
-999
0.2742186
0.8824093
-999
-999
-999
0.4442524
0.5438212
0.1092862
0.1670931
-999
0.1652582
0.9400076
0.05592024
-999
-999
0.3150591
0.518509
0.1534924
0.30718
-999
0.03254031
0.96137
0.1360345
-999
-999
0.1615096
0.4408193
0.1933388
0.4902775
-999
0.9045189
0.209731
0.07401101
-999
-999
0.3048608
0.2101307
0.7040198
-999
-999
0.7418371
0.2509651
0.2343928
-999
-999
0.1239765
0.1818978
0.8985416
-999
-999
0.4875375
0.2283003
0.4060564
0.1721828
-999
0.09482708
0.9718343
0.06231302
-999
-999
0.1945883
0.1253593
0.533994
0.421674
-999
0.8282605
0.3454884
-999
-999
-999
0.5336304
0.6490649
-999
-999
-999
0.4985155
0.6707301
-999
-999
-999
0.3627783
0.7105869
0.1402028
-999
-999
0.1216151
0.8845448
0.2031865
-999
-999
0.0851201
0.5092216
0.1012529
0.5408692
-999
0.7694181
0.3284917
0.120872
-999
-999
0.1530005
0.1168709
0.9213894
-999
-999
0.3697588
0.2517415
0.4083444
0.2838754
-999
0.9206393
0.218452
-999
-999
-999
0.5123997
0.6511419
-999
-999
-999
0.4683712
0.6868329
0.02361707
-999
-999
0.2850777
0.6868348
0.01063623
0.2436552
-999
0.8812242
0.2768081
-999
-999
-999
0.2896357
0.1396219
0.7948653
-999
-999
0.4860557
0.2705955
0.3635741
0.1798673
-999
0.02488755
0.9396348
0.1793634
-999
-999
0.5510493
0.621766
-999
-999
-999
0.3913617
0.7657327
0.03167118
-999
-999
0.2345368
0.5745298
0.1003394
0.362673
-999
0.8386573
0.2535665
0.1276058
-999
-999
0.05716947
0.1839499
0.9284022
-999
-999
0.212902
0.08098509
0.5940669
0.3736931
-999
0.630188
0.5632634
-999
-999
-999
0.4500069
0.5795156
0.07246333
0.141724
-999
0.9585436
0.1391469
0.03849958
-999
-999
0.1052484
0.2995982
0.8115971
-999
-999
0.3136666
0.03541697
0.6555497
0.2365935
-999
0.0001362487
0.617817
0.5395319
-999
-999
0.5400262
0.4536627
0.1593768
0.1096776
-999
0.9696277
0.03529513
0.1164195
-999
-999
0.4264609
0.7528982
-999
-999
-999
0.1951172
0.8327323
0.2000535
-999
-999
0.3811746
0.1243923
0.7042542
-999
-999
0.4357399
0.2333992
0.4162458
0.2188241
-999
0.777311
0.4041864
-999
-999
-999
0.4642758
0.6092731
0.03579658
0.1063089
-999
0.9389576
0.1504445
0.08196789
-999
-999
0.2910532
0.8695214
-999
-999
-999
0.07386009
0.7763014
0.356205
-999
-999
0.2570361
0.05043389
0.8790212
-999
-999
0.1744089
0.1837355
0.4573658
0.4717368
-999
0.4911684
0.6771442
-999
-999
-999
0.1634071
0.4920041
0.1502756
0.4708318
-999
0.5984653
0.1790053
0.4039371
0.06957595
-999
0.06199071
0.7598233
0.3794058
-999
-999
0.5436899
0.4584326
0.152658
0.1044159
-999
0.8963515
0.02434267
0.2451959
-999
-999
0.3762107
0.7276969
0.1066216
-999
-999
0.858171
0.2485669
0.1049372
-999
-999
0.171229
0.925255
0.08540427
-999
-999
0.6846997
0.493612
-999
-999
-999
0.9938129
0.01240805
0.0499199
-999
-999
0.4524051
0.7325028
-999
-999
-999
0.9180142
0.2192535
0.00665888
-999
-999
0.2193116
0.9179959
0.006653826
-999
-999
0.7325314
0.4523736
-999
-999
-999
0.01243275
0.9938112
0.04991915
-999
-999
0.4936435
0.6846703
-999
-999
-999
0.9252703
0.1712011
0.08540861
-999
-999
0.248596
0.8581511
0.1049293
-999
-999
0.7277231
0.3761511
0.1066316
-999
-999
0.0243916
0.8963473
0.2451898
-999
-999
0.4584897
0.5436372
0.1044311
0.1526421
-999
0.7598342
0.06196707
0.3794105
-999
-999
0.1790304
0.5984489
0.06959534
0.4039223
-999
0.4920224
0.1633852
0.4708469
0.1502524
-999
0.4911649
0.6771193
-999
-999
-999
0.1837538
0.1743932
0.4717619
0.4573384
-999
0.2570463
0.8790269
0.05040875
-999
-999
0.07385252
0.3562348
0.7762495
-999
-999
0.8695548
0.2910081
-999
-999
-999
0.1504861
0.9389446
0.0819616
-999
-999
0.6093597
0.4642473
0.1063202
0.03575563
-999
0.7773153
0.404185
-999
-999
-999
0.2334236
0.435714
0.2188446
0.416214
-999
0.3811927
0.7042776
0.1243666
-999
-999
0.1951029
0.2000804
0.832713
-999
-999
0.7529393
0.4264294
-999
-999
-999
0.03532037
0.9696246
0.1164131
-999
-999
0.4537067
0.5400014
0.1096981
0.1593592
-999
0.6178337
0.0001161663
0.5395387
-999
-999
0.03543732
0.3136574
0.2366305
0.6555158
-999
0.1052658
0.8116289
0.2995529
-999
-999
0.139188
0.9585316
0.03849278
-999
-999
0.5795445
0.4499803
0.1417349
0.07243581
-999
0.6301937
0.5632588
-999
-999
-999
0.08101483
0.212886
0.3737186
0.594026
-999
0.05717793
0.9284247
0.1839074
-999
-999
0.2536108
0.8386298
0.1275942
-999
-999
0.5745532
0.234503
0.3627044
0.100272
-999
0.3913619
0.03173628
0.7657208
-999
-999
0.6218095
0.5510178
-999
-999
-999
0.9396447
0.02486402
0.1793602
-999
-999
0.2706224
0.486031
0.1798933
0.3635199
-999
0.2896544
0.7948806
0.1395811
-999
-999
0.2768523
0.8812028
-999
-999
-999
0.686873
0.2850526
0.243662
0.01061616
-999
0.4683708
0.02363718
0.6868127
-999
-999
0.6511835
0.512368
-999
-999
-999
0.9206477
0.2184466
-999
-999
-999
0.2517796
0.3697369
0.2839032
0.4083064
-999
0.1530151
0.921402
0.1168303
-999
-999
0.3285376
0.7693869
0.1208572
-999
-999
0.5092604
0.08509283
0.5408769
0.1012154
-999
0.1216146
0.2032263
0.8845249
-999
-999
0.7106149
0.3627384
0.1402082
-999
-999
0.4985175
0.6707171
-999
-999
-999
0.6491076
0.5335832
-999
-999
-999
0.8282668
0.3454812
-999
-999
-999
0.125381
0.1945741
0.421708
0.5339645
-999
0.971845
0.09475144
0.06230572
-999
-999
0.2283818
0.4875185
0.1721992
0.406033
-999
0.1239948
0.8985541
0.1818696
-999
-999
0.2509945
0.7418222
0.2343673
-999
-999
0.3048608
0.7040319
0.2101022
-999
-999
0.2097596
0.9044966
0.07399887
-999
-999
0.4408193
0.1614931
0.490288
0.1933119
-999
0.03254383
0.1360604
0.9613568
-999
-999
0.5186064
0.3150294
0.3071935
0.153468
-999
0.1652749
0.05594329
0.9399919
-999
-999
0.5438667
0.4442189
0.1671048
0.1092535
-999
0.2742306
0.8824013
-999
-999
-999
0.533659
0.544374
0.06732435
0.07256319
-999
0.3512428
0.8221858
-999
-999
-999
0.5058143
0.616514
0.002069282
0.05001649
-999
0.3931842
0.7790639
-999
-999
-999
0.4732038
0.6642953
0.04503989
-999
-999
0.4003651
0.7625617
0.02012077
-999
-999
0.4420519
0.6898951
0.0600103
-999
-999
0.3743586
0.7756853
0.04518758
-999
-999
0.4131795
0.6917711
0.09672069
-999
-999
0.3174599
0.816705
0.07093591
-999
-999
0.3827699
0.6638387
0.01363998
0.1569981
-999
0.2323079
0.8784378
0.09327625
-999
-999
0.343461
0.5976089
0.08234879
0.2416322
-999
0.1229978
0.9440138
0.1046463
-999
-999
0.2859632
0.4868009
0.1806056
0.3478236
-999
0.9823558
0.09454176
-999
-999
-999
0.2022557
0.3332694
0.3074203
0.4638943
-999
0.5343311
0.4635502
0.1493427
0.1091102
-999
0.3128291
0.009548564
0.8455685
-999
-999
0.6597455
0.4676423
0.05442808
-999
-999
0.450788
0.009858097
0.712525
-999
-999
0.7346964
0.4433117
-999
-999
-999
0.5540696
0.5961878
-999
-999
-999
0.7712073
0.4106312
-999
-999
-999
0.03432711
0.6218261
0.5111948
-999
-999
0.001225966
0.7852362
0.3830121
-999
-999
0.06449332
0.658053
0.4616081
-999
-999
0.0259838
0.7897197
0.3677993
-999
-999
0.07372893
0.6666769
0.4480127
-999
-999
0.02265431
0.7912856
0.3677259
-999
-999
0.061994
0.6489429
0.4703948
-999
-999
0.789373
0.381957
-999
-999
-999
0.02936375
0.6026936
0.5287774
-999
-999
0.7759655
0.4059614
-999
-999
-999
0.5237112
0.01548904
0.6223438
-999
-999
0.7370415
0.4304379
0.0039689
-999
-999
0.4092518
0.03078658
0.7452714
-999
-999
0.6561154
0.4398519
0.09399439
-999
-999
0.2621818
0.03521422
0.8788832
-999
-999
0.5222433
0.4141841
0.2044039
0.1356887
-999
0.09288152
0.01749839
0.9809517
-999
-999
0.3392554
0.3353244
0.3221824
0.3182604
-999
0.9854851
0.01595433
0.0792145
-999
-999
0.1272578
0.1989851
0.415999
0.5309759
-999
0.8381529
0.03540333
0.3108949
-999
-999
0.02122302
0.4364281
0.7216805
-999
-999
0.554065
0.0004838658
0.5841707
0.01271102
-999
0.3427993
0.7847007
0.07794729
-999
-999
0.2168374
0.8130385
0.1971987
-999
-999
0.1458461
0.6320738
0.03258858
0.4116663
-999
0.8318563
0.3320022
-999
-999
-999
0.3133454
0.1106712
0.7912558
-999
-999
0.5659001
0.3186092
0.2803405
0.1099941
-999
0.07161589
0.9877964
0.01590429
-999
-999
0.167708
0.129748
0.5168829
0.4534329
-999
0.7525682
0.4315099
-999
-999
-999
0.505364
0.6770611
-999
-999
-999
0.2641335
0.8570074
0.080813
-999
-999
0.2087822
0.521843
0.1370613
0.4100762
-999
0.8634684
0.2219054
0.12798
-999
-999
0.1061135
0.2308222
0.8702398
-999
-999
0.3744568
0.1120279
0.5571194
0.2285478
-999
0.0578509
0.8014405
0.3386969
-999
-999
0.6655362
0.521651
-999
-999
-999
0.2367495
0.9081028
-999
-999
-999
0.2496014
0.3560364
0.2946521
0.409334
-999
0.8268889
0.07739832
0.2999185
-999
-999
0.3553806
0.8150477
-999
-999
-999
0.1634938
0.818266
0.2427625
-999
-999
0.4543586
0.08432963
0.6471526
-999
-999
0.5696021
0.3131289
0.2839345
0.1070286
-999
0.04199062
0.9510816
0.1499526
-999
-999
0.580009
0.6042574
-999
-999
-999
0.2816013
0.8625093
0.0371475
-999
-999
0.1595416
0.3980694
0.2290034
0.5004132
-999
0.6955788
0.1393944
0.3725281
-999
-999
0.2071068
0.8506227
0.1628176
-999
-999
0.7726769
0.4094336
-999
-999
-999
0.1567739
0.05629834
0.9434748
-999
-999
0.1554354
0.1555593
0.4804577
0.48065
-999
0.5428055
0.6363419
-999
-999
-999
0.267547
0.5608889
0.1134967
0.3338304
-999
0.7941276
0.1917195
0.2412999
-999
-999
0.2081336
0.8913034
0.09979089
-999
-999
0.7553369
0.4294187
-999
-999
-999
0.1178278
0.04124989
0.9670267
-999
-999
0.06417461
0.0922051
0.504109
0.5606738
-999
0.3679271
0.7839802
0.0374044
-999
-999
0.1139805
0.3931987
0.2124995
0.5510385
-999
0.5365934
0.1143841
0.4964471
0.09300801
-999
0.07278118
0.681412
0.4372218
-999
-999
0.5647988
0.3747576
0.2243642
0.1048227
-999
0.8763033
0.2816609
-999
-999
-999
0.4636865
0.6338227
0.006761776
0.08446548
-999
0.9195411
0.143119
0.1277226
-999
-999
0.2940764
0.8481528
0.04641657
-999
-999
0.820004
0.3471881
-999
-999
-999
0.1118857
0.9750527
0.002507275
-999
-999
0.6359687
0.5565476
-999
-999
-999
0.02867306
0.9927487
0.04472594
-999
-999
0.4258161
0.7528437
-999
-999
-999
0.02752875
0.9092503
0.2240924
-999
-999
0.02752339
0.22415
0.9092317
-999
-999
0.7529268
0.4257848
-999
-999
-999
0.02867203
0.04475118
0.9927391
-999
-999
0.5565789
0.6359382
-999
-999
-999
0.9750632
0.1118588
0.002509484
-999
-999
0.3472187
0.8199543
-999
-999
-999
0.8481983
0.2939875
0.04642309
-999
-999
0.1432005
0.9195282
0.127717
-999
-999
0.6338794
0.4636571
0.08447696
0.006746995
-999
0.8763049
0.2816591
-999
-999
-999
0.3747854
0.5647749
0.1048392
0.224348
-999
0.6814249
0.07271279
0.4372286
-999
-999
0.1144539
0.5365669
0.09302881
0.4964161
-999
0.3932491
0.1139416
0.5510733
0.2124743
-999
0.3679246
0.03742742
0.7839708
-999
-999
0.09222048
0.0641616
0.5607011
0.5040793
-999
0.1178314
0.9670329
0.04121209
-999
-999
0.4294655
0.755309
-999
-999
-999
0.8913314
0.20805
0.09979483
-999
-999
0.1918023
0.794112
0.2412892
-999
-999
0.5609118
0.2675113
0.3338433
0.113465
-999
0.5428035
0.6363343
-999
-999
-999
0.1555869
0.1554144
0.4806749
0.4804295
-999
0.1567791
0.9434826
0.05626
-999
-999
0.4094802
0.7726365
-999
-999
-999
0.850652
0.2070258
0.1628236
-999
-999
0.1394723
0.6955668
0.3724951
-999
-999
0.3980992
0.1595227
0.5004377
0.228965
-999
0.2816031
0.03718223
0.8625
-999
-999
0.6043025
0.5799622
-999
-999
-999
0.9510922
0.04195437
0.1499499
-999
-999
0.3131709
0.5695826
0.1070444
0.2839159
-999
0.4543725
0.647161
0.08430493
-999
-999
0.1634875
0.2427894
0.818244
-999
-999
0.815137
0.3553355
-999
-999
-999
0.07743689
0.8268825
0.2999185
-999
-999
0.3560711
0.2495745
0.4093512
0.2946264
-999
0.2367588
0.9080979
-999
-999
-999
0.521698
0.6654925
-999
-999
-999
0.8014535
0.05782853
0.3386967
-999
-999
0.1120509
0.3744414
0.2285801
0.5570958
-999
0.1061247
0.8702649
0.2307932
-999
-999
0.2219343
0.8634524
0.1279684
-999
-999
0.5218776
0.2087516
0.4100869
0.1370254
-999
0.2641354
0.08084796
0.8569937
-999
-999
0.6770911
0.505334
-999
-999
-999
0.7525725
0.4315026
-999
-999
-999
0.1297788
0.1677185
0.453468
0.5168535
-999
0.9878076
0.07159076
0.01589928
-999
-999
0.318638
0.5658825
0.1100081
0.2803099
-999
0.313365
0.791263
0.1106314
-999
-999
0.3320473
0.8318222
-999
-999
-999
0.6320951
0.145815
0.4116737
0.03255451
-999
0.2168354
0.1972357
0.8130171
-999
-999
0.7846875
0.3427578
0.07795023
-999
-999
0.0005187296
0.5540631
0.01272883
0.5841548
-999
0.02124568
0.7217183
0.4363968
-999
-999
0.03542839
0.8381517
0.3108788
-999
-999
0.1990063
0.1272465
0.5309961
0.4159539
-999
0.01599067
0.9854847
0.07920352
-999
-999
0.3353511
0.33924
0.3182828
0.3221563
-999
0.0928893
0.9809517
0.0174741
-999
-999
0.4142142
0.5222141
0.1356996
0.2043822
-999
0.2621979
0.8788834
0.03517663
-999
-999
0.4398988
0.6560813
0.09397638
-999
-999
0.4092655
0.7452714
0.03076165
-999
-999
0.4304689
0.7370042
0.003953605
-999
-999
0.5237274
0.6223435
0.01545286
-999
-999
0.4060061
0.7759395
-999
-999
-999
0.6027207
0.0293466
0.5287765
-999
-999
0.3819999
0.7893335
-999
-999
-999
0.6490009
0.06193952
0.470394
-999
-999
0.02265361
0.3678096
0.7912591
-999
-999
0.6666967
0.07367358
0.448011
-999
-999
0.02598331
0.3678685
0.789693
-999
-999
0.6580825
0.06447531
0.4616065
-999
-999
0.001225585
0.3830543
0.7852098
-999
-999
0.6218449
0.03430179
0.5111918
-999
-999
0.4106603
0.7711681
-999
-999
-999
0.5540959
0.5961852
-999
-999
-999
0.443342
0.734665
-999
-999
-999
0.4508074
0.7125166
0.009827579
-999
-999
0.4676814
0.6597056
0.05440463
-999
-999
0.312842
0.8455625
0.009511991
-999
-999
0.4635969
0.5342976
0.1091192
0.1493092
-999
0.5734137
0.6182304
-999
-999
-999
0.6764604
0.5123562
-999
-999
-999
0.00625761
0.6439068
0.5101238
-999
-999
0.02068855
0.7876571
0.370159
-999
-999
0.1226757
0.672491
0.4014886
-999
-999
0.1037549
0.8432992
0.2614166
-999
-999
0.2172956
0.01084229
0.679584
0.3102573
-999
0.1707565
0.8581689
0.1874495
-999
-999
0.2828388
0.009896419
0.6834701
0.2427038
-999
0.2215516
0.8486406
0.1462855
-999
-999
0.3149643
0.6966613
0.1991832
-999
-999
0.2560476
0.8255915
0.1356181
-999
-999
0.3118877
0.7259132
0.1780826
-999
-999
0.2729745
0.7926642
0.1552952
-999
-999
0.2734419
0.7723612
0.1763868
-999
-999
0.2686579
0.7463823
0.2061131
-999
-999
0.2019874
0.8301482
0.1903021
-999
-999
0.2381152
0.6781166
0.01376503
0.2910713
-999
0.1021904
0.8843351
0.2133055
-999
-999
0.1767036
0.5777468
0.08202861
0.4122187
-999
0.9076179
0.2352986
-999
-999
-999
0.08367209
0.439411
0.1544246
0.5671157
-999
0.8645198
0.2410104
0.09798995
-999
-999
0.2668506
0.2151839
0.7385837
-999
-999
0.7278596
0.2122449
0.2783869
-999
-999
0.07457576
0.2392966
0.8787305
-999
-999
0.5026586
0.1349525
0.4898346
0.127464
-999
0.200074
0.9064138
0.07765204
-999
-999
0.2303985
0.009288261
0.6832861
0.2949587
-999
0.08795658
0.7557531
0.3605665
-999
-999
0.7568191
0.4225217
-999
-999
-999
0.4555087
0.0152593
0.7016899
-999
-999
0.6196066
0.4278032
0.133836
0.03620029
-999
0.1120972
0.04241755
0.968311
-999
-999
0.3126259
0.2696966
0.3867928
0.3388061
-999
0.9213324
0.2144591
-999
-999
-999
0.009707077
0.5272698
0.6197166
-999
-999
0.5349112
0.6433484
-999
-999
-999
0.4073021
0.6549426
0.009021034
0.1303718
-999
0.07532191
0.9450298
0.1394137
-999
-999
0.08885171
0.355869
0.2309839
0.5838583
-999
0.7503963
0.1662405
0.3020114
-999
-999
0.2646997
0.8873152
-999
-999
-999
0.2295203
0.7158337
0.271401
-999
-999
0.04106236
0.6268362
0.5000076
-999
-999
0.6921403
0.4141803
0.0884828
-999
-999
0.08384828
0.06123919
0.9744759
-999
-999
0.2042911
0.1706169
0.4789739
0.4284405
-999
0.7198197
0.4653073
-999
-999
-999
0.4752424
0.6529189
0.04772482
-999
-999
0.07202349
0.9570636
0.1178364
-999
-999
0.03526251
0.2624512
0.2840188
0.6532378
-999
0.5814476
0.09552517
0.4860386
0.04881386
-999
0.1988653
0.8013421
0.2244373
-999
-999
0.8011333
0.3723331
-999
-999
-999
0.1733919
0.09869964
0.9145607
-999
-999
0.25504
0.1633515
0.498662
0.3697572
-999
0.6759397
0.5137066
-999
-999
-999
0.4579284
0.5759193
0.06776058
0.1296792
-999
0.9654005
0.1042126
0.06475034
-999
-999
0.03032438
0.3706219
0.7827911
-999
-999
0.2444994
0.7862951
0.1935572
-999
-999
0.01554815
0.4371708
0.1109317
0.6362046
-999
0.5252962
0.2316861
0.3827896
0.1370258
-999
0.04291291
0.8282039
0.3161806
-999
-999
0.6051516
0.5266313
0.02639112
-999
-999
0.9969866
0.02437754
0.01675282
-999
-999
0.005764981
0.4634026
0.698512
-999
-999
0.2137231
0.8657216
0.1315208
-999
-999
0.006580074
0.2982422
0.2248394
0.6861195
-999
0.4144329
0.08111876
0.5781978
0.1741043
-999
0.01994112
0.5959429
0.5381085
-999
-999
0.5078315
0.3337513
0.2872772
0.1581686
-999
0.8262872
0.3435429
-999
-999
-999
0.4754328
0.5837564
0.05174913
0.105759
-999
0.9242516
0.09556185
0.1602336
-999
-999
0.3547775
0.7935733
0.03941542
-999
-999
0.8815679
0.2661867
0.00857213
-999
-999
0.1993372
0.930774
-999
-999
-999
0.7432413
0.4362004
-999
-999
-999
0.07215398
0.04557827
0.9822642
-999
-999
0.5647379
0.5990733
-999
-999
-999
0.1223932
0.9560837
0.06879313
-999
-999
0.06589732
0.3835342
0.7474159
-999
-999
0.1193995
0.8712864
0.2167139
-999
-999
0.119393
0.21677
0.871268
-999
-999
0.06590717
0.7474418
0.383474
-999
-999
0.1223889
0.06884398
0.9560761
-999
-999
0.5991034
0.5646768
-999
-999
-999
0.07215796
0.9822742
0.04555322
-999
-999
0.4362314
0.7432132
-999
-999
-999
0.9308081
0.1993089
-999
-999
-999
0.266216
0.8815469
0.008565336
-999
-999
0.7935987
0.3546876
0.03942304
-999
-999
0.09563994
0.9242328
0.1602288
-999
-999
0.5837846
0.4753765
0.1057962
0.05171803
-999
0.8262928
0.343541
-999
-999
-999
0.3338036
0.5078099
0.1582044
0.2872592
-999
0.595976
0.01992041
0.5381153
-999
-999
0.08113997
0.4144209
0.1741502
0.5781789
-999
0.2982554
0.006563586
0.6861373
0.2248125
-999
0.2137178
0.1315464
0.8657071
-999
-999
0.005776568
0.6985399
0.463356
-999
-999
0.02441444
0.9969838
0.01675007
-999
-999
0.5266773
0.6051091
0.02637042
-999
-999
0.8282183
0.04287829
0.3161824
-999
-999
0.2317242
0.5252705
0.1370446
0.3827621
-999
0.4371843
0.01552095
0.636227
0.1109071
-999
0.2444911
0.1935828
0.786266
-999
-999
0.0303409
0.7828159
0.370576
-999
-999
0.1042522
0.9653866
0.06474459
-999
-999
0.5759479
0.4578884
0.1297015
0.06774304
-999
0.6759436
0.5137032
-999
-999
-999
0.1633931
0.2550265
0.3698037
0.4986227
-999
0.1734141
0.914569
0.09864718
-999
-999
0.3723941
0.8011081
-999
-999
-999
0.8013623
0.1988269
0.2244438
-999
-999
0.09556154
0.5814335
0.04883237
0.4860228
-999
0.2624757
0.0352405
0.6532563
0.2839905
-999
0.07202422
0.1178623
0.9570513
-999
-999
0.6529484
0.4752139
0.04773646
-999
-999
0.719824
0.4653012
-999
-999
-999
0.1706376
0.2042784
0.4284291
0.478932
-999
0.08385772
0.974481
0.06121377
-999
-999
0.4142111
0.692104
0.08846778
-999
-999
0.6268588
0.0410427
0.5000173
-999
-999
0.2295114
0.2714261
0.7158091
-999
-999
0.8873463
0.264671
-999
-999
-999
0.1662677
0.750379
0.3019973
-999
-999
0.3558883
0.08883592
0.5838727
0.2309567
-999
0.07532299
0.1394396
0.9450083
-999
-999
0.6549712
0.4072759
0.1303718
0.009002573
-999
0.5349137
0.6433377
-999
-999
-999
0.009722807
0.6197436
0.5272387
-999
-999
0.921341
0.2144497
-999
-999
-999
0.269672
0.3126116
0.338833
0.3867665
-999
0.1121047
0.9683136
0.04238011
-999
-999
0.4278491
0.619573
0.03621046
0.1337818
-999
0.4555212
0.7016913
0.01523538
-999
-999
0.4225514
0.756778
-999
-999
-999
0.7557789
0.08792481
0.3605661
-999
-999
0.009318961
0.2303934
0.2949944
0.6832598
-999
0.9064327
0.2000346
0.07765111
-999
-999
0.1349907
0.5026461
0.127516
0.4898019
-999
0.07459469
0.8787554
0.2392679
-999
-999
0.2122732
0.7278411
0.2783613
-999
-999
0.2668675
0.7386211
0.2151555
-999
-999
0.2410392
0.8644957
0.09796973
-999
-999
0.4394319
0.0836566
0.5671157
0.1543981
-999
0.2353263
0.9076272
-999
-999
-999
0.5777705
0.1766752
0.4122242
0.08199259
-999
0.1021918
0.213344
0.8843045
-999
-999
0.6781039
0.2380826
0.2910746
0.01374326
-999
0.2019884
0.1903258
0.8301159
-999
-999
0.7464207
0.2686224
0.2061148
-999
-999
0.2734423
0.17642
0.7723389
-999
-999
0.7927018
0.2729498
0.1552958
-999
-999
0.3118873
0.1781038
0.7258785
-999
-999
0.8256274
0.2560227
0.1356172
-999
-999
0.314963
0.1992039
0.6966367
-999
-999
0.8486629
0.221466
0.1462829
-999
-999
0.009973589
0.2828357
0.242725
0.6834441
-999
0.8581995
0.1707216
0.1874464
-999
-999
0.01087456
0.2172917
0.3103018
0.6795421
-999
0.8433262
0.1037549
0.2614096
-999
-999
0.1226738
0.4015245
0.6724541
-999
-999
0.7876685
0.02066508
0.370152
-999
-999
0.006253673
0.5101566
0.6438692
-999
-999
0.6764781
0.5123283
-999
-999
-999
0.6182517
0.5733846
-999
-999
-999
0.09101567
0.1751295
0.4183803
0.5640119
-999
0.9540916
0.1546535
-999
-999
-999
0.2574572
0.2116467
0.4419991
0.381976
-999
0.06648174
0.9829628
0.04649183
-999
-999
0.4055464
0.2083388
0.4415201
0.2347473
-999
0.1571792
0.9530807
-999
-999
-999
0.5233908
0.1777406
0.4351766
0.1241905
-999
0.02554911
0.2384218
0.8967566
-999
-999
0.6039249
0.1319826
0.4367293
0.04594964
-999
0.02744655
0.3122416
0.8364885
-999
-999
0.6438122
0.07934152
0.4555682
-999
-999
0.003517582
0.380197
0.7831159
-999
-999
0.6421836
0.02400975
0.4977487
-999
-999
0.4411223
0.7382823
-999
-999
-999
0.5984686
0.5670983
-999
-999
-999
0.4894519
0.6964508
-999
-999
-999
0.5132131
0.6640453
-999
-999
-999
0.5137963
0.6471075
-999
-999
-999
0.3898759
0.7829786
-999
-999
-999
0.4984407
0.5764765
0.04463774
0.08195448
-999
0.2364448
0.9047255
-999
-999
-999
0.4289383
0.4717385
0.1746874
0.2034547
-999
0.06605236
0.9892331
0.006398395
-999
-999
0.3014989
0.3277341
0.3246297
0.3517691
-999
0.977684
0.00200995
0.1018641
-999
-999
0.1289329
0.1515182
0.4686223
0.507076
-999
0.8256003
0.3426443
-999
-999
-999
0.5524849
0.6194208
-999
-999
-999
0.5497218
0.637004
-999
-999
-999
0.5109982
0.6152475
0.03429754
-999
-999
0.2244606
0.9077461
0.02168414
-999
-999
0.3271805
0.453322
0.2054551
0.3085533
-999
0.9782686
0.0705881
0.05990103
-999
-999
0.06278283
0.1813595
0.3914248
0.6019911
-999
0.7306729
0.02649947
0.4205727
-999
-999
0.4269074
0.7508604
-999
-999
-999
0.3047401
0.8054295
0.09624407
-999
-999
0.24641
0.5833573
0.08913994
0.3380623
-999
0.9198358
0.1973808
0.04358589
-999
-999
0.198712
0.2683712
0.7517416
-999
-999
0.5756379
0.1119095
0.4720218
0.0591874
-999
0.2338022
0.8491935
0.1276296
-999
-999
0.07847444
0.8104376
0.3118744
-999
-999
0.4485581
0.07487913
0.6581085
-999
-999
0.6350181
0.3131856
0.2417199
0.04670101
-999
0.1145508
0.9698285
0.02482451
-999
-999
0.11928
0.02182566
0.6302332
0.4314368
-999
0.5668917
0.6165019
-999
-999
-999
0.5244535
0.4885935
0.1232317
0.1036132
-999
0.997788
0.01238713
0.01839578
-999
-999
0.02673856
0.0916803
0.4704628
0.6074637
-999
0.5069068
0.6583501
-999
-999
-999
0.3133464
0.5984678
0.0782168
0.2632295
-999
0.9134292
0.1708333
0.1008342
-999
-999
0.03928022
0.3103917
0.8331326
-999
-999
0.2701189
0.7340493
0.2128136
-999
-999
0.0456718
0.5306184
0.05818675
0.5579363
-999
0.6343054
0.2944317
0.2611967
0.04860207
-999
0.1009471
0.9364094
0.1324245
-999
-999
0.6807801
0.5034198
-999
-999
-999
0.219479
0.9161434
-999
-999
-999
0.1889167
0.2228685
0.4125217
0.460698
-999
0.620062
0.5571767
-999
-999
-999
0.3371084
0.5918774
0.08190243
0.2428446
-999
0.8823475
0.1493012
0.1735272
-999
-999
0.3141072
0.8437978
-999
-999
-999
0.03620111
0.8556705
0.2859424
-999
-999
0.1898812
0.1654376
0.858287
-999
-999
0.2432188
0.06297632
0.6153498
0.3237031
-999
0.4907179
0.6789295
-999
-999
-999
0.3798375
0.3214677
0.3284347
0.2742184
-999
0.7465129
0.4347374
-999
-999
-999
0.4101878
0.5744989
0.0832364
0.1776941
-999
0.8868981
0.09888504
0.209763
-999
-999
0.3458726
0.7812964
0.07087047
-999
-999
0.8882757
0.2478229
0.03002048
-999
-999
0.2289207
0.9111515
-999
-999
-999
0.7858396
0.384306
-999
-999
-999
0.08770134
0.0978559
0.9589463
-999
-999
0.02111953
0.634347
0.5059949
-999
-999
0.1791219
0.9416941
-999
-999
-999
0.01660842
0.08131187
0.4745984
0.614632
-999
0.2258394
0.8836601
0.08203371
-999
-999
0.1699387
0.3265099
0.7133132
-999
-999
0.2217143
0.8040103
0.1959797
-999
-999
0.2216984
0.1960333
0.8039753
-999
-999
0.1699498
0.71336
0.3264815
-999
-999
0.2258356
0.08205874
0.8836405
-999
-999
0.08132462
0.01659484
0.6146596
0.4745396
-999
0.1791224
0.9416935
-999
-999
-999
0.02110873
0.506025
0.6343178
-999
-999
0.08770873
0.9589654
0.09782977
-999
-999
0.3843364
0.7858133
-999
-999
-999
0.9111703
0.2288921
-999
-999
-999
0.2478518
0.8882363
0.03001352
-999
-999
0.7813215
0.3458432
0.07087832
-999
-999
0.09891071
0.8868881
0.2097572
-999
-999
0.5745516
0.4101612
0.1777071
0.08321904
-999
0.7465133
0.4347317
-999
-999
-999
0.3215149
0.3798174
0.2742378
0.3284134
-999
0.4907309
0.6789369
-999
-999
-999
0.06299485
0.243207
0.3237288
0.6153132
-999
0.1898896
0.858301
0.1654106
-999
-999
0.03619621
0.2859713
0.8556367
-999
-999
0.8438331
0.3140777
-999
-999
-999
0.1493281
0.8823284
0.1735193
-999
-999
0.5919024
0.3370706
0.2428624
0.08188323
-999
0.6200606
0.5571662
-999
-999
-999
0.2229268
0.1889012
0.4607205
0.4124814
-999
0.2194849
0.9161435
-999
-999
-999
0.5034657
0.6807506
-999
-999
-999
0.9364211
0.1009093
0.1324252
-999
-999
0.2944736
0.6342861
0.0486248
0.2611725
-999
0.5306333
0.04564296
0.5579444
0.0581637
-999
0.2700999
0.2128385
0.7340176
-999
-999
0.03929592
0.8331985
0.310347
-999
-999
0.1708747
0.9134154
0.1008213
-999
-999
0.598493
0.3133224
0.2632605
0.07818662
-999
0.5069059
0.6583396
-999
-999
-999
0.09170428
0.02672756
0.6075017
0.4704173
-999
0.01242308
0.9977864
0.01839157
-999
-999
0.4886229
0.5244291
0.1036305
0.1232045
-999
0.5669036
0.6165001
-999
-999
-999
0.02185223
0.1192717
0.4314634
0.6301904
-999
0.9698457
0.1145249
0.02482318
-999
-999
0.3132143
0.6349899
0.04672143
0.2417025
-999
0.4485722
0.6581185
0.07485452
-999
-999
0.07847085
0.3119021
0.8104129
-999
-999
0.8492149
0.2337626
0.1276317
-999
-999
0.1119468
0.5756292
0.05921344
0.4720041
-999
0.198764
0.7517588
0.2683277
-999
-999
0.1974225
0.9198204
0.04357111
-999
-999
0.5833817
0.246367
0.3380708
0.08911762
-999
0.3047404
0.09626643
0.8054053
-999
-999
0.7508329
0.4268777
-999
-999
-999
0.02652366
0.730671
0.4205609
-999
-999
0.1813783
0.06276578
0.6020221
0.3913949
-999
0.07061338
0.9782602
0.05989328
-999
-999
0.4533485
0.3271518
0.3085892
0.2054193
-999
0.2244679
0.02171706
0.9077374
-999
-999
0.6152778
0.5109578
0.03430378
-999
-999
0.5497303
0.6369946
-999
-999
-999
0.6194485
0.5524541
-999
-999
-999
0.8256072
0.3426358
-999
-999
-999
0.1515699
0.1289232
0.5070974
0.4685923
-999
0.002033673
0.9776858
0.1018532
-999
-999
0.3277598
0.3014768
0.3517915
0.32459
-999
0.06606197
0.006432346
0.9892297
-999
-999
0.4717822
0.4289185
0.2034645
0.1746649
-999
0.2364519
0.904718
-999
-999
-999
0.576507
0.4984164
0.08196086
0.04460892
-999
0.3898862
0.7829627
-999
-999
-999
0.6471373
0.513755
-999
-999
-999
0.5132215
0.6640325
-999
-999
-999
0.696479
0.489408
-999
-999
-999
0.5984736
0.5670836
-999
-999
-999
0.738308
0.4410923
-999
-999
-999
0.02403391
0.642184
0.4977241
-999
-999
0.003532523
0.7831731
0.3801672
-999
-999
0.07936693
0.6438094
0.4555497
-999
-999
0.02746101
0.8365085
0.312198
-999
-999
0.1320221
0.6039165
0.0459705
0.4366982
-999
0.0255624
0.8967816
0.2383801
-999
-999
0.1777809
0.5233793
0.1241835
0.4351297
-999
0.9530934
0.1571534
-999
-999
-999
0.2083654
0.4055398
0.2347586
0.4414936
-999
0.9829754
0.06644092
0.04648322
-999
-999
0.2116905
0.2574484
0.3819923
0.4419773
-999
0.9541023
0.1546408
-999
-999
-999
0.1752066
0.09099233
0.5640385
0.4182962
-999
0.2859832
0.5036331
0.1578051
0.3313291
-999
0.1362375
0.9574285
0.03238171
-999
-999
0.4825923
0.4663471
0.1608266
0.1507061
-999
0.236623
0.02819824
0.8957932
-999
-999
0.6527886
0.3831816
0.1530481
0.01495628
-999
0.291567
0.1174444
0.8003321
-999
-999
0.7841806
0.2831276
0.1464921
-999
-999
0.2997909
0.2043973
0.7031093
-999
-999
0.8721977
0.1837209
0.1499765
-999
-999
0.05889069
0.268056
0.2935036
0.620203
-999
0.9167072
0.09265151
0.1695131
-999
-999
0.1032563
0.2061529
0.3889135
0.5563101
-999
0.9183386
0.01132206
0.2099714
-999
-999
0.1140558
0.123638
0.4925744
0.5098812
-999
0.8761793
0.2755735
-999
-999
-999
0.08785734
0.02789567
0.6016349
0.4749421
-999
0.01298584
0.7873569
0.369615
-999
-999
0.02581098
0.7047144
0.4421703
-999
-999
0.01618434
0.6513911
0.4932296
-999
-999
0.7774555
0.3994039
-999
-999
-999
0.4742035
0.05587839
0.6400031
-999
-999
0.7842165
0.3334398
0.08142634
-999
-999
0.2702665
0.1584658
0.786979
-999
-999
0.6933401
0.2345395
0.2779754
-999
-999
0.05937925
0.2373624
0.8836577
-999
-999
0.5024468
0.1015967
0.5178441
0.1097951
-999
0.2568698
0.8603514
0.07460782
-999
-999
0.2490638
0.7584667
0.2098724
-999
-999
0.18828
0.6786076
0.003848983
0.33283
-999
0.8898445
0.2564937
-999
-999
-999
0.03720638
0.3813836
0.1712219
0.6300802
-999
0.7866008
0.2066143
0.2257684
-999
-999
0.06063791
0.2787429
0.8489508
-999
-999
0.4660549
0.05585324
0.5793005
0.1132695
-999
0.2443764
0.8006999
0.1723544
-999
-999
0.08653566
0.8524948
0.2583038
-999
-999
0.0598611
0.4657875
0.1158854
0.5754396
-999
0.779819
0.2488933
0.1893779
-999
-999
0.05390196
0.2347041
0.8880554
-999
-999
0.3740065
0.0582603
0.6091295
0.1923173
-999
0.1467332
0.7623782
0.303025
-999
-999
0.8182498
0.3510969
-999
-999
-999
0.2820826
0.1251408
0.8036759
-999
-999
0.5166447
0.2236154
0.3891719
0.1390898
-999
0.1202657
0.9095553
0.1578631
-999
-999
0.01561297
0.7262421
0.4284189
-999
-999
0.4053278
0.01978641
0.748363
-999
-999
0.5030226
0.3435921
0.273975
0.1576136
-999
0.0379328
0.9577331
0.1327371
-999
-999
0.6200815
0.5387382
-999
-999
-999
0.3870939
0.7880276
-999
-999
-999
0.3682976
0.4027201
0.2479436
0.2764429
-999
0.910823
0.01255806
0.2209188
-999
-999
0.5013015
0.6846178
-999
-999
-999
0.2193008
0.8934374
0.06832239
-999
-999
0.1422323
0.3425952
0.2683217
0.5204904
-999
0.6932365
0.06577262
0.4253174
-999
-999
0.3111346
0.7538338
0.1459811
-999
-999
0.9045913
0.2356039
-999
-999
-999
0.1158552
0.2490595
0.8419443
-999
-999
0.2878511
0.006002167
0.6833586
0.2319568
-999
0.02167073
0.5311537
0.04102758
0.5754946
-999
0.5842409
0.2831951
0.2983129
0.08894413
-999
0.07919894
0.8872501
0.2203963
-999
-999
0.6806574
0.4907285
-999
-999
-999
0.05199737
0.02794963
0.9898258
-999
-999
0.03882597
0.03770094
0.5513314
0.5486434
-999
0.344172
0.8210419
-999
-999
-999
0.1940254
0.3128425
0.3174984
0.463663
-999
0.6161611
0.5390947
-999
-999
-999
0.2730655
0.5851136
0.08783621
0.3079681
-999
0.7952805
0.147848
0.2714164
-999
-999
0.2659808
0.803073
0.1452152
-999
-999
0.8408466
0.2885728
0.05927139
-999
-999
0.1962352
0.9283693
0.005326188
-999
-999
0.7733706
0.4005954
-999
-999
-999
0.08448227
0.09751701
0.9593048
-999
-999
0.03665982
0.6456922
0.4840747
-999
-999
0.2063641
0.923434
-999
-999
-999
0.07159464
0.09343987
0.5031881
0.5465105
-999
0.2940526
0.8551634
0.01337292
-999
-999
0.06848629
0.2021455
0.3705496
0.5986787
-999
0.3374991
0.7796841
0.08225555
-999
-999
0.03339845
0.2856172
0.2567546
0.6508456
-999
0.3335009
0.7103345
0.1617574
-999
-999
0.3334912
0.1618073
0.7103184
-999
-999
0.2856298
0.03338103
0.650866
0.2567286
-999
0.3374932
0.08227947
0.7796729
-999
-999
0.2021596
0.06847017
0.5987269
0.3705223
-999
0.2940507
0.01339592
0.8551525
-999
-999
0.09346847
0.0715809
0.5465377
0.5031598
-999
0.2063657
0.9234356
-999
-999
-999
0.03664942
0.4841043
0.6456352
-999
-999
0.08448631
0.9593144
0.09749115
-999
-999
0.4006256
0.7733173
-999
-999
-999
0.9283862
0.1962074
0.005333151
-999
-999
0.2886021
0.8408035
0.0592629
-999
-999
0.8030947
0.2659531
0.1452222
-999
-999
0.147874
0.795267
0.2713983
-999
-999
0.5851582
0.2730411
0.3079807
0.08781666
-999
0.616156
0.5390863
-999
-999
-999
0.3128617
0.1939982
0.4636832
0.3174607
-999
0.3441731
0.8210348
-999
-999
-999
0.03771551
0.03881485
0.5486851
0.5513018
-999
0.05200054
0.9898306
0.02792515
-999
-999
0.4907593
0.6806149
-999
-999
-999
0.8872667
0.07917477
0.2203982
-999
-999
0.2832218
0.5842122
0.08896889
0.2982962
-999
0.5311667
0.02165162
0.5755062
0.04099387
-999
0.00602116
0.2878427
0.2319937
0.6833369
-999
0.1158704
0.8419628
0.2490166
-999
-999
0.2356465
0.9045631
-999
-999
-999
0.7538707
0.3110937
0.1459912
-999
-999
0.06580863
0.6932291
0.4253004
-999
-999
0.342624
0.1422152
0.5204904
0.2682695
-999
0.2193011
0.06836957
0.8934264
-999
-999
0.6846611
0.5012709
-999
-999
-999
0.01258194
0.9108218
0.2209104
-999
-999
0.4027582
0.3682271
0.276466
0.2479213
-999
0.3870988
0.7880226
-999
-999
-999
0.5387671
0.6200514
-999
-999
-999
0.9577401
0.0378976
0.1327332
-999
-999
0.343633
0.5029938
0.1576362
0.2739449
-999
0.4053374
0.748367
0.01975089
-999
-999
0.01560748
0.4284623
0.726214
-999
-999
0.9095768
0.1202164
0.1578626
-999
-999
0.2236673
0.5166304
0.1391151
0.3891414
-999
0.2820946
0.8036897
0.1251014
-999
-999
0.3511412
0.8182255
-999
-999
-999
0.7624066
0.1466989
0.3030276
-999
-999
0.0582933
0.3739955
0.192349
0.6091073
-999
0.05391266
0.8880814
0.2346757
-999
-999
0.2489219
0.7798271
0.1893565
-999
-999
0.4658056
0.05983579
0.5754482
0.115848
-999
0.08653327
0.258344
0.8524726
-999
-999
0.800723
0.2443512
0.1723594
-999
-999
0.05587632
0.4660462
0.1132884
0.5792705
-999
0.06065641
0.8489793
0.2786994
-999
-999
0.2066562
0.786581
0.2257466
-999
-999
0.3814019
0.03719169
0.6300959
0.1712484
-999
0.2564659
0.8898242
-999
-999
-999
0.6786416
0.1882479
0.3328358
0.003827729
-999
0.2490616
0.2098957
0.7584327
-999
-999
0.8603846
0.2568301
0.07460836
-999
-999
0.1016336
0.5024301
0.1098211
0.517823
-999
0.0593977
0.8836742
0.2373341
-999
-999
0.2345678
0.6933269
0.2779575
-999
-999
0.2702815
0.7869882
0.1584251
-999
-999
0.3334845
0.7841963
0.08140375
-999
-999
0.4742618
0.6400057
0.05584159
-999
-999
0.3994477
0.77743
-999
-999
-999
0.6514072
0.0161668
0.4932266
-999
-999
0.02580644
0.442211
0.7046712
-999
-999
0.7873703
0.01295695
0.3696069
-999
-999
0.02792466
0.08785202
0.47493
0.6016048
-999
0.8761752
0.2755656
-999
-999
-999
0.123659
0.1140441
0.5099127
0.4924834
-999
0.01139374
0.9183406
0.2099563
-999
-999
0.2061852
0.1032418
0.5563365
0.3888836
-999
0.09267715
0.9166956
0.1694948
-999
-999
0.2680875
0.05887988
0.6202447
0.2934744
-999
0.1837483
0.8721815
0.1499548
-999
-999
0.2998196
0.7031433
0.2043554
-999
-999
0.2831713
0.7841574
0.1464667
-999
-999
0.291583
0.8003392
0.1174049
-999
-999
0.3832272
0.6527614
0.01496412
0.1530234
-999
0.2366652
0.8957908
0.0281679
-999
-999
0.4663848
0.4825739
0.1507173
0.1607926
-999
0.1362457
0.03241383
0.9574197
-999
-999
0.5036609
0.2859582
0.3313258
0.1577674
-999
0.3768709
0.7607977
0.04524802
-999
-999
0.4927532
0.6737025
-999
-999
-999
0.5747068
0.6098731
-999
-999
-999
0.5983439
0.581109
-999
-999
-999
0.7393988
0.4369427
-999
-999
-999
0.06250824
0.6236652
0.4785208
-999
-999
0.03142628
0.8620239
0.2762544
-999
-999
0.1942104
0.5798318
0.07990558
0.3860115
-999
0.0728016
0.9422358
0.1392382
-999
-999
0.3085185
0.4888949
0.1694041
0.3114001
-999
0.07308047
0.9837094
0.0262328
-999
-999
0.3919105
0.3719201
0.2723516
0.2555648
-999
0.03431693
0.04793876
0.9891611
-999
-999
0.4303011
0.2437048
0.3940701
0.216119
-999
0.1463905
0.956955
-999
-999
-999
0.4131974
0.1128233
0.5371268
0.1882114
-999
0.2334488
0.8815463
0.06666311
-999
-999
0.3377695
0.6971614
0.165159
-999
-999
0.2914726
0.7574903
0.1619324
-999
-999
0.2126436
0.8549566
0.1387656
-999
-999
0.299082
0.5856575
0.08566775
0.2789338
-999
0.05568635
0.9673699
0.09927907
-999
-999
0.2401555
0.3777903
0.2641145
0.4073723
-999
0.9716552
0.03789209
0.09991632
-999
-999
0.116839
0.1545832
0.4548252
0.5195174
-999
0.8233966
0.343327
-999
-999
-999
0.603563
0.5661021
-999
-999
-999
0.5456868
0.6375951
-999
-999
-999
0.6241127
0.4972074
0.03756459
-999
-999
0.2197494
0.03417334
0.9047322
-999
-999
0.466604
0.3077277
0.3192686
0.1892589
-999
0.08531349
0.9728767
0.05542526
-999
-999
0.1869557
0.05321182
0.6121086
0.3748057
-999
0.02955319
0.7302969
0.4146023
-999
-999
0.7441497
0.4317444
-999
-999
-999
0.3122065
0.07369336
0.8085858
-999
-999
0.5574245
0.2833663
0.308752
0.1094755
-999
0.1351344
0.954132
0.04340032
-999
-999
0.1714943
0.002915635
0.6734813
0.3493013
-999
0.02321116
0.6346478
0.4995174
-999
-999
0.7339795
0.3868066
0.06781244
-999
-999
0.1318386
0.1260291
0.9208194
-999
-999
0.3639852
0.1453117
0.512037
0.2477751
-999
0.07904734
0.8100348
0.3069724
-999
-999
0.7518249
0.4256735
-999
-999
-999
0.2539483
0.0814427
0.8571602
-999
-999
0.4267166
0.2235684
0.4158911
0.2154784
-999
0.06572759
0.8669457
0.2520532
-999
-999
0.7139778
0.4683057
-999
-999
-999
0.2559741
0.04442017
0.8735377
-999
-999
0.3636268
0.2377861
0.411583
0.2771071
-999
0.003987135
0.8271159
0.3278865
-999
-999
0.6443148
0.5254655
-999
-999
-999
0.1323895
0.01253795
0.9620661
-999
-999
0.1883184
0.1656209
0.4735405
0.4389251
-999
0.6446809
0.5414045
-999
-999
-999
0.485326
0.5267215
0.09757745
0.1200277
-999
0.9841793
0.02314912
0.07286101
-999
-999
0.5098873
0.6501883
-999
-999
-999
0.2936021
0.8494522
0.02611107
-999
-999
0.1882654
0.3438025
0.2832854
0.4667616
-999
0.6973705
0.02014065
0.4495058
-999
-999
0.3522191
0.6722257
0.003236768
0.1692409
-999
0.9285613
0.1570549
0.08059588
-999
-999
0.3517343
0.812999
-999
-999
-999
0.146759
0.8615403
0.1976245
-999
-999
0.2698141
0.2204585
0.7183384
-999
-999
0.4157659
0.04853301
0.6045581
0.1483995
-999
0.08163346
0.5726961
0.04465919
0.4960823
-999
0.6251786
0.2340024
0.3213148
0.05044476
-999
0.1226192
0.8223811
0.262169
-999
-999
0.7203919
0.3848001
0.08676391
-999
-999
0.1028602
0.9621642
0.06714872
-999
-999
0.6989912
0.4844661
-999
-999
-999
0.06303874
0.04395194
0.9832448
-999
-999
0.007850487
0.6029067
0.534344
-999
-999
0.2086578
0.9223489
-999
-999
-999
0.0771432
0.1136357
0.4798203
0.5497317
-999
0.3290657
0.8268952
0.002232672
-999
-999
0.1121386
0.2353046
0.3605081
0.5495083
-999
0.4126177
0.7308224
0.03239478
-999
-999
0.1142711
0.3370187
0.2584037
0.5502154
-999
0.453679
0.6515331
0.06812222
-999
-999
0.0889925
0.411331
0.1770829
0.5631652
-999
0.4520258
0.04285016
0.5957255
0.1148305
-999
0.04288978
0.4520141
0.1148757
0.5957112
-999
0.4113451
0.0889727
0.5631993
0.1770595
-999
0.4536705
0.06814455
0.6515214
-999
-999
0.3370341
0.1142522
0.5502353
0.258379
-999
0.4126127
0.03241694
0.7308136
-999
-999
0.2353201
0.1121217
0.5495314
0.3604818
-999
0.3290624
0.00225492
0.8268845
-999
-999
0.1136649
0.07711529
0.5497846
0.4797924
-999
0.2086587
0.9223481
-999
-999
-999
0.007839968
0.5343732
0.6028774
-999
-999
0.06304395
0.9832546
0.04392734
-999
-999
0.4844967
0.6989626
-999
-999
-999
0.9621747
0.1028347
0.0671504
-999
-999
0.3848297
0.7203671
0.08672922
-999
-999
0.8223954
0.1225947
0.2621734
-999
-999
0.2340283
0.6251609
0.05046174
0.3212856
-999
0.5727183
0.08161268
0.4960966
0.04462723
-999
0.04855351
0.4157558
0.1484329
0.6045315
-999
0.2698327
0.7183639
0.220405
-999
-999
0.1467524
0.1976774
0.8615129
-999
-999
0.8130355
0.3516896
-999
-999
-999
0.1570954
0.9285413
0.08058572
-999
-999
0.672264
0.3521792
0.1692548
0.003211201
-999
0.02017483
0.6973652
0.4494969
-999
-999
0.3438323
0.1882475
0.466789
0.2832603
-999
0.2936025
0.02613332
0.8494393
-999
-999
0.6502162
0.5099026
-999
-999
-999
0.02313713
0.9841756
0.07285498
-999
-999
0.5267642
0.485288
0.1200451
0.09755999
-999
0.6446865
0.5413986
-999
-999
-999
0.1656402
0.1883052
0.4389596
0.4735542
-999
0.1323964
0.9620678
0.01247815
-999
-999
0.525542
0.6442724
-999
-999
-999
0.8271282
0.003965875
0.3278838
-999
-999
0.2378097
0.3636115
0.2771263
0.4115479
-999
0.2559854
0.8735434
0.04438352
-999
-999
0.4683509
0.7139358
-999
-999
-999
0.8669637
0.06569331
0.2520536
-999
-999
0.2236052
0.4267023
0.2155059
0.4158578
-999
0.2539577
0.8571665
0.08140469
-999
-999
0.4257186
0.7517983
-999
-999
-999
0.8100563
0.07902509
0.3069727
-999
-999
0.1453345
0.3639686
0.2478056
0.5120133
-999
0.1318523
0.9208291
0.1260027
-999
-999
0.3868367
0.7339563
0.06779831
-999
-999
0.6346694
0.02319235
0.4995198
-999
-999
0.002934299
0.1714845
0.3493389
0.6734277
-999
0.9541456
0.135109
0.04339884
-999
-999
0.2833938
0.5574004
0.1094971
0.3087222
-999
0.3122236
0.8085907
0.07365569
-999
-999
0.4317894
0.7441236
-999
-999
-999
0.7303107
0.02953357
0.4146003
-999
-999
0.05323165
0.1869483
0.3748411
0.6120809
-999
0.9728865
0.0852892
0.05542027
-999
-999
0.3077547
0.4665883
0.1892734
0.3192462
-999
0.2197584
0.9047341
0.03412456
-999
-999
0.4972686
0.6240878
0.03753989
-999
-999
0.545701
0.6375871
-999
-999
-999
0.5661439
0.6035179
-999
-999
-999
0.8234023
0.3433151
-999
-999
-999
0.1546035
0.1168245
0.5195382
0.4547955
-999
0.03791623
0.9716521
0.09990394
-999
-999
0.3778395
0.2401555
0.4073918
0.2640752
-999
0.05569036
0.09931528
0.9673532
-999
-999
0.5856977
0.299051
0.2789404
0.08563442
-999
0.2126467
0.1387997
0.8549384
-999
-999
0.7575157
0.2914483
0.1619343
-999
-999
0.3377672
0.1651487
0.6971278
-999
-999
0.8815671
0.2334103
0.06666119
-999
-999
0.1128596
0.4131912
0.1882291
0.5370903
-999
0.9569746
0.1463524
-999
-999
-999
0.2437446
0.4302899
0.2161335
0.3940453
-999
0.03432598
0.989165
0.04790302
-999
-999
0.3719619
0.3918954
0.255582
0.2723144
-999
0.07309444
0.02626606
0.9837036
-999
-999
0.4889223
0.3084925
0.3114242
0.1693186
-999
0.07280599
0.1393224
0.9421834
-999
-999
0.5798567
0.1941927
0.3860175
0.07988182
-999
0.03142803
0.2762805
0.8620017
-999
-999
0.6236854
0.06248324
0.4785197
-999
-999
0.4369777
0.7393522
-999
-999
-999
0.5983607
0.5811127
-999
-999
-999
0.6099162
0.574679
-999
-999
-999
0.4927598
0.6736832
-999
-999
-999
0.7608314
0.3768324
0.04524816
-999
-999
0.1236841
0.3050401
0.7756772
-999
-999
0.832678
0.06401812
0.2901891
-999
-999
0.08197161
0.1232764
0.4694634
0.5469769
-999
0.01248834
0.9119545
0.2154589
-999
-999
0.2333495
0.06821004
0.6009738
0.3333576
-999
0.1856325
0.8744708
0.1387571
-999
-999
0.3445877
0.695807
0.1557102
-999
-999
0.3624973
0.7558794
0.07100281
-999
-999
0.3954937
0.7567107
0.01438534
-999
-999
0.5296801
0.5978064
0.016326
-999
-999
0.3790101
0.7891487
-999
-999
-999
0.6678336
0.4295526
0.0801134
-999
-999
0.3027875
0.1016396
0.7960175
-999
-999
0.7525508
0.2662086
0.1913531
-999
-999
0.1844933
0.2516326
0.7760001
-999
-999
0.7603707
0.1134073
0.3269967
-999
-999
0.04427583
0.4097892
0.7231715
-999
-999
0.6790453
0.488199
-999
-999
-999
0.5540719
0.630389
-999
-999
-999
0.5174832
0.6656319
-999
-999
-999
0.6441795
0.4942422
0.01625615
-999
-999
0.3046588
0.04742809
0.8284796
-999
-999
0.632088
0.3204217
0.2278108
0.04260953
-999
0.07709445
0.1768494
0.916208
-999
-999
0.4961749
0.1244886
0.492642
0.1223111
-999
0.261126
0.8591415
0.06240842
-999
-999
0.2678153
0.7726225
0.1703163
-999
-999
0.251493
0.6398255
0.03832164
0.292345
-999
0.01012952
0.9496314
0.1552684
-999
-999
0.1300195
0.3248424
0.2765239
0.5309027
-999
0.8713366
0.06065888
0.2473792
-999
-999
0.007845335
0.4783244
0.6698877
-999
-999
0.5410593
0.6365024
-999
-999
-999
0.5069722
0.5814619
0.02562229
0.0595865
-999
0.1374477
0.9610093
-999
-999
-999
0.3012853
0.2861853
0.3601741
0.3436776
-999
0.9117848
0.2208112
-999
-999
-999
0.6322314
0.524016
-999
-999
-999
0.4758746
0.697284
-999
-999
-999
0.5735493
0.4126577
0.1673853
0.07635818
-999
0.07493877
0.9857322
-999
-999
-999
0.1990367
0.07536937
0.5850038
0.375764
-999
0.0005447522
0.6839451
0.4701056
-999
-999
0.7036102
0.425763
0.04575278
-999
-999
0.1190417
0.104027
0.9379953
-999
-999
0.3165205
0.1266671
0.5351816
0.2829509
-999
0.05333186
0.7515631
0.3782882
-999
-999
0.7435431
0.4075136
0.01579394
-999
-999
0.1324184
0.1208457
0.9217991
-999
-999
0.3125635
0.1070497
0.5580522
0.2766338
-999
0.04638029
0.7055382
0.4237369
-999
-999
0.7232288
0.3849172
0.08011103
-999
-999
0.0352111
0.1333742
0.9561719
-999
-999
0.1858122
0.01886063
0.6544107
0.3465738
-999
0.5336493
0.0009770512
0.606697
-999
-999
0.5952483
0.3197387
0.2501986
0.07442721
-999
0.1069907
0.931573
0.1279947
-999
-999
0.7362647
0.4367682
-999
-999
-999
0.2277243
0.07523213
0.8801417
-999
-999
0.3031677
0.1450338
0.5143466
0.3048711
-999
0.6570682
0.5028589
-999
-999
-999
0.593332
0.3954549
0.1738542
0.06286601
-999
0.05964287
0.9546908
0.1219254
-999
-999
0.6784453
0.5039319
-999
-999
-999
0.1539931
0.03380892
0.9455365
-999
-999
0.1557829
0.09645181
0.543582
0.4395612
-999
0.4776039
0.7009777
-999
-999
-999
0.3717425
0.3312781
0.3124117
0.2753887
-999
0.7708824
0.403354
-999
-999
-999
0.5104616
0.5210315
0.08892769
0.09436672
-999
0.9540412
0.1500444
-999
-999
-999
0.5463142
0.6298086
-999
-999
-999
0.01621328
0.9938887
0.03621772
-999
-999
0.4982987
0.6553139
-999
-999
-999
0.1812417
0.924289
0.05002651
-999
-999
0.03097173
0.1425652
0.4069082
0.6234354
-999
0.3293345
0.8052869
0.04764066
-999
-999
0.09942818
0.2784777
0.3063416
0.5673282
-999
0.4471072
0.6829545
0.03976863
-999
-999
0.138294
0.3936552
0.2159553
0.5119115
-999
0.5273034
0.01187091
0.581125
0.03510072
-999
0.1500942
0.4826663
0.1436285
0.4722489
-999
0.5681589
0.06749271
0.5088056
0.0394783
-999
0.139273
0.5429226
0.09111872
0.4560909
-999
0.5722098
0.1105042
0.4675373
0.05708119
-999
0.1105485
0.5721956
0.05712134
0.4675126
-999
0.5429384
0.1392509
0.4561045
0.09109824
-999
0.06751418
0.568147
0.0394984
0.5087826
-999
0.4826829
0.1500728
0.4722798
0.1436069
-999
0.01189112
0.5272853
0.03512146
0.5811141
-999
0.3936716
0.1382742
0.5119295
0.2159319
-999
0.4471011
0.03979033
0.6829442
-999
-999
0.2785084
0.09941096
0.5673494
0.3063416
-999
0.3293311
0.04764066
0.8052776
-999
-999
0.1425789
0.03095767
0.623485
0.4068517
-999
0.1812404
0.05007419
0.9242815
-999
-999
0.6553419
0.4982686
-999
-999
-999
0.0162135
0.03624195
0.9938794
-999
-999
0.6298678
0.5462843
-999
-999
-999
0.9540396
0.1500421
-999
-999
-999
0.5210595
0.5104353
0.09437943
0.08889666
-999
0.7708849
0.4033514
-999
-999
-999
0.3313131
0.3717032
0.2754073
0.3123906
-999
0.4776102
0.7009779
-999
-999
-999
0.09647752
0.1557642
0.4395867
0.5435551
-999
0.1539994
0.9455422
0.03378484
-999
-999
0.503962
0.6784021
-999
-999
-999
0.954699
0.05960676
0.1219252
-999
-999
0.3954973
0.593309
0.06287961
0.1738384
-999
0.6570775
0.5028608
-999
-999
-999
0.1450649
0.3031546
0.3048935
0.5143109
-999
0.2277386
0.8801487
0.07520726
-999
-999
0.4367979
0.7362235
-999
-999
-999
0.9315854
0.1069536
0.1279955
-999
-999
0.3197799
0.5952188
0.07444911
0.2501734
-999
0.5336605
0.6067013
0.0009551141
-999
-999
0.01888753
0.1858035
0.3465992
0.6543847
-999
0.03521785
0.9561892
0.133348
-999
-999
0.3849469
0.7231935
0.08009786
-999
-999
0.7055584
0.04634941
0.423739
-999
-999
0.1070813
0.3125314
0.2766559
0.5580163
-999
0.1324348
0.9218138
0.1208197
-999
-999
0.4075438
0.7435059
0.01578164
-999
-999
0.7515833
0.05331085
0.3782895
-999
-999
0.1266887
0.3165096
0.282983
0.5351573
-999
0.1190497
0.9380037
0.1040013
-999
-999
0.4257931
0.7035856
0.04573189
-999
-999
0.6839571
0.0005162333
0.4701053
-999
-999
0.07539874
0.1990276
0.3757995
0.5849766
-999
0.9857432
0.07490174
-999
-999
-999
0.4127014
0.5735171
0.07636959
0.1673581
-999
0.475888
0.6972812
-999
-999
-999
0.5240439
0.6321871
-999
-999
-999
0.9117908
0.2208063
-999
-999
-999
0.2862212
0.3012706
0.3436945
0.3601487
-999
0.1374559
0.9610037
-999
-999
-999
0.5814916
0.5068958
0.0595938
0.02558748
-999
0.5410653
0.6364826
-999
-999
-999
0.007875089
0.669926
0.4783396
-999
-999
0.06064652
0.8713332
0.2473639
-999
-999
0.3248739
0.1299984
0.5309322
0.2764967
-999
0.01013267
0.1552939
0.9496171
-999
-999
0.6398504
0.2514715
0.2923506
0.03830059
-999
0.2678143
0.1703387
0.7725913
-999
-999
0.8591747
0.2610997
0.06240872
-999
-999
0.1245131
0.4961673
0.1223278
0.4926099
-999
0.07710578
0.9162207
0.1768763
-999
-999
0.3203928
0.6320631
0.0426206
0.2277918
-999
0.3046765
0.8284819
0.0474036
-999
-999
0.4942726
0.6441548
0.01623175
-999
-999
0.5174926
0.6656212
-999
-999
-999
0.6304173
0.5540865
-999
-999
-999
0.6790503
0.4881801
-999
-999
-999
0.04429164
0.723149
0.4097444
-999
-999
0.113446
0.7603625
0.3269812
-999
-999
0.1845179
0.7760212
0.2516042
-999
-999
0.2662371
0.7525362
0.1913361
-999
-999
0.3028097
0.7960241
0.1015883
-999
-999
0.429613
0.6678122
0.08009569
-999
-999
0.3790267
0.7891431
-999
-999
-999
0.5978064
0.5296177
0.01633028
-999
-999
0.3954909
0.01440334
0.7566882
-999
-999
0.7559197
0.3624721
0.07100432
-999
-999
0.3445878
0.1557391
0.6957728
-999
-999
0.8744908
0.1856093
0.1387526
-999
-999
0.06823218
0.2333452
0.3333776
0.6009457
-999
0.9119693
0.01246333
0.2154507
-999
-999
0.1233025
0.08195997
0.5469964
0.469418
-999
0.06405535
0.8326768
0.2901783
-999
-999
0.1236755
0.7756893
0.3049968
-999
-999
0.08950894
0.4896734
0.1096733
0.5279917
-999
0.9567852
0.1425794
-999
-999
-999
0.3204912
0.4199743
0.2277171
0.3132959
-999
0.07258444
0.02359046
0.983061
-999
-999
0.5342882
0.277462
0.319741
0.125164
-999
0.08390598
0.2138396
0.8847021
-999
-999
0.6875036
0.1130836
0.3851794
-999
-999
0.03767031
0.4174777
0.7166476
-999
-999
0.7445888
0.4271237
-999
-999
-999
0.6223156
0.5272242
-999
-999
-999
0.01366712
0.69613
0.4498776
-999
-999
0.01100882
0.8071108
0.3433858
-999
-999
0.1258291
0.5633478
0.06877547
0.4557365
-999
0.9400375
0.1756171
-999
-999
-999
0.2011903
0.3814494
0.2477878
0.4435628
-999
0.9842147
0.02559575
0.06742624
-999
-999
0.2171409
0.1837827
0.4569598
0.4093881
-999
0.05351075
0.913771
0.1928167
-999
-999
0.1624512
0.6803269
0.3473836
-999
-999
0.1316698
0.7331673
0.3331546
-999
-999
0.0469212
0.8709324
0.2535654
-999
-999
0.1498343
0.4804856
0.1438479
0.4707695
-999
0.9470454
0.1292477
0.06728765
-999
-999
0.0900967
0.2073921
0.3745753
0.5667936
-999
0.8390406
0.3165032
-999
-999
-999
0.5898019
0.5681495
-999
-999
-999
0.5658352
0.6103057
-999
-999
-999
0.6853969
0.4429677
0.03934601
-999
-999
0.2283331
0.1023575
0.8621927
-999
-999
0.5689983
0.2175107
0.3633306
0.0898298
-999
0.2274673
0.9025099
0.01149371
-999
-999
0.2818395
0.7312741
0.1911396
-999
-999
0.2172645
0.6468263
0.02803883
0.3186771
-999
0.9388297
0.1774288
-999
-999
-999
0.05256724
0.243219
0.3102588
0.6195896
-999
0.7496374
0.03020091
0.3916298
-999
-999
0.4841182
0.6926969
-999
-999
-999
0.297583
0.8508728
0.0006533422
-999
-999
0.3675384
0.4178144
0.2269998
0.2672901
-999
0.9716159
0.1127833
-999
-999
-999
0.03670693
0.009906248
0.5838012
0.5219036
-999
0.5395388
0.6374742
-999
-999
-999
0.590762
0.4270501
0.1394458
0.05285373
-999
0.0003017163
0.08258735
0.9825293
-999
-999
0.1903565
0.04851786
0.6149334
0.3645207
-999
0.005512181
0.6276469
0.5121235
-999
-999
0.7110468
0.3609492
0.1201019
-999
-999
0.02309266
0.1619617
0.9424169
-999
-999
0.2328972
0.006340304
0.6764988
0.2835339
-999
0.05290597
0.5768039
0.02398848
0.5132248
-999
0.7380235
0.272408
0.1950072
-999
-999
0.2280625
0.9065216
-999
-999
-999
0.1473127
0.7957509
0.263557
-999
-999
0.02032178
0.4037836
0.1361768
0.6332175
-999
0.6330099
0.1534155
0.3880754
0.02547439
-999
0.2446481
0.8051125
0.1581752
-999
-999
0.8921467
0.2504654
-999
-999
-999
0.127586
0.2690085
0.8069978
-999
-999
0.3496161
0.6982388
0.1450941
-999
-999
0.1350152
0.5195174
0.1065411
0.4691059
-999
0.7425335
0.1516024
0.3082083
-999
-999
0.298079
0.798341
0.1013281
-999
-999
0.9166541
0.2143643
-999
-999
-999
0.07966519
0.3099594
0.8020515
-999
-999
0.2660061
0.7866137
0.1545976
-999
-999
0.07332437
0.3761795
0.1960379
0.5848019
-999
0.579692
0.06217447
0.5035051
0.02706537
-999
0.2291816
0.6405159
0.03439196
0.3110122
-999
0.8191752
0.1652141
0.2236123
-999
-999
0.3150733
0.8003949
0.07456336
-999
-999
0.9179617
0.2076924
0.002458977
-999
-999
0.3249451
0.8282894
-999
-999
-999
0.111611
0.8808222
0.1980468
-999
-999
0.1682584
0.2803144
0.7578998
-999
-999
0.2830843
0.7659308
0.1570954
-999
-999
0.0290686
0.3265227
0.2106352
0.6446827
-999
0.4321631
0.0103739
0.6314418
0.1054823
-999
0.09945346
0.4602228
0.13866
0.5303358
-999
0.548081
0.07509126
0.5114829
0.05712063
-999
0.146181
0.5623566
0.07685031
0.4366115
-999
0.6271788
0.1227586
0.4198802
0.01984795
-999
0.1717801
0.6324436
0.030778
0.3712857
-999
0.6715451
0.1550391
0.3603219
-999
-999
0.1800186
0.672794
0.002131677
0.3365493
-999
0.6857955
0.1739291
0.3328358
-999
-999
0.173978
0.685779
0.3328254
-999
-999
0.6728112
0.1799944
0.3365705
0.002113977
-999
0.1550631
0.6715297
0.3603112
-999
-999
0.6324607
0.1717566
0.371297
0.03075941
-999
0.1227817
0.627151
0.01986646
0.4198687
-999
0.5623893
0.1461589
0.4366241
0.07683016
-999
0.07511276
0.5480693
0.05714061
0.5114701
-999
0.4602378
0.09943359
0.5303505
0.1386376
-999
0.01039328
0.4321537
0.1055044
0.6314272
-999
0.3265487
0.02905146
0.6447001
0.2106102
-999
0.2830774
0.1571198
0.7659144
-999
-999
0.1682797
0.7579407
0.280259
-999
-999
0.1116064
0.1980999
0.8808046
-999
-999
0.8283356
0.3248869
-999
-999
-999
0.2077473
0.9179446
0.002446617
-999
-999
0.8004184
0.3150453
0.07456995
-999
-999
0.1652402
0.8191541
0.2235989
-999
-999
0.6405365
0.2291935
0.3110274
0.0343731
-999
0.06216331
0.5796778
0.0270841
0.5034859
-999
0.3762029
0.07329803
0.5848252
0.1960009
-999
0.2659983
0.1546339
0.7865884
-999
-999
0.07968071
0.802084
0.3099307
-999
-999
0.2143919
0.9166276
-999
-999
-999
0.7983758
0.2980517
0.101334
-999
-999
0.1516279
0.7425208
0.3081969
-999
-999
0.5195536
0.1349852
0.4691172
0.1065189
-999
0.3496067
0.1451167
0.6982211
-999
-999
0.127597
0.807036
0.2689661
-999
-999
0.2505074
0.8921173
-999
-999
-999
0.8051447
0.2446222
0.1581824
-999
-999
0.1534404
0.6329975
0.02549074
0.388053
-999
0.4038058
0.02029701
0.6332288
0.1361522
-999
0.1473079
0.2635832
0.7957284
-999
-999
0.9065404
0.2280215
-999
-999
-999
0.27245
0.7379963
0.1949868
-999
-999
0.5768269
0.05287772
0.5132307
0.0239559
-999
0.006368214
0.2328861
0.2835702
0.6764627
-999
0.02310434
0.9424102
0.1619353
-999
-999
0.3609784
0.7110142
0.1200878
-999
-999
0.6276597
0.005484318
0.5121263
-999
-999
0.04854617
0.1903436
0.3645569
0.6149067
-999
0.0003079335
0.9825373
0.0825503
-999
-999
0.4270939
0.5907395
0.05286483
0.1394201
-999
0.5395347
0.6374705
-999
-999
-999
0.009930605
0.03669925
0.5219429
0.5837569
-999
0.9716182
0.1127758
-999
-999
-999
0.4178534
0.3675099
0.2673032
0.2269662
-999
0.2975869
0.0006841545
0.8508641
-999
-999
0.692725
0.4840747
-999
-999
-999
0.0302364
0.7496351
0.3916186
-999
-999
0.2432462
0.05254856
0.6196156
0.3102166
-999
0.1774683
0.9388
-999
-999
-999
0.6468495
0.2172432
0.3186855
0.02801801
-999
0.2818365
0.1911619
0.7312524
-999
-999
0.9025288
0.2274275
0.01149354
-999
-999
0.2175503
0.5689859
0.08985148
0.3633108
-999
0.2283503
0.8621992
0.1023193
-999
-999
0.4430129
0.6853613
0.03932295
-999
-999
0.5658457
0.6103016
-999
-999
-999
0.5681899
0.5897573
-999
-999
-999
0.8390436
0.3164941
-999
-999
-999
0.2074121
0.09008057
0.5668119
0.3745463
-999
0.1292733
0.9470358
0.06727248
-999
-999
0.4805192
0.1498179
0.4707859
0.1438232
-999
0.04692194
0.2535914
0.8709109
-999
-999
0.7331977
0.1316393
0.3331548
-999
-999
0.1624452
0.3474187
0.6802996
-999
-999
0.9137886
0.05347852
0.1928115
-999
-999
0.1838167
0.2171268
0.4094064
0.4569316
-999
0.025619
0.9842134
0.06741776
-999
-999
0.3814856
0.2011762
0.4435799
0.2477482
-999
0.1756553
0.9400226
-999
-999
-999
0.5633811
0.1258038
0.4557421
0.06874017
-999
0.0110086
0.3434258
0.8070737
-999
-999
0.6961541
0.01364984
0.4498734
-999
-999
0.5272501
0.6222862
-999
-999
-999
0.7445948
0.4271063
-999
-999
-999
0.03769489
0.7166694
0.417448
-999
-999
0.1131093
0.687497
0.3851523
-999
-999
0.08393359
0.8847156
0.2137991
-999
-999
0.2775038
0.5342705
0.125184
0.3197068
-999
0.07257725
0.9830618
0.02356743
-999
-999
0.4200017
0.3204654
0.3133027
0.2276792
-999
0.1426158
0.9567723
-999
-999
-999
0.4897406
0.08948782
0.5279953
0.1096356
-999
0.1955666
0.8271948
0.1827383
-999
-999
0.3333082
0.7553356
0.1050401
-999
-999
0.4760308
0.6485091
0.03124303
-999
-999
0.4263776
0.745034
-999
-999
-999
0.7396469
0.4030192
0.022735
-999
-999
0.01361036
0.4054233
0.1286206
0.6371069
-999
0.9242475
0.1665034
0.06682231
-999
-999
0.1707824
0.2918003
0.3234311
0.4802656
-999
0.9775928
0.09549367
-999
-999
-999
0.2861775
0.1317295
0.5248896
0.3124781
-999
0.1811534
0.8918138
0.1111546
-999
-999
0.327221
0.7143334
0.1533068
-999
-999
0.367453
0.7048717
0.1151267
-999
-999
0.2799579
0.8612885
0.009938625
-999
-999
0.5159226
0.4708689
0.1321662
0.1067756
-999
0.1596467
0.0713471
0.9268266
-999
-999
0.5771183
0.2328339
0.3412998
0.08387474
-999
0.2601828
0.8795491
-999
-999
-999
0.5170247
0.01500205
0.5799987
0.0426501
-999
0.4314228
0.7174508
0.008302446
-999
-999
0.3479351
0.8108202
-999
-999
-999
0.5232322
0.4755649
0.1239234
0.09771124
-999
0.1221101
0.06448915
0.9507975
-999
-999
0.4764777
0.2065699
0.4113851
0.1626927
-999
0.2115237
0.9035678
0.04157413
-999
-999
0.2929035
0.7334305
0.1742345
-999
-999
0.2749474
0.6557267
0.02211101
0.253166
-999
0.04227119
0.9632654
0.1106675
-999
-999
0.202254
0.3082066
0.3171104
0.4455009
-999
0.9131408
0.217752
-999
-999
-999
0.01459806
0.6114658
0.5162624
-999
-999
0.5722864
0.5901327
-999
-999
-999
0.7170359
0.3860829
0.07891452
-999
-999
0.1487344
0.1639314
0.8799597
-999
-999
0.4992549
0.1110248
0.4996457
0.1111207
-999
0.2660939
0.8059161
0.1292772
-999
-999
0.1124526
0.8938512
0.1773348
-999
-999
0.148431
0.3888345
0.2212751
0.4970733
-999
0.8614022
0.06259619
0.2538186
-999
-999
0.4975546
0.6756331
-999
-999
-999
0.3824405
0.7841259
-999
-999
-999
0.4315951
0.424315
0.2071502
0.201966
-999
0.01989095
0.978511
0.08530254
-999
-999
0.0601824
0.6378406
0.4626699
-999
-999
0.5023245
0.6506948
-999
-999
-999
0.6263459
0.3286358
0.2174665
0.04251309
-999
0.162053
0.9421191
0.01909301
-999
-999
0.1392524
0.7570931
0.3037393
-999
-999
0.02660268
0.456892
0.09644064
0.6020595
-999
0.7006033
0.1882177
0.3059132
-999
-999
0.2863483
0.8407335
0.0477598
-999
-999
0.08818006
0.8916312
0.1992008
-999
-999
0.03623696
0.2811272
0.2581624
0.6386024
-999
0.61161
0.02738699
0.5068523
-999
-999
0.3493102
0.659877
0.00888601
0.1730171
-999
0.9659435
0.1042115
0.04276375
-999
-999
0.02321279
0.4505263
0.6863214
-999
-999
0.3350072
0.8129574
0.01094173
-999
-999
0.2562263
0.3537755
0.2839031
0.3861036
-999
0.7763311
0.3901157
-999
-999
-999
0.5216172
0.5731708
0.01969239
0.04255356
-999
0.9981475
0.01600677
-999
-999
-999
0.5867321
0.5583528
-999
-999
-999
0.2827439
0.866142
-999
-999
-999
0.2597615
0.1966206
0.4484003
0.3654679
-999
0.6250041
0.5489143
-999
-999
-999
0.5200258
0.3741185
0.2267445
0.1298615
-999
0.04002792
0.8847985
0.2372669
-999
-999
0.6879519
0.4531036
0.0164556
-999
-999
0.09660209
0.9771128
-999
-999
-999
0.7267643
0.4310469
-999
-999
-999
0.1632012
0.1026904
0.9092659
-999
-999
0.1757355
0.007797509
0.6624374
0.3450789
-999
0.3549722
0.07415208
0.7565939
-999
-999
0.3504098
0.1072479
0.5494448
0.2374772
-999
0.001102044
0.5208923
0.03009622
0.5891203
-999
0.5002454
0.1781236
0.4314718
0.1353031
-999
0.07575556
0.6469133
0.4436236
-999
-999
0.6165685
0.2205221
0.3315913
0.05062832
-999
0.1332363
0.7296898
0.3321336
-999
-999
0.6987879
0.2388885
0.2584529
-999
-999
0.1759276
0.7743019
0.2556669
-999
-999
0.7517658
0.2396981
0.2140618
-999
-999
0.2068239
0.7891021
0.2119407
-999
-999
0.7809894
0.2280739
0.198489
-999
-999
0.2281266
0.7809519
0.1984717
-999
-999
0.7891201
0.206798
0.2119567
-999
-999
0.2397245
0.7517465
0.2140426
-999
-999
0.7743186
0.1759025
0.2556825
-999
-999
0.2389143
0.6987689
0.2584305
-999
-999
0.7297195
0.1332126
0.3321414
-999
-999
0.2205467
0.6165504
0.05064581
0.3315779
-999
0.6469259
0.07571226
0.4436317
-999
-999
0.1781687
0.5002132
0.135323
0.4314554
-999
0.5209128
0.001083066
0.5891291
0.03007514
-999
0.1072676
0.3503964
0.2375001
0.5494246
-999
0.3549878
0.7566035
0.07410522
-999
-999
0.007813565
0.1757251
0.3451315
0.6623888
-999
0.1632122
0.9092759
0.1026652
-999
-999
0.4310761
0.7267372
-999
-999
-999
0.9771224
0.09657703
-999
-999
-999
0.4531332
0.6879122
0.01644424
-999
-999
0.8848108
0.0400052
0.2372681
-999
-999
0.3741448
0.5199932
0.1298846
0.2267275
-999
0.6250099
0.5489148
-999
-999
-999
0.1966504
0.259739
0.3655008
0.448364
-999
0.2827476
0.8661421
-999
-999
-999
0.558381
0.5866882
-999
-999
-999
0.9981477
0.01600298
-999
-999
-999
0.5732139
0.5215902
0.04256349
0.01967763
-999
0.7763312
0.3901082
-999
-999
-999
0.3538077
0.2562081
0.3861209
0.2838796
-999
0.3350075
0.01096285
0.8129488
-999
-999
0.0232316
0.68636
0.4504965
-999
-999
0.1042369
0.9659293
0.04275487
-999
-999
0.6599025
0.3492849
0.1730298
0.008868586
-999
0.02740912
0.6116129
0.506834
-999
-999
0.2811587
0.03621513
0.6386279
0.2581224
-999
0.08817796
0.1992397
0.8916129
-999
-999
0.8407673
0.2863211
0.04776328
-999
-999
0.1882438
0.700583
0.3058991
-999
-999
0.4569072
0.02657755
0.6020684
0.09640511
-999
0.1392445
0.3037782
0.7570688
-999
-999
0.9421415
0.1620144
0.0190931
-999
-999
0.3286777
0.6263267
0.04252595
0.2174499
-999
0.5023403
0.6506972
-999
-999
-999
0.06017156
0.4626965
0.637798
-999
-999
0.9785184
0.0198683
0.08529896
-999
-999
0.4243418
0.431565
0.201966
0.2071192
-999
0.3824448
0.784115
-999
-999
-999
0.6756603
0.4975098
-999
-999
-999
0.06263281
0.8613976
0.2538044
-999
-999
0.3888656
0.148407
0.4970933
0.2212497
-999
0.1124525
0.1773597
0.8938243
-999
-999
0.8059391
0.2660559
0.1292799
-999
-999
0.1110603
0.4992466
0.1111381
0.4996259
-999
0.1487512
0.879977
0.1638916
-999
-999
0.3861272
0.717003
0.07889962
-999
-999
0.5722807
0.59013
-999
-999
-999
0.0145891
0.5163018
0.6114218
-999
-999
0.9131457
0.2177414
-999
-999
-999
0.3082403
0.2022332
0.4455241
0.3170838
-999
0.04227564
0.1106916
0.9632536
-999
-999
0.6557518
0.2749146
0.2531713
0.02208063
-999
0.2929007
0.1742665
0.7334092
-999
-999
0.903596
0.2114853
0.04157257
-999
-999
0.2066081
0.4764612
0.1627157
0.4113628
-999
0.1221196
0.9508038
0.06445271
-999
-999
0.4756089
0.5232008
0.09771979
0.1238942
-999
0.3479413
0.8108051
-999
-999
-999
0.7174922
0.431396
0.008305281
-999
-999
0.01502456
0.5170234
0.04267478
0.5799714
-999
0.8795768
0.2601555
-999
-999
-999
0.2328609
0.5771067
0.08389381
0.3412791
-999
0.1596629
0.9268323
0.07131043
-999
-999
0.470913
0.5159026
0.1067836
0.1321358
-999
0.2799644
0.009967812
0.8612774
-999
-999
0.7049128
0.3674291
0.1151295
-999
-999
0.3272211
0.1533362
0.7143005
-999
-999
0.8918421
0.1811298
0.1111518
-999
-999
0.1317526
0.2861708
0.3124961
0.5248489
-999
0.9775992
0.09548575
-999
-999
-999
0.2918352
0.1707601
0.4802791
0.3233336
-999
0.1665938
0.9242306
0.06680365
-999
-999
0.4054526
0.01359165
0.6371146
0.1285885
-999
0.4030556
0.7395763
0.02270705
-999
-999
0.4263953
0.7450235
-999
-999
-999
0.6485381
0.4759572
0.03124685
-999
-999
0.3333131
0.1050682
0.7553005
-999
-999
0.8272549
0.1955447
0.1827343
-999
-999
0.07035377
0.1734435
0.9169278
-999
-999
0.6901379
0.1122602
0.3787134
-999
-999
0.04409254
0.4524554
0.664041
-999
-999
0.7986046
0.3642664
-999
-999
-999
0.09962864
0.7137775
0.3705215
-999
-999
0.1932154
0.7173102
0.2857496
-999
-999
0.1783543
0.8916417
0.1119604
-999
-999
0.4305267
0.5077243
0.1262064
0.1734625
-999
0.1674618
0.03961821
0.9324252
-999
-999
0.6174362
0.259984
0.2895551
0.05160677
-999
0.07618055
0.2764243
0.8320399
-999
-999
0.6871467
0.03023523
0.4429854
-999
-999
0.5359165
0.6344144
-999
-999
-999
0.6090773
0.5633749
-999
-999
-999
0.7700261
0.3970395
-999
-999
-999
0.02217664
0.4165095
0.124673
0.6216877
-999
0.8959208
0.1623672
0.1231445
-999
-999
0.05925067
0.1769273
0.3849277
0.5932218
-999
0.8411239
0.3151208
-999
-999
-999
0.01763025
0.6597691
0.4739705
-999
-999
0.02474572
0.6157191
0.5034133
-999
-999
0.8578267
0.2869427
-999
-999
-999
0.03990203
0.309114
0.2324955
0.6300076
-999
0.8536347
0.07084464
0.2554771
-999
-999
0.01077289
0.5091472
0.6212751
-999
-999
0.6169103
0.5615435
-999
-999
-999
0.696786
0.4521984
0.0004590733
-999
-999
0.2662224
0.1147866
0.8150272
-999
-999
0.647226
0.1838985
0.3449267
0.01913731
-999
0.3228297
0.8349475
-999
-999
-999
0.3631804
0.7528962
0.06378704
-999
-999
0.3817912
0.5590221
0.09098534
0.1986598
-999
0.01130498
0.9978067
0.004407702
-999
-999
0.2176756
0.1607597
0.4795562
0.39642
-999
0.02906726
0.7991587
0.3389983
-999
-999
0.778253
0.3904151
-999
-999
-999
0.314472
0.1404044
0.7404389
-999
-999
0.6625063
0.1504664
0.3656923
-999
-999
0.338941
0.8092794
0.006059106
-999
-999
0.2183349
0.8677285
0.1005154
-999
-999
0.247781
0.4082563
0.2292854
0.3848657
-999
0.9129287
0.003854222
0.2111963
-999
-999
0.591835
0.57607
-999
-999
-999
0.3768349
0.7835689
-999
-999
-999
0.5026589
0.3080422
0.2967107
0.1491124
-999
0.1212804
0.9222947
0.1227477
-999
-999
0.04113932
0.7905546
0.3412172
-999
-999
0.3503111
0.1415572
0.6945966
-999
-999
0.6262119
0.1292037
0.4094338
0.02011122
-999
0.3030943
0.7761258
0.1159554
-999
-999
0.02051081
0.9438822
0.1566144
-999
-999
0.02354002
0.1763342
0.3571211
0.6398053
-999
0.5534505
0.6072525
-999
-999
-999
0.4121892
0.5276334
0.1126082
0.1830378
-999
0.9721693
0.1070106
-999
-999
-999
0.6028783
0.561966
-999
-999
-999
0.2817651
0.8617029
-999
-999
-999
0.3336861
0.2011097
0.4439282
0.2897575
-999
0.0184255
0.7197381
0.4216118
-999
-999
0.6954002
0.3589845
0.1307485
-999
-999
0.1691536
0.9357918
0.02333552
-999
-999
0.03916167
0.8128845
0.3193167
-999
-999
0.2239553
0.1920905
0.7889839
-999
-999
0.3860017
0.01482102
0.6404564
0.1447364
-999
0.1360573
0.522632
0.1014871
0.4614584
-999
0.7246807
0.1126107
0.3509825
-999
-999
0.3280847
0.7142055
0.1493447
-999
-999
0.9388799
0.1266565
0.08452816
-999
-999
0.439897
0.7341803
-999
-999
-999
0.09287128
0.9605625
0.07218138
-999
-999
0.008364501
0.08254253
0.4567715
0.6169136
-999
0.3196791
0.83333
-999
-999
-999
0.1928692
0.2217711
0.4035038
0.4435744
-999
0.5316668
0.6478953
-999
-999
-999
0.3672878
0.318733
0.3184466
0.2733086
-999
0.7021152
0.468241
-999
-999
-999
0.5181881
0.3677521
0.2313389
0.1304703
-999
0.02980962
0.8161422
0.3206261
-999
-999
0.6384894
0.3749703
0.158036
0.01982452
-999
0.09931001
0.8750452
0.2099226
-999
-999
0.7291216
0.3530667
0.1052956
-999
-999
0.1603393
0.8905368
0.1338101
-999
-999
0.7957212
0.314327
0.07543502
-999
-999
0.2157151
0.8770262
0.08810464
-999
-999
0.8442882
0.2671617
0.069299
-999
-999
0.267217
0.8442677
0.06929195
-999
-999
0.8770442
0.2156882
0.0881105
-999
-999
0.3143552
0.7956986
0.07542666
-999
-999
0.8905668
0.1602879
0.1338151
-999
-999
0.3531229
0.7290979
0.1052855
-999
-999
0.8750567
0.09928586
0.2099305
-999
-999
0.3749975
0.6384657
0.01983885
0.1580107
-999
0.8161578
0.02978752
0.3206288
-999
-999
0.3677775
0.5181435
0.1304865
0.2313069
-999
0.7021196
0.4682422
-999
-999
-999
0.3187773
0.3672682
0.2733275
0.3184265
-999
0.5316702
0.6478941
-999
-999
-999
0.221789
0.1928532
0.4435967
0.4034791
-999
0.3196791
0.8333206
-999
-999
-999
0.08255561
0.008352253
0.6169648
0.4567429
-999
0.09287036
0.07220544
0.9605538
-999
-999
0.7342206
0.4398675
-999
-999
-999
0.1266821
0.9388629
0.08452249
-999
-999
0.7142417
0.3280582
0.1493531
-999
-999
0.1126348
0.7246696
0.3509721
-999
-999
0.5226582
0.1360372
0.461476
0.1014656
-999
0.01484035
0.3859934
0.1447583
0.6404389
-999
0.2239658
0.7889989
0.1920513
-999
-999
0.03915386
0.3193583
0.812849
-999
-999
0.9358147
0.1691276
0.02333809
-999
-999
0.359013
0.6953669
0.1307287
-999
-999
0.7197329
0.01840529
0.4216146
-999
-999
0.2011313
0.3336716
0.2897879
0.4438941
-999
0.2817704
0.8617048
-999
-999
-999
0.5619944
0.6028343
-999
-999
-999
0.9721692
0.1070067
-999
-999
-999
0.5276598
0.4121659
0.1830491
0.1125805
-999
0.5534493
0.6072386
-999
-999
-999
0.1763573
0.02352758
0.6398261
0.357093
-999
0.02051033
0.1566399
0.9438676
-999
-999
0.7761737
0.3031074
0.1159604
-999
-999
0.1291915
0.6262015
0.0201352
0.4094187
-999
0.3503249
0.6946129
0.1415323
-999
-999
0.04113305
0.3412445
0.7905298
-999
-999
0.9223155
0.1212564
0.1227472
-999
-999
0.3080685
0.5026245
0.1491346
0.296691
-999
0.3768424
0.7835673
-999
-999
-999
0.5760978
0.5918056
-999
-999
-999
0.003877181
0.9129287
0.2111866
-999
-999
0.4082792
0.2477548
0.3848861
0.2292616
-999
0.2183355
0.1005379
0.8677067
-999
-999
0.8093158
0.3389135
0.006063341
-999
-999
0.1504916
0.6624961
0.3656686
-999
-999
0.3144859
0.7404484
0.1404044
-999
-999
0.3904151
0.7782278
-999
-999
-999
0.7991771
0.02904721
0.3389948
-999
-999
0.1607806
0.2176597
0.3964402
0.4795293
-999
0.01130978
0.004430004
0.9978031
-999
-999
0.5590494
0.3817694
0.1986681
0.09095526
-999
0.3631816
0.06381688
0.7528728
-999
-999
0.83497
0.3227881
-999
-999
-999
0.1839375
0.6472098
0.01915737
0.3449004
-999
0.2662414
0.8150377
0.1147486
-999
-999
0.4522428
0.6967615
0.0004374972
-999
-999
0.6169283
0.5615373
-999
-999
-999
0.01078874
0.6213121
0.5091025
-999
-999
0.07088143
0.853631
0.2554656
-999
-999
0.3091422
0.03988347
0.6300263
0.2324551
-999
0.2869841
0.857807
-999
-999
-999
0.6157108
0.02472055
0.5034131
-999
-999
0.0176243
0.4740094
0.6597404
-999
-999
0.8411328
0.315125
-999
-999
-999
0.1769465
0.05924132
0.59324
0.3848844
-999
0.1624064
0.8959103
0.1231322
-999
-999
0.4165375
0.02215645
0.6216938
0.1246354
-999
0.3970821
0.7699902
-999
-999
-999
0.6090894
0.5633809
-999
-999
-999
0.6344404
0.5358729
-999
-999
-999
0.03027041
0.6871468
0.4429625
-999
-999
0.07619499
0.8320566
0.2763965
-999
-999
0.2600115
0.6174424
0.05162313
0.2895248
-999
0.1674618
0.932426
0.03959468
-999
-999
0.5077531
0.4304982
0.1734693
0.126174
-999
0.178361
0.1119926
0.8916253
-999
-999
0.717357
0.1932253
0.2857498
-999
-999
0.09962711
0.3705509
0.7136956
-999
-999
0.7986153
0.364253
-999
-999
-999
0.04411862
0.6640787
0.4524333
-999
-999
0.1122791
0.690134
0.3786906
-999
-999
0.07037348
0.9169419
0.1733986
-999
-999
0.4521655
0.0320159
0.6719282
-999
-999
0.8907653
0.2350335
0.01889121
-999
-999
0.1938693
0.3609994
0.2595469
0.4472951
-999
0.01025961
0.996823
0.01240701
-999
-999
0.4217692
0.164238
0.4674016
0.1945516
-999
0.2926099
0.8569357
-999
-999
-999
0.5437098
0.6049491
-999
-999
-999
0.6003788
0.5754329
-999
-999
-999
0.5042443
0.0002285113
0.6332983
-999
-999
0.8581006
0.2750295
0.02136264
-999
-999
0.1041569
0.3330195
0.2492247
0.5505882
-999
0.9587971
0.01595651
0.1285303
-999
-999
0.1987319
0.1084028
0.5355594
0.3905267
-999
0.1351415
0.8483275
0.2104231
-999
-999
0.1932628
0.8113942
0.1971843
-999
-999
0.3160993
0.5846297
0.07594528
0.2489616
-999
0.08754113
0.97867
0.004178173
-999
-999
0.4090343
0.2750878
0.3541716
0.2299616
-999
0.1641263
0.9387218
0.01901826
-999
-999
0.3580563
0.6696297
0.1504638
-999
-999
0.3486744
0.6944767
0.1404181
-999
-999
0.1800284
0.9280285
0.02340484
-999
-999
0.4199343
0.3559594
0.2710591
0.2196229
-999
0.1093392
0.9696293
0.004778224
-999
-999
0.3183393
0.03186547
0.6358633
0.2166157
-999
0.2529228
0.7291591
0.2146589
-999
-999
0.08985911
0.9410757
0.1156314
-999
-999
0.2536569
0.3422202
0.2908357
0.3849491
-999
0.9461218
0.1576521
-999
-999
-999
0.09086813
0.6662527
0.4122562
-999
-999
0.046428
0.5999511
0.0007243658
0.4958661
-999
0.8579431
0.2494149
0.06896742
-999
-999
0.1512393
0.3163234
0.7238895
-999
-999
0.6398782
0.5106012
-999
-999
-999
0.5264916
0.6111429
-999
-999
-999
0.1932413
0.9245963
-999
-999
-999
0.409154
0.2276189
0.4033211
0.2230402
-999
0.1396789
0.8743674
0.1743228
-999
-999
0.05299899
0.8409752
0.2788033
-999
-999
0.05920438
0.3674729
0.1909172
0.5953723
-999
0.779165
0.07606214
0.3277075
-999
-999
0.4772952
0.6950296
-999
-999
-999
0.2501999
0.8879741
-999
-999
-999
0.3532369
0.2938038
0.3426698
0.2840218
-999
0.0458806
0.8786347
0.238019
-999
-999
0.7692407
0.397911
-999
-999
-999
0.256131
0.151729
0.7914695
-999
-999
0.5277617
0.0913787
0.5000126
0.07696197
-999
0.2790345
0.7204298
0.1947769
-999
-999
0.9577078
0.1365196
-999
-999
-999
0.09126524
0.4247474
0.6487207
-999
-999
0.4778962
0.6929061
-999
-999
-999
0.4326924
0.4206999
0.2056361
0.1970399
-999
0.02299768
0.937321
0.1646996
-999
-999
0.7152159
0.4566909
-999
-999
-999
0.2124276
0.1088808
0.8652102
-999
-999
0.3666664
0.07619572
0.5766787
0.2021818
-999
0.1222445
0.6185246
0.0221221
0.4183155
-999
0.7992384
0.1847618
0.2178842
-999
-999
0.3502087
0.7966642
0.006518622
