0.09431696
0.3584778
0.7911071
-999
-999
0.359386
0.06978354
0.63904
0.23548
-999
0.01904685
0.7232094
0.465805
-999
-999
0.5410559
0.6061628
0.02468084
0.05293081
-999
0.06488246
0.9531144
0.1630694
-999
-999
0.2892599
0.2141133
0.7607936
-999
-999
0.4529727
0.2428028
0.4336785
0.2284696
-999
0.8660358
0.3166576
-999
-999
-999
0.4492445
0.7501824
-999
-999
-999
0.1451284
0.8471711
0.262488
-999
-999
0.4250583
0.07127975
0.7360352
-999
-999
0.4221244
0.4019413
0.2798995
0.2634558
-999
0.8911283
0.1043722
0.2375942
-999
-999
0.3036268
0.8756413
-999
-999
-999
0.1289076
0.7155235
0.4008127
-999
-999
0.463533
0.7444723
-999
-999
-999
0.2929106
0.5261165
0.1709491
0.3592485
-999
0.8006378
0.2509037
0.2142138
-999
-999
0.1384445
0.9696981
0.04033625
-999
-999
0.02165748
0.0321209
0.5668443
0.5918477
-999
0.3779333
0.7714424
0.09329945
-999
-999
0.1032589
0.5641952
0.08409191
0.5265809
-999
0.5967259
0.3939455
0.2248563
0.1016888
-999
0.9645591
0.0440054
0.1482871
-999
-999
0.001916099
0.3826859
0.809855
-999
-999
0.1782917
0.7569101
0.3249783
-999
-999
0.4525
0.7474937
-999
-999
-999
0.3047401
0.4581156
0.2328277
0.3690137
-999
0.7685723
0.1922335
0.301895
-999
-999
0.1519616
0.9285173
0.1406379
-999
-999
0.6108526
0.6029689
-999
-999
-999
0.1904579
0.9074914
0.137022
-999
-999
0.3416512
0.1812044
0.7342131
-999
-999
0.3900075
0.2495509
0.4384831
0.2884569
-999
0.7478731
0.4503018
-999
-999
-999
0.3035897
0.7503724
0.2079769
-999
-999
0.7786832
0.3980686
0.04702274
-999
-999
0.05172843
0.02482845
0.9967294
-999
-999
0.1103542
0.4113641
0.7203665
-999
-999
0.2930974
0.006841792
0.7184832
0.2469226
-999
0.5138523
0.6826434
-999
-999
-999
0.3307657
0.4538838
0.2378153
0.3437833
-999
0.74907
0.1715683
0.3372181
-999
-999
0.1380005
0.8889892
0.215671
-999
-999
0.5926844
0.6052132
-999
-999
-999
0.03185423
0.9536857
0.174999
-999
-999
0.1389473
0.2150838
0.889283
-999
-999
0.1466387
0.08513957
0.5888202
0.4730777
-999
0.4152737
0.7639764
0.04250664
-999
-999
0.09243701
0.4848388
0.1409883
0.5766971
-999
0.4883798
0.2961188
0.3691752
0.2045858
-999
0.7901891
0.0004621628
0.4045602
-999
-999
0.3008426
0.7409776
0.2194668
-999
-999
0.7483205
0.3925466
0.1024688
-999
-999
0.00775907
0.9908581
0.01146913
0.08219757
-999
0.4106274
0.7901117
-999
-999
-999
0.06318391
0.8158433
0.3515215
-999
-999
0.2070152
0.03636309
0.9353068
-999
-999
0.05096514
0.1873048
0.3979029
0.650332
-999
0.329834
0.01948257
0.6998488
0.223328
-999
0.4778455
0.007859054
0.7158326
-999
-999
0.2562046
0.3798941
0.2995719
0.4325512
-999
0.5892441
0.116998
0.4995757
0.07161123
-999
0.04477251
0.711335
0.463082
-999
-999
0.4355874
0.5138028
0.1700687
0.2215374
-999
0.796708
0.1665314
0.2978332
-999
-999
0.1421923
0.8640795
0.2443841
-999
-999
0.5663378
0.5734026
0.04588065
0.04896808
-999
0.9227338
0.1719465
0.1295062
-999
-999
0.2088943
0.9233958
0.07523477
-999
-999
0.6421263
0.5690589
-999
-999
-999
0.007114656
0.9688066
0.1470339
0.0006674874
-999
0.02852283
0.2487614
0.909931
-999
-999
0.6736743
0.5255842
-999
-999
-999
0.1179394
0.9603301
0.1071474
-999
-999
0.1177256
0.2710069
0.857753
-999
-999
0.07942432
0.6798964
0.4670414
-999
-999
0.2083592
0.927792
0.06395262
-999
-999
0.1819163
0.2859165
0.7957997
-999
-999
0.1521064
0.01867022
0.6790022
0.4096235
-999
0.2718395
0.894694
0.02440433
-999
-999
0.2175471
0.30227
0.7419098
-999
-999
0.2012153
0.02775819
0.6844412
0.3617967
-999
0.30444
0.8750709
-999
-999
-999
0.01604402
0.2237018
0.3263295
0.7042583
-999
0.2237116
0.01603724
0.704277
0.3263179
-999
0.3044398
0.8750703
-999
-999
-999
0.02776496
0.2012105
0.3618085
0.6844312
-999
0.2175517
0.7419187
0.3022584
-999
-999
0.2718391
0.02441417
0.8946924
-999
-999
0.01867671
0.1521016
0.4096353
0.6789914
-999
0.1819203
0.795808
0.2859046
-999
-999
0.2083585
0.06396291
0.9277893
-999
-999
0.07941997
0.4670537
0.6798847
-999
-999
0.117729
0.8577613
0.2709949
-999
-999
0.1179388
0.1071582
0.9603263
-999
-999
0.5255968
0.6736621
-999
-999
-999
0.02852564
0.9099386
0.2487614
-999
-999
0.007114011
0.1470452
0.9688066
0.0006656306
-999
0.5690589
0.6421016
-999
-999
-999
0.9234098
0.2088827
0.07523759
-999
-999
0.1719693
0.9227283
0.1295022
-999
-999
0.573415
0.5663203
0.04897508
0.04588361
-999
0.8640882
0.1421817
0.2443833
-999
-999
0.166548
0.7967026
0.2978269
-999
-999
0.5138138
0.4355771
0.2215463
0.1700607
-999
0.7113395
0.04476343
0.4630833
-999
-999
0.117008
0.5892397
0.07161929
0.4995695
-999
0.379903
0.2561926
0.4325587
0.2995617
-999
0.4778502
0.7158336
0.007849528
-999
-999
0.01949485
0.3298292
0.2233382
0.6998402
-999
0.1873145
0.05095952
0.6503415
0.3978907
-999
0.2070172
0.9353074
0.03635279
-999
-999
0.0631796
0.3515335
0.815833
-999
-999
0.7901223
0.4106083
-999
-999
-999
0.01147921
0.9908585
0.007749223
0.08219611
-999
0.3925655
0.7483107
0.1024633
-999
-999
0.7409874
0.3008317
0.2194696
-999
-999
0.0004718675
0.7901891
0.404556
-999
-999
0.2961297
0.4883727
0.2045968
0.369162
-999
0.4848459
0.0924293
0.5767035
0.1409986
-999
0.4152738
0.04251989
0.763981
-999
-999
0.0851472
0.1466407
0.473067
0.5888082
-999
0.1389451
0.8892891
0.2150661
-999
-999
0.03185451
0.1750102
0.953677
-999
-999
0.6052322
0.5926666
-999
-999
-999
0.8889983
0.1379852
0.2156709
-999
-999
0.1715852
0.7490633
0.3372124
-999
-999
0.4538997
0.3307534
0.343789
0.2378054
-999
0.5138586
0.6826432
-999
-999
-999
0.006854414
0.2930985
0.2469325
0.7184927
-999
0.1103511
0.720357
0.4113514
-999
-999
0.05172732
0.9967296
0.02481843
-999
-999
0.3980812
0.7786735
0.04701427
-999
-999
0.7503827
0.3035949
0.2079796
-999
-999
0.7478727
0.4503038
-999
-999
-999
0.2495458
0.390002
0.2884532
0.4384675
-999
0.3416577
0.7342194
0.181193
-999
-999
0.1904579
0.1370372
0.9074852
-999
-999
0.6029811
0.6108588
-999
-999
-999
0.9285141
0.1519512
0.1406365
-999
-999
0.1922278
0.768568
0.3018982
-999
-999
0.4581263
0.3047327
0.3690113
0.232812
-999
0.4525043
0.7474917
-999
-999
-999
0.1782904
0.3249942
0.7568995
-999
-999
0.001921684
0.8098648
0.3826735
-999
-999
0.04401556
0.9645589
0.1482818
-999
-999
0.3939579
0.5967181
0.1016957
0.2248436
-999
0.5642035
0.1032517
0.5265836
0.08407662
-999
0.3779341
0.09331235
0.7714319
-999
-999
0.03212829
0.02165367
0.5918636
0.5668252
-999
0.9697053
0.1384286
0.04033453
-999
-999
0.2509217
0.8006296
0.2142038
-999
-999
0.5261332
0.2928991
0.3592537
0.1709337
-999
0.4635389
0.7444674
-999
-999
-999
0.1289063
0.4008285
0.7155117
-999
-999
0.8756499
0.3036092
-999
-999
-999
0.1043831
0.8911262
0.2375862
-999
-999
0.4019591
0.4221145
0.2634629
0.279884
-999
0.4250681
0.7360357
0.07126394
-999
-999
0.1451289
0.2625036
0.8471569
-999
-999
0.7501993
0.449227
-999
-999
-999
0.8660404
0.3166513
-999
-999
-999
0.2428198
0.4529667
0.2284787
0.4336625
-999
0.2892713
0.7607993
0.2140987
-999
-999
0.0648845
0.1630849
0.9531071
-999
-999
0.6061787
0.5410457
0.05293251
0.02467277
-999
0.7232159
0.01905224
0.4658023
-999
-999
0.06979348
0.3593867
0.2354878
0.6390238
-999
0.0943116
0.7911187
0.3584654
-999
-999
0.04897974
0.9753923
0.1188534
-999
-999
0.2561207
0.2711543
0.7310114
-999
-999
0.4931192
0.1871103
0.4757493
0.1758155
-999
0.03999855
0.8653772
0.3024992
-999
-999
0.5452563
0.6634623
-999
-999
-999
0.1946106
0.8889727
0.1597239
-999
-999
0.03537009
0.4334294
0.1439313
0.6511508
-999
0.5541049
0.3301312
0.3075716
0.1451157
-999
0.9503435
0.002921615
0.1837782
-999
-999
0.4474999
0.7509412
-999
-999
-999
0.2573725
0.7806388
0.2253223
-999
-999
0.0007286078
0.5428073
0.03251246
0.6206599
-999
0.5046605
0.458683
0.1995342
0.1700298
-999
0.9508877
0.1049472
0.1375162
-999
-999
0.043343
0.3213399
0.849094
-999
-999
0.2214007
0.02826811
0.6861454
0.3388416
-999
0.5580688
0.6518125
-999
-999
-999
0.3714956
0.5600671
0.1367965
0.2634071
-999
0.8695017
0.2284486
0.1500162
-999
-999
0.02498751
0.1818453
0.9500874
-999
-999
0.09607884
0.058465
0.5917695
0.5137812
-999
0.4559549
0.7284638
0.02444981
-999
-999
0.1804179
0.5878517
0.09585766
0.4389864
-999
0.6858166
0.3530479
0.2060807
0.02536944
-999
0.02646665
0.9843423
0.1012384
-999
-999
0.01319397
0.4580711
0.7318848
-999
-999
0.2411982
0.790259
0.2322742
-999
-999
0.4755542
0.04583516
0.6936345
-999
-999
0.3983532
0.4096837
0.2735191
0.28288
-999
0.8336684
0.1126918
0.2987802
-999
-999
0.2517975
0.8803713
0.1007618
-999
-999
0.7185971
0.4866773
-999
-999
-999
0.2123875
0.9310642
0.03519081
-999
-999
0.0608944
0.3015381
0.2828814
0.6529356
-999
0.4656961
0.1577858
0.5154256
0.1883573
-999
0.7467808
0.4528193
-999
-999
-999
0.4307797
0.6352207
0.05202412
0.1586071
-999
0.8831322
0.2534914
0.09235688
-999
-999
0.02730782
0.1524594
0.9644521
-999
-999
0.02664029
0.03255488
0.5697609
0.5838066
-999
0.3120964
0.8198817
0.1154807
-999
-999
0.02634201
0.4402232
0.1314255
0.6569804
-999
0.4327329
0.30017
0.3767344
0.2537487
-999
0.776019
0.01516795
0.4128153
-999
-999
0.2909069
0.7599705
0.2095911
-999
-999
0.7587683
0.4045992
0.06592719
-999
-999
0.01396869
0.9996762
0.007075536
0.02257022
-999
0.03776503
0.4182845
0.7610895
-999
-999
0.1731841
0.78837
0.2978594
-999
-999
0.3501898
0.03413839
0.8274161
-999
-999
0.195963
0.3085767
0.3512414
0.4969787
-999
0.5461757
0.08478644
0.5505658
0.08659559
-999
0.05553993
0.6932575
0.4697262
-999
-999
0.4770154
0.5004605
0.1683247
0.182916
-999
0.8590145
0.1450368
0.2454882
-999
-999
0.2095019
0.8905011
0.1396813
-999
-999
0.6619725
0.540557
-999
-999
-999
0.02362403
0.9803233
0.1143077
-999
-999
0.07227927
0.2859373
0.866957
-999
-999
0.09282972
0.6937815
0.4435219
-999
-999
0.2751612
0.8906178
0.02519824
-999
-999
0.03125978
0.2806215
0.2797527
0.6881642
-999
0.333561
0.1059241
0.5990978
0.2822759
-999
0.5240518
0.6870232
-999
-999
-999
0.2103548
0.4540439
0.2173048
0.4644048
-999
0.5626903
0.1849407
0.4477594
0.1173634
-999
0.730916
0.4675661
-999
-999
-999
0.3712402
0.5650982
0.1321664
0.2612661
-999
0.7500854
0.2151439
0.2942821
-999
-999
0.08528212
0.8660181
0.2792838
-999
-999
0.500945
0.6072286
0.04821681
0.09901794
-999
0.8780637
0.2051939
0.1639916
-999
-999
0.1628118
0.924637
0.1331467
-999
-999
0.5960911
0.5945219
-999
-999
-999
0.9485576
0.1699288
0.0634995
-999
-999
0.2251107
0.9244721
0.02602885
-999
-999
0.6628084
0.5492938
-999
-999
-999
0.01793722
0.977486
0.1231189
-999
-999
0.01415169
0.2775571
0.8907858
-999
-999
0.7119541
0.4909531
-999
-999
-999
0.07459196
0.9841517
0.07414834
-999
-999
0.04429231
0.3263199
0.844456
-999
-999
0.02349309
0.7543504
0.4316294
-999
-999
0.1041275
0.9835824
0.02784471
-999
-999
0.04714525
0.3766514
0.7976454
-999
-999
0.04715228
0.797666
0.3766389
-999
-999
0.1041274
0.02786492
0.9835816
-999
-999
0.02348942
0.4316421
0.7543393
-999
-999
0.04429549
0.8444654
0.3262953
-999
-999
0.07459144
0.07415891
0.9841467
-999
-999
0.4909786
0.7119423
-999
-999
-999
0.01415436
0.8907941
0.2775329
-999
-999
0.01793651
0.1231299
0.9774777
-999
-999
0.5493193
0.6627961
-999
-999
-999
0.9244792
0.2250991
0.02603046
-999
-999
0.1699402
0.948552
0.06349731
-999
-999
0.5945344
0.5961033
-999
-999
-999
0.9246312
0.1628006
0.133148
-999
-999
0.2051824
0.8780574
0.1639884
-999
-999
0.6072403
0.5009217
0.09902263
0.04821047
-999
0.8660264
0.08526698
0.2792847
-999
-999
0.2151663
0.7500755
0.2942774
-999
-999
0.5651138
0.3712454
0.2612717
0.1321664
-999
0.7309147
0.4675661
-999
-999
-999
0.1849356
0.5626813
0.1173634
0.4477628
-999
0.4540563
0.2103463
0.4644015
0.21729
-999
0.5240532
0.6870218
-999
-999
-999
0.1059326
0.3335562
0.2822908
0.599079
-999
0.2806275
0.03125341
0.6881794
0.2797297
-999
0.2751618
0.02521722
0.890613
-999
-999
0.09282623
0.4435456
0.6937642
-999
-999
0.07228326
0.8669692
0.2859253
-999
-999
0.02362425
0.1143239
0.9803193
-999
-999
0.5405697
0.6619606
-999
-999
-999
0.8905085
0.2094908
0.1396829
-999
-999
0.1450479
0.8590103
0.2454843
-999
-999
0.5004721
0.4770056
0.1829214
0.1683166
-999
0.6932628
0.05552694
0.4697272
-999
-999
0.08479617
0.5461707
0.08660369
0.5505589
-999
0.3085895
0.195953
0.4969866
0.351247
-999
0.3501946
0.8274157
0.03412332
-999
-999
0.1731861
0.2978538
0.7883554
-999
-999
0.03775978
0.7611048
0.4182654
-999
-999
0.007090259
0.9996765
0.01395392
0.02256767
-999
0.4046182
0.7587535
0.06592719
-999
-999
0.7599853
0.2908908
0.2095911
-999
-999
0.01518269
0.7760188
0.4128117
-999
-999
0.3001861
0.4327262
0.2537559
0.3767248
-999
0.4402297
0.0263352
0.656984
0.1314096
-999
0.3120964
0.1154902
0.8198722
-999
-999
0.0325616
0.0266437
0.5838233
0.5697483
-999
0.02730446
0.9644569
0.1524427
-999
-999
0.2535034
0.8831218
0.09235219
-999
-999
0.6352385
0.430764
0.1586104
0.05202811
-999
0.7467865
0.4528202
-999
-999
-999
0.1578012
0.4656981
0.1883534
0.5154163
-999
0.3015343
0.060886
0.652942
0.2828696
-999
0.2123906
0.03520018
0.931061
-999
-999
0.4866897
0.7185796
-999
-999
-999
0.880384
0.2517809
0.100762
-999
-999
0.1127082
0.833665
0.2987725
-999
-999
0.4097007
0.3983569
0.2828882
0.2735191
-999
0.4755514
0.6936345
0.04582003
-999
-999
0.2411973
0.2322742
0.7902451
-999
-999
0.01320316
0.7319003
0.4580711
-999
-999
0.9843423
0.02645247
0.1012358
-999
-999
0.3530479
0.6858054
0.02537389
0.2060693
-999
0.5878659
0.1804061
0.4389898
0.0958477
-999
0.4559573
0.02446154
0.728458
-999
-999
0.05847694
0.09607477
0.5137913
0.5917569
-999
0.02499402
0.9500929
0.1818342
-999
-999
0.2284604
0.8694962
0.1500047
-999
-999
0.5600787
0.3714829
0.2634134
0.1367822
-999
0.5580755
0.6518084
-999
-999
-999
0.02828121
0.2213983
0.338856
0.6861567
-999
0.04335171
0.8490858
0.3213279
-999
-999
0.1049365
0.9508855
0.1375117
-999
-999
0.4586955
0.5046489
0.1700335
0.1995249
-999
0.5428178
0.0007191634
0.6206595
0.03249744
-999
0.2573727
0.2253316
0.7806244
-999
-999
0.7509564
0.4474875
-999
-999
-999
0.002936217
0.9503454
0.1837801
-999
-999
0.3301433
0.5540963
0.1451133
0.307562
-999
0.4334418
0.03536185
0.6511528
0.1439202
-999
0.1946132
0.1597335
0.8889652
-999
-999
0.663474
0.5452446
-999
-999
-999
0.8653824
0.0399903
0.3025017
-999
-999
0.1871213
0.4931164
0.1758109
0.4757493
-999
0.2561288
0.7310114
0.2711663
-999
-999
0.04898365
0.1188534
0.9753967
-999
-999
0.5701649
0.6354221
-999
-999
-999
0.1973846
0.9051415
0.1261684
-999
-999
0.07017317
0.4218908
0.1772111
0.617991
-999
0.6100243
0.2885055
0.3184741
0.09449846
-999
0.05107259
0.9594182
0.1523288
-999
-999
0.5236937
0.6679999
-999
-999
-999
0.3310188
0.7886314
0.1286495
-999
-999
0.09961804
0.5691258
0.07579177
0.5216684
-999
0.642139
0.3922216
0.192671
0.05489046
-999
0.007122771
0.9939182
0.008367297
0.06599564
-999
0.08050684
0.4361161
0.7105388
-999
-999
0.3741775
0.005118902
0.6997312
0.1685697
-999
0.06053259
0.6477181
0.5004328
-999
-999
0.5843589
0.4878005
0.1270348
0.07714435
-999
0.9856251
0.08575081
0.04863274
-999
-999
0.1129132
0.3392661
0.7923998
-999
-999
0.319357
0.05947812
0.6510406
0.2630348
-999
0.6420719
0.5565999
-999
-999
-999
0.4566195
0.5677077
0.1070439
0.1700374
-999
0.9277728
0.1871304
0.09162736
-999
-999
0.07378388
0.2325262
0.9053053
-999
-999
0.1767876
0.07062714
0.6169814
0.4230659
-999
0.5275053
0.6789101
-999
-999
-999
0.2690565
0.5874912
0.1123319
0.3499173
-999
0.7756544
0.2928555
0.1887096
-999
-999
0.1007123
0.9798933
0.0550282
-999
-999
0.01128986
0.5428338
0.6347721
-999
-999
0.3000293
0.8148773
0.1349773
-999
-999
0.03871787
0.477266
0.1096359
0.6258135
-999
0.4982499
0.33977
0.3168142
0.1925999
-999
0.8780118
0.02485071
0.2894556
-999
-999
0.3687776
0.7986627
0.05530887
-999
-999
0.008108401
0.8259233
0.3585236
-999
-999
0.2170951
0.05169012
0.922999
-999
-999
0.1413341
0.2387736
0.3987764
0.5482959
-999
0.5265633
0.05583611
0.5844643
0.08282842
-999
0.09219072
0.7038618
0.4330071
-999
-999
0.5651713
0.4924589
0.1336315
0.09485856
-999
0.9520763
0.1075868
0.1299923
-999
-999
0.3050369
0.8722841
-999
-999
-999
0.06969681
0.7341907
0.4228102
-999
-999
0.2988442
0.8770728
-999
-999
-999
0.1211205
0.3302991
0.2928276
0.5795858
-999
0.5094483
0.1379054
0.5160012
0.1413201
-999
0.01423861
0.7324027
0.45469
-999
-999
0.4536313
0.5753846
0.1004913
0.1689049
-999
0.880976
0.1994395
0.1628138
-999
-999
0.1899232
0.9388745
0.05358939
-999
-999
0.6412257
0.5649162
-999
-999
-999
0.15854
0.9366055
0.1109607
-999
-999
0.2337517
0.2424607
0.7846133
-999
-999
0.2696804
0.1157772
0.5839084
0.3512316
-999
0.5200084
0.6872131
-999
-999
-999
0.2015242
0.5050472
0.1685435
0.4540614
-999
0.6071048
0.2404766
0.3675386
0.09246016
-999
0.007602139
0.8296444
0.3541043
-999
-999
0.4304572
0.6550335
0.02939421
0.1408707
-999
0.8577904
0.2591078
0.1260829
-999
-999
0.1310258
0.9643264
0.07108801
-999
-999
0.5735679
0.6378047
-999
-999
-999
0.0720883
0.9348686
0.1878438
-999
-999
0.1403586
0.198491
0.8964314
-999
-999
0.09926881
0.05043603
0.6030688
0.5012696
-999
0.3053126
0.8486283
0.07245827
-999
-999
0.006706409
0.3297112
0.2097648
0.70932
-999
0.3160612
0.1536478
0.5426519
0.3239232
-999
0.5275524
0.6790883
-999
-999
-999
0.1693305
0.4768794
0.1817363
0.497129
-999
0.5220469
0.2097542
0.4389658
0.156416
-999
0.70816
0.4978209
-999
-999
-999
0.3216722
0.5628029
0.1355776
0.3093219
-999
0.6965945
0.2197453
0.329686
0.01756393
-999
0.05131532
0.8269372
0.340457
-999
-999
0.455632
0.5872419
0.08803981
0.1599748
-999
0.8275682
0.194756
0.2350973
-999
-999
0.1411462
0.8819016
0.2171611
-999
-999
0.568263
0.5643474
0.04937178
0.0475955
-999
0.9141905
0.1488063
0.1630544
-999
-999
0.2234171
0.8856224
0.1271752
-999
-999
0.6613563
0.5125124
0.02512518
-999
-999
0.9638715
0.09327083
0.1153868
-999
-999
0.3005261
0.8550794
0.06659337
-999
-999
0.7389194
0.4464383
0.01838485
-999
-999
0.9857856
0.03520751
0.09180091
-999
-999
0.3747271
0.8038183
0.03139333
-999
-999
0.8038388
0.3747146
0.03139993
-999
-999
0.03522777
0.9857846
0.09180047
-999
-999
0.4464509
0.7389081
0.01837694
-999
-999
0.8550884
0.3005141
0.06659894
-999
-999
0.09328146
0.9638682
0.1153856
-999
-999
0.5125248
0.6613563
0.02512045
-999
-999
0.8856224
0.2234171
0.1271775
-999
-999
0.1488063
0.9141905
0.1630544
-999
-999
0.5643474
0.5682513
0.0475955
0.04937743
-999
0.881907
0.1411356
0.2171594
-999
-999
0.1947671
0.8275619
0.2350938
-999
-999
0.587253
0.4556208
0.1599801
0.08803291
-999
0.8269406
0.05130571
0.3404579
-999
-999
0.2197562
0.6965877
0.01757084
0.3296808
-999
0.5628125
0.3216622
0.3093276
0.1355612
-999
0.7081617
0.4978204
-999
-999
-999
0.2097642
0.5220404
0.1564325
0.4389548
-999
0.476887
0.1693305
0.4971381
0.1817217
-999
0.5275524
0.6790854
-999
-999
-999
0.1536478
0.316064
0.3239378
0.5426373
-999
0.3297086
0.006696315
0.7093295
0.2097648
-999
0.3053118
0.07247281
0.8486283
-999
-999
0.05044597
0.09925994
0.5012696
0.603051
-999
0.1403655
0.8964403
0.1984795
-999
-999
0.07208677
0.1878606
0.9348622
-999
-999
0.637817
0.5735742
-999
-999
-999
0.9643242
0.131015
0.07108811
-999
-999
0.2591018
0.8577831
0.126085
-999
-999
0.6550449
0.4304404
0.1408687
0.02938354
-999
0.8296484
0.007593209
0.3541031
-999
-999
0.2404931
0.6070984
0.09247055
0.3675315
-999
0.5050558
0.2015158
0.4540666
0.1685338
-999
0.5200095
0.6872105
-999
-999
-999
0.1157857
0.2696758
0.3512415
0.5838978
-999
0.2337571
0.7846198
0.242449
-999
-999
0.1585398
0.1109709
0.9366007
-999
-999
0.5649285
0.6412134
-999
-999
-999
0.9388809
0.1899066
0.05358956
-999
-999
0.199451
0.8809676
0.1628074
-999
-999
0.5754021
0.4536313
0.1689111
0.1004795
-999
0.7324027
0.01423033
0.4546892
-999
-999
0.1379054
0.5094442
0.1413318
0.5159931
-999
0.3303071
0.1211141
0.5795926
0.2928162
-999
0.2988464
0.8770707
-999
-999
-999
0.06969356
0.4228218
0.7341737
-999
-999
0.872297
0.305025
-999
-999
-999
0.1076029
0.9520737
0.1299872
-999
-999
0.4924712
0.5651617
0.09486494
0.13362
-999
0.7038686
0.09219506
0.433008
-999
-999
0.05584573
0.5265643
0.08283997
0.5844569
-999
0.2387694
0.1413289
0.548304
0.3987584
-999
0.2170985
0.9229998
0.05167986
-999
-999
0.008107593
0.3585414
0.8259132
-999
-999
0.7986732
0.3687661
0.05531052
-999
-999
0.02486072
0.8780122
0.289452
-999
-999
0.3397816
0.4982398
0.1926057
0.3168003
-999
0.4772768
0.03871787
0.6258171
0.1096254
-999
0.3000293
0.1349911
0.8148699
-999
-999
0.01128986
0.6347829
0.5428149
-999
-999
0.9798989
0.1007022
0.05502649
-999
-999
0.2928737
0.7756477
0.1886997
-999
-999
0.5875016
0.269044
0.3499216
0.1123175
-999
0.5275092
0.6789038
-999
-999
-999
0.07063996
0.176785
0.4230803
0.6169695
-999
0.07378899
0.9053115
0.2325146
-999
-999
0.1871417
0.9277678
0.09162009
-999
-999
0.5677198
0.4566011
0.1700419
0.1070308
-999
0.6420825
0.5565968
-999
-999
-999
0.05949661
0.3193544
0.2630477
0.6510459
-999
0.112923
0.792396
0.3392476
-999
-999
0.08574566
0.9856218
0.04862895
-999
-999
0.4878194
0.5843502
0.07714751
0.1270225
-999
0.6477256
0.06052535
0.5004321
-999
-999
0.005128056
0.3741772
0.1685821
0.6997358
-999
0.08051404
0.7105343
0.4360972
-999
-999
0.008362557
0.9939191
0.007127285
0.06599227
-999
0.3922403
0.6421427
0.05489417
0.1926626
-999
0.5691214
0.09961125
0.5216691
0.07579686
-999
0.3310201
0.1286578
0.7886355
-999
-999
0.6679947
0.5236751
-999
-999
-999
0.9594235
0.05107938
0.1523249
-999
-999
0.2885234
0.610028
0.09450426
0.3184626
-999
0.4218841
0.07017317
0.6179942
0.1771999
-999
0.1973846
0.1261799
0.9051349
-999
-999
0.635434
0.5701479
-999
-999
-999
0.05204107
0.9577878
0.1531684
-999
-999
0.5355988
0.6520207
-999
-999
-999
0.3543601
0.7827409
0.1009309
-999
-999
0.1391653
0.5795582
0.08457877
0.4770855
-999
0.7020201
0.3629417
0.1759795
0.00323587
-999
0.05395615
0.9956786
0.02004858
-999
-999
0.03538144
0.1021054
0.4826016
0.6237091
-999
0.4705524
0.6683509
0.07605062
-999
-999
0.1626471
0.6858551
0.01197169
0.3869898
-999
0.7142068
0.4230094
0.09034531
-999
-999
0.05459516
0.02017848
0.9956465
-999
-999
0.05050414
0.1660547
0.4176863
0.6370559
-999
0.4935098
0.04294831
0.6111433
0.098609
-999
0.1249574
0.7324472
0.3817272
-999
-999
0.6603179
0.4868602
0.06190205
-999
-999
0.04587856
0.9938915
0.04907378
-999
-999
0.1741706
0.3577942
0.7113845
-999
-999
0.4218117
0.07434715
0.6110227
0.1786657
-999
0.03896677
0.7095682
0.4609121
-999
-999
0.5481563
0.5474585
0.08081921
0.08039933
-999
0.9710822
0.1299768
0.03774334
-999
-999
0.113185
0.2909159
0.8363883
-999
-999
0.262717
0.06652276
0.6402059
0.3237052
-999
0.5866259
0.6212846
-999
-999
-999
0.3697309
0.5601583
0.1324082
0.2595823
-999
0.8600901
0.2164925
0.1706894
-999
-999
0.1893209
0.9456206
0.008312781
-999
-999
0.04159603
0.6342866
0.5215881
-999
-999
0.3491624
0.8237216
0.03589452
-999
-999
0.1304747
0.4531288
0.183639
0.5426894
-999
0.5984629
0.2512854
0.3588211
0.0992642
-999
0.03080763
0.8895277
0.2703671
-999
-999
0.5018829
0.684553
0.003254587
-999
-999
0.04179846
0.919588
0.2239299
-999
-999
0.1999571
0.1705756
0.8736115
-999
-999
0.2214236
0.1557627
0.5245585
0.4235657
-999
0.5599693
0.6334158
-999
-999
-999
0.213423
0.6159478
0.07876879
0.3859611
-999
0.6931353
0.3324511
0.2163885
0.01810579
-999
0.03177797
0.9616442
0.1528958
-999
-999
0.4806299
0.7240505
-999
-999
-999
0.09394532
0.8814729
0.2502308
-999
-999
0.2485576
0.1250451
0.8655221
-999
-999
0.2087478
0.194451
0.4756036
0.454386
-999
0.5391763
0.6329116
0.01555342
-999
-999
0.1500892
0.6152279
0.06126737
0.4458628
-999
0.6036961
0.3620605
0.2450039
0.09408216
-999
0.9146905
0.006444499
0.2402306
-999
-999
0.3948947
0.7719613
0.05244197
-999
-999
0.8475596
0.3359544
-999
-999
-999
0.09865443
0.08187481
0.9732358
-999
-999
0.01963612
0.08426731
0.4906635
0.6331837
-999
0.2888627
0.7970632
0.1673424
-999
-999
0.405373
0.1036363
0.7239754
-999
-999
0.3248878
0.2711786
0.4112117
0.3504241
-999
0.6367573
0.54518
-999
-999
-999
0.1871086
0.6536199
0.04309961
0.387375
-999
0.622932
0.3603003
0.2355984
0.07709425
-999
0.9017486
0.2606104
-999
-999
-999
0.382941
0.7529615
0.09934495
-999
-999
0.8313389
0.3347929
0.04813619
-999
-999
0.07765546
0.9903584
0.02396072
-999
-999
0.5111931
0.6908727
-999
-999
-999
0.09445107
0.8956569
0.2311932
-999
-999
0.1723345
0.150126
0.9063243
-999
-999
0.09195333
0.0805696
0.5563108
0.5333954
-999
0.3042606
0.8327838
0.09942658
-999
-999
0.3341127
0.1841065
0.7299751
-999
-999
0.2880243
0.1577395
0.5342828
0.3527741
-999
0.4971335
0.7026639
-999
-999
-999
0.1369886
0.4496124
0.1897782
0.5370469
-999
0.4744488
0.1882533
0.4758514
0.188916
-999
0.6490712
0.5587876
-999
-999
-999
0.2847946
0.5069665
0.180989
0.3663453
-999
0.6353379
0.1773285
0.4082886
0.05458532
-999
0.03478014
0.7451984
0.4303237
-999
-999
0.4214548
0.5094842
0.170102
0.2291607
-999
0.7595137
0.1368325
0.3488013
-999
-999
0.1350769
0.783656
0.3279822
-999
-999
0.5422985
0.4701785
0.1662932
0.1245311
-999
0.8421408
0.0790478
0.3062233
-999
-999
0.2312588
0.7724203
0.2531382
-999
-999
0.6439496
0.4038578
0.1758988
0.04759278
-999
0.8829327
0.01307205
0.2842672
-999
-999
0.3219455
0.722688
0.2035647
-999
-999
0.7227064
0.3219341
0.2035737
-999
-999
0.01309113
0.8829314
0.2842665
-999
-999
0.4038694
0.6439291
0.04759905
0.1758933
-999
0.7724357
0.2312479
0.2531418
-999
-999
0.07906788
0.8421373
0.3062213
-999
-999
0.4701898
0.5422879
0.1245374
0.1662805
-999
0.7836616
0.1350769
0.3279874
-999
-999
0.1368427
0.7595137
0.3487977
-999
-999
0.5094842
0.4214651
0.229167
0.170102
-999
0.745195
0.03477101
0.4303237
-999
-999
0.1773183
0.6353317
0.05458532
0.4082831
-999
0.5069753
0.2847851
0.3663517
0.1809803
-999
0.6490725
0.5587875
-999
-999
-999
0.1882627
0.4744425
0.1889246
0.4758361
-999
0.4496194
0.1369722
0.5370595
0.1897683
-999
0.4971329
0.7026618
-999
-999
-999
0.1577559
0.2880155
0.3527839
0.5342877
-999
0.3341199
0.7299721
0.1840903
-999
-999
0.3042589
0.09942162
0.8327764
-999
-999
0.08057925
0.09194601
0.5334121
0.5562989
-999
0.172339
0.9063291
0.1501096
-999
-999
0.09445107
0.2312045
0.8956455
-999
-999
0.6908901
0.5111741
-999
-999
-999
0.9903624
0.07764503
0.02396045
-999
-999
0.3348113
0.8313298
0.04813002
-999
-999
0.7529721
0.3829293
0.0993493
-999
-999
0.901749
0.260612
-999
-999
-999
0.360312
0.6229363
0.0770883
0.2355883
-999
0.6536158
0.1870946
0.38738
0.04309108
-999
0.6367556
0.545176
-999
-999
-999
0.2711927
0.3248811
0.3504323
0.4111966
-999
0.4053779
0.7239804
0.1036209
-999
-999
0.2888613
0.1673574
0.7970524
-999
-999
0.08427357
0.01963177
0.6331996
0.4906511
-999
0.09865688
0.9732381
0.08185913
-999
-999
0.3359665
0.8475455
-999
-999
-999
0.7719776
0.3948829
0.05244408
-999
-999
0.006459205
0.9146911
0.2402328
-999
-999
0.3620722
0.6036839
0.09407655
0.2449928
-999
0.6152398
0.1500764
0.4458672
0.06125364
-999
0.5391753
0.01556517
0.6329037
-999
-999
0.1944638
0.2087426
0.4543994
0.4755921
-999
0.2485619
0.8655252
0.1250344
-999
-999
0.09394461
0.2502419
0.8814647
-999
-999
0.7240619
0.4806113
-999
-999
-999
0.9616475
0.03176375
0.1528932
-999
-999
0.3324691
0.6931238
0.01811332
0.2163817
-999
0.6159617
0.2134099
0.3859642
0.07875504
-999
0.5599704
0.633409
-999
-999
-999
0.1557759
0.2214192
0.4235793
0.5245411
-999
0.1999619
0.8736179
0.1705587
-999
-999
0.0417987
0.2239466
0.9195768
-999
-999
0.6845709
0.5018654
0.003256614
-999
-999
0.8895332
0.03079867
0.270369
-999
-999
0.2513023
0.5984575
0.09925818
0.3588129
-999
0.4531374
0.1304645
0.5426935
0.1836284
-999
0.349165
0.03590311
0.8237169
-999
-999
0.04159367
0.5215992
0.6342743
-999
-999
0.9456268
0.18931
0.008311974
-999
-999
0.2165041
0.8600848
0.1706839
-999
-999
0.5601697
0.369718
0.2595858
0.1323944
-999
0.5866319
0.6212807
-999
-999
-999
0.06653602
0.2627134
0.3237188
0.6401894
-999
0.1131938
0.8363988
0.2908981
-999
-999
0.1299926
0.9710765
0.03773941
-999
-999
0.5474772
0.5481418
0.08040225
0.08081126
-999
0.7095776
0.03895539
0.4609109
-999
-999
0.07436164
0.4218091
0.1786734
0.6110085
-999
0.1741817
0.7113956
0.3577758
-999
-999
0.04587723
0.04908819
0.9938887
-999
-999
0.486879
0.6603083
0.06189117
-999
-999
0.7324554
0.1249451
0.3817264
-999
-999
0.04295811
0.493509
0.09861978
0.6111348
-999
0.1660669
0.0505059
0.6370638
0.4176676
-999
0.05459351
0.9956464
0.020169
-999
-999
0.4230281
0.7141982
0.09034894
-999
-999
0.6858643
0.1626392
0.3869897
0.01196247
-999
0.4705532
0.07604703
0.668343
-999
-999
0.1021134
0.03538281
0.6237179
0.4825826
-999
0.9956812
0.05394421
0.02004572
-999
-999
0.3629603
0.7020115
0.003239229
0.1759656
-999
0.57957
0.1391568
0.4770872
0.08458382
-999
0.3543624
0.1009449
0.7827448
-999
-999
0.6520155
0.5356111
-999
-999
-999
0.9577841
0.05203216
0.1531633
-999
-999
0.6893003
0.3837039
0.160104
0.007063983
-999
0.008187559
0.04509716
0.9972149
0.003683736
-999
0.0550883
0.1230098
0.4720365
0.6081356
-999
0.5135802
0.633668
0.04964635
-999
-999
0.200651
0.7140141
0.3287821
-999
-999
0.7633399
0.4017027
0.05101652
-999
-999
0.1154858
0.0504548
0.9741636
-999
-999
0.1362344
0.2065453
0.4284194
0.5416329
-999
0.6080889
0.03785159
0.5410969
0.009154177
-999
0.2244252
0.7729518
0.2564434
-999
-999
0.7680408
0.4201198
0.0002457375
-999
-999
0.1577065
0.03281366
0.9586579
-999
-999
0.1447722
0.2413824
0.3941655
0.5404388
-999
0.6121732
0.0628265
0.5195148
0.02135612
-999
0.1950153
0.7896658
0.2683624
-999
-999
0.7308741
0.4563027
0.003353946
-999
-999
0.1263407
0.002179914
0.9750913
-999
-999
0.08226176
0.2224625
0.376727
0.6122751
-999
0.5262628
0.07102449
0.5660712
0.09012405
-999
0.1181696
0.7538317
0.3658365
-999
-999
0.6448088
0.4998089
0.0570042
-999
-999
0.0237525
0.993847
0.06069455
-999
-999
0.1393316
0.3568574
0.7453966
-999
-999
0.3514118
0.04523039
0.6580095
0.2193776
-999
0.6261227
0.5541383
-999
-999
-999
0.4818253
0.5049798
0.1544298
0.1683504
-999
0.9298515
0.1280339
0.1498324
-999
-999
0.2937428
0.877819
-999
-999
-999
0.1086387
0.72695
0.396655
-999
-999
0.3814431
0.8089758
-999
-999
-999
0.2330268
0.400731
0.2665752
0.444387
-999
0.6886176
0.1490076
0.3940048
0.00422149
-999
0.1466489
0.8574613
0.2380342
-999
-999
0.6460491
0.5437708
-999
-999
-999
0.06181841
0.9809765
0.08856507
-999
-999
0.1583041
0.3116116
0.7785
-999
-999
0.2925203
0.057306
0.6501969
0.2849222
-999
0.5531214
0.648
-999
-999
-999
0.3444795
0.4877631
0.1976917
0.3102005
-999
0.7918682
0.1669151
0.2911607
-999
-999
0.1828803
0.8949471
0.1534892
-999
-999
0.6682761
0.5356424
-999
-999
-999
0.09122968
0.9757327
0.07869573
-999
-999
0.1629281
0.3130251
0.7726734
-999
-999
0.2735209
0.04631938
0.6631005
0.2954448
-999
0.5046219
0.6956268
-999
-999
-999
0.2895564
0.4410549
0.2387586
0.3780196
-999
0.7037395
0.1468933
0.3842491
-999
-999
0.1344011
0.8311949
0.2776816
-999
-999
0.6091042
0.5345954
0.04539851
0.01332654
-999
0.9728801
0.1081848
0.06646459
-999
-999
0.0004293907
0.3106899
0.8636786
-999
-999
0.0592059
0.7504574
0.4096032
-999
-999
0.2385728
0.9161242
-999
-999
-999
0.06942198
0.2278753
0.3613942
0.6294525
-999
0.3856179
0.03720688
0.6584063
0.1824943
-999
0.5379595
0.007909322
0.6371828
-999
-999
0.3547132
0.3895241
0.2894445
0.3209674
-999
0.708204
0.07628572
0.4356263
-999
-999
0.1726869
0.7484523
0.3256712
-999
-999
0.623162
0.4349493
0.1533543
0.05491239
-999
0.9334625
0.04229202
0.1992516
-999
-999
0.3538835
0.8008637
0.06943061
-999
-999
0.8115395
0.3707217
0.007938657
-999
-999
0.009974441
0.05306745
0.9959201
0.00128503
-999
0.4855478
0.7096418
-999
-999
-999
0.09478848
0.8830467
0.2452828
-999
-999
0.1684905
0.1394135
0.9132094
-999
-999
0.07637595
0.07083348
0.5561628
0.5446261
-999
0.2772164
0.8511059
0.1053585
-999
-999
0.2960318
0.2002832
0.7545083
-999
-999
0.2525303
0.118068
0.5743226
0.3674273
-999
0.436481
0.759053
-999
-999
-999
0.1111011
0.374965
0.2414674
0.580845
-999
0.417157
0.1218365
0.5598648
0.2091014
-999
0.552915
0.6480654
-999
-999
-999
0.2525007
0.3993551
0.2721258
0.4240736
-999
0.5553809
0.09011369
0.5328175
0.07862
-999
0.02769098
0.6147338
0.5433095
-999
-999
0.3831263
0.3750102
0.30166
0.29446
-999
0.6545491
0.03451561
0.5077594
-999
-999
0.1322367
0.6205928
0.04894668
0.4558353
-999
0.4944842
0.3143197
0.3382222
0.1917709
-999
0.7061886
0.4933511
-999
-999
-999
0.2300469
0.577106
0.1117191
0.3881454
-999
0.5771213
0.2300371
0.3881571
0.1117029
-999
0.7061874
0.493349
-999
-999
-999
0.3143296
0.4944755
0.1917869
0.3382151
-999
0.6205987
0.1322274
0.4558398
0.04893031
-999
0.03452463
0.6545457
0.5077532
-999
-999
0.3750195
0.3831084
0.2944758
0.3016517
-999
0.6147415
0.02768242
0.5433124
-999
-999
0.09013183
0.5553761
0.07862856
0.5328121
-999
0.3993632
0.2525007
0.4240813
0.2721071
-999
0.552915
0.6480671
-999
-999
-999
0.1218365
0.4171515
0.2091201
0.5598493
-999
0.3749714
0.1110935
0.5808596
0.2414571
-999
0.4364809
0.7590513
-999
-999
-999
0.1180756
0.2525194
0.3674376
0.5743126
-999
0.2960406
0.7545146
0.2002724
-999
-999
0.2772152
0.1053685
0.851101
-999
-999
0.07083968
0.07637835
0.5446371
0.5561509
-999
0.1684891
0.9132139
0.1394028
-999
-999
0.09478588
0.2452942
0.8830388
-999
-999
0.7096531
0.4855478
-999
-999
-999
0.009975737
0.9959201
0.05305734
0.001285402
-999
0.3707217
0.8115297
0.007932737
-999
-999
0.8008738
0.3538718
0.06943434
-999
-999
0.04230203
0.9334613
0.1992525
-999
-999
0.4349612
0.6231472
0.0549098
0.1533448
-999
0.7484633
0.1726967
0.3256747
-999
-999
0.07630055
0.7082071
0.4356197
-999
-999
0.3895142
0.3547011
0.3209778
0.2894445
-999
0.5379655
0.6371828
0.007895651
-999
-999
0.0372196
0.3856147
0.1824943
0.6583943
-999
0.227882
0.0694134
0.6294652
0.3613768
-999
0.2385754
0.9161233
-999
-999
-999
0.05920221
0.4096208
0.7504464
-999
-999
0.0004352768
0.8636875
0.3106719
-999
-999
0.1081954
0.9728751
0.06646202
-999
-999
0.534614
0.6090932
0.01333045
0.04539851
-999
0.8312013
0.1344108
0.2776816
-999
-999
0.1469039
0.7037436
0.3842405
-999
-999
0.4410451
0.2895446
0.3780284
0.2387488
-999
0.5046265
0.6956261
-999
-999
-999
0.04633168
0.2735163
0.2954545
0.6630905
-999
0.1629367
0.7726812
0.3130131
-999
-999
0.09123079
0.07870571
0.9757294
-999
-999
0.5356548
0.6682646
-999
-999
-999
0.8949541
0.1828647
0.1534894
-999
-999
0.1669262
0.7918618
0.2911553
-999
-999
0.487779
0.3444712
0.3102054
0.1976824
-999
0.5531251
0.6479989
-999
-999
-999
0.05731453
0.292516
0.2849314
0.6501868
-999
0.158313
0.7785075
0.3115996
-999
-999
0.0618205
0.08857515
0.980973
-999
-999
0.5437834
0.6460381
-999
-999
-999
0.8574682
0.1466585
0.238034
-999
-999
0.1490184
0.6886211
0.00422742
0.3939947
-999
0.4007214
0.2330201
0.4443954
0.2665592
-999
0.3814463
0.808973
-999
-999
-999
0.108637
0.3966712
0.7269388
-999
-999
0.8778272
0.2937311
-999
-999
-999
0.1280446
0.9298485
0.1498239
-999
-999
0.5049919
0.4818165
0.1683582
0.1544169
-999
0.6261284
0.5541371
-999
-999
-999
0.04523942
0.3514091
0.2193905
0.6579999
-999
0.1393416
0.7454045
0.3568453
-999
-999
0.02375584
0.06070433
0.9938449
-999
-999
0.4998216
0.644799
0.05699716
-999
-999
0.7538393
0.1181612
0.3658361
-999
-999
0.07103434
0.5262614
0.09013104
0.5660589
-999
0.2224708
0.08225543
0.612286
0.3767028
-999
0.1263455
0.9750891
0.002165653
-999
-999
0.4563273
0.730859
0.003347759
-999
-999
0.789679
0.1950016
0.2683622
-999
-999
0.06284161
0.6121722
0.02136226
0.5195075
-999
0.2413961
0.144768
0.5404458
0.3941715
-999
0.1577104
0.9586581
0.03280382
-999
-999
0.4201137
0.7680312
0.0002396416
-999
-999
0.7729613
0.2244297
0.2564434
-999
-999
0.03786146
0.6080888
0.009160383
0.5410896
-999
0.2065408
0.1362308
0.5416402
0.428401
-999
0.1154899
0.9741642
0.05044486
-999
-999
0.4017209
0.7633312
0.05101154
-999
-999
0.7140239
0.2006367
0.3287821
-999
-999
0.5135819
0.04965143
0.6336563
-999
-999
0.1230243
0.05508966
0.608148
0.4720177
-999
0.008185619
0.9972168
0.0450831
0.00368064
-999
0.3837225
0.6892896
0.007067046
0.160092
-999
0.1692865
0.751424
0.3234121
-999
-999
0.7412933
0.438093
0.01703267
-999
-999
0.1511727
0.02730245
0.9617456
-999
-999
0.1641093
0.2516241
0.3905561
0.5175261
-999
0.6661967
0.06096444
0.4781024
-999
-999
0.2535599
0.8097254
0.1862389
-999
-999
0.7915645
0.401197
-999
-999
-999
0.243426
0.0423805
0.9035273
-999
-999
0.2430796
0.299651
0.3664778
0.4353243
-999
0.7369793
0.06543145
0.4154013
-999
-999
0.2850106
0.8214722
0.1350282
-999
-999
0.8020996
0.385154
-999
-999
-999
0.2618333
0.04570537
0.8890489
-999
-999
0.2478521
0.3002684
0.3669512
0.4301612
-999
0.7250994
0.06268767
0.4277671
-999
-999
0.2714217
0.8130999
0.1621287
-999
-999
0.7933181
0.3993058
-999
-999
-999
0.2042607
0.04246806
0.9296449
-999
-999
0.178465
0.2529757
0.3952824
0.5011765
-999
0.6282256
0.04905595
0.5157812
0.000844184
-999
0.2097005
0.7682671
0.2719783
-999
-999
0.7433943
0.4275132
0.03436707
-999
-999
0.07651746
0.02307777
0.9899532
-999
-999
0.04284383
0.148394
0.4292108
0.6355675
-999
0.4381929
0.007140183
0.6657973
0.1133275
-999
0.09097616
0.6381738
0.01650411
0.4764586
-999
0.6022359
0.4238743
0.176007
0.07682083
-999
0.9727837
0.03200345
0.1238855
-999
-999
0.4142715
0.7762119
-999
-999
-999
0.1719096
0.8114906
0.2649299
-999
-999
0.3892755
0.06826634
0.763631
-999
-999
0.3429046
0.3211651
0.3551075
0.33296
-999
0.7540688
0.03859493
0.4151581
-999
-999
0.2829055
0.7761649
0.189971
-999
-999
0.7893857
0.3856365
0.02633749
-999
-999
0.06256227
0.05223298
0.9893115
-999
-999
0.01569726
0.09271625
0.4730706
0.6411504
-999
0.3425746
0.7578157
0.1400719
-999
-999
0.02938562
0.4980809
0.08326578
0.6158632
-999
0.4734044
0.33152
0.324836
0.2088748
-999
0.8328677
0.006219042
0.3446956
-999
-999
0.3583625
0.7524505
0.1258772
-999
-999
0.8415514
0.3291747
0.02320445
-999
-999
0.05653109
0.09770399
0.9784882
-999
-999
0.01686808
0.05055577
0.5297801
0.6076368
-999
0.297162
0.8198508
0.1217825
-999
-999
0.01320735
0.4032317
0.1471594
0.6747965
-999
0.4096483
0.2385905
0.4345019
0.257615
-999
0.7127668
0.4881441
-999
-999
-999
0.3217175
0.6419377
0.06067471
0.2576632
-999
0.7850933
0.2758794
0.1884287
-999
-999
0.1022233
0.9513865
0.1283837
-999
-999
0.5705885
0.6333737
-999
-999
-999
0.05098649
0.9500842
0.1649268
-999
-999
0.1249396
0.2366939
0.870978
-999
-999
0.1385712
0.02726902
0.6516141
0.4271454
-999
0.3510542
0.8311931
-999
-999
-999
0.1064613
0.3380734
0.272065
0.5885019
-999
0.4549957
0.1124546
0.5553626
0.1698934
-999
0.6273838
0.5603554
-999
-999
-999
0.3765953
0.4609301
0.2179092
0.2835278
-999
0.7508013
0.1154692
0.3678634
-999
-999
0.1709999
0.7945427
0.2823066
-999
-999
0.628904
0.4622101
0.1153633
0.03447796
-999
0.9460065
0.05219315
0.171327
-999
-999
0.3521916
0.8078959
0.05527961
-999
-999
0.8137137
0.3679564
0.002332446
-999
-999
0.004779664
0.05811906
0.9947818
0.003270639
-999
0.4994534
0.6983789
-999
-999
-999
0.07535279
0.9017505
0.2296529
-999
-999
0.1305352
0.1654867
0.9182767
-999
-999
0.05337036
0.02272864
0.6016418
0.5318498
-999
0.2254093
0.8998076
0.08709786
-999
-999
0.2186571
0.2581901
0.7742753
-999
-999
0.206234
0.03897861
0.660906
0.3592863
-999
0.344682
0.8385082
-999
-999
-999
0.08485372
0.2576934
0.3390533
0.6130159
-999
0.3411613
0.01731142
0.6884735
0.2049971
-999
0.4170326
0.04264918
0.7501124
-999
-999
0.2118477
0.2471664
0.4136565
0.4620112
-999
0.4424554
0.6978611
0.07546357
-999
-999
0.01893055
0.4346245
0.1256357
0.6565453
-999
0.3209841
0.1956157
0.4883521
0.3309325
-999
0.4968462
0.6997845
-999
-999
-999
0.1155673
0.3994535
0.2200673
0.5684329
-999
0.3994654
0.1155511
0.5684477
0.2200575
-999
0.4968441
0.6997831
-999
-999
-999
0.1956317
0.3209772
0.3309422
0.4883432
-999
0.4346289
0.0189151
0.6565507
0.1256453
-999
0.4424497
0.0754728
0.6978655
-999
-999
0.247181
0.2118406
0.4620016
0.4136463
-999
0.4170351
0.7501152
0.0426304
-999
-999
0.01731893
0.3411572
0.2050071
0.6884587
-999
0.2576994
0.08484016
0.6130338
0.3390315
-999
0.3446832
0.8385077
-999
-999
-999
0.03899233
0.2062249
0.3593083
0.6608861
-999
0.2186657
0.7742906
0.2581676
-999
-999
0.2254084
0.08711783
0.8997999
-999
-999
0.0227344
0.05336595
0.531873
0.6016299
-999
0.1305377
0.918282
0.1654757
-999
-999
0.07535117
0.2296642
0.9017431
-999
-999
0.6983903
0.4994409
-999
-999
-999
0.004780948
0.9947837
0.05812914
0.003270319
-999
0.3679687
0.8137234
0.002326804
-999
-999
0.807886
0.3522034
0.05528338
-999
-999
0.05218312
0.9460081
0.1713253
-999
-999
0.4621981
0.6288885
0.03448301
0.1153544
-999
0.7945532
0.171005
0.2823097
-999
-999
0.1154846
0.7508032
0.3678592
-999
-999
0.460925
0.376582
0.2835339
0.2179092
-999
0.627389
0.5603554
-999
-999
-999
0.1124683
0.454989
0.1698934
0.555351
-999
0.3380839
0.1064613
0.5885126
0.2720489
-999
0.3510542
0.83119
-999
-999
-999
0.02726902
0.1385655
0.4271618
0.6515973
-999
0.1249457
0.8709882
0.2366997
-999
-999
0.0509862
0.164943
0.9500871
-999
-999
0.6333677
0.5705946
-999
-999
-999
0.9513844
0.1022132
0.1283832
-999
-999
0.2758735
0.7850861
0.188421
-999
-999
0.6419479
0.3217175
0.2576686
0.06066266
-999
0.7127668
0.4881403
-999
-999
-999
0.2385905
0.4096395
0.2576266
0.4344925
-999
0.4032408
0.01320093
0.6748007
0.1471491
-999
0.2971616
0.1217919
0.8198445
-999
-999
0.05056221
0.01686435
0.6076474
0.5297616
-999
0.05653387
0.9784926
0.09768838
-999
-999
0.3291927
0.8415381
0.0231999
-999
-999
0.7524663
0.3583461
0.1258792
-999
-999
0.006233472
0.8328683
0.3446925
-999
-999
0.3315363
0.4733974
0.2088811
0.3248272
-999
0.4980873
0.02937872
0.6158656
0.08325593
-999
0.3425738
0.140081
0.7578083
-999
-999
0.09272301
0.01569349
0.6411601
0.473052
-999
0.06256497
0.9893133
0.052223
-999
-999
0.3856548
0.7893763
0.02632956
-999
-999
0.7761745
0.2828952
0.1899731
-999
-999
0.03860488
0.7540683
0.415151
-999
-999
0.3211754
0.3428954
0.3329698
0.3550972
-999
0.3892832
0.7636321
0.06825618
-999
-999
0.1719085
0.2649401
0.8114812
-999
-999
0.7762219
0.4142533
-999
-999
-999
0.03201316
0.9727836
0.123881
-999
-999
0.4238926
0.6022192
0.07682716
0.1759953
-999
0.6381889
0.09096473
0.4764599
0.01649037
-999
0.007158132
0.4381918
0.1133393
0.6657855
-999
0.1484053
0.04284009
0.6355803
0.4291923
-999
0.07652044
0.9899532
0.0230826
-999
-999
0.4275316
0.743399
0.03436089
-999
-999
0.7682626
0.2096914
0.2719789
-999
-999
0.04905105
0.628225
0.0008504995
0.5157746
-999
0.2529848
0.178458
0.5011835
0.3952883
-999
0.2042667
0.9296449
0.04245315
-999
-999
0.3992999
0.7933031
-999
-999
-999
0.8131143
0.2714117
0.1621286
-999
-999
0.06270283
0.725099
0.4277609
-999
-999
0.3002784
0.2478472
0.4301673
0.3669399
-999
0.2618379
0.8890485
0.04571034
-999
-999
0.3851655
0.8021047
-999
-999
-999
0.8214675
0.2850005
0.1350281
-999
-999
0.06542636
0.7369791
0.4153951
-999
-999
0.2996611
0.2430749
0.4353302
0.3664836
-999
0.2434307
0.9035277
0.04237054
-999
-999
0.4011912
0.7915546
-999
-999
-999
0.8097351
0.2535528
0.1862384
-999
-999
0.06097452
0.6661967
0.4780971
-999
-999
0.2516312
0.1641034
0.5175309
0.3905411
-999
0.151179
0.9617447
0.02729283
-999
-999
0.4381082
0.7412839
0.01703596
-999
-999
0.7514331
0.1692743
0.3234124
-999
-999
0.6660966
0.122467
0.4278064
0.008713438
-999
0.2102198
0.8640197
0.1632187
-999
-999
0.747481
0.4438234
-999
-999
-999
0.3044211
0.001777093
0.8656278
-999
-999
0.2753791
0.3692952
0.3007058
0.3986323
-999
0.8011182
0.1004175
0.328766
-999
-999
0.2972342
0.8548895
0.05604175
-999
-999
0.06841831
0.7874157
0.3636977
-999
-999
0.373403
0.03114101
0.7972935
-999
-999
0.3552729
0.3730318
0.3008819
0.3172255
-999
0.8490521
0.07049704
0.2960946
-999
-999
0.3441432
0.826369
0.02468846
-999
-999
0.087382
0.8153811
0.3233671
-999
-999
0.362125
0.05922379
0.7944285
-999
-999
0.3599677
0.3366853
0.336667
0.3141407
-999
0.8253193
0.04241406
0.3375556
-999
-999
0.354495
0.7991172
0.06353569
-999
-999
0.03314817
0.8437526
0.3209555
-999
-999
0.2746796
0.08820589
0.8588088
-999
-999
0.2851226
0.2614145
0.4118361
0.3832847
-999
0.7205151
0.009586552
0.459215
-999
-999
0.3147548
0.747781
0.1794684
-999
-999
0.837923
0.3353572
0.01140442
-999
-999
0.1199383
0.103363
0.9539708
-999
-999
0.1339335
0.1373638
0.5051838
0.5113906
-999
0.5155933
0.6582991
0.008400915
-999
-999
0.2023905
0.6161982
0.0712468
0.3882224
-999
0.7238116
0.321438
0.1940041
-999
-999
0.07273977
0.9756854
0.09073629
-999
-999
0.5487035
0.6448698
-999
-999
-999
0.2246045
0.8742734
0.1316447
-999
-999
0.01381673
0.3664175
0.1782368
0.6838096
-999
0.4523059
0.2191496
0.442636
0.2121035
-999
0.7776272
0.4143178
-999
-999
-999
0.4375595
0.6485502
0.02287124
0.1254019
-999
0.9104501
0.2209113
0.06375469
-999
-999
0.03989874
0.2040185
0.9290367
-999
-999
0.08522891
0.007219135
0.6460539
0.4730127
-999
0.3581324
0.8222512
-999
-999
-999
0.1476677
0.3960345
0.2376547
0.5319747
-999
0.5789637
0.1628248
0.4470163
0.08935293
-999
0.06219966
0.7926623
0.3619017
-999
-999
0.547144
0.5543006
0.06498439
0.0683136
-999
0.9561831
0.1254018
0.09029087
-999
-999
0.2999331
0.8704966
-999
-999
-999
0.06649655
0.7528336
0.398117
-999
-999
0.2659151
0.003780991
0.8942253
-999
-999
0.124499
0.2506264
0.3697792
0.5619537
-999
0.4765506
0.03591857
0.6187236
0.1035541
-999
0.05681274
0.6119692
0.0158535
0.5193571
-999
0.5006729
0.3938494
0.2517203
0.1763729
-999
0.8533806
0.03379191
0.3089009
-999
-999
0.3292442
0.7709303
0.1383128
-999
-999
0.8104571
0.3501939
0.04954812
-999
-999
0.07488948
0.9904431
0.01332469
-999
-999
0.5286607
0.6626759
-999
-999
-999
0.1439374
0.9003759
0.1786124
-999
-999
0.2229009
0.1895006
0.8332033
-999
-999
0.203297
0.09875402
0.5823836
0.4063445
-999
0.433345
0.7580426
-999
-999
-999
0.1407058
0.4054444
0.2258966
0.537451
-999
0.50646
0.1470419
0.4976602
0.1416429
-999
0.6756507
0.5083874
-999
-999
-999
0.4030794
0.4819531
0.1923597
0.2489026
-999
0.7774294
0.1146946
0.3416384
-999
-999
0.1888047
0.7976628
0.2605987
-999
-999
0.6501754
0.4429185
0.1178244
0.01858666
-999
0.9477394
0.02852081
0.175397
-999
-999
0.3809169
0.7766994
0.05663383
-999
-999
0.8395536
0.3267784
0.03031037
-999
-999
0.09340221
0.9837596
0.02904114
-999
-999
0.5515219
0.652632
-999
-999
-999
0.03563556
0.9431364
0.1818223
-999
-999
0.06053623
0.2283801
0.9067432
-999
-999
0.01923307
0.6876199
0.4845808
-999
-999
0.1472794
0.960581
0.0398501
-999
-999
0.1069556
0.358319
0.7660221
-999
-999
0.1417347
0.7844001
0.3143513
-999
-999
0.2204842
0.05911852
0.9127476
-999
-999
0.04775538
0.1070527
0.4829876
0.6047547
-999
0.236203
0.8441969
0.1611181
-999
-999
0.2443303
0.1753525
0.8255404
-999
-999
0.1475759
0.06565959
0.6031775
0.4475443
-999
0.2879212
0.8721808
0.02959316
-999
-999
0.2174658
0.3040224
0.7186565
-999
-999
0.2174746
0.7186741
0.3040113
-999
-999
0.2879204
0.02961209
0.8721787
-999
-999
0.06566575
0.1475706
0.4475555
0.6031669
-999
0.2443333
0.8255464
0.1753525
-999
-999
0.2362053
0.1611286
0.8441969
-999
-999
0.1070473
0.04774985
0.6047547
0.4829761
-999
0.2204856
0.9127501
0.0591086
-999
-999
0.141728
0.3143627
0.7843909
-999
-999
0.1069639
0.7660317
0.3583072
-999
-999
0.1472792
0.03985984
0.9605792
-999
-999
0.01922564
0.4845928
0.6876085
-999
-999
0.06054159
0.9067501
0.2283688
-999
-999
0.03563323
0.1818333
0.9431304
-999
-999
0.6526439
0.5514973
-999
-999
-999
0.9837661
0.09338153
0.02904164
-999
-999
0.3268023
0.8395355
0.03030683
-999
-999
0.77672
0.3808991
0.05663673
-999
-999
0.02854032
0.947738
0.1753956
-999
-999
0.4429364
0.6501601
0.01859188
0.117816
-999
0.7976736
0.1887945
0.2606021
-999
-999
0.1147098
0.7774253
0.3416327
-999
-999
0.4819635
0.4030654
0.2489115
0.1923597
-999
0.6756558
0.5083874
-999
-999
-999
0.1470561
0.5064548
0.1416429
0.4976602
-999
0.4054517
0.1407058
0.537451
0.2258966
-999
0.433345
0.7580426
-999
-999
-999
0.09875402
0.2032901
0.4063445
0.5823675
-999
0.2229072
0.8332117
0.1894842
-999
-999
0.1439361
0.1786283
0.9003659
-999
-999
0.6626929
0.5286483
-999
-999
-999
0.9904456
0.07487438
0.01332414
-999
-999
0.3502059
0.8104433
0.0495435
-999
-999
0.7709453
0.3292276
0.1383152
-999
-999
0.03380653
0.8533793
0.3088966
-999
-999
0.393866
0.5006605
0.1763818
0.2517082
-999
0.6119781
0.05680091
0.5193599
0.0158535
-999
0.03593188
0.4765469
0.1035664
0.6187236
-999
0.2506377
0.1244934
0.5619537
0.3697622
-999
0.2659176
0.8942248
0.003771382
-999
-999
0.06649435
0.3981342
0.7528228
-999
-999
0.8705052
0.2999389
-999
-999
-999
0.1254124
0.956185
0.09028765
-999
-999
0.5542946
0.5471336
0.06831732
0.06497748
-999
0.7926676
0.06219098
0.3619014
-999
-999
0.1628351
0.5789593
0.08935975
0.4470089
-999
0.3960429
0.1476611
0.5319803
0.2376389
-999
0.3581341
0.8222463
-999
-999
-999
0.007226176
0.08522607
0.4730288
0.6460421
-999
0.03990263
0.9290428
0.2040019
-999
-999
0.2209225
0.9104408
0.06375046
-999
-999
0.6485674
0.4375439
0.1254047
0.02287867
-999
0.7776318
0.4143201
-999
-999
-999
0.219165
0.4522985
0.2120966
0.4426221
-999
0.3664276
0.01381101
0.6838157
0.178226
-999
0.2246051
0.1316588
0.8742671
-999
-999
0.6448809
0.5486851
-999
-999
-999
0.9756903
0.07272531
0.09073371
-999
-999
0.3214558
0.723801
0.1939938
-999
-999
0.6162121
0.2023784
0.3882258
0.07123303
-999
0.5155946
0.008411745
0.6582906
-999
-999
0.1373762
0.1339281
0.5114038
0.5051718
-999
0.1199442
0.9539733
0.1033475
-999
-999
0.3353689
0.8379101
0.01139666
-999
-999
0.7477966
0.314745
0.17947
-999
-999
0.00960081
0.7205158
0.4592073
-999
-999
0.2614244
0.2851178
0.3832949
0.4118361
-999
0.2746846
0.8588088
0.08819036
-999
-999
0.03314817
0.3209555
0.8437384
-999
-999
0.7991326
0.3545059
0.06353611
-999
-999
0.04242897
0.8253192
0.337558
-999
-999
0.3366745
0.3599622
0.3141379
0.3366513
-999
0.3621306
0.7944288
0.05922379
-999
-999
0.08738191
0.3233829
0.8153811
-999
-999
0.826369
0.3441321
0.02468829
-999
-999
0.07049704
0.8490518
0.2960892
-999
-999
0.3730428
0.3552671
0.3172302
0.3008924
-999
0.3734084
0.7972944
0.03112636
-999
-999
0.06841838
0.3636872
0.7873999
-999
-999
0.8549031
0.2972236
0.05604086
-999
-999
0.1004332
0.8011172
0.3287583
-999
-999
0.3693058
0.2753751
0.3986382
0.3006948
-999
0.3044247
0.8656258
0.001760451
-999
-999
0.4438345
0.7474621
-999
-999
-999
0.8640344
0.2102245
0.1632167
-999
-999
0.1224855
0.6660973
0.008720986
0.4277985
-999
0.2334924
0.4583396
0.2083734
0.4236202
-999
0.8020226
0.1809298
0.2605272
-999
-999
0.2352348
0.9116267
0.01943483
-999
-999
0.1060209
0.7122045
0.4032029
-999
-999
0.4617304
0.7305682
-999
-999
-999
0.3860824
0.4640389
0.2094167
0.2683653
-999
0.9065546
0.1131607
0.192051
-999
-999
0.3312945
0.8451046
-999
-999
-999
0.1909997
0.7543097
0.2963621
-999
-999
0.4984709
0.0178192
0.6696582
-999
-999
0.4713679
0.4186719
0.2343641
0.1969622
-999
0.9352784
0.05280307
0.1855279
-999
-999
0.4012202
0.7876706
-999
-999
-999
0.1959711
0.8072647
0.2417447
-999
-999
0.4517196
0.07336336
0.6822489
-999
-999
0.4801479
0.3459229
0.3033345
0.1979547
-999
0.9040041
0.003689874
0.2495345
-999
-999
0.4437813
0.7474382
-999
-999
-999
0.1200609
0.8770979
0.2275902
-999
-999
0.3314054
0.1392933
0.7653291
-999
-999
0.4010983
0.2451307
0.4240764
0.263139
-999
0.7933597
0.3956653
-999
-999
-999
0.4336192
0.6904595
0.08864133
-999
-999
0.9189832
0.2291988
-999
-999
-999
0.1485264
0.1969062
0.8826631
-999
-999
0.2308206
0.1048135
0.5797513
0.3779215
-999
0.5731708
0.6299284
-999
-999
-999
0.3297316
0.5570489
0.1300003
0.2901872
-999
0.8338802
0.204289
0.204239
-999
-999
0.1995852
0.9280413
0.04865715
-999
-999
0.6900914
0.4918712
-999
-999
-999
0.2579941
0.898902
0.001561108
-999
-999
0.1191656
0.3102234
0.3035558
0.5706365
-999
0.5478045
0.1021022
0.5183784
0.08680252
-999
0.09311727
0.7448615
0.3847831
-999
-999
0.6019101
0.4860308
0.1021677
0.04592905
-999
0.9793819
0.05941904
0.08748557
-999
-999
0.3843026
0.7982794
-999
-999
-999
0.1386342
0.8093302
0.2897918
-999
-999
0.3287464
0.07097976
0.8176778
-999
-999
0.2647783
0.2579426
0.4105164
0.4020209
-999
0.6326687
0.5415863
-999
-999
-999
0.2257753
0.6671668
0.03344091
0.3307196
-999
0.7209316
0.3311768
0.1827213
-999
-999
0.05519813
0.9633244
0.1313311
-999
-999
0.5327855
0.6686893
-999
-999
-999
0.08061435
0.9313617
0.1771203
-999
-999
0.1790191
0.2183
0.8433919
-999
-999
0.2108549
0.07357274
0.6139469
0.3787867
-999
0.4594875
0.737582
-999
-999
-999
0.212211
0.4226829
0.2352354
0.4547486
-999
0.6196586
0.1390494
0.4423849
0.0481302
-999
0.08973687
0.7657849
0.3680657
-999
-999
0.5622289
0.4913788
0.1223647
0.0852792
-999
0.9340592
0.07642236
0.1747206
-999
-999
0.3357227
0.8265917
0.0388926
-999
-999
0.8158032
0.3691949
-999
-999
-999
0.07480387
0.06523317
0.9820895
-999
-999
0.03913963
0.5078653
0.6417092
-999
-999
0.2179431
0.8597234
0.1578755
-999
-999
0.286118
0.1757067
0.7809334
-999
-999
0.2583418
0.1299996
0.5543586
0.362943
-999
0.4849162
0.7124729
-999
-999
-999
0.179311
0.4250234
0.222555
0.489024
-999
0.5461327
0.1378333
0.4854898
0.1043277
-999
0.02288849
0.6838565
0.4833115
-999
-999
0.4398763
0.4522338
0.2104308
0.2191341
-999
0.7904703
0.07490882
0.3539324
-999
-999
0.2287048
0.7572864
0.2578692
-999
-999
0.6861308
0.3782283
0.1597985
0.005139296
-999
0.9311258
0.2085786
-999
-999
-999
0.4384106
0.7016918
0.06936159
-999
-999
0.8769945
0.2467791
0.09254455
-999
-999
0.1589334
0.9433153
0.07583448
-999
-999
0.6340874
0.5618554
-999
-999
-999
0.9816334
0.09958214
0.02428191
-999
-999
0.3266813
0.8499612
-999
-999
-999
0.7974777
0.3900296
-999
-999
-999
0.04205672
0.0451658
0.9934543
-999
-999
0.4959515
0.6964961
-999
-999
-999
0.05169369
0.9138733
0.2201655
-999
-999
0.06803954
0.1903471
0.927893
-999
-999
0.6601889
0.5221904
-999
-999
-999
0.09810492
0.9741359
0.0670758
-999
-999
0.0481955
0.3502023
0.8094081
-999
-999
0.04820196
0.8094273
0.3501905
-999
-999
0.09810422
0.06709586
0.9741334
-999
-999
0.5222025
0.6601773
-999
-999
-999
0.06804156
0.9278992
0.1903471
-999
-999
0.05169369
0.2201767
0.9138733
-999
-999
0.6964961
0.495927
-999
-999
-999
0.04205747
0.9934572
0.04514606
-999
-999
0.3900537
0.797457
-999
-999
-999
0.8499797
0.3266576
-999
-999
-999
0.09960292
0.9816265
0.02428058
-999
-999
0.5618798
0.6340638
-999
-999
-999
0.9433263
0.1589227
0.07583669
-999
-999
0.2468018
0.876987
0.09254145
-999
-999
0.7017028
0.4383872
0.06936526
-999
-999
0.9311276
0.2085781
-999
-999
-999
0.3782514
0.6861215
0.005144809
0.1597931
-999
0.7572942
0.2286944
0.2578722
-999
-999
0.07491862
0.7904673
0.3539278
-999
-999
0.4522442
0.4398623
0.2191435
0.2104193
-999
0.6838624
0.02287596
0.4833136
-999
-999
0.1378476
0.5461252
0.1043395
0.4854834
-999
0.4250349
0.179311
0.4890304
0.2225404
-999
0.4849162
0.7124701
-999
-999
-999
0.1299996
0.2583418
0.3629576
0.5543485
-999
0.286118
0.7809388
0.1756907
-999
-999
0.2179431
0.1578856
0.8597139
-999
-999
0.03913963
0.6417255
0.5078532
-999
-999
0.07480675
0.9820914
0.06521814
-999
-999
0.369207
0.8157883
-999
-999
-999
0.8266061
0.3357112
0.03889529
-999
-999
0.07643761
0.9340571
0.174718
-999
-999
0.4913906
0.5622189
0.08528392
0.1223546
-999
0.7657905
0.08972351
0.3680671
-999
-999
0.1390594
0.6196521
0.04814062
0.4423755
-999
0.4226958
0.2121998
0.4547576
0.2352354
-999
0.4594901
0.737582
-999
-999
-999
0.07358431
0.2108549
0.3787867
0.6139469
-999
0.1790191
0.8433919
0.2182832
-999
-999
0.08061417
0.1771203
0.9313523
-999
-999
0.6687067
0.5327736
-999
-999
-999
0.9633272
0.05518869
0.1313323
-999
-999
0.3311886
0.7209238
0.1827152
-999
-999
0.6671758
0.2257662
0.3307223
0.03343265
-999
0.6326683
0.5415817
-999
-999
-999
0.2579517
0.2647726
0.4020286
0.4105057
-999
0.3287506
0.8176795
0.07096473
-999
-999
0.1386323
0.2898024
0.809316
-999
-999
0.7982939
0.3842847
-999
-999
-999
0.0594339
0.9793796
0.08748695
-999
-999
0.486049
0.6019006
0.04592713
0.1021747
-999
0.7448681
0.09312576
0.3847829
-999
-999
0.102112
0.5478073
0.08679555
0.5183634
-999
0.3102154
0.1191573
0.5706493
0.3035447
-999
0.2579975
0.001578062
0.8988993
-999
-999
0.4918826
0.6900797
-999
-999
-999
0.9280481
0.1995694
0.04865663
-999
-999
0.2043002
0.8338729
0.2042418
-999
-999
0.557065
0.329719
0.2901855
0.1299912
-999
0.5731753
0.6299252
-999
-999
-999
0.1048264
0.2308158
0.3779303
0.5797401
-999
0.1485339
0.882668
0.1968896
-999
-999
0.2292098
0.9189728
-999
-999
-999
0.6904767
0.4336035
0.0886396
-999
-999
0.7933636
0.3956619
-999
-999
-999
0.2451463
0.4010914
0.2631456
0.4240764
-999
0.3314148
0.7653291
0.139272
-999
-999
0.1200609
0.2275902
0.8770815
-999
-999
0.7474598
0.4437698
-999
-999
-999
0.003708875
0.9040055
0.2495288
-999
-999
0.3459342
0.4801509
0.197962
0.3033203
-999
0.4517162
0.6822501
0.07334831
-999
-999
0.1959713
0.2417588
0.8072509
-999
-999
0.787685
0.4012026
-999
-999
-999
0.05281787
0.9352782
0.1855237
-999
-999
0.4186895
0.4713612
0.1969662
0.2343547
-999
0.4984771
0.6696574
0.0178096
-999
-999
0.1910001
0.2963714
0.7542993
-999
-999
0.8451132
0.3312775
-999
-999
-999
0.1131711
0.9065519
0.1920563
-999
-999
0.4640561
0.3860739
0.2683619
0.2094043
-999
0.4617367
0.7305651
-999
-999
-999
0.1060202
0.4032152
0.7121875
-999
-999
0.9116377
0.2352192
0.01943346
-999
-999
0.1809464
0.8020179
0.2605204
-999
-999
0.4583554
0.2334866
0.4236232
0.2083655
-999
0.5135894
0.6812088
-999
-999
-999
0.331666
0.5841393
0.1041726
0.272409
-999
0.8963319
0.2056806
0.1111737
-999
-999
0.06593107
0.2449569
0.8894489
-999
-999
0.2433707
0.05246104
0.6443645
0.3260424
-999
0.6131908
0.5773361
-999
-999
-999
0.4925029
0.5241365
0.1209633
0.138617
-999
0.971982
0.09838997
0.07000011
-999
-999
0.07863078
0.3555131
0.7845417
-999
-999
0.3230572
0.006206972
0.6972356
0.2086238
-999
0.03564846
0.6089272
0.003110197
0.5325482
-999
0.5884754
0.4307824
0.1685301
0.08075268
-999
0.9867601
0.01457751
0.08427546
-999
-999
0.02821618
0.4548964
0.710415
-999
-999
0.3103839
0.7775794
0.1478043
-999
-999
0.06978805
0.5221598
0.08771297
0.5594499
-999
0.605805
0.3257929
0.2666599
0.08552301
-999
0.03210589
0.9512693
0.1639341
-999
-999
0.5374772
0.661634
-999
-999
-999
0.2073727
0.8873972
0.1253675
-999
-999
0.03836529
0.3670857
0.1948862
0.6527582
-999
0.5224714
0.2037882
0.4287349
0.1441353
-999
0.03866455
0.8348389
0.3243655
-999
-999
0.5642334
0.5984983
-999
-999
-999
0.03406412
0.9738512
0.1153664
-999
-999
0.1570331
0.3037023
0.7767012
-999
-999
0.3282931
0.05175786
0.6449713
0.2406976
-999
0.5992347
0.5767059
-999
-999
-999
0.4700772
0.4627317
0.1894921
0.1846046
-999
0.913812
0.07980572
0.2022585
-999
-999
0.3490593
0.8265318
-999
-999
-999
0.05712243
0.8241018
0.3274081
-999
-999
0.2630863
0.07726061
0.8701715
-999
-999
0.2292965
0.223017
0.4390839
0.4305257
-999
0.6102563
0.5673988
-999
-999
-999
0.2423733
0.6507624
0.04683442
0.3228123
-999
0.755935
0.3052138
0.176155
-999
-999
0.09499325
0.9667044
0.09026369
-999
-999
0.5864641
0.6122538
-999
-999
-999
0.1635681
0.9266713
0.1070254
-999
-999
0.2525277
0.2548425
0.7305253
-999
-999
0.3619214
0.1008577
0.5846447
0.2416815
-999
0.6095199
0.5803897
-999
-999
-999
0.3992084
0.4772954
0.192772
0.2491217
-999
0.8319846
0.1114566
0.2839042
-999
-999
0.2580879
0.8410406
0.1323303
-999
-999
0.765892
0.4177599
-999
-999
-999
0.04956218
0.03192278
0.993704
-999
-999
0.05054694
0.4768718
0.6681062
-999
-999
0.2450911
0.8287542
0.1644236
-999
-999
0.3516215
0.1453665
0.7330393
-999
-999
0.3410152
0.1928102
0.4840626
0.3045217
-999
0.6213415
0.5796826
-999
-999
-999
0.2891793
0.543928
0.1392637
0.3339324
-999
0.7300243
0.1941517
0.3107813
-999
-999
0.1254425
0.857492
0.2444597
-999
-999
0.6150014
0.5250187
0.0393272
0.001225594
-999
0.9757298
0.07622524
0.08217913
-999
-999
0.3583964
0.8232684
-999
-999
-999
0.01614013
0.8278208
0.3417957
-999
-999
0.1337359
0.08099294
0.9537049
-999
-999
0.03807169
0.06899024
0.5208682
0.5883356
-999
0.2710702
0.8438486
0.1116703
-999
-999
0.3084484
0.1991021
0.727755
-999
-999
0.3057376
0.1170965
0.5706823
0.3052781
-999
0.5028303
0.6956716
-999
-999
-999
0.2249668
0.3943544
0.2629551
0.4440842
-999
0.5721401
0.08633273
0.5161258
0.05895963
-999
0.0689544
0.6476193
0.4792993
-999
-999
0.4843479
0.3730266
0.2726642
0.1898226
-999
0.7793483
0.000266517
0.4001271
-999
-999
0.2888436
0.666766
0.03529137
0.2661469
-999
0.7233709
0.2704498
0.2422996
-999
-999
0.06313363
0.8744534
0.2652331
-999
-999
0.515614
0.5743729
0.0566908
0.08492073
-999
0.8969527
0.1299948
0.189843
-999
-999
0.2515826
0.8437811
0.1365523
-999
-999
0.7255709
0.4182138
0.06549001
-999
-999
0.003589541
0.9708561
0.1297768
-999
-999
0.4506332
0.7170942
0.02428263
-999
-999
0.8895296
0.243354
0.06778567
-999
-999
0.1686233
0.9383825
0.0707316
-999
-999
0.64719
0.5403472
-999
-999
-999
0.9799744
0.07633237
0.06780854
-999
-999
0.3504966
0.8197522
0.01655426
-999
-999
0.8197713
0.3505085
0.01656023
-999
-999
0.0763525
0.9799772
0.06780685
-999
-999
0.540335
0.6471784
-999
-999
-999
0.9383881
0.1686125
0.07073
-999
-999
0.2433653
0.8895221
0.06778304
-999
-999
0.7171052
0.4506213
0.0242863
-999
-999
0.9708567
0.003580203
0.1297768
-999
-999
0.4182257
0.7255606
0.0654857
-999
-999
0.843789
0.2515716
0.1365549
-999
-999
0.1300051
0.8969481
0.1898407
-999
-999
0.5743841
0.5155917
0.08492561
0.0566908
-999
0.8744603
0.06312412
0.2652331
-999
-999
0.2704717
0.7233632
0.2422947
-999
-999
0.666775
0.2888333
0.2661512
0.03528416
-999
0.0002754758
0.7793472
0.4001252
-999
-999
0.373037
0.4843392
0.1898294
0.2726568
-999
0.6476244
0.06894159
0.4793021
-999
-999
0.08634183
0.572134
0.05896744
0.5161203
-999
0.3943665
0.2249551
0.4440913
0.2629598
-999
0.5028323
0.6956718
-999
-999
-999
0.1171085
0.3057325
0.3052734
0.5706683
-999
0.3084534
0.727764
0.1991126
-999
-999
0.2710687
0.1116847
0.8438538
-999
-999
0.06899913
0.03806724
0.5883249
0.5208563
-999
0.1337381
0.9537075
0.08097776
-999
-999
0.01613723
0.3418072
0.8278064
-999
-999
0.8232828
0.3583786
-999
-999
-999
0.07624035
0.9757261
0.08217706
-999
-999
0.5250368
0.6149852
0.001229631
0.03931581
-999
0.8575006
0.1254328
0.2444611
-999
-999
0.1941677
0.7300187
0.3107761
-999
-999
0.5439374
0.2891661
0.3339372
0.1392551
-999
0.6213434
0.5796806
-999
-999
-999
0.1928236
0.3410071
0.3045301
0.4840674
-999
0.3516292
0.7330372
0.1453562
-999
-999
0.2450911
0.1644187
0.8287472
-999
-999
0.05054694
0.6681165
0.4768535
-999
-999
0.04956218
0.9937053
0.03190833
-999
-999
0.417778
0.7658768
-999
-999
-999
0.8410535
0.2580984
0.1323316
-999
-999
0.1114721
0.8319877
0.2838978
-999
-999
0.4772847
0.3992
0.2491292
0.1927805
-999
0.6095237
0.5803902
-999
-999
-999
0.1008666
0.3619177
0.2416729
0.5846261
-999
0.2525339
0.7305378
0.2548313
-999
-999
0.1635687
0.1070447
0.9266662
-999
-999
0.6122653
0.5864761
-999
-999
-999
0.9667006
0.09499811
0.09026265
-999
-999
0.3052022
0.7559386
0.176155
-999
-999
0.6507577
0.242382
0.3228123
0.0468217
-999
0.610256
0.5673917
-999
-999
-999
0.2230082
0.2292867
0.4305374
0.4390894
-999
0.2630945
0.8701708
0.07725052
-999
-999
0.05712159
0.3274027
0.8240923
-999
-999
0.8265414
0.3490481
-999
-999
-999
0.07981579
0.9138104
0.2022585
-999
-999
0.4627432
0.4700813
0.1846046
0.1894835
-999
0.599232
0.5767052
-999
-999
-999
0.05175352
0.3282909
0.2407062
0.6449568
-999
0.1570392
0.7767116
0.3036848
-999
-999
0.03406559
0.1153813
0.973845
-999
-999
0.5985163
0.5642439
-999
-999
-999
0.8348339
0.03865642
0.3243626
-999
-999
0.2037776
0.5224673
0.1441445
0.4287392
-999
0.3670933
0.03836529
0.6527562
0.1948699
-999
0.2073727
0.125363
0.8873878
-999
-999
0.6616505
0.5374653
-999
-999
-999
0.9512723
0.03209284
0.1639301
-999
-999
0.3258044
0.6057958
0.08552972
0.2666476
-999
0.5221717
0.06977853
0.5594522
0.08772278
-999
0.3103847
0.147817
0.7775875
-999
-999
0.02822581
0.7104055
0.4548843
-999
-999
0.01456824
0.9867603
0.0842722
-999
-999
0.4307944
0.5884678
0.08075611
0.1685178
-999
0.6089344
0.03564198
0.5325474
0.003114836
-999
0.006215716
0.3230567
0.208636
0.6972404
-999
0.07863729
0.7845379
0.3555013
-999
-999
0.09838505
0.9719797
0.06999365
-999
-999
0.5241485
0.4925111
0.1386209
0.1209547
-999
0.6131853
0.5773335
-999
-999
-999
0.05245218
0.243369
0.3260506
0.6443452
-999
0.06593818
0.8894593
0.2449459
-999
-999
0.2056997
0.8963271
0.1111651
-999
-999
0.5841506
0.3316585
0.2724118
0.1041633
-999
0.513593
0.6812036
-999
-999
-999
0.2253893
0.170881
0.4953095
0.4149436
-999
0.6885407
0.5062101
-999
-999
-999
0.4174901
0.6662272
0.005983604
0.1251781
-999
0.9382181
0.1943431
-999
-999
-999
0.1922668
0.2407031
0.8064736
-999
-999
0.3899874
0.1213074
0.5543835
0.225676
-999
0.02485839
0.7455415
0.4216571
-999
-999
0.5902877
0.5415426
0.03771624
0.01663579
-999
0.03604805
0.9907185
0.05882691
-999
-999
0.006207133
0.1656907
0.3697344
0.6838658
-999
0.461565
0.03271217
0.6216084
0.1098158
-999
0.1286023
0.6933676
0.3945987
-999
-999
0.7019715
0.4074371
0.1041163
-999
-999
0.007067207
0.04235275
0.9965307
-999
-999
0.02981793
0.07568604
0.5030258
0.6031518
-999
0.4259992
0.7267988
0.04821896
-999
-999
0.1786096
0.5642668
0.1015021
0.4316873
-999
0.7311541
0.2772141
0.2259552
-999
-999
0.1224289
0.9576779
0.08078606
-999
-999
0.6315473
0.5484782
-999
-999
-999
0.2895149
0.8688636
0.01983473
-999
-999
0.1498269
0.375062
0.2531556
0.5257868
-999
0.6417025
0.1397762
0.4219991
0.02903912
-999
0.1544994
0.8336583
0.2453634
-999
-999
0.7009268
0.4783733
-999
-999
-999
0.08046184
0.9882693
-999
-999
-999
0.03062058
0.1410664
0.4215528
0.6410453
-999
0.4168242
0.6898361
0.1046119
-999
-999
0.09790145
0.5831524
0.05532091
0.4966546
-999
0.6146175
0.3403858
0.2439995
0.07440368
-999
0.01825629
0.9417353
0.1835231
-999
-999
0.5187134
0.6777582
-999
-999
-999
0.1045297
0.9273442
0.1618208
-999
-999
0.2335641
0.2260338
0.7807422
-999
-999
0.3332627
0.1123963
0.5726396
0.2740049
-999
0.6197373
0.5736306
-999
-999
-999
0.4064876
0.5041592
0.1641582
0.2303099
-999
0.8665473
0.122583
0.2333112
-999
-999
0.2797839
0.8592755
0.06651818
-999
-999
0.7884834
0.3971152
-999
-999
-999
0.1493715
0.04748284
0.9549172
-999
-999
0.08357897
0.1377035
0.4682037
0.5695336
-999
0.4133067
0.7251887
0.07007135
-999
-999
0.09678274
0.5028971
0.11665
0.5411347
-999
0.5531706
0.258026
0.3583478
0.1268381
-999
0.002509305
0.8294624
0.3420274
-999
-999
0.4856253
0.6160635
0.02521388
0.08565453
-999
0.9336941
0.1639916
0.08651868
-999
-999
0.2659525
0.8926176
-999
-999
-999
0.02686879
0.7492361
0.4172835
-999
-999
0.2079678
0.01108139
0.9286411
-999
-999
0.08228827
0.1789467
0.4181775
0.5891612
-999
0.3973937
0.7114324
0.1076088
-999
-999
0.04314827
0.488794
0.09562338
0.5988359
-999
0.46021
0.2639462
0.3867285
0.2083548
-999
0.7431809
0.4498965
-999
-999
-999
0.3676907
0.6022605
0.08155554
0.2232895
-999
0.8184336
0.1972187
0.2228389
-999
-999
0.1758455
0.8915612
0.151486
-999
-999
0.6764046
0.5003697
-999
-999
-999
0.9958947
0.03884685
0.02380676
-999
-999
0.4089253
0.77569
-999
-999
-999
0.06809381
0.8598141
0.2785557
-999
-999
0.1601872
0.1284306
0.9161466
-999
-999
0.08765716
0.05750113
0.5738553
0.511476
-999
0.2979102
0.8533303
0.04581122
-999
-999
0.02973837
0.2847174
0.2640873
0.6719307
-999
0.3410116
0.06105354
0.6302827
0.2340437
-999
0.4792915
0.6979597
-999
-999
-999
0.2738966
0.3132255
0.3500111
0.3943038
-999
0.572026
0.5829819
0.002362309
-999
-999
0.1285903
0.5586941
0.08781424
0.4825657
-999
0.5229548
0.2487155
0.3806978
0.1512194
-999
0.7221316
0.4699825
-999
-999
-999
0.3594852
0.5201377
0.156475
0.2708434
-999
0.7327373
0.1264432
0.3646823
-999
-999
0.1476483
0.7507841
0.331777
-999
-999
0.5886994
0.3938577
0.2039901
0.08856577
-999
0.8534009
0.3170947
-999
-999
-999
0.3578799
0.6627168
0.02841949
0.1944484
-999
0.7795914
0.2272154
0.2330266
-999
-999
0.1146412
0.8558234
0.252161
-999
-999
0.5685847
0.4990328
0.104483
0.06951702
-999
0.889905
0.05645883
0.2465331
-999
-999
0.3057988
0.7485453
0.1796124
-999
-999
0.7485628
0.3057767
0.1796203
-999
-999
0.05647799
0.8898997
0.2465318
-999
-999
0.499055
0.5685955
0.06952263
0.104472
-999
0.8558187
0.1146313
0.2521648
-999
-999
0.2272048
0.7795842
0.2330229
-999
-999
0.6627263
0.3578799
0.1944531
0.02841311
-999
0.8534009
0.317094
-999
-999
-999
0.3938577
0.58869
0.08857205
0.203996
-999
0.7507901
0.1476386
0.3317741
-999
-999
0.126453
0.7327324
0.3646786
-999
-999
0.5201471
0.3594852
0.2708493
0.1564675
-999
0.7221316
0.4699826
-999
-999
-999
0.2487155
0.5229476
0.1512269
0.3806978
-999
0.5587005
0.1285818
0.4825657
0.0877971
-999
0.5720236
0.002362309
0.5829742
-999
-999
0.3132338
0.2738892
0.39432
0.3500205
-999
0.4792942
0.6979582
-999
-999
-999
0.06106139
0.3410072
0.2340341
0.6302746
-999
0.284723
0.02974157
0.6719381
0.2640713
-999
0.2979103
0.04582026
0.8533252
-999
-999
0.05749799
0.08765045
0.5114922
0.573844
-999
0.1601912
0.9161507
0.128415
-999
-999
0.06809559
0.2785668
0.8598013
-999
-999
0.7757053
0.4089313
-999
-999
-999
0.03886132
0.9958953
0.02380465
-999
-999
0.5003636
0.6763936
-999
-999
-999
0.8915676
0.1758352
0.151488
-999
-999
0.1972295
0.8184278
0.2228326
-999
-999
0.6022707
0.367671
0.2232959
0.08154802
-999
0.7431837
0.4498949
-999
-999
-999
0.2639659
0.4602035
0.208362
0.3867203
-999
0.4888
0.04314112
0.5988394
0.09561393
-999
0.3973921
0.1076175
0.711426
-999
-999
0.1789536
0.0822908
0.5891702
0.4181603
-999
0.2079667
0.9286413
0.01106726
-999
-999
0.02686656
0.4173007
0.7492201
-999
-999
0.8926294
0.2659356
-999
-999
-999
0.1640077
0.9336867
0.08651533
-999
-999
0.6160807
0.4856147
0.08565788
0.02520386
-999
0.8294654
0.002496792
0.3420255
-999
-999
0.2580366
0.5531615
0.1268477
0.3583401
-999
0.5029079
0.09678994
0.5411384
0.1166547
-999
0.4133072
0.07007958
0.7251916
-999
-999
0.1376964
0.08357029
0.569529
0.4681861
-999
0.1493769
0.9549186
0.04748772
-999
-999
0.3971327
0.7884884
-999
-999
-999
0.859271
0.2797731
0.06651931
-999
-999
0.1225778
0.8665442
0.2333069
-999
-999
0.5041702
0.4064876
0.2303143
0.1641455
-999
0.6197373
0.5736285
-999
-999
-999
0.1123963
0.3332575
0.2740174
0.5726248
-999
0.2335728
0.7807505
0.2260227
-999
-999
0.1045294
0.1618358
0.9273381
-999
-999
0.6777696
0.5186959
-999
-999
-999
0.9417391
0.01825629
0.1835241
-999
-999
0.340403
0.6146175
0.07440129
0.2439919
-999
0.5831524
0.09789424
0.4966564
0.0553071
-999
0.4168237
0.1046199
0.6898249
-999
-999
0.1410736
0.03061496
0.6410579
0.421535
-999
0.08046558
0.988268
-999
-999
-999
0.4783913
0.7009268
-999
-999
-999
0.8336583
0.1544858
0.245363
-999
-999
0.1397762
0.6416982
0.02904484
0.4219883
-999
0.3750753
0.1498298
0.5257941
0.2531556
-999
0.2895137
0.01984691
0.8688636
-999
-999
0.5484782
0.6315356
-999
-999
-999
0.9576828
0.1224144
0.08078359
-999
-999
0.2772255
0.7311455
0.2259552
-999
-999
0.5642807
0.1785989
0.4316873
0.1014878
-999
0.4260011
0.04821896
0.726789
-999
-999
0.07569704
0.02982062
0.6031654
0.5030076
-999
0.007063929
0.9965327
0.04234348
-999
-999
0.4074551
0.7019633
0.1041093
-999
-999
0.6933759
0.128591
0.3945987
-999
-999
0.03272138
0.4615643
0.1098227
0.6216
-999
0.1657019
0.006208796
0.6838729
0.3697166
-999
0.03604674
0.05883615
0.9907147
-999
-999
0.5415608
0.5902737
0.01663885
0.03770523
-999
0.7455507
0.0248512
0.4216537
-999
-999
0.1213219
0.3899854
0.2256863
0.5543759
-999
0.1922735
0.8064772
0.2407143
-999
-999
0.1943507
0.9382241
-999
-999
-999
0.6662157
0.4174762
0.1251799
0.005989556
-999
0.6885455
0.5062138
-999
-999
-999
0.1708951
0.2253864
0.4149383
0.495292
-999
0.2946068
0.08166358
0.836801
-999
-999
0.3700278
0.2752026
0.3892798
0.291806
-999
0.8390055
0.3351155
-999
-999
-999
0.4861211
0.6917684
-999
-999
-999
0.1201579
0.9248317
0.1502919
-999
-999
0.01845673
0.3148976
0.2244326
0.6803994
-999
0.5412263
0.16694
0.4517453
0.1146293
-999
0.1022255
0.8433498
0.2730798
-999
-999
0.67395
0.5142983
-999
-999
-999
0.1490443
0.9613073
-999
-999
-999
0.1199105
0.2384736
0.3736871
0.5567985
-999
0.6006655
0.03690096
0.5326887
0.007589875
-999
0.2314298
0.74052
0.2614419
-999
-999
0.8050736
0.3512136
0.04145407
-999
-999
0.08666553
0.1076995
0.9612421
-999
-999
0.1416892
0.1048355
0.5424441
0.4760321
-999
0.5351905
0.6559922
-999
-999
-999
0.3024645
0.5700808
0.1133349
0.3033376
-999
0.8465297
0.2043085
0.1804237
-999
-999
0.2259935
0.9171509
-999
-999
-999
0.06946342
0.7191471
0.4167731
-999
-999
0.3581589
0.8173192
-999
-999
-999
0.2758512
0.3506678
0.3108087
0.390044
-999
0.7459356
0.05790822
0.4001966
-999
-999
0.2904822
0.7825438
0.1594307
-999
-999
0.8318396
0.3394177
-999
-999
-999
0.1098788
0.1111459
0.9502589
-999
-999
0.1318253
0.09933078
0.5443904
0.4845324
-999
0.4833009
0.7018143
-999
-999
-999
0.2362152
0.5200694
0.1499083
0.3919098
-999
0.7462555
0.200735
0.2857846
-999
-999
0.1666949
0.9001305
0.1449042
-999
-999
0.6981143
0.4968334
-999
-999
-999
0.1284331
0.9704663
0.003640345
-999
-999
0.04169652
0.1683789
0.3975222
0.6358478
-999
0.4134603
0.6824298
0.112753
-999
-999
0.07592849
0.5633351
0.05753289
0.525508
-999
0.56815
0.3246671
0.2820022
0.1143153
-999
0.8945512
0.2594495
-999
-999
-999
0.492173
0.6712472
0.01421082
-999
-999
0.9456892
0.179513
-999
-999
-999
0.09250347
0.2523122
0.8672708
-999
-999
0.165165
0.0001449795
0.6897354
0.3632922
-999
0.3962242
0.7844012
-999
-999
-999
0.2454544
0.3324057
0.3237583
0.4225581
-999
0.641431
0.0418455
0.4989263
-999
-999
0.1935006
0.6962258
0.000952196
0.3324722
-999
0.6983214
0.3465552
0.1762257
-999
-999
0.04421969
0.9547431
0.1485079
-999
-999
0.5391335
0.6530419
-999
-999
-999
0.03461054
0.9550985
0.1523699
-999
-999
0.1023817
0.2708556
0.8456072
-999
-999
0.1594394
0.7111737
0.3519937
-999
-999
0.3473545
0.004542921
0.8229566
-999
-999
0.1944725
0.2659609
0.3780366
0.4741617
-999
0.5313573
0.6111012
0.0280354
-999
-999
0.1283437
0.5744597
0.07419083
0.4715445
-999
0.5737185
0.2777361
0.3262609
0.10944
-999
0.8205312
0.3526656
-999
-999
-999
0.4587168
0.595135
0.05870593
0.1288171
-999
0.8918365
0.1527942
0.171367
-999
-999
0.2506187
0.8728707
0.08376065
-999
-999
0.7558556
0.4268996
-999
-999
-999
0.005813771
0.02647614
0.9984497
-999
-999
0.4951305
0.6906784
-999
-999
-999
0.1007017
0.9114565
0.1874778
-999
-999
0.1473462
0.2142953
0.8638259
-999
-999
0.1277151
0.004448513
0.6682446
0.4117715
-999
0.2891171
0.8750902
-999
-999
-999
0.07938819
0.2127642
0.3762606
0.6010403
-999
0.3519387
0.7259434
0.1457634
-999
-999
0.4046957
0.1082066
0.6986542
-999
-999
0.3135195
0.186731
0.4866575
0.326103
-999
0.5252961
0.6703342
-999
-999
-999
0.1922773
0.4129507
0.2327698
0.4705443
-999
0.5290256
0.09016756
0.531952
0.09125972
-999
0.03056696
0.5962752
0.006742386
0.5405909
-999
0.4172466
0.3229968
0.3341504
0.2502748
-999
0.6733974
0.5152354
-999
-999
-999
0.2357761
0.5478533
0.1264571
0.3804226
-999
0.6127831
0.1753634
0.4051847
0.0608185
-999
0.03748032
0.7034768
0.4508735
-999
-999
0.4428641
0.408314
0.2447877
0.2190098
-999
0.7294292
0.01109174
0.4416107
-999
-999
0.2252573
0.6148307
0.07007612
0.356075
-999
0.6148455
0.2252476
0.3560854
0.07008358
-999
0.01110902
0.7294267
0.4416125
-999
-999
0.4083236
0.4428456
0.2190028
0.2447807
-999
0.7034837
0.0374716
0.4508758
-999
-999
0.1753823
0.6127768
0.06082607
0.4051796
-999
0.5478609
0.2357669
0.3804282
0.1264491
-999
0.6733962
0.5152339
-999
-999
-999
0.323006
0.4172546
0.2502825
0.334135
-999
0.5962712
0.03055885
0.5405969
0.006726169
-999
0.09015893
0.5290209
0.09127615
0.5319408
-999
0.4129579
0.1922693
0.4705582
0.2327514
-999
0.5252962
0.6703318
-999
-999
-999
0.1867391
0.3135195
0.3261212
0.4866485
-999
0.4046957
0.6986586
0.1081876
-999
-999
0.3519331
0.1457728
0.7259308
-999
-999
0.2127763
0.07939409
0.6010581
0.3762441
-999
0.2891162
0.8750895
-999
-999
-999
0.004442258
0.1277112
0.4117878
0.6682341
-999
0.1473496
0.8638323
0.2142843
-999
-999
0.1007
0.1874883
0.91145
-999
-999
0.6906894
0.4951186
-999
-999
-999
0.005814897
0.9984508
0.02646185
-999
-999
0.4269116
0.7558401
-999
-999
-999
0.8728826
0.2506024
0.08376065
-999
-999
0.15281
0.8918293
0.1713623
-999
-999
0.5951515
0.4586959
0.1288234
0.05869596
-999
0.8205361
0.3526646
-999
-999
-999
0.277757
0.5737081
0.1094497
0.3262539
-999
0.5744701
0.1283356
0.4715481
0.07418215
-999
0.5313557
0.02804307
0.6110961
-999
-999
0.2659687
0.1944663
0.4741697
0.378047
-999
0.347357
0.8229563
0.004552117
-999
-999
0.1594365
0.3519832
0.7111838
-999
-999
0.102386
0.8455998
0.2708668
-999
-999
0.03461054
0.1523595
0.9551039
-999
-999
0.6530303
0.5391161
-999
-999
-999
0.9547471
0.0442105
0.1485085
-999
-999
0.3465725
0.6983133
0.1762286
-999
-999
0.696234
0.1934872
0.3324711
0.0009404648
-999
0.0418547
0.6414284
0.4989187
-999
-999
0.3324189
0.2454479
0.4225684
0.3237482
-999
0.3962272
0.7844008
-999
-999
-999
0.0001521342
0.1651664
0.3633024
0.6897197
-999
0.09250122
0.867281
0.252301
-999
-999
0.1795289
0.9456834
-999
-999
-999
0.6712586
0.4921564
0.01420848
-999
-999
0.8945549
0.2594466
-999
-999
-999
0.3246837
0.5681431
0.1143235
0.2819907
-999
0.5633421
0.07591767
0.5255113
0.05752377
-999
0.4134586
0.1127651
0.6824226
-999
-999
0.1683894
0.04169008
0.635856
0.3975106
-999
0.1284364
0.003649098
0.9704649
-999
-999
0.4968452
0.6981034
-999
-999
-999
0.9001371
0.1666997
0.1449038
-999
-999
0.2007459
0.7462578
0.2857784
-999
-999
0.5200645
0.2362078
0.3919135
0.1499083
-999
0.4833026
0.7018143
-999
-999
-999
0.09933851
0.1318204
0.4845324
0.5443673
-999
0.1098845
0.9502648
0.1111358
-999
-999
0.3394405
0.8318309
-999
-999
-999
0.7825535
0.2904724
0.159432
-999
-999
0.05791794
0.7459347
0.4001992
-999
-999
0.3506775
0.2758425
0.3900413
0.3108087
-999
0.3581648
0.8173192
-999
-999
-999
0.06946342
0.4167731
0.7191305
-999
-999
0.9171612
0.2259777
-999
-999
-999
0.2043249
0.8465226
0.1804152
-999
-999
0.5700966
0.3024645
0.3033416
0.1133258
-999
0.5351905
0.6559876
-999
-999
-999
0.1048355
0.1416849
0.4760407
0.5424265
-999
0.08667176
0.9612461
0.1076895
-999
-999
0.3512309
0.8050655
0.04145695
-999
-999
0.7405296
0.2314211
0.2614417
-999
-999
0.03691041
0.6006654
0.007586916
0.5326818
-999
0.2384822
0.1199066
0.5568049
0.3736754
-999
0.1490475
0.9613054
-999
-999
-999
0.5143099
0.6739346
-999
-999
-999
0.8433598
0.1022132
0.2730798
-999
-999
0.1669555
0.5412225
0.1146293
0.4517364
-999
0.3149095
0.01845337
0.6804032
0.2244216
-999
0.1201593
0.1503012
0.9248254
-999
-999
0.6917796
0.4861026
-999
-999
-999
0.8390105
0.3351111
-999
-999
-999
0.275221
0.3700308
0.2918113
0.3892851
-999
0.2946023
0.8368008
0.08165118
-999
-999
0.1488803
0.7766604
0.3026911
-999
-999
0.4590238
0.04848828
0.6829498
-999
-999
0.5141038
0.351123
0.2763903
0.1584113
-999
0.945074
0.1780507
-999
-999
-999
0.5334126
0.6581925
-999
-999
-999
0.2641828
0.8613452
0.08132008
-999
-999
0.1311074
0.4229469
0.1980693
0.5309638
-999
0.689484
0.1833762
0.3439776
0.002521765
-999
0.1825385
0.8927569
0.1364887
-999
-999
0.7376481
0.4471667
-999
-999
-999
0.2632541
0.01366292
0.8877717
-999
-999
0.2474442
0.2884541
0.3668883
0.4163893
-999
0.7306502
0.01774637
0.4349349
-999
-999
0.3439385
0.7417548
0.136118
-999
-999
0.8882831
0.2684562
-999
-999
-999
0.1578814
0.1779845
0.8823528
-999
-999
0.2649516
0.1110348
0.5690198
0.3388498
-999
0.6268206
0.5672531
-999
-999
-999
0.4408775
0.5355298
0.1213966
0.1778927
-999
0.9379831
0.1134821
0.1294372
-999
-999
0.3426273
0.8293144
-999
-999
-999
0.1656116
0.7900553
0.2756006
-999
-999
0.4027319
0.07060583
0.731513
-999
-999
0.4129975
0.2932893
0.3625439
0.250754
-999
0.8175074
0.3598949
-999
-999
-999
0.4459898
0.681859
0.0678811
-999
-999
0.9378693
0.1919664
-999
-999
-999
0.1154823
0.2479965
0.8551686
-999
-999
0.232926
0.03370569
0.6601401
0.3179154
-999
0.5119583
0.6701719
-999
-999
-999
0.3883661
0.4133763
0.2478185
0.2679766
-999
0.8386365
0.05511967
0.3054059
-999
-999
0.3430293
0.7848721
0.08564664
-999
-999
0.8635752
0.3025553
-999
-999
-999
0.120297
0.1405419
0.9289958
-999
-999
0.1417934
0.07321688
0.5812175
0.4526413
-999
0.4485394
0.7391192
-999
-999
-999
0.2285349
0.4438681
0.2129148
0.4225534
-999
0.6951925
0.1350832
0.3825011
-999
-999
0.1739645
0.8153809
0.2424771
-999
-999
0.7098453
0.4381233
0.04506556
-999
-999
0.01730325
0.9987895
0.01236679
-999
-999
0.4948422
0.6756094
-999
-999
-999
0.2060136
0.8695095
0.14552
-999
-999
0.3050294
0.1957481
0.7257273
-999
-999
0.3685402
0.1324695
0.5411654
0.2479447
-999
0.6200055
0.5681421
-999
-999
-999
0.3961278
0.4677932
0.1953343
0.2475242
-999
0.8223029
0.08515519
0.3052641
-999
-999
0.2810977
0.7968069
0.1512323
-999
-999
0.7999505
0.3541092
0.04201115
-999
-999
0.08859998
0.984753
0.00263504
-999
-999
0.5801091
0.601789
-999
-999
-999
0.1645767
0.9286907
0.09182958
-999
-999
0.2002245
0.2886088
0.7408188
-999
-999
0.2887788
0.02099231
0.6777183
0.2504356
-999
0.4527528
0.01967011
0.7104976
-999
-999
0.3118857
0.2973316
0.365561
0.3497536
-999
0.6396443
0.5364301
-999
-999
-999
0.2289539
0.5973872
0.08302165
0.3597237
-999
0.6833006
0.2348474
0.2998753
0.0149187
-999
0.07921022
0.8468
0.282209
-999
-999
0.5689084
0.5263746
0.06778906
0.04784716
-999
0.9460782
0.07025596
0.1482854
-999
-999
0.357609
0.8008323
0.03332357
-999
-999
0.8516276
0.3139721
-999
-999
-999
0.003517186
0.1252948
0.9710256
-999
-999
0.6199956
0.5678341
-999
-999
-999
0.1041094
0.9659895
0.07423222
-999
-999
0.09037602
0.346
0.7787452
-999
-999
0.1464802
0.7959768
0.2863225
-999
-999
0.2337293
0.09323603
0.8798662
-999
-999
0.1186888
0.09632946
0.5392516
0.4971673
-999
0.3195565
0.8344994
0.03700077
-999
-999
0.03218169
0.274875
0.2733408
0.6648398
-999
0.3204359
0.02761745
0.6668377
0.225527
-999
0.4129273
0.03932863
0.7419903
-999
-999
0.2384254
0.2196606
0.4388735
0.4136365
-999
0.4683602
0.7040197
0.0003115777
-999
-999
0.1023033
0.397053
0.2061595
0.5686958
-999
0.4222377
0.09696199
0.5674574
0.1810451
-999
0.515201
0.6519033
-999
-999
-999
0.2931949
0.285903
0.3760905
0.3678276
-999
0.533994
0.6381449
-999
-999
-999
0.1222984
0.4468956
0.1730731
0.5328863
-999
0.4469073
0.1223066
0.5328993
0.1730554
-999
0.5339961
0.6381399
-999
-999
-999
0.2858951
0.2931873
0.3678448
0.3760817
-999
0.5152034
0.6519058
-999
-999
-999
0.09696998
0.4222324
0.1810542
0.5674506
-999
0.3970588
0.1022957
0.5687026
0.2061689
-999
0.4683587
0.0003199541
0.7040223
-999
-999
0.2196679
0.2384122
0.4136273
0.4388638
-999
0.4129323
0.7419931
0.03931072
-999
-999
0.02763178
0.3204276
0.2255367
0.6668224
-999
0.2748854
0.03216882
0.6648552
0.2733302
-999
0.319555
0.0370186
0.8344964
-999
-999
0.09634186
0.1186838
0.4971777
0.53923
-999
0.2337316
0.8798729
0.09322628
-999
-999
0.1464747
0.2863441
0.7959681
-999
-999
0.09038424
0.7787542
0.3459827
-999
-999
0.1041091
0.07424191
0.965985
-999
-999
0.5678516
0.6199781
-999
-999
-999
0.003519054
0.971032
0.1252795
-999
-999
0.3139893
0.8516145
-999
-999
-999
0.8008471
0.3576204
0.03332708
-999
-999
0.07027065
0.9460806
0.1482825
-999
-999
0.5263631
0.5689084
0.04785386
0.06779195
-999
0.8468
0.07919645
0.2822088
-999
-999
0.2348474
0.683291
0.01491565
0.299878
-999
0.5973998
0.2289405
0.3597215
0.08302566
-999
0.639643
0.5364318
-999
-999
-999
0.2973448
0.3118789
0.3497497
0.3655517
-999
0.4527563
0.710499
0.01967011
-999
-999
0.02099982
0.2887756
0.2504451
0.6777183
-999
0.2002298
0.7408188
0.2885921
-999
-999
0.1645766
0.09182958
0.9286844
-999
-999
0.6018058
0.5800971
-999
-999
-999
0.9847561
0.08860487
0.002634187
-999
-999
0.3541209
0.799955
0.04200667
-999
-999
0.7968025
0.2811028
0.1512341
-999
-999
0.08515029
0.8223042
0.3052602
-999
-999
0.467788
0.396132
0.2475293
0.1953219
-999
0.6200037
0.5681412
-999
-999
-999
0.1324651
0.3685339
0.247957
0.5411517
-999
0.3050379
0.7257349
0.1957324
-999
-999
0.2060134
0.1455342
0.8695
-999
-999
0.6756251
0.4948483
-999
-999
-999
0.9987891
0.01731241
0.0123644
-999
-999
0.4381174
0.709855
0.04505718
-999
-999
0.8153734
0.1739504
0.2424782
-999
-999
0.1350731
0.6951873
0.3824952
-999
-999
0.4438817
0.2285243
0.4225584
0.2129003
-999
0.4485423
0.7391145
-999
-999
-999
0.07322811
0.1417901
0.4526556
0.5812231
-999
0.1203008
0.9289939
0.1405262
-999
-999
0.3025498
0.8635627
-999
-999
-999
0.784887
0.3430188
0.08564601
-999
-999
0.05513419
0.8386356
0.3054017
-999
-999
0.4133869
0.3883591
0.2679816
0.2478185
-999
0.5119626
0.6701719
-999
-999
-999
0.03371361
0.232926
0.3179154
0.6601504
-999
0.1154823
0.8551624
0.2479798
-999
-999
0.1919559
0.9378605
-999
-999
-999
0.6818759
0.4459744
0.06788297
-999
-999
0.8175106
0.3598899
-999
-999
-999
0.2933048
0.4130002
0.2507628
0.3625343
-999
0.4027291
0.7315142
0.07059608
-999
-999
0.1656116
0.2756102
0.7900459
-999
-999
0.8293231
0.3426103
-999
-999
-999
0.1134922
0.9379791
0.129433
-999
-999
0.5355469
0.4408651
0.1778958
0.1214008
-999
0.6268269
0.5672545
-999
-999
-999
0.1110481
0.2649488
0.3388458
0.5690089
-999
0.1578866
0.8823567
0.1779686
-999
-999
0.268467
0.888272
-999
-999
-999
0.7417706
0.3439434
0.1361188
-999
-999
0.01776031
0.7306499
0.4349296
-999
-999
0.2884492
0.2474397
0.4163951
0.3668774
-999
0.2632582
0.8877705
0.01365366
-999
-999
0.4471776
0.7376375
-999
-999
-999
0.8927644
0.1825385
0.1364875
-999
-999
0.1833868
0.689484
0.002526345
0.3439663
-999
0.4229469
0.1311021
0.5309687
0.1980537
-999
0.264185
0.08133225
0.8613361
-999
-999
0.6582081
0.5333984
-999
-999
-999
0.9450772
0.1780524
-999
-999
-999
0.3511373
0.5140982
0.1584093
0.2763765
-999
0.4590306
0.6829493
0.04847377
-999
-999
0.1488802
0.3027048
0.7766454
-999
-999
0.06983223
0.3118245
0.8235332
-999
-999
0.3114382
0.00553663
0.6909934
0.2143247
-999
0.05215485
0.6106048
0.007690148
0.5094243
-999
0.6485421
0.3872159
0.1645163
0.0275186
-999
0.05082921
0.9904785
0.03878642
-999
-999
0.01683734
0.02405506
0.5565199
0.5738693
-999
0.4147399
0.7589288
-999
-999
-999
0.2545959
0.5033798
0.1635239
0.3747148
-999
0.8233897
0.1681863
0.2364444
-999
-999
0.2644795
0.8852299
0.01353075
-999
-999
0.0859484
0.7753474
0.3498947
-999
-999
0.3709307
0.04764749
0.7785967
-999
-999
0.3881719
0.3082311
0.3488214
0.2731431
-999
0.837994
0.3320848
-999
-999
-999
0.4643608
0.6944134
0.02011458
-999
-999
0.05101664
0.9405947
0.1675661
-999
-999
0.2129628
0.251726
0.7661068
-999
-999
0.3959527
0.09178926
0.5779197
0.1997193
-999
0.0328175
0.6869227
0.4634511
-999
-999
0.589933
0.4618352
0.1232832
0.05765206
-999
0.9884425
0.01201314
0.07247978
-999
-999
0.0002625413
0.4697132
0.7005298
-999
-999
0.2581759
0.8314273
0.133256
-999
-999
0.0525509
0.4132
0.1600383
0.6147212
-999
0.5530194
0.2071714
0.4012704
0.1131935
-999
0.06404257
0.8375331
0.2996046
-999
-999
0.6153401
0.5405546
0.002531616
-999
-999
0.02102274
0.9941529
0.04517836
-999
-999
0.09245905
0.403939
0.7088485
-999
-999
0.3219132
0.7497213
0.1514478
-999
-999
0.04418439
0.4899952
0.0919829
0.5899899
-999
0.5415627
0.2746262
0.3390853
0.1327608
-999
0.01440073
0.8618644
0.2938331
-999
-999
0.5415546
0.6097509
0.007616877
-999
-999
0.9762197
0.1117979
-999
-999
-999
0.07611847
0.33446
0.7979539
-999
-999
0.224469
0.7513313
0.2537316
-999
-999
0.4212905
0.05947568
0.7162612
-999
-999
0.3815867
0.2798249
0.3787415
0.2772879
-999
0.7453214
0.4405949
-999
-999
-999
0.3813969
0.6384217
0.03891021
0.1779982
-999
0.8828894
0.1982468
0.1308265
-999
-999
0.2334091
0.908264
0.01065488
-999
-999
0.7482229
0.4258085
-999
-999
-999
0.1879837
0.02200296
0.935804
-999
-999
0.09810569
0.1573018
0.4495001
0.5547477
-999
0.425251
0.7171482
0.051991
-999
-999
0.11223
0.4820411
0.1373578
0.5275745
-999
0.5636237
0.2065849
0.396617
0.1043601
-999
0.03747439
0.7857519
0.3689857
-999
-999
0.5375533
0.5165955
0.0960002
0.08525144
-999
0.9419806
0.06778256
0.1550701
-999
-999
0.3710606
0.7971597
0.006405164
-999
-999
0.8695647
0.2922702
-999
-999
-999
0.08621154
0.146958
0.9398691
-999
-999
0.06147929
0.003090312
0.6249611
0.4920222
-999
0.2765456
0.8786848
0.001896581
-999
-999
0.07529119
0.2508787
0.3292752
0.6087276
-999
0.4083189
0.01060834
0.6589644
0.1331633
-999
0.01978652
0.507223
0.06198088
0.6021639
-999
0.4345344
0.266961
0.3826558
0.2261646
-999
0.7083345
0.4831395
-999
-999
-999
0.3497939
0.5510833
0.1234442
0.2595842
-999
0.7798824
0.143658
0.30111
-999
-999
0.1931021
0.8096123
0.2279359
-999
-999
0.6954634
0.4035588
0.1061572
-999
-999
0.01419796
0.9604957
0.1441149
-999
-999
0.5004313
0.6712745
-999
-999
-999
0.9436951
0.1709034
0.03067709
-999
-999
0.2670268
0.8885747
-999
-999
-999
0.7748457
0.4064778
-999
-999
-999
0.06731994
0.04621197
0.9852279
-999
-999
0.5272375
0.6402289
-999
-999
-999
0.1276163
0.9266061
0.1352225
-999
-999
0.1270688
0.2712416
0.8239067
-999
-999
0.1279775
0.7428763
0.3475481
-999
-999
0.227695
0.04454371
0.9038649
-999
-999
0.06997609
0.1001198
0.5005605
0.56059
-999
0.266933
0.8542006
0.08681793
-999
-999
0.2344101
0.2566192
0.7365745
-999
-999
0.2336487
0.003261626
0.6964833
0.2889845
-999
0.3207725
0.04064536
0.8300685
-999
-999
0.1394745
0.150353
0.4817241
0.5001916
-999
0.3341819
0.8118029
0.05282726
-999
-999
0.0103007
0.2706874
0.2576951
0.6891529
-999
0.2706963
0.01028762
0.6891685
0.2577053
-999
0.3341786
0.0528454
0.8118062
-999
-999
0.1503651
0.1394686
0.5001815
0.4817241
-999
0.320774
0.8300685
0.04063623
-999
-999
0.003268079
0.2336445
0.2889845
0.6964748
-999
0.2344143
0.736582
0.2566088
-999
-999
0.2669344
0.08682731
0.8541966
-999
-999
0.1001143
0.06997085
0.5606004
0.5005495
-999
0.2276965
0.903867
0.04453435
-999
-999
0.1279705
0.347559
0.7428669
-999
-999
0.1270758
0.8239144
0.2712416
-999
-999
0.1276151
0.1352326
0.9266061
-999
-999
0.6402289
0.5272258
-999
-999
-999
0.06732215
0.9852296
0.04620246
-999
-999
0.4064894
0.7748354
-999
-999
-999
0.8885826
0.2670101
-999
-999
-999
0.1709139
0.9436869
0.03067709
-999
-999
0.6712914
0.500414
-999
-999
-999
0.9604977
0.01418439
0.1441144
-999
-999
0.403576
0.6954492
0.1061522
-999
-999
0.8096228
0.1930872
0.227938
-999
-999
0.143673
0.7798754
0.3011041
-999
-999
0.5510977
0.3497987
0.2595917
0.1234327
-999
0.708334
0.4831376
-999
-999
-999
0.2669563
0.4345377
0.2261756
0.3826477
-999
0.5072204
0.0197901
0.602167
0.06198088
-999
0.01060439
0.4083203
0.1331719
0.6589644
-999
0.2508754
0.0752854
0.6087276
0.3292591
-999
0.2765465
0.001896581
0.8786814
-999
-999
0.003096283
0.06147929
0.4920384
0.6249667
-999
0.08621154
0.939867
0.1469476
-999
-999
0.2922646
0.8695564
-999
-999
-999
0.7971696
0.3710437
0.006404252
-999
-999
0.06779228
0.9419776
0.1550676
-999
-999
0.5166125
0.5375435
0.08525556
0.0959903
-999
0.7857562
0.03746607
0.3689855
-999
-999
0.2065949
0.5636183
0.1043699
0.396617
-999
0.4820483
0.1122193
0.5275745
0.1373438
-999
0.4252501
0.051991
0.7171401
-999
-999
0.1573123
0.09809882
0.5547609
0.4494832
-999
0.1879873
0.9358044
0.02199361
-999
-999
0.4258254
0.7482123
-999
-999
-999
0.9082713
0.2333932
0.01065537
-999
-999
0.1982575
0.8828813
0.1308224
-999
-999
0.6384376
0.3813823
0.1780012
0.03891765
-999
0.7453233
0.4405977
-999
-999
-999
0.2798395
0.3815809
0.2772813
0.3787321
-999
0.4212954
0.7162628
0.05946625
-999
-999
0.2244666
0.253741
0.7513223
-999
-999
0.07612624
0.797962
0.3344485
-999
-999
0.1118077
0.976216
-999
-999
-999
0.6097625
0.5415599
0.007616877
-999
-999
0.8618626
0.0143926
0.2938314
-999
-999
0.2746208
0.541557
0.1327664
0.339073
-999
0.490002
0.04418439
0.5899935
0.09197339
-999
0.3219132
0.1514605
0.7497137
-999
-999
0.09245905
0.7088571
0.4039273
-999
-999
0.02102086
0.04518756
0.994151
-999
-999
0.5405664
0.6153299
0.002522298
-999
-999
0.8375384
0.06403024
0.2996027
-999
-999
0.2071817
0.553013
0.1132023
0.4012623
-999
0.4132111
0.05254526
0.6147246
0.1600231
-999
0.2581765
0.1332646
0.8314168
-999
-999
0.0002684254
0.7005444
0.4696955
-999
-999
0.01202671
0.9884425
0.07247546
-999
-999
0.4618528
0.5899247
0.05765704
0.1232721
-999
0.6869289
0.032821
0.4634497
-999
-999
0.09179842
0.3959537
0.1997301
0.5779197
-999
0.2129596
0.7661068
0.2517149
-999
-999
0.05101787
0.1675661
0.9405888
-999
-999
0.6944245
0.4643503
0.02011573
-999
-999
0.8379962
0.3320809
-999
-999
-999
0.3082416
0.3881669
0.2731483
0.3488264
-999
0.3709362
0.7785967
0.04763307
-999
-999
0.08594796
0.3498898
0.7753322
-999
-999
0.8852418
0.2644693
0.01353005
-999
-999
0.168202
0.8233865
0.2364383
-999
-999
0.5033901
0.2545862
0.3747177
0.1635287
-999
0.414744
0.7589315
-999
-999
-999
0.02406584
0.0168346
0.5738647
0.5565258
-999
0.9904773
0.0508336
0.03878436
-999
-999
0.3872101
0.6485456
0.02752084
0.1645086
-999
0.6106009
0.05214558
0.5094237
0.007683315
-999
0.005532398
0.3114379
0.2143324
0.6909862
-999
0.06984147
0.8235384
0.3118245
-999
-999
0.02765231
0.9642199
0.1307341
-999
-999
0.1994467
0.3057913
0.7138399
-999
-999
0.4839349
0.06117393
0.5744742
0.1063904
-999
0.1511646
0.73005
0.3361154
-999
-999
0.7619975
0.377922
0.05843278
-999
-999
0.06867629
0.09780081
0.9684103
-999
-999
0.1502559
0.09442839
0.5542275
0.4540796
-999
0.5624222
0.630817
-999
-999
-999
0.387366
0.5439172
0.1223408
0.2226477
-999
0.9285063
0.1235167
0.1322747
-999
-999
0.3457443
0.8210585
-999
-999
-999
0.2129801
0.7819069
0.2340928
-999
-999
0.4610605
0.07961258
0.6444845
-999
-999
0.5386245
0.293438
0.3189675
0.1344186
-999
0.03108958
0.9064881
0.2272069
-999
-999
0.5881737
0.6028467
-999
-999
-999
0.1431702
0.9510781
0.05721403
-999
-999
0.06179592
0.2436597
0.3258119
0.6224074
-999
0.5268264
0.04773025
0.5642827
0.06492419
-999
0.1622675
0.7020095
0.3486339
-999
-999
0.740452
0.3559297
0.1164113
-999
-999
0.09228478
0.9820989
0.009609667
-999
-999
0.0140954
0.6004123
0.5424942
-999
-999
0.33616
0.8299617
-999
-999
-999
0.1875539
0.3825146
0.2541945
0.4739223
-999
0.6795418
0.1001997
0.4183128
-999
-999
0.2168996
0.7922028
0.2198651
-999
-999
0.7833878
0.373686
0.02863298
-999
-999
0.0454801
0.09027499
0.9774472
-999
-999
0.06052705
0.04027346
0.5708544
0.5269428
-999
0.3822049
0.7894094
-999
-999
-999
0.1898066
0.4135359
0.2263824
0.4658306
-999
0.6712925
0.1196499
0.4085791
-999
-999
0.1855209
0.7964946
0.2458377
-999
-999
0.7424054
0.4010573
0.05057443
-999
-999
0.05822898
0.992538
-999
-999
-999
0.554511
0.5979125
-999
-999
-999
0.2694128
0.8643176
0.05906061
-999
-999
0.07599636
0.3288324
0.2503403
0.605721
-999
0.5050465
0.09711646
0.5298045
0.1099195
-999
0.07425383
0.6877234
0.4321514
-999
-999
0.5931961
0.4041401
0.1799967
0.07281272
-999
0.9419181
0.1817906
-999
-999
-999
0.4893544
0.6909431
-999
-999
-999
0.02376228
0.9454457
0.1687098
-999
-999
0.1078418
0.265896
0.8401679
-999
-999
0.1872737
0.7119681
0.3185201
-999
-999
0.3838794
0.02278051
0.7764835
-999
-999
0.2762499
0.2678979
0.3890205
0.3791814
-999
0.6261759
0.5513642
-999
-999
-999
0.2569702
0.5872195
0.09134297
0.3322442
-999
0.7399217
0.2081362
0.2761815
-999
-999
0.1448211
0.8668374
0.20445
-999
-999
0.6740795
0.4764253
0.02546003
-999
-999
0.9955942
0.001335707
0.04222215
-999
-999
0.4742185
0.7128801
-999
-999
-999
0.08731373
0.9153509
0.1840963
-999
-999
0.1519737
0.2292209
0.8411169
-999
-999
0.1773184
0.00482326
0.6816925
0.3502671
-999
0.3536572
0.001004326
0.8132751
-999
-999
0.1945825
0.2416124
0.3986128
0.4636614
-999
0.503486
0.652255
0.01104451
-999
-999
0.1370957
0.4947303
0.1368539
0.4947399
-999
0.5531276
0.1791152
0.4263361
0.1043095
-999
0.0276635
0.715467
0.4393058
-999
-999
0.4882309
0.436849
0.1962347
0.162717
-999
0.8373726
0.01797993
0.3198482
-999
-999
0.3395424
0.6965271
0.176757
-999
-999
0.8170333
0.2392824
0.1696537
-999
-999
0.1559854
0.9009688
0.1463519
-999
-999
0.6699305
0.4856279
0.0159773
-999
-999
0.9858113
0.009011159
0.08055788
-999
-999
0.4544608
0.7275047
-999
-999
-999
0.9228691
0.2131472
-999
-999
-999
0.2275514
0.9142202
-999
-999
-999
0.7427996
0.4404174
-999
-999
-999
0.05672754
0.02202249
0.991291
-999
-999
0.5075685
0.667962
-999
-999
-999
0.08455697
0.9344819
0.1553065
-999
-999
0.07695736
0.2699228
0.8550538
-999
-999
0.06151278
0.7679665
0.3707363
-999
-999
0.1388459
0.0579416
0.9531356
-999
-999
0.0156461
0.5444598
0.5962976
-999
-999
0.1483967
0.9315539
0.1002435
-999
-999
0.1033437
0.3123748
0.7988786
-999
-999
0.1033504
0.798896
0.3123637
-999
-999
0.148398
0.1002631
0.9315499
-999
-999
0.01564151
0.5963088
0.5444484
-999
-999
0.1388459
0.9531378
0.05793212
-999
-999
0.06150949
0.3707475
0.7679569
-999
-999
0.07696027
0.8550617
0.2699118
-999
-999
0.08455558
0.1553168
0.9344765
-999
-999
0.6679729
0.5075451
-999
-999
-999
0.05672812
0.9912929
0.02201325
-999
-999
0.4404408
0.742789
-999
-999
-999
0.9142272
0.2275406
-999
-999
-999
0.2131579
0.9228625
-999
-999
-999
0.7275153
0.4544492
-999
-999
-999
0.009020275
0.9858109
0.0805571
-999
-999
0.4856396
0.6699412
0.01596822
-999
-999
0.9009631
0.1559854
0.1463544
-999
-999
0.2392717
0.8170333
0.1696499
-999
-999
0.6965271
0.3395321
0.1767606
-999
-999
0.01797993
0.8373713
0.3198443
-999
-999
0.4368593
0.4882219
0.1627285
0.1962277
-999
0.715471
0.02765125
0.4393069
-999
-999
0.1791245
0.5531192
0.1043167
0.4263265
-999
0.4947407
0.1370841
0.4947474
0.1368406
-999
0.5034841
0.01105615
0.6522489
-999
-999
0.2416236
0.1945766
0.4636738
0.3985976
-999
0.3536594
0.8132762
0.0009910541
-999
-999
0.004829893
0.1773184
0.3502823
0.6816778
-999
0.1519737
0.8411266
0.2292264
-999
-999
0.08731262
0.1841116
0.9153543
-999
-999
0.7128747
0.4742068
-999
-999
-999
0.001331192
0.9955942
0.04222082
-999
-999
0.476437
0.6740846
0.02546003
-999
-999
0.8668342
0.1448115
0.20445
-999
-999
0.208131
0.7399161
0.2761815
-999
-999
0.5872284
0.2569572
0.3322442
0.09133486
-999
0.6261758
0.5513606
-999
-999
-999
0.2679108
0.2762499
0.3791888
0.3890058
-999
0.3838794
0.776485
0.02277136
-999
-999
0.1872699
0.3185349
0.7119583
-999
-999
0.1078485
0.8401749
0.2658794
-999
-999
0.02376233
0.16872
0.9454371
-999
-999
0.6909598
0.4893374
-999
-999
-999
0.9419199
0.1817877
-999
-999
-999
0.4041569
0.5931879
0.0728197
0.1800036
-999
0.6877296
0.07426165
0.4321505
-999
-999
0.09712557
0.5050495
0.1099123
0.5297971
-999
0.3288254
0.07599075
0.6057268
0.2503456
-999
0.2694137
0.0590692
0.86432
-999
-999
0.5979074
0.5544934
-999
-999
-999
0.9925411
0.05822898
-999
-999
-999
0.4010747
0.7424054
0.05056624
-999
-999
0.7964946
0.1855118
0.2458387
-999
-999
0.1196499
0.6712896
0.4085699
-999
-999
0.4135446
0.189797
0.4658379
0.2263874
-999
0.3822075
0.7894114
-999
-999
-999
0.04028378
0.06052419
0.5269379
0.5708429
-999
0.04548334
0.97745
0.09026048
-999
-999
0.3736974
0.7833747
0.02862771
-999
-999
0.7922156
0.2168859
0.2198656
-999
-999
0.1002143
0.6795386
0.4183159
-999
-999
0.3825279
0.1875481
0.4739197
0.2541945
-999
0.3361624
0.8299617
-999
-999
-999
0.01409219
0.5424942
0.6003949
-999
-999
0.9821039
0.09227058
0.009607182
-999
-999
0.3559469
0.7404406
0.1164144
-999
-999
0.7020221
0.1622557
0.3486336
-999
-999
0.04774386
0.5268249
0.06492097
0.5642753
-999
0.2436713
0.06179592
0.6224136
0.3258007
-999
0.1431702
0.05722267
0.9510742
-999
-999
0.602858
0.5881628
-999
-999
-999
0.9064922
0.03108153
0.2272081
-999
-999
0.2934489
0.5386194
0.1344161
0.3189545
-999
0.4610674
0.644486
0.07959813
-999
-999
0.2129801
0.2341059
0.7818932
-999
-999
0.821071
0.3457331
-999
-999
-999
0.1235317
0.9285037
0.13227
-999
-999
0.5439283
0.3873585
0.2226503
0.122332
-999
0.5624259
0.6308129
-999
-999
-999
0.0944366
0.1502571
0.4540878
0.554216
-999
0.06867408
0.9684126
0.0977937
-999
-999
0.3779333
0.7619915
0.05843746
-999
-999
0.7300565
0.151157
0.336116
-999
-999
0.06118092
0.4839343
0.1063857
0.5744613
-999
0.1994541
0.7138483
0.3057773
-999
-999
0.02765393
0.1307481
0.9642142
-999
-999
0.5383267
0.6501688
-999
-999
-999
0.1791361
0.9240466
0.07130504
-999
-999
0.1119156
0.319193
0.2798117
0.5627975
-999
0.6562514
0.08931682
0.4421417
-999
-999
0.2520456
0.7978016
0.1744455
-999
-999
0.8420275
0.3256732
-999
-999
-999
0.1852182
0.1390273
0.8840218
-999
-999
0.2991392
0.1430817
0.5269789
0.3157626
-999
0.6931825
0.4896591
-999
-999
-999
0.5257682
0.5368487
0.0758522
0.08122237
-999
0.9893517
0.05518267
0.03340136
-999
-999
0.05986331
0.4225168
0.7091705
-999
-999
0.3462992
0.7542071
0.1106369
-999
-999
0.1213832
0.5205843
0.1078608
0.4963638
-999
0.690678
0.2444606
0.2769726
0.004543509
-999
0.1437054
0.9211004
0.1225908
-999
-999
0.7068489
0.4774469
-999
-999
-999
0.2270288
0.0004203231
0.9121599
-999
-999
0.1937275
0.242926
0.3950789
0.4629388
-999
0.64351
0.5246091
-999
-999
-999
0.3130892
0.6633507
0.02529792
0.2271866
-999
0.8753093
0.2285253
0.09820619
-999
-999
0.003451244
0.2286778
0.9104704
-999
-999
0.1167401
0.7215785
0.3694898
-999
-999
0.385865
0.01391476
0.7765148
-999
-999
0.3369379
0.310423
0.3459039
0.3190444
-999
0.7685862
0.4055932
-999
-999
-999
0.395263
0.6807755
0.1238538
-999
-999
0.9224257
0.1978124
0.04040959
-999
-999
0.04193471
0.2597456
0.8775749
-999
-999
0.1568785
0.7294098
0.3293251
-999
-999
0.3959605
0.02907688
0.7588834
-999
-999
0.344306
0.2907759
0.3657771
0.3104814
-999
0.742768
0.4377097
-999
-999
-999
0.3852393
0.6466107
0.02577245
0.1624779
-999
0.9039999
0.1864863
0.1030066
-999
-999
0.2631855
0.8893154
-999
-999
-999
0.05851119
0.7736007
0.3649353
-999
-999
0.2589364
0.05661141
0.8723338
-999
-999
0.2121204
0.18648
0.4637882
0.4265803
-999
0.5586169
0.6250204
-999
-999
-999
0.2662813
0.5277363
0.1403229
0.3483327
-999
0.7567409
0.1593303
0.303745
-999
-999
0.2007082
0.8424454
0.1781108
-999
-999
0.7498584
0.4105753
0.01702183
-999
-999
0.001469331
0.05405163
0.9930444
-999
-999
0.5559398
0.6066138
-999
-999
-999
0.2126946
0.9007081
0.07261036
-999
-999
0.01990367
0.2485124
0.2860447
0.6727862
-999
0.3868328
0.03444383
0.6374302
0.1674384
-999
