0.004190939
0.1169628
0.9357821
-999
-999
0.1365404
0.882101
0.0836736
-999
-999
0.1298397
0.06979026
0.5014873
0.3974028
-999
0.3899198
0.08619986
0.5925515
-999
-999
0.6002784
0.5157995
-999
-999
-999
0.5360045
0.2765355
0.2330502
0.05962729
-999
0.2532724
0.7045906
0.1490882
-999
-999
0.9599763
0.09192326
-999
-999
-999
0.8048957
0.3082341
-999
-999
-999
0.3924363
0.7150233
-999
-999
-999
0.1489947
0.9170862
-999
-999
-999
0.2301929
0.7240861
0.1575966
-999
-999
0.1408561
0.2293921
0.3188102
0.4390438
-999
0.5355554
0.549455
-999
-999
-999
0.6400376
0.03961707
0.3980024
-999
-999
0.4514915
0.443255
0.1053885
0.10042
-999
0.1250589
0.8376871
0.1517709
-999
-999
0.9389371
0.07242283
0.05624575
-999
-999
0.6457347
0.4825667
-999
-999
-999
0.2197864
0.864051
-999
-999
-999
0.1271757
0.9291984
0.004409367
-999
-999
0.1257959
0.6124919
0.3404684
-999
-999
0.273537
0.1878049
0.6234629
-999
-999
0.4765368
0.6515557
-999
-999
-999
0.4489788
0.1484467
0.3994322
0.1165743
-999
0.2138031
0.5339129
0.06019448
0.2970367
-999
0.80633
0.3061683
-999
-999
-999
0.7367555
0.2382083
0.137105
-999
-999
0.3918661
0.6768425
0.009777348
-999
-999
0.01871616
0.9791335
0.01257083
-999
-999
0.8714052
0.2285671
-999
-999
-999
0.4628071
0.6448885
-999
-999
-999
0.1174276
0.04926547
0.9164537
-999
-999
0.1812866
0.8001251
0.136905
-999
-999
0.08777618
0.1273947
0.4102323
0.4779176
-999
0.379594
0.01775641
0.6856313
-999
-999
0.4629178
0.5886946
0.005210384
-999
-999
0.3103671
0.2974361
0.2735263
0.2612625
-999
0.03778749
0.6287911
0.4080597
-999
-999
0.7308549
0.01990226
0.3389746
-999
-999
0.51025
0.41486
0.1076837
0.05527157
-999
0.1532299
0.8069384
0.1577435
-999
-999
0.9215844
0.04328532
0.1124461
-999
-999
0.6454707
0.4562573
-999
-999
-999
0.2263978
0.869235
-999
-999
-999
0.9866041
0.02646066
-999
-999
-999
0.6895537
0.423276
-999
-999
-999
0.0351823
0.2492515
0.8153
-999
-999
0.1420342
0.9266723
-999
-999
-999
0.1032216
0.6472448
0.3382983
-999
-999
0.1934195
0.2269847
0.68375
-999
-999
0.3324883
0.7847813
-999
-999
-999
0.2754889
0.0514991
0.547128
0.2289257
-999
0.06548461
0.3435519
0.1735574
0.5211022
-999
0.5188901
0.6112986
-999
-999
-999
0.4424531
0.129454
0.4218329
0.1162404
-999
0.1779129
0.4725606
0.1043412
0.360056
-999
0.6850985
0.4409313
-999
-999
-999
0.591271
0.1850909
0.2952361
0.012161
-999
0.2754082
0.5703853
0.03150615
0.2166891
-999
0.8173552
0.2903199
-999
-999
-999
0.711715
0.2176841
0.1802437
-999
-999
0.353796
0.6328434
0.09614679
-999
-999
0.9084341
0.1645234
-999
-999
-999
0.7988335
0.2298443
0.08201324
-999
-999
0.4120182
0.662191
-999
-999
-999
0.01951454
0.959362
0.0628682
-999
-999
0.8539937
0.2262908
0.001359811
-999
-999
0.4521522
0.6653098
-999
-999
-999
0.04368998
0.9775963
-999
-999
-999
0.8832571
0.2122846
-999
-999
-999
0.4782397
0.6508178
-999
-999
-999
0.06143756
0.9735273
-999
-999
-999
0.8949089
0.1925884
-999
-999
-999
0.4951509
0.626825
-999
-999
-999
0.009558668
0.07526652
0.957369
-999
-999
0.007663963
0.8971718
0.1708958
-999
-999
0.5075551
0.5996809
-999
-999
-999
0.0442034
0.08747191
0.9373384
-999
-999
0.04262567
0.8968472
0.1497389
-999
-999
0.5193413
0.5736981
-999
-999
-999
0.06527787
0.09994225
0.9191193
-999
-999
0.06438415
0.8988176
0.1305953
-999
-999
0.5333676
0.5513071
-999
-999
-999
0.07206003
0.1140594
0.9059237
-999
-999
0.0720622
0.9059303
0.1140536
-999
-999
0.5513202
0.5333609
-999
-999
-999
0.06438415
0.130607
0.898814
-999
-999
0.06527787
0.9191223
0.09993649
-999
-999
0.5737047
0.5193346
-999
-999
-999
0.04262472
0.1497448
0.8968434
-999
-999
0.04420439
0.9373412
0.0874662
-999
-999
0.5996875
0.5075482
-999
-999
-999
0.007663015
0.1709019
0.8971676
-999
-999
0.009559529
0.9573716
0.07526087
-999
-999
0.6268316
0.4951441
-999
-999
-999
0.1925945
0.8949044
-999
-999
-999
0.9735296
0.06142632
-999
-999
-999
0.6508245
0.478226
-999
-999
-999
0.2122908
0.8832479
-999
-999
-999
0.9776005
0.04368178
-999
-999
-999
0.6653228
0.4521421
-999
-999
-999
0.2263033
0.8539867
0.001359811
-999
-999
0.9593647
0.01950928
0.0628682
-999
-999
0.6622006
0.4120117
-999
-999
-999
0.2298537
0.798829
0.08200986
-999
-999
0.9084356
0.1645232
-999
-999
-999
0.6328495
0.353787
0.09614983
-999
-999
0.2176902
0.7117086
0.1802381
-999
-999
0.8173572
0.2903192
-999
-999
-999
0.5703935
0.2754028
0.216694
0.03150205
-999
0.1850995
0.5912673
0.0121681
0.2952326
-999
0.6850995
0.4409308
-999
-999
-999
0.4725654
0.177906
0.3600588
0.1043363
-999
0.1294592
0.4424485
0.1162447
0.4218285
-999
0.5188914
0.6112977
-999
-999
-999
0.343558
0.06548653
0.5211056
0.1735491
-999
0.05150587
0.2754901
0.2289306
0.5471199
-999
0.3324879
0.7847794
-999
-999
-999
0.1934179
0.6837561
0.2269909
-999
-999
0.1032199
0.3383071
0.6472509
-999
-999
0.1420348
0.9266738
-999
-999
-999
0.03518479
0.8152955
0.2492419
-999
-999
0.4232694
0.6895439
-999
-999
-999
0.02645526
0.9866017
-999
-999
-999
0.8692423
0.2263886
-999
-999
-999
0.4562675
0.6454616
-999
-999
-999
0.04329356
0.9215822
0.1124443
-999
-999
0.8069453
0.1532325
0.1577439
-999
-999
0.4148697
0.5102524
0.05527399
0.1076796
-999
0.01991019
0.7308555
0.338972
-999
-999
0.6287891
0.03778109
0.4080604
-999
-999
0.2974333
0.3103615
0.261266
0.2735184
-999
0.4629168
0.005214404
0.5886891
-999
-999
0.3795985
0.6856328
0.01774848
-999
-999
0.1274011
0.08777379
0.4779248
0.4102226
-999
0.1812865
0.1369127
0.8001181
-999
-999
0.1174297
0.9164559
0.04926822
-999
-999
0.6448975
0.4628105
-999
-999
-999
0.2285763
0.8714075
-999
-999
-999
0.9791325
0.01871107
0.01256953
-999
-999
0.6768393
0.3918601
0.009778824
-999
-999
0.2382052
0.7367518
0.1370999
-999
-999
0.8063318
0.3061663
-999
-999
-999
0.5339186
0.2137966
0.2970392
0.06018703
-999
0.1484522
0.4489754
0.1165796
0.3994246
-999
0.4765392
0.6515526
-999
-999
-999
0.2735433
0.6234671
0.1877957
-999
-999
0.1257947
0.3404762
0.6124822
-999
-999
0.1271769
0.004416544
0.9291949
-999
-999
0.8640572
0.2197771
-999
-999
-999
0.4825766
0.6457253
-999
-999
-999
0.07243126
0.9389344
0.05624218
-999
-999
0.837694
0.1250539
0.1517703
-999
-999
0.4432649
0.451487
0.1004228
0.1053838
-999
0.03962518
0.6400368
0.3979985
-999
-999
0.5355591
0.5494546
-999
-999
-999
0.2293973
0.1408536
0.4390472
0.3188008
-999
0.2301927
0.1576014
0.7240781
-999
-999
0.1489971
0.9170864
-999
-999
-999
0.7150315
0.3924264
-999
-999
-999
0.3082436
0.8048881
-999
-999
-999
0.9599777
0.09192142
-999
-999
-999
0.7045997
0.2532675
0.1490885
-999
-999
0.276545
0.5360014
0.05962952
0.2330453
-999
0.6002798
0.5157962
-999
-999
-999
0.3899243
0.5925526
0.08619136
-999
-999
0.06979505
0.12984
0.3974071
0.5014773
-999
0.1365401
0.08367833
0.882095
-999
-999
0.00419024
0.935786
0.1169586
-999
-999
0.5899749
0.5311146
-999
-999
-999
0.5538089
0.2449795
0.252877
0.04353737
-999
0.2863444
0.6739523
0.1350746
-999
-999
0.9597697
0.08554305
-999
-999
-999
0.8455167
0.2589555
-999
-999
-999
0.4447589
0.6582459
-999
-999
-999
0.1623319
0.04039642
0.8866208
-999
-999
0.2748743
0.7381807
0.09182447
-999
-999
0.2078069
0.2118301
0.3534653
0.3586752
-999
0.009075125
0.5502425
0.4837824
-999
-999
0.7123315
0.3703783
-999
-999
-999
0.5575957
0.3876523
0.1070188
0.01801333
-999
0.2208406
0.8090425
0.07745287
-999
-999
0.9857804
0.008740894
-999
-999
-999
0.7450561
0.3722019
-999
-999
-999
0.02409979
0.3137513
0.7536678
-999
-999
0.2066953
0.8868666
-999
-999
-999
0.2492553
0.6447542
0.1952778
-999
-999
0.1213658
0.2946023
0.2433549
0.460648
-999
0.5740894
0.5372397
-999
-999
-999
0.6199875
0.09396031
0.3618542
-999
-999
0.3919036
0.5012363
0.06842677
0.1316595
-999
0.06525517
0.8624898
0.1723343
-999
-999
0.8993144
0.1260329
0.06398621
-999
-999
0.5750808
0.5484145
-999
-999
-999
0.1600106
0.9156442
-999
-999
-999
0.06953058
0.9355002
0.06462907
-999
-999
0.04490549
0.5879165
0.4278831
-999
-999
0.2228839
0.1610391
0.7256222
-999
-999
0.375064
0.7337432
-999
-999
-999
0.3225105
0.132928
0.4446812
0.2210425
-999
0.1056625
0.4749603
0.08023757
0.431056
-999
0.6880689
0.4359395
-999
-999
-999
0.5977111
0.2420789
0.2317655
0.008532259
-999
0.2845358
0.6571177
0.149687
-999
-999
0.9207978
0.1552935
-999
-999
-999
0.7966819
0.2733065
0.02157917
-999
-999
0.4057764
0.7102802
-999
-999
-999
0.01530858
0.9897583
-999
-999
-999
0.8553558
0.227923
-999
-999
-999
0.4410908
0.6319204
-999
-999
-999
0.1640672
0.03371207
0.8887807
-999
-999
0.2102856
0.7718375
0.1316591
-999
-999
0.09527397
0.1430336
0.3935229
0.47215
-999
0.3809693
0.01102046
0.6865247
-999
-999
0.443572
0.6009492
0.01504036
-999
-999
0.2809732
0.2777525
0.2913879
0.2881059
-999
0.01222869
0.5826013
0.459217
-999
-999
0.66602
0.001309734
0.4043373
-999
-999
0.4541014
0.3746391
0.1673034
0.11536
-999
0.1181914
0.7386856
0.2511097
-999
-999
0.8458895
0.02389568
0.2200783
-999
-999
0.5942469
0.4232001
0.04432245
-999
-999
0.2023859
0.8269871
0.07728197
-999
-999
0.9577672
0.02029968
0.06301559
-999
-999
0.6864753
0.4245429
-999
-999
-999
0.2596867
0.8436062
-999
-999
-999
0.9943633
-999
-999
-999
-999
0.7271934
0.3892024
-999
-999
-999
0.2901617
0.8023646
-999
-999
-999
0.07385296
0.9676197
-999
-999
-999
0.0363052
0.7240103
0.3313701
-999
-999
0.07726822
0.2982466
0.7253112
-999
-999
0.1899025
0.8997499
-999
-999
-999
0.1466243
0.6907737
0.2638117
-999
-999
0.1608932
0.2906807
0.6330655
-999
-999
0.2974405
0.8129135
-999
-999
-999
0.2506765
0.6419907
0.1957427
-999
-999
0.05500544
0.2303583
0.2745345
0.5404077
-999
0.3916762
0.7237682
-999
-999
-999
0.3445824
0.003163641
0.5894762
0.132743
-999
0.12578
0.2834825
0.2559355
0.4560013
-999
0.469043
0.6425769
-999
-999
-999
0.4253082
0.02026856
0.5413672
0.07766663
-999
0.1879416
0.3196813
0.2395606
0.3840714
-999
0.5275959
0.5747876
-999
-999
-999
0.4909142
0.02674687
0.502782
0.03162101
-999
0.2405768
0.3395787
0.2288268
0.326114
-999
0.5667767
0.5227701
-999
-999
-999
0.5403562
0.02396015
0.4766806
-999
-999
0.283128
0.344458
0.2261328
0.2821482
-999
0.5869039
0.4872187
-999
-999
-999
0.5730861
0.01326756
0.4647597
-999
-999
0.3150975
0.3358619
0.2332428
0.2515199
-999
0.5887749
0.4680391
-999
-999
-999
0.5887796
0.468043
-999
-999
-999
0.3358717
0.3150927
0.2515285
0.2332385
-999
0.01327693
0.5730836
0.4647574
-999
-999
0.586906
0.4872203
-999
-999
-999
0.3444627
0.2831232
0.2821524
0.2261328
-999
0.02396483
0.5403537
0.4766806
-999
-999
0.5667785
0.5227701
-999
-999
-999
0.3395834
0.2405722
0.326114
0.228822
-999
0.02675147
0.4909117
0.03162101
0.502779
-999
0.5275975
0.5747886
-999
-999
-999
0.3196856
0.1879374
0.3840756
0.2395555
-999
0.02027307
0.4253058
0.07767136
0.5413637
-999
0.4690444
0.6425776
-999
-999
-999
0.2834864
0.125772
0.4560057
0.2559301
-999
0.003167887
0.3445778
0.1327479
0.5894721
-999
0.3916782
0.7237687
-999
-999
-999
0.2303654
0.05500017
0.5404123
0.2745345
-999
0.2506733
0.195748
0.6419907
-999
-999
0.2974417
0.8129135
-999
-999
-999
0.1608979
0.6330655
0.2906714
-999
-999
0.1466225
0.2638117
0.6907656
-999
-999
0.1899031
0.8997494
-999
-999
-999
0.07727078
0.7253189
0.2982338
-999
-999
0.0363029
0.3313794
0.7239984
-999
-999
0.07385362
0.9676182
-999
-999
-999
0.8023751
0.2901552
-999
-999
-999
0.3892156
0.7271872
-999
-999
-999
0.9943622
-999
-999
-999
-999
0.8436114
0.2596804
-999
-999
-999
0.4245497
0.6864693
-999
-999
-999
0.02030505
0.9577658
0.06301443
-999
-999
0.8269922
0.2023773
0.07728277
-999
-999
0.4232067
0.5942384
0.04431916
-999
-999
0.02390105
0.8458875
0.2200765
-999
-999
0.738692
0.1181965
0.2511107
-999
-999
0.3746482
0.4541061
0.1153629
0.1672992
-999
0.00131735
0.6660212
0.4043347
-999
-999
0.5825979
0.01222242
0.4592181
-999
-999
0.2777473
0.2809676
0.2881097
0.2913879
-999
0.4435707
0.01504458
0.6009492
-999
-999
0.3809733
0.6865247
0.01101523
-999
-999
0.1430398
0.09526989
0.47215
0.3935166
-999
0.2102847
0.1316591
0.7718329
-999
-999
0.16407
0.8887819
0.03370667
-999
-999
0.6319262
0.4410841
-999
-999
-999
0.227929
0.8553507
-999
-999
-999
0.9897597
0.01530066
-999
-999
-999
0.7102866
0.4057667
-999
-999
-999
0.273313
0.7966748
0.0215765
-999
-999
0.9207997
0.1552925
-999
-999
-999
0.6571266
0.2845279
0.1496882
-999
-999
0.2420881
0.5977058
0.00853508
0.2317615
-999
0.6880705
0.4359377
-999
-999
-999
0.4749675
0.1056645
0.431058
0.08022972
-999
0.1329357
0.3225118
0.2210465
0.4446728
-999
0.3750636
0.7337393
-999
-999
-999
0.2228822
0.7256264
0.1610302
-999
-999
0.04490418
0.4278914
0.5879065
-999
-999
0.0695313
0.06463683
0.9354956
-999
-999
0.9156497
0.1600018
-999
-999
-999
0.5484245
0.5750714
-999
-999
-999
0.1260415
0.8993104
0.06398246
-999
-999
0.8624954
0.06524798
0.1723335
-999
-999
0.501246
0.3918965
0.1316621
0.06842223
-999
0.09396868
0.619985
0.3618502
-999
-999
0.5740938
0.5372388
-999
-999
-999
0.2946099
0.1213614
0.4606511
0.2433459
-999
0.2492542
0.1952824
0.6447457
-999
-999
0.2066983
0.886865
-999
-999
-999
0.02410472
0.7536749
0.3137448
-999
-999
0.3722112
0.7450502
-999
-999
-999
0.9857798
0.008738073
-999
-999
-999
0.8090478
0.2208325
0.0774528
-999
-999
0.387659
0.5575892
0.01801601
0.1070122
-999
0.7123316
0.3703734
-999
-999
-999
0.5502491
0.009069907
0.4837825
-999
-999
0.2118381
0.2078033
0.3586803
0.353459
-999
0.2748749
0.0918309
0.7381758
-999
-999
0.1623362
0.8866217
0.04039098
-999
-999
0.6582514
0.4447522
-999
-999
-999
0.2589616
0.845512
-999
-999
-999
0.9597713
0.08554085
-999
-999
-999
0.6739585
0.2863371
0.135075
-999
-999
0.2449858
0.5538048
0.04354019
0.2528696
-999
0.5899775
0.5311099
-999
-999
-999
0.8555163
0.2440242
-999
-999
-999
0.4640577
0.638391
-999
-999
-999
0.1617052
0.05897085
0.8741374
-999
-999
0.2915795
0.7436324
0.06221683
-999
-999
0.2412647
0.1990074
0.3695549
0.3182804
-999
0.04716907
0.5527814
0.4451756
-999
-999
0.7498361
0.3484203
-999
-999
-999
0.6221825
0.3498861
0.1019081
-999
-999
0.2838301
0.7790823
0.02807046
-999
-999
0.9982662
-999
-999
-999
-999
0.7990696
0.2958862
-999
-999
-999
0.04268475
0.3730343
0.6633669
-999
-999
0.2621615
0.8269756
-999
-999
-999
0.3451466
0.6389123
0.09511638
-999
-999
0.2308774
0.2972626
0.266442
0.3370194
-999
0.000664051
0.6303553
0.4306912
-999
-999
0.7440714
0.0434587
0.3050788
-999
-999
0.536387
0.4488014
0.05290353
0.01072217
-999
0.1821977
0.8545392
0.06105448
-999
-999
0.9789104
0.03215826
-999
-999
-999
0.6990637
0.4186923
-999
-999
-999
0.03320039
0.2675734
0.7932099
-999
-999
0.1911784
0.8968139
-999
-999
-999
0.2060361
0.6300003
0.2453618
-999
-999
0.06741825
0.2858652
0.2246663
0.5221195
-999
0.5274457
0.5939146
-999
-999
-999
0.5399606
0.1015925
0.4001632
0.02752412
-999
0.3128095
0.4917014
0.09000559
0.2107107
-999
0.008308572
0.8171059
0.2582
-999
-999
0.8260541
0.1470885
0.1367657
-999
-999
0.5099234
0.5739976
-999
-999
-999
0.1182016
0.9382852
-999
-999
-999
0.9471962
0.1109486
-999
-999
-999
0.5917436
0.5095771
-999
-999
-999
0.09657898
0.1628348
0.8467484
-999
-999
0.2053634
0.8611623
0.01713144
-999
-999
0.1555938
0.04434898
0.5388016
0.3474714
-999
0.3189436
0.1374444
0.6192288
-999
-999
0.477998
0.6406884
-999
-999
-999
0.4029956
0.1629764
0.392956
0.1556274
-999
0.1538135
0.5161475
0.06070521
0.3601384
-999
0.7337756
0.3863404
-999
-999
-999
0.6353438
0.2333515
0.2141171
-999
-999
0.3093891
0.6454141
0.1286949
-999
-999
0.9158244
0.1567981
-999
-999
-999
0.8068274
0.2462389
0.04285619
-999
-999
0.4240699
0.6808825
-999
-999
-999
0.0328063
0.9822244
-999
-999
-999
0.88292
0.2087471
-999
-999
-999
0.4820436
0.6291621
-999
-999
-999
0.06607276
0.06901125
0.933619
-999
-999
0.1051719
0.860944
0.1381534
-999
-999
0.0103135
0.0275345
0.4827943
0.5204981
-999
0.2211193
0.0772551
0.8070163
-999
-999
0.2777996
0.7674866
0.05261525
-999
-999
0.1571026
0.1239325
0.4392439
0.3882833
-999
0.367602
0.06326537
0.647175
-999
-999
0.4482855
0.6383395
-999
-999
-999
0.3028844
0.2000074
0.3696072
0.2561651
-999
0.0390965
0.4938951
0.03478424
0.486443
-999
0.6048895
0.5020509
-999
-999
-999
0.4400025
0.2516444
0.2901525
0.1365532
-999
0.1319489
0.5909258
0.3416367
-999
-999
0.737044
0.3753926
-999
-999
-999
0.5617012
0.278632
0.2121592
0.03403251
-999
0.2158441
0.6547014
0.2187689
-999
-999
0.8382789
0.2658262
-999
-999
-999
0.6638052
0.2840151
0.1420984
-999
-999
0.2895366
0.6866149
0.1181628
-999
-999
0.9073095
0.1753242
-999
-999
-999
0.745221
0.2727475
0.08304713
-999
-999
0.3532042
0.6921114
0.0378777
-999
-999
0.9475241
0.1033144
-999
-999
-999
0.8077058
0.2500901
0.03613936
-999
-999
0.4082092
0.67826
-999
-999
-999
0.01597763
0.9649255
0.04823454
-999
-999
0.8547602
0.2206416
0.001497918
-999
-999
0.4565811
0.6518611
-999
-999
-999
0.05143525
0.9660777
0.008421384
-999
-999
0.890395
0.1878094
-999
-999
-999
0.5004499
0.6182402
-999
-999
-999
0.08571101
0.956524
-999
-999
-999
0.9180855
0.1537946
-999
-999
-999
0.5415848
0.5809071
-999
-999
-999
0.1196972
0.9399847
-999
-999
-999
0.9399915
0.1196914
-999
-999
-999
0.5809205
0.5415781
-999
-999
-999
0.1538064
0.9180817
-999
-999
-999
0.9565268
0.08571101
-999
-999
-999
0.6182468
0.5004499
-999
-999
-999
0.1878154
0.890395
-999
-999
-999
0.9660777
0.05142983
0.008422242
-999
-999
0.6518611
0.4565745
-999
-999
-999
0.2206416
0.8547555
0.001497918
-999
-999
0.9649273
0.01597238
0.04823454
-999
-999
0.6782663
0.4082026
-999
-999
-999
0.2500964
0.8077008
0.03613742
-999
-999
0.9475252
0.1033144
-999
-999
-999
0.6921174
0.3531979
0.03787962
-999
-999
0.2727537
0.745216
0.08304486
-999
-999
0.9073101
0.1753239
-999
-999
-999
0.6866204
0.2895366
0.1181647
-999
-999
0.2840213
0.6638052
0.1420941
-999
-999
0.8382789
0.2658251
-999
-999
-999
0.6547014
0.2158359
0.2187718
-999
-999
0.278632
0.5616944
0.0340375
0.212154
-999
0.7370436
0.3753908
-999
-999
-999
0.5909324
0.1319392
0.3416399
-999
-999
0.2516526
0.4399943
0.1365588
0.2901483
-999
0.6048884
0.5020491
-999
-999
-999
0.4939022
0.03909227
0.4864452
0.0347866
-999
0.2000172
0.3028809
0.2561694
0.3696098
-999
0.4482849
0.6383406
-999
-999
-999
0.3676048
0.6471739
0.06326016
-999
-999
0.1239367
0.1570997
0.3882808
0.439238
-999
0.277799
0.05261281
0.7674832
-999
-999
0.2211215
0.8070187
0.07724965
-999
-999
0.0275379
0.01031017
0.5205038
0.4827877
-999
0.1051712
0.138159
0.8609399
-999
-999
0.06607519
0.9336213
0.06900574
-999
-999
0.6291684
0.4820368
-999
-999
-999
0.2087532
0.8829155
-999
-999
-999
0.9822264
0.0328063
-999
-999
-999
0.6808889
0.4240699
-999
-999
-999
0.2462453
0.8068274
0.04285245
-999
-999
0.9158244
0.1567969
-999
-999
-999
0.6454141
0.3093836
0.1286972
-999
-999
0.2333515
0.6353399
0.2141135
-999
-999
0.7337767
0.386339
-999
-999
-999
0.5161526
0.1538091
0.3601405
0.06069785
-999
0.1629817
0.4029927
0.1556313
0.3929486
-999
0.4779988
0.6406854
-999
-999
-999
0.3189474
0.6192328
0.1374387
-999
-999
0.04435332
0.1555908
0.347479
0.5387954
-999
0.2053642
0.01713862
0.8611594
-999
-999
0.09658285
0.8467516
0.1628288
-999
-999
0.5095834
0.5917369
-999
-999
-999
0.1109541
0.9471929
-999
-999
-999
0.9382886
0.1181932
-999
-999
-999
0.5740044
0.5099143
-999
-999
-999
0.1470943
0.8260497
0.1367629
-999
-999
0.8171105
0.008301799
0.2581994
-999
-999
0.4917104
0.3128028
0.2107127
0.0900009
-999
0.1016007
0.5399577
0.02752743
0.4001588
-999
0.5274491
0.5939135
-999
-999
-999
0.2858721
0.0674139
0.5221226
0.2246574
-999
0.2060345
0.2453667
0.6299915
-999
-999
0.1911807
0.8968115
-999
-999
-999
0.03320503
0.7932164
0.267567
-999
-999
0.4187018
0.6990575
-999
-999
-999
0.03216612
0.9789088
-999
-999
-999
0.854544
0.1821896
0.06105421
-999
-999
0.448808
0.5363796
0.0107238
0.05289739
-999
0.04346408
0.7440702
0.3050738
-999
-999
0.6303613
0.0006603388
0.4306908
-999
-999
0.2972711
0.2308744
0.3370238
0.2664334
-999
0.3451464
0.09512249
0.6389049
-999
-999
0.2621642
0.8269752
-999
-999
-999
0.04268845
0.6633741
0.3730243
-999
-999
0.295895
0.7990612
-999
-999
-999
0.9982666
-999
-999
-999
-999
0.7790911
0.2838246
0.02807046
-999
-999
0.3498961
0.6221783
0.1019018
-999
-999
0.7498368
0.3484159
-999
-999
-999
0.5527862
0.0471656
0.4451762
-999
-999
0.1990128
0.2412626
0.3182854
0.3695471
-999
0.2915802
0.06222311
0.7436267
-999
-999
0.1617082
0.8741387
0.0589626
-999
-999
0.6383978
0.4640478
-999
-999
-999
0.2440317
0.8555095
-999
-999
-999
0.2400969
0.1957611
0.370593
0.3166798
-999
0.05313922
0.5526243
0.4369522
-999
-999
0.7611864
0.3385659
-999
-999
-999
0.646163
0.3366518
0.09536474
-999
-999
0.3104563
0.7652978
0.003178109
-999
-999
0.9987689
-999
-999
-999
-999
0.005472951
0.8193968
0.2555957
-999
-999
0.05558039
0.3996775
0.6074098
-999
-999
0.2990319
0.005269106
0.7766464
-999
-999
0.4113226
0.6164142
0.03403966
-999
-999
0.3095854
0.2968864
0.2666187
0.2546922
-999
0.06958864
0.6619157
0.3484934
-999
-999
0.8240471
0.00723883
0.2488106
-999
-999
0.6376613
0.4021121
0.02607435
-999
-999
0.2675867
0.8212175
-999
-999
-999
0.9982587
-999
-999
-999
-999
0.00159878
0.7628356
0.3143635
-999
-999
0.08053855
0.3340825
0.6691557
-999
-999
0.2895774
0.8100166
-999
-999
-999
0.348106
0.6104288
0.1092919
-999
-999
0.2129066
0.3165708
0.2429787
0.3523704
-999
0.6305212
0.4448032
-999
-999
-999
0.7151435
0.05728433
0.3165572
-999
-999
0.4952788
0.4595627
0.06190411
0.04354778
-999
0.1487787
0.8515245
0.1017009
-999
-999
0.9581064
0.04976247
0.02935631
-999
-999
0.6752012
0.4471764
-999
-999
-999
0.2518285
0.8358157
-999
-999
-999
0.1076762
0.9464834
-999
-999
-999
0.110973
0.6719856
0.3048202
-999
-999
0.2000238
0.2535276
0.6219634
-999
-999
0.3991964
0.7191434
-999
-999
-999
0.4038034
0.05140696
0.5109516
0.1097624
-999
0.2102432
0.3986531
0.1668828
0.3414662
-999
0.6811715
0.4194136
-999
-999
-999
0.6930293
0.1148551
0.2848776
-999
-999
0.4235373
0.5208308
0.03438736
0.08477459
-999
0.07494931
0.8733571
0.1457991
-999
-999
0.9019491
0.1151676
0.06600586
-999
-999
0.5786278
0.5336952
-999
-999
-999
0.1670587
0.9129094
-999
-999
-999
0.9647927
0.06185289
-999
-999
-999
0.6377142
0.4493848
-999
-999
-999
0.08949006
0.2081594
0.8071588
-999
-999
0.2009956
0.8797967
-999
-999
-999
0.1575097
0.5979517
0.309954
-999
-999
0.257613
0.1978348
0.6187455
-999
-999
0.4178177
0.7032124
-999
-999
-999
0.3666041
0.08133706
0.4892553
0.1561907
-999
0.1435741
0.4031288
0.1483516
0.411081
-999
0.6215857
0.498747
-999
-999
-999
0.5704889
0.1321739
0.3503436
0.01249617
-999
0.2938537
0.5065432
0.07682016
0.2204527
-999
0.7851545
0.3060472
-999
-999
-999
0.7468134
0.1488282
0.2098311
-999
-999
0.4272314
0.5569994
0.05975282
-999
-999
0.05850048
0.8875368
0.1410786
-999
-999
0.8760193
0.1355313
0.08280022
-999
-999
0.5336983
0.5562773
-999
-999
-999
0.1277584
0.9229184
0.00627414
-999
-999
0.9489444
0.1005229
-999
-999
-999
0.6084275
0.5160427
-999
-999
-999
0.1821415
0.9011362
-999
-999
-999
0.9691693
0.0528037
-999
-999
-999
0.6526366
0.4515872
-999
-999
-999
0.022524
0.2227991
0.8406799
-999
-999
0.08930473
0.9494097
-999
-999
-999
0.02597027
0.6722508
0.3765044
-999
-999
0.08900621
0.252602
0.7604229
-999
-999
0.1763129
0.9053562
-999
-999
-999
0.1129798
0.6754592
0.3004977
-999
-999
0.1405336
0.2753646
0.6749727
-999
-999
0.2503339
0.8509751
-999
-999
-999
0.1915536
0.6704795
0.2293563
-999
-999
0.004879226
0.1753034
0.2950884
0.593627
-999
0.3080704
0.7964772
-999
-999
-999
0.2586303
0.6642494
0.1659242
-999
-999
0.06277543
0.1928731
0.3154807
0.521347
-999
0.3473519
0.7483412
-999
-999
-999
0.3116027
0.6620535
0.1111478
-999
-999
0.1123471
0.1938747
0.3397718
0.4601461
-999
0.3671179
0.7100931
-999
-999
-999
0.348361
0.6675751
0.06483217
-999
-999
0.1518946
0.1796525
0.3706295
0.4102092
-999
0.3672486
0.0261487
0.6831821
-999
-999
0.3672519
0.6831871
0.02614382
-999
-999
0.1796599
0.151891
0.4102197
0.3706242
-999
0.348359
0.06484219
0.6675721
-999
-999
0.3671193
0.710095
-999
-999
-999
0.1938783
0.1123471
0.4601512
0.3397608
-999
0.3116027
0.1111529
0.6620461
-999
-999
0.3473519
0.7483438
-999
-999
-999
0.1928731
0.06277182
0.5213571
0.3154807
-999
0.2586282
0.1659349
0.6642494
-999
-999
0.3080711
0.7964772
-999
-999
-999
0.1753065
0.004875909
0.593627
0.2950825
-999
0.1915515
0.2293563
0.6704745
-999
-999
0.2503344
0.8509751
-999
-999
-999
0.1405363
0.6749775
0.2753586
-999
-999
0.1129778
0.3005036
0.6754537
-999
-999
0.1763131
0.9053554
-999
-999
-999
0.08900853
0.7604278
0.2525927
-999
-999
0.02597027
0.3765107
0.6722417
-999
-999
0.08930473
0.9494072
-999
-999
-999
0.022524
0.8406868
0.2227898
-999
-999
0.451597
0.6526271
-999
-999
-999
0.05281182
0.9691657
-999
-999
-999
0.9011424
0.1821355
-999
-999
-999
0.5160527
0.6084209
-999
-999
-999
0.1005314
0.9489415
-999
-999
-999
0.9229221
0.1277612
0.006274658
-999
-999
0.556284
0.5337015
-999
-999
-999
0.1355372
0.8760209
0.08280022
-999
-999
0.8875355
0.05849535
0.1410786
-999
-999
0.5569963
0.4272256
0.05975282
-999
-999
0.1488255
0.7468101
0.2098273
-999
-999
0.7851567
0.3060471
-999
-999
-999
0.5065488
0.2938488
0.2204564
0.07681362
-999
0.1321794
0.570486
0.01250148
0.3503381
-999
0.6215872
0.4987462
-999
-999
-999
0.4031334
0.1435702
0.4110855
0.1483568
-999
0.08134193
0.3666017
0.1561973
0.4892601
-999
0.4178187
0.7032136
-999
-999
-999
0.2576165
0.618742
0.197826
-999
-999
0.1575097
0.3099485
0.5979429
-999
-999
0.2009956
0.8797938
-999
-999
-999
0.08949006
0.8071648
0.2081533
-999
-999
0.4493941
0.6377077
-999
-999
-999
0.06186091
0.96479
-999
-999
-999
0.9129134
0.1670499
-999
-999
-999
0.5337018
0.5786183
-999
-999
-999
0.1151733
0.9019449
0.06600377
-999
-999
0.8733624
0.07494423
0.145799
-999
-999
0.5208405
0.423532
0.08477651
0.03438332
-999
0.1148636
0.693027
0.2848744
-999
-999
0.6811742
0.4194131
-999
-999
-999
0.3986584
0.2102392
0.3414689
0.1668881
-999
0.05141197
0.4038018
0.1097664
0.5109565
-999
0.3991982
0.7191443
-999
-999
-999
0.2000276
0.6219597
0.2535214
-999
-999
0.1109714
0.3048149
0.6719795
-999
-999
0.1076779
0.9464818
-999
-999
-999
0.8358204
0.2518222
-999
-999
-999
0.4471829
0.675195
-999
-999
-999
0.04976788
0.9581047
0.02935334
-999
-999
0.8515291
0.1487708
0.1017007
-999
-999
0.4595692
0.4952714
0.04355044
0.0619
-999
0.05728968
0.7151416
0.3165539
-999
-999
0.6305265
0.4448029
-999
-999
-999
0.316579
0.2129036
0.3523733
0.2429731
-999
0.3481053
0.109296
0.6104238
-999
-999
0.2895797
0.8100161
-999
-999
-999
0.08054231
0.6691601
0.3340727
-999
-999
0.001598356
0.3143692
0.7628268
-999
-999
0.9982578
-999
-999
-999
-999
0.8212256
0.267578
-999
-999
-999
0.402122
0.6376539
0.02607616
-999
-999
0.00724669
0.8240467
0.248812
-999
-999
0.6619226
0.06958268
0.3484934
-999
-999
0.2968952
0.309581
0.2546908
0.2666215
-999
0.4113227
0.03403776
0.6164164
-999
-999
0.2990365
0.7766464
0.005261339
-999
-999
0.05558647
0.6074075
0.3996676
-999
-999
0.005473133
0.2555929
0.8193886
-999
-999
0.9987697
-999
-999
-999
-999
0.7653067
0.3104494
0.003178109
-999
-999
0.3366616
0.6461579
0.09535863
-999
-999
0.7611876
0.3385614
-999
-999
-999
0.5526305
0.05313404
0.4369525
-999
-999
0.1957678
0.2400938
0.3166847
0.3705822
-999
0.2996028
0.7751105
0.001443173
-999
-999
0.999207
-999
-999
-999
-999
0.01661121
0.81485
0.2512597
-999
-999
0.06782124
0.3970799
0.5904105
-999
-999
0.3226997
0.005527437
0.7487354
-999
-999
0.4486466
0.5913045
0.007079357
-999
-999
0.3526359
0.3043109
0.2523669
0.2106804
-999
0.1073927
0.6848378
0.2952536
-999
-999
0.8703429
0.203117
-999
-999
-999
0.6946673
0.3754822
-999
-999
-999
0.3161302
0.7918774
-999
-999
-999
0.01638358
0.9880639
-999
-999
-999
0.07440105
0.7799845
0.2438157
-999
-999
0.007320116
0.1174273
0.3615161
0.5716485
-999
0.3663546
0.718098
-999
-999
-999
0.462952
0.5594022
0.01576092
-999
-999
0.3334426
0.3313702
0.2285448
0.2267524
-999
0.07406687
0.6935968
0.3176691
-999
-999
0.8377474
0.01697153
0.2258649
-999
-999
0.6335552
0.411652
0.01454466
-999
-999
0.2586367
0.8267124
-999
-999
-999
0.998246
-999
-999
-999
-999
0.7623862
0.3246614
-999
-999
-999
0.05381563
0.3362705
0.6919101
-999
-999
0.2424632
0.8491067
-999
-999
-999
0.2892418
0.6551587
0.137265
-999
-999
0.1610037
0.265139
0.2801523
0.4083273
-999
0.5501154
0.5288097
-999
-999
-999
0.6277401
0.027962
0.4056242
-999
-999
0.4323905
0.409037
0.1337436
0.1189107
-999
0.11549
0.7830195
0.205239
-999
-999
0.9003246
0.03606828
0.1380953
-999
-999
0.6505909
0.4354643
-999
-999
-999
0.2504711
0.8449135
-999
-999
-999
0.9945518
-999
-999
-999
-999
0.7402074
0.348464
-999
-999
-999
0.04758227
0.3125686
0.7266722
-999
-999
0.2024075
0.8854493
-999
-999
-999
0.214044
0.6799053
0.1969887
-999
-999
0.07450081
0.2189944
0.2922732
0.5078418
-999
0.4451928
0.6546085
-999
-999
-999
0.4744123
0.01195079
0.5175666
0.03138782
-999
0.2833511
0.3549065
0.2092921
0.2727463
-999
0.005157729
0.6601062
0.3986082
-999
-999
0.7207837
0.04307852
0.3202182
-999
-999
0.4829381
0.4289362
0.09521363
0.06531249
-999
0.1338009
0.8012694
0.1704115
-999
-999
0.9057392
0.03354823
0.1324489
-999
-999
0.6433262
0.431991
-999
-999
-999
0.2398697
0.8411714
-999
-999
-999
0.9922104
-999
-999
-999
-999
0.7397457
0.3760058
-999
-999
-999
0.3129281
0.7870923
-999
-999
-999
0.05419223
0.9754039
-999
-999
-999
0.04079121
0.7645587
0.2840443
-999
-999
0.05725319
0.3494687
0.6713355
-999
-999
0.1988644
0.881404
-999
-999
-999
0.1942385
0.72899
0.1782029
-999
-999
0.04652833
0.1485231
0.353388
0.5295335
-999
0.3351501
0.7472006
-999
-999
-999
0.347562
0.6545295
0.07363366
-999
-999
0.1764875
0.2180124
0.3333945
0.387154
-999
0.452887
0.6031929
-999
-999
-999
0.4920197
0.5625442
-999
-999
-999
0.3040313
0.2620634
0.2994097
0.2576565
-999
0.02234371
0.5439358
0.4676372
-999
-999
0.6191852
0.4687324
-999
-999
-999
0.4243972
0.2807564
0.2600718
0.1460806
-999
0.1097983
0.604089
0.3488843
-999
-999
0.7226995
0.3825093
-999
-999
-999
0.5336912
0.2772104
0.2218273
0.0529711
-999
0.1932917
0.6334935
0.2493534
-999
-999
0.7992325
0.3085454
-999
-999
-999
0.629248
0.256232
0.1889562
-999
-999
0.2720271
0.635777
0.1684535
-999
-999
0.8486138
0.2485662
-999
-999
-999
0.7097553
0.2228587
0.1641237
-999
-999
0.3456611
0.6162694
0.1044362
-999
-999
0.8728928
0.2027637
-999
-999
-999
0.7748401
0.1814572
0.1489471
-999
-999
0.4140245
0.5804479
0.05524522
-999
-999
0.03600936
0.8751293
0.1706243
-999
-999
0.8244604
0.1352673
0.1444525
-999
-999
0.476747
0.5328602
0.01892835
-999
-999
0.08640733
0.8582654
0.1514189
-999
-999
0.8582714
0.08640188
0.1514212
-999
-999
0.5328725
0.4767408
0.0189337
-999
-999
0.1352785
0.8244567
0.144451
-999
-999
0.8751316
0.03599901
0.170625
-999
-999
0.5804539
0.4140123
0.05524771
-999
-999
0.1814631
0.7748317
0.1489452
-999
-999
0.8728957
0.2027641
-999
-999
-999
0.6162807
0.3456611
0.1044386
-999
-999
0.2228703
0.7097553
0.1641189
-999
-999
0.8486138
0.248566
-999
-999
-999
0.635777
0.2720215
0.1684582
-999
-999
0.256232
0.6292434
0.1889504
-999
-999
0.7992325
0.3085444
-999
-999
-999
0.6334981
0.1932863
0.2493579
-999
-999
0.277216
0.5336866
0.05297805
0.2218237
-999
0.7226988
0.3825082
-999
-999
-999
0.604093
0.1097911
0.3488864
-999
-999
0.2807618
0.4243906
0.1460843
0.260076
-999
0.6191836
0.4687343
-999
-999
-999
0.5439405
0.02233728
0.4676353
-999
-999
0.2620708
0.3040252
0.2576523
0.2994024
-999
0.4920178
0.5625402
-999
-999
-999
0.4528906
0.6031953
-999
-999
-999
0.2180189
0.1764841
0.3871607
0.3333863
-999
0.3475606
0.07364074
0.654524
-999
-999
0.3351519
0.7472023
-999
-999
-999
0.1485268
0.04652985
0.529541
0.353388
-999
0.1942391
0.1782109
0.72899
-999
-999
0.1988638
0.881404
-999
-999
-999
0.05725174
0.6713355
0.349459
-999
-999
0.04079006
0.2840443
0.7645504
-999
-999
0.05419303
0.9754037
-999
-999
-999
0.7871003
0.3129185
-999
-999
-999
0.3760155
0.7397367
-999
-999
-999
0.9922089
-999
-999
-999
-999
0.8411791
0.2398758
-999
-999
-999
0.432001
0.6433319
-999
-999
-999
0.03355622
0.9057406
0.1324472
-999
-999
0.801265
0.1337931
0.1704121
-999
-999
0.42893
0.4829305
0.06531492
0.09520781
-999
0.0430733
0.7207813
0.3202143
-999
-999
0.6601111
0.005153557
0.3986088
-999
-999
0.3549147
0.2833472
0.2727511
0.2092846
-999
0.01195801
0.4744109
0.03139366
0.5175607
-999
0.445195
0.6546086
-999
-999
-999
0.2189986
0.07449643
0.5078478
0.2922673
-999
0.2140423
0.1969963
0.6799001
-999
-999
0.2024096
0.8854489
-999
-999
-999
0.04758681
0.7266769
0.3125622
-999
-999
0.34847
0.7402014
-999
-999
-999
0.9945508
-999
-999
-999
-999
0.8449187
0.2504772
-999
-999
-999
0.435471
0.6505966
-999
-999
-999
0.03607361
0.9003259
0.1380932
-999
-999
0.7830151
0.1154851
0.2052391
-999
-999
0.4090307
0.4323861
0.1189131
0.133737
-999
0.02795678
0.6277391
0.405619
-999
-999
0.5501187
0.5288097
-999
-999
-999
0.2651439
0.1610008
0.4083325
0.2801434
-999
0.289241
0.1372717
0.6551512
-999
-999
0.2424652
0.8491063
-999
-999
-999
0.05381902
0.6919171
0.336264
-999
-999
0.3246704
0.7623804
-999
-999
-999
0.9982454
-999
-999
-999
-999
0.8267177
0.2586309
-999
-999
-999
0.4116586
0.63355
0.01454646
-999
-999
0.0169768
0.8377469
0.2258662
-999
-999
0.6936014
0.07406061
0.3176691
-999
-999
0.3313761
0.3334376
0.2267511
0.2285396
-999
0.4629515
0.01575912
0.5593979
-999
-999
0.3663591
0.718098
-999
-999
-999
0.1174336
0.007317394
0.5716526
0.3615195
-999
0.07440098
0.243821
0.7799873
-999
-999
0.01638617
0.9880641
-999
-999
-999
0.7918747
0.3161332
-999
-999
-999
0.375479
0.6946697
-999
-999
-999
0.8703429
0.2031181
-999
-999
-999
0.6848354
0.1073865
0.2952536
-999
-999
0.3043079
0.3526315
0.2106792
0.2523628
-999
0.448647
0.007077554
0.5913013
-999
-999
0.3227046
0.7487354
0.005519666
-999
-999
0.06782736
0.5904137
0.3970701
-999
-999
0.01661156
0.2512638
0.8148419
-999
-999
0.9992075
-999
-999
-999
-999
0.7751192
0.2995933
0.001443263
-999
-999
0.3353909
0.7460832
-999
-999
-999
0.4574705
0.5687295
0.01175912
-999
-999
0.3576046
0.3256924
0.2282225
0.2018978
-999
0.1107932
0.7092906
0.2703702
-999
-999
0.8921741
0.1711769
-999
-999
-999
0.7103164
0.3761813
-999
-999
-999
0.326927
0.7832342
-999
-999
-999
0.05643574
0.9715779
-999
-999
-999
0.1259926
0.7669823
0.2082424
-999
-999
0.06026607
0.1512877
0.3569184
0.5103934
-999
0.426982
0.6437004
-999
-999
-999
0.5478046
0.5002357
-999
-999
-999
0.4194796
0.3456851
0.1952944
0.1423053
-999
0.1415522
0.734497
0.2215772
-999
-999
0.9132765
0.1451218
-999
-999
-999
0.7196925
0.3712873
-999
-999
-999
0.3279464
0.7823622
-999
-999
-999
0.03793265
0.9794711
-999
-999
-999
0.08997927
0.7805021
0.2277271
-999
-999
0.01521718
0.1148992
0.3690864
0.5576754
-999
0.3567398
0.719982
-999
-999
-999
0.4484715
0.5803493
0.01322086
-999
-999
0.3211641
0.3016912
0.2561365
0.2384524
-999
0.06765046
0.6516185
0.3521506
-999
-999
0.7999958
0.2767117
-999
-999
-999
0.6168084
0.3780704
0.06546453
-999
-999
0.2589658
0.7935749
0.03262506
-999
-999
0.9921824
-999
-999
-999
-999
0.7892219
0.3184936
-999
-999
-999
0.3729378
0.7163036
-999
-999
-999
0.1276545
0.926555
-999
-999
-999
0.1731477
0.7615458
0.1677881
-999
-999
0.0735458
0.1443978
0.3726591
0.4911756
-999
0.3884088
0.675568
-999
-999
-999
0.4708994
0.5749944
-999
-999
-999
0.3286494
0.2829798
0.2739788
0.2318166
-999
0.06540331
0.6178944
0.3779729
-999
-999
0.7554865
0.3311572
-999
-999
-999
0.5770327
0.3468407
0.1256497
0.002928715
-999
0.2323388
0.7500824
0.1152098
-999
-999
0.9494367
0.1017246
-999
-999
-999
0.763108
0.3255363
-999
-999
-999
0.3623319
0.7489288
-999
-999
-999
0.9938337
-999
-999
-999
-999
0.8391958
0.2387827
-999
-999
-999
0.4320767
0.6357443
-999
-999
-999
0.1438948
0.03599409
0.8953179
-999
-999
0.1848669
0.7983485
0.1191971
-999
-999
0.07850768
0.09482735
0.4353559
0.4646888
-999
0.317126
0.05319602
0.7124848
-999
-999
0.3921238
0.6746975
-999
-999
-999
0.2647325
0.1799935
0.3845304
0.2834482
-999
0.02428569
0.4675484
0.04234358
0.5063801
-999
0.5912849
0.5144344
-999
-999
-999
0.4524194
0.228609
0.3011357
0.1182031
-999
0.1605534
0.575618
0.01154979
0.3138125
-999
0.7595939
0.352083
-999
-999
-999
0.6264034
0.2389745
0.205313
-999
-999
0.2915009
0.6300753
0.1491565
-999
-999
0.8777081
0.205595
-999
-999
-999
0.771772
0.2167176
0.1108915
-999
-999
0.4104452
0.6319134
0.01419437
-999
-999
0.03484314
0.9369221
0.08106565
-999
-999
0.8782834
0.1714993
0.02528936
-999
-999
0.512559
0.5920713
-999
-999
-999
0.1080674
0.9413242
-999
-999
-999
0.9432281
0.1132562
-999
-999
-999
0.595918
0.5254031
-999
-999
-999
0.1749726
0.9038273
-999
-999
-999
0.9710352
0.05004886
-999
-999
-999
0.6615874
0.4456214
-999
-999
-999
0.2365278
0.8400459
-999
-999
-999
0.04935076
0.9704412
-999
-999
-999
0.7127626
0.3627039
-999
-999
-999
0.02374981
0.2944678
0.7635505
-999
-999
0.1026724
0.9512478
-999
-999
-999
0.05204812
0.7537711
0.2827698
-999
-999
0.03977656
0.3510613
0.6839784
-999
-999
0.1395531
0.9219422
-999
-999
-999
0.1027337
0.788942
0.2088708
-999
-999
0.03924111
0.4086905
0.607037
-999
-999
0.1581173
0.02777718
0.8886198
-999
-999
0.1387161
0.8218539
0.1420104
-999
-999
0.0232534
0.4695602
0.5353756
-999
-999
0.1576747
0.0819722
0.8548279
-999
-999
0.157677
0.8548337
0.08196681
-999
-999
0.0232588
0.5353877
0.469554
-999
-999
0.1387146
0.1420215
0.82185
-999
-999
0.1581182
0.8886217
0.02777205
-999
-999
0.03924378
0.6070429
0.4086842
-999
-999
0.1027305
0.2088766
0.7889373
-999
-999
0.1395543
0.9219431
-999
-999
-999
0.03978125
0.683984
0.3510488
-999
-999
0.05204812
0.2827759
0.7537606
-999
-999
0.1026724
0.9512476
-999
-999
-999
0.02374981
0.7635611
0.2944552
-999
-999
0.3627166
0.7127507
-999
-999
-999
0.04935076
0.9704389
-999
-999
-999
0.8400555
0.2365217
-999
-999
-999
0.4456345
0.661581
-999
-999
-999
0.05005953
0.971033
-999
-999
-999
0.9038313
0.1749785
-999
-999
-999
0.5254098
0.5959246
-999
-999
-999
0.1132619
0.9432313
-999
-999
-999
0.9413211
0.108059
-999
-999
-999
0.5920647
0.5125493
-999
-999
-999
0.1714934
0.8782777
0.02528936
-999
-999
0.9369255
0.03483543
0.08106565
-999
-999
0.6319228
0.410436
0.01419437
-999
-999
0.2167266
0.7717656
0.1108915
-999
-999
0.8777102
0.205595
-999
-999
-999
0.6300836
0.2915009
0.1491565
-999
-999
0.2389832
0.6264034
0.2053081
-999
-999
0.7595939
0.3520816
-999
-999
-999
0.575618
0.1605463
0.3138156
0.01154334
-999
0.228609
0.4524138
0.1182085
0.3011293
-999
0.5912848
0.5144317
-999
-999
-999
0.4675538
0.02427987
0.5063831
0.04233634
-999
0.1800007
0.2647278
0.2834547
0.3845225
-999
0.392123
0.6746931
-999
-999
-999
0.3171299
0.7124876
0.05319074
-999
-999
0.09483317
0.07851014
0.4646964
0.4353497
-999
0.1848674
0.1192047
0.7983444
-999
-999
0.143893
0.8953194
0.0359861
-999
-999
0.63575
0.4320668
-999
-999
-999
0.2387887
0.8391882
-999
-999
-999
0.9938349
-999
-999
-999
-999
0.7489377
0.3623224
-999
-999
-999
0.325546
0.7631001
-999
-999
-999
0.9494369
0.1017234
-999
-999
-999
0.7500905
0.2323334
0.1152106
-999
-999
0.3468501
0.5770282
0.00293108
0.1256459
-999
0.755486
0.3311551
-999
-999
-999
0.6178986
0.06539911
0.3779737
-999
-999
0.2829854
0.3286459
0.2318199
0.2739711
-999
0.4708988
0.574989
-999
-999
-999
0.3884116
0.6755692
-999
-999
-999
0.144402
0.07354816
0.4911822
0.372653
-999
0.1731482
0.1677956
0.7615408
-999
-999
0.1276528
0.9265555
-999
-999
-999
0.7163089
0.3729281
-999
-999
-999
0.3184997
0.7892137
-999
-999
-999
0.9921824
-999
-999
-999
-999
0.7935831
0.2589574
0.03262561
-999
-999
0.3780802
0.6168013
0.06546093
-999
-999
0.7999953
0.2767092
-999
-999
-999
0.6516252
0.0676463
0.3521509
-999
-999
0.3016998
0.3211609
0.2384553
0.2561312
-999
0.4484712
0.01322445
0.5803452
-999
-999
0.3567427
0.7199823
-999
-999
-999
0.1149034
0.01521522
0.5576797
0.3690897
-999
0.0899791
0.2277324
0.7805049
-999
-999
0.03793433
0.9794712
-999
-999
-999
0.7823595
0.3279403
-999
-999
-999
0.3712842
0.7196872
-999
-999
-999
0.9132764
0.1451185
-999
-999
-999
0.734502
0.1415545
0.2215772
-999
-999
0.3456913
0.4194813
0.1423086
0.1952894
-999
0.5478046
0.5002319
-999
-999
-999
0.4269803
0.6437002
-999
-999
-999
0.1512855
0.06026695
0.5103973
0.3569216
-999
0.1259925
0.2082473
0.766985
-999
-999
0.05643477
0.971578
-999
-999
-999
0.7832316
0.3269226
-999
-999
-999
0.3761781
0.7103127
-999
-999
-999
0.8921741
0.1711743
-999
-999
-999
0.7092943
0.110787
0.2703699
-999
-999
0.3256969
0.3576002
0.2019
0.2282252
-999
0.4574709
0.01176245
0.5687317
-999
-999
0.3353958
0.7460833
-999
-999
-999
0.8921374
0.02443466
0.1519009
-999
-999
0.6868722
0.4082766
-999
-999
-999
0.3014995
0.8024982
-999
-999
-999
0.08348493
0.9598482
-999
-999
-999
0.1536896
0.7347183
0.2073638
-999
-999
0.08389429
0.1876983
0.3272434
0.4869182
-999
0.4766336
0.5945723
-999
-999
-999
0.6025454
0.445008
-999
-999
-999
0.4655473
0.3710035
0.153054
0.09344099
-999
0.1734191
0.77009
0.1558687
-999
-999
0.9546126
0.08033296
-999
-999
-999
0.7562487
0.3516216
-999
-999
-999
0.3544675
0.7460608
-999
-999
-999
0.1130433
0.9368842
-999
-999
-999
0.1835312
0.7526055
0.1623993
-999
-999
0.1069693
0.1687186
0.3594812
0.454333
-999
0.4522512
0.5994127
-999
-999
-999
0.5795394
0.485492
-999
-999
-999
0.4510244
0.3251376
0.2027265
0.1146378
-999
0.1671304
0.7144595
0.2105282
-999
-999
0.9116696
0.1561194
-999
-999
-999
0.7417789
0.334996
-999
-999
-999
0.3580652
0.7519646
-999
-999
-999
0.9866881
-999
-999
-999
-999
0.05047213
0.828975
0.2084105
-999
-999
0.04861348
0.4265349
0.5628601
-999
-999
0.2711819
0.0351075
0.7772214
-999
-999
0.3671262
0.6778379
0.02128578
-999
-999
0.2690086
0.2080002
0.351645
0.2825431
-999
0.04565908
0.5309041
0.005857711
0.4483756
-999
0.694765
0.4057927
-999
-999
-999
0.5665493
0.2894179
0.1870255
0.02037606
-999
0.2529941
0.6917852
0.1410011
-999
-999
0.93128
0.1328887
-999
-999
-999
0.7997135
0.2704067
0.001143039
-999
-999
0.4191461
0.6927493
-999
-999
-999
0.03647931
0.9792891
-999
-999
-999
0.009541466
0.8847242
0.1716814
-999
-999
0.4996916
0.5548284
-999
-999
-999
0.1611112
0.09421597
0.8400972
-999
-999
0.2450111
0.8039117
0.0353507
-999
-999
0.1667917
0.08590187
0.4795929
0.3517828
-999
0.3522748
0.1013457
0.6024785
-999
-999
0.4931233
0.6163801
-999
-999
-999
0.4052411
0.1625063
0.3818586
0.1460294
-999
0.1558719
0.5023293
0.06493796
0.3529959
-999
0.7168192
0.3971203
-999
-999
-999
0.637385
0.1880811
0.2460274
-999
-999
0.3326139
0.5813786
0.0005230961
0.1347379
-999
0.8718336
0.1927928
-999
-999
-999
0.8270768
0.1648598
0.1044834
-999
-999
0.4889372
0.5799673
-999
-999
-999
0.1023817
0.9290257
0.02060033
-999
-999
0.9421633
0.1059538
-999
-999
-999
0.6066723
0.5126265
-999
-999
-999
0.1891467
0.8908807
-999
-999
-999
0.01342906
0.9706151
0.0277044
-999
-999
0.6753027
0.4060887
-999
-999
-999
0.04735849
0.2543797
0.7856001
-999
-999
0.1436086
0.9246541
-999
-999
-999
0.1036889
0.6954685
0.2852344
-999
-999
0.1282934
0.2974618
0.6476327
-999
-999
0.2650996
0.8303186
-999
-999
-999
0.239986
0.6769135
0.1667237
-999
-999
0.07029564
0.186613
0.3212259
0.5036674
-999
0.3689291
0.7140306
-999
-999
-999
0.3698691
0.6333456
0.05905214
-999
-999
0.1887341
0.2191721
0.3306704
0.3690397
-999
0.4475914
0.5949562
-999
-999
-999
0.4858542
0.5776498
-999
-999
-999
0.3040163
0.2263424
0.3314298
0.2503783
-999
0.02844096
0.496657
0.0218378
0.4841611
-999
0.581191
0.5196124
-999
-999
-999
0.4118906
0.2113082
0.3287237
0.1492232
-999
0.1164935
0.5154179
0.04449739
0.3867418
-999
0.6509624
0.4656946
-999
-999
-999
0.5082399
0.1787725
0.3269283
0.0645765
-999
0.2021619
0.506332
0.06933195
0.3040796
-999
0.6925157
0.4195355
-999
-999
-999
0.5891743
0.133673
0.3293706
-999
-999
0.2834874
0.4737979
0.09870386
0.235558
-999
0.7054073
0.382773
-999
-999
-999
0.651137
0.08031643
0.3384389
-999
-999
0.358072
0.4228215
0.1347978
0.1797606
-999
0.02202179
0.6908622
0.3559024
-999
-999
0.6908669
0.022017
0.3559055
-999
-999
0.4228319
0.3580666
0.1797676
0.134794
-999
0.08032632
0.6511339
0.3384368
-999
-999
0.705409
0.3827739
-999
-999
-999
0.4738029
0.2834823
0.2355613
0.09869597
-999
0.133678
0.5891707
0.3293651
-999
-999
0.6925164
0.419536
-999
-999
-999
0.5063365
0.2021519
0.3040856
0.06932375
-999
0.1787776
0.5082321
0.06458432
0.3269216
-999
0.6509623
0.4656935
-999
-999
-999
0.5154256
0.1164842
0.3867473
0.04449305
-999
0.2113181
0.4118826
0.1492314
0.3287196
-999
0.5811895
0.5196111
-999
-999
-999
0.4966632
0.02843678
0.4841636
0.0218333
-999
0.2263517
0.3040124
0.2503826
0.3314252
-999
0.4858529
0.5776474
-999
-999
-999
0.4475937
0.5949581
-999
-999
-999
0.2191763
0.1887377
0.3690442
0.3306626
-999
0.3698707
0.05905677
0.6333404
-999
-999
0.3689275
0.7140324
-999
-999
-999
0.1866093
0.07029084
0.5036744
0.3212259
-999
0.2399835
0.1667314
0.6769135
-999
-999
0.265101
0.8303186
-999
-999
-999
0.1282979
0.6476327
0.2974618
-999
-999
0.1036864
0.2852344
0.6954685
-999
-999
0.1436094
0.9246541
-999
-999
-999
0.04736186
0.7856001
0.2543706
-999
-999
0.4060887
0.6752933
-999
-999
-999
0.01342906
0.0277044
0.9706121
-999
-999
0.8908871
0.1891378
-999
-999
-999
0.5126364
0.6066626
-999
-999
-999
0.1059621
0.942159
-999
-999
-999
0.9290307
0.1023736
0.02060058
-999
-999
0.579977
0.488928
-999
-999
-999
0.1648685
0.8270715
0.1044834
-999
-999
0.871837
0.1927928
-999
-999
-999
0.5813874
0.3326085
0.1347379
0.0005173332
-999
0.1880897
0.6373815
0.2460224
-999
-999
0.7168205
0.3971189
-999
-999
-999
0.5023341
0.1558655
0.3529992
0.06493328
-999
0.1625115
0.4052368
0.146035
0.3818539
-999
0.493124
0.6163781
-999
-999
-999
0.35228
0.6024808
0.1013404
-999
-999
0.0859083
0.1667883
0.3517875
0.479587
-999
0.2450112
0.03535526
0.8039085
-999
-999
0.1611148
0.8400996
0.09421042
-999
-999
0.5548342
0.4996851
-999
-999
-999
0.009541312
0.171687
0.8847197
-999
-999
0.9792908
0.03647157
-999
-999
-999
0.6927554
0.4191367
-999
-999
-999
0.2704128
0.7997066
0.001137753
-999
-999
0.9312814
0.1328863
-999
-999
-999
0.6917936
0.252989
0.141003
-999
-999
0.289427
0.5665455
0.02038108
0.1870214
-999
0.6947653
0.4057904
-999
-999
-999
0.5309083
0.04565342
0.4483766
0.005850545
-999
0.2080054
0.2690044
0.2825467
0.3516366
-999
0.3671261
0.02128986
0.6778321
-999
-999
0.271186
0.777223
0.03510224
-999
-999
0.04861908
0.5628675
0.4265283
-999
-999
0.05047192
0.2084186
0.82897
-999
-999
0.9866888
-999
-999
-999
-999
0.7519703
0.358059
-999
-999
-999
0.3350023
0.741774
-999
-999
-999
0.9116699
0.1561194
-999
-999
-999
0.7144647
0.1671326
0.2105282
-999
-999
0.3251438
0.4510262
0.1146378
0.2027219
-999
0.5795394
0.4854886
-999
-999
-999
0.4522494
0.599413
-999
-999
-999
0.1687163
0.1069672
0.4543368
0.3594718
-999
0.1835311
0.162404
0.7525979
-999
-999
0.1130453
0.9368843
-999
-999
-999
0.7460687
0.3544611
-999
-999
-999
0.3516309
0.7562433
-999
-999
-999
0.9546125
0.08033096
-999
-999
-999
0.7700953
0.1734215
0.1558686
-999
-999
0.3710098
0.4655491
0.09344283
0.153047
-999
0.6025456
0.4450022
-999
-999
-999
0.4766318
0.5945717
-999
-999
-999
0.187696
0.08389273
0.4869233
0.3272372
-999
0.1536896
0.2073707
0.7347127
-999
-999
0.08348648
0.9598476
-999
-999
-999
0.8025032
0.3015026
-999
-999
-999
0.4082829
0.6868747
-999
-999
-999
0.02443978
0.8921376
0.1518989
-999
-999
0.1548195
0.6858509
0.242049
-999
-999
0.07549103
0.2293524
0.2766481
0.5002283
-999
0.5170041
0.5703531
-999
-999
-999
0.6261328
0.02993439
0.3969906
-999
-999
0.4690264
0.4149857
0.1066366
0.07543493
-999
0.1675503
0.81138
0.1167634
-999
-999
0.9725006
0.03159502
-999
-999
-999
0.7499716
0.3598322
-999
-999
-999
0.3414432
0.7325161
-999
-999
-999
0.1772364
0.8934421
-999
-999
-999
0.2555271
0.7000563
0.1289096
-999
-999
0.1711395
0.2230222
0.3202612
0.3868273
-999
0.5345594
0.5036449
-999
-999
-999
0.6789417
0.3932381
-999
-999
-999
0.5395777
0.3502097
0.1374303
0.03026999
-999
0.2294096
0.7571123
0.1052784
-999
-999
0.9717233
0.05573836
-999
-999
-999
0.8024796
0.29995
-999
-999
-999
0.4045393
0.6963892
-999
-999
-999
0.1035015
0.02173616
0.9271311
-999
-999
0.1814111
0.7936661
0.1216318
-999
-999
0.114678
0.1200492
0.4177945
0.426752
-999
0.3971237
0.03916156
0.615348
-999
-999
0.5413572
0.5478286
-999
-999
-999
0.4453232
0.2474478
0.2789256
0.1211565
-999
0.1833208
0.6253898
0.2557284
-999
-999
0.8567088
0.2356965
-999
-999
-999
0.749203
0.2625218
0.0745006
-999
-999
0.3994994
0.6835849
-999
-999
-999
0.03397405
0.9789909
-999
-999
-999
0.9008552
0.171221
-999
-999
-999
0.5237324
0.5581691
-999
-999
-999
0.1195559
0.1161724
0.8557036
-999
-999
0.2189013
0.834485
0.02347777
-999
-999
0.1654937
0.05664115
0.5140557
0.3351622
-999
0.3309545
0.1299763
0.5879781
-999
-999
0.500598
0.6146237
-999
-999
-999
0.445969
0.1366785
0.3931535
0.1032933
-999
0.2093794
0.49059
0.08096411
0.3007218
-999
0.7487177
0.3516937
-999
-999
-999
0.7162242
0.1522297
0.2203998
-999
-999
0.4217554
0.5544034
0.05534008
-999
-999
0.07078981
0.8925298
0.1134314
-999
-999
0.9118159
0.107726
0.04490974
-999
-999
0.594025
0.5133092
-999
-999
-999
0.1887338
0.8930876
-999
-999
-999
0.9799847
0.02375796
-999
-999
-999
0.6913197
0.3969398
-999
-999
-999
0.03775357
0.2709128
0.7728034
-999
-999
0.1545144
0.9176225
-999
-999
-999
0.1374459
0.7005262
0.2474947
-999
-999
0.1516264
0.3092432
0.5894195
-999
-999
0.3252222
0.767737
-999
-999
-999
0.331367
0.6360964
0.09686509
-999
-999
0.165652
0.2352535
0.3059815
0.3942561
-999
0.4744801
0.5833468
-999
-999
-999
0.5221793
0.5273564
-999
-999
-999
0.3408532
0.2793715
0.2711562
0.2156394
-999
0.0585071
0.58351
0.4014037
-999
-999
0.691124
0.4021725
-999
-999
-999
0.5126831
0.2829275
0.2173765
0.06368033
-999
0.1893854
0.6406929
0.2397247
-999
-999
0.8203873
0.2793585
-999
-999
-999
0.6695237
0.2523251
0.1558482
-999
-999
0.3185364
0.6453712
0.1034149
-999
-999
0.8986062
0.1685551
-999
-999
-999
0.8007453
0.1979757
0.09453396
-999
-999
0.4416794
0.6066846
-999
-999
-999
0.06198841
0.9243962
0.07330585
-999
-999
0.8994279
0.1303674
0.03827325
-999
-999
0.5554712
0.5383474
-999
-999
-999
0.150887
0.9050097
-999
-999
-999
0.9634011
0.05777863
-999
-999
-999
0.657786
0.4536622
-999
-999
-999
0.2397532
0.852204
-999
-999
-999
0.9947411
-999
-999
-999
-999
0.7476994
0.3628659
-999
-999
-999
0.3289317
0.7780632
-999
-999
-999
0.9981337
-999
-999
-999
-999
0.8250819
0.2725187
-999
-999
-999
0.4189029
0.6923413
-999
-999
-999
0.02985271
0.9789465
-999
-999
-999
0.8899649
0.1861527
-999
-999
-999
0.5099583
0.6016857
-999
-999
-999
0.1052211
0.9418199
-999
-999
-999
0.9418262
0.1052156
-999
-999
-999
0.6016986
0.5099518
-999
-999
-999
0.1861645
0.8899606
-999
-999
-999
0.9789482
0.02984232
-999
-999
-999
0.6923475
0.4188899
-999
-999
-999
0.2725249
0.8250716
-999
-999
-999
0.9981346
-999
-999
-999
-999
0.7780744
0.3289189
-999
-999
-999
0.3628788
0.7476877
-999
-999
-999
0.9947392
-999
-999
-999
-999
0.8522137
0.2397472
-999
-999
-999
0.4536752
0.6577798
-999
-999
-999
0.05778928
0.9633988
-999
-999
-999
0.9050137
0.1508813
-999
-999
-999
0.538354
0.5554647
-999
-999
-999
0.1303731
0.8994244
0.03827181
-999
-999
0.924399
0.06198059
0.0733063
-999
-999
0.6066908
0.4416702
-999
-999
-999
0.1979815
0.8007392
0.09453497
-999
-999
0.8986083
0.1685551
-999
-999
-999
0.6453797
0.3185364
0.1034139
-999
-999
0.2523339
0.6695237
0.155851
-999
-999
0.8203873
0.2793593
-999
-999
-999
0.6406929
0.1893854
0.2397229
-999
-999
0.2829275
0.5126831
0.06367709
0.217371
-999
0.691124
0.4021701
-999
-999
-999
0.58351
0.05850055
0.4014062
-999
-999
0.2793715
0.3408473
0.215645
0.2711494
-999
0.5221775
0.5273523
-999
-999
-999
0.4744838
0.5833486
-999
-999
-999
0.23526
0.1656469
0.3942623
0.3059733
-999
0.3313649
0.09687194
0.6360902
-999
-999
0.3252245
0.7677376
-999
-999
-999
0.1516314
0.5894263
0.3092432
-999
-999
0.137444
0.2475028
0.7005262
-999
-999
0.1545157
0.9176225
-999
-999
-999
0.03775736
0.7728034
0.2709036
-999
-999
0.3969398
0.6913104
-999
-999
-999
0.02375796
0.9799819
-999
-999
-999
0.8930939
0.1887279
-999
-999
-999
0.513319
0.5940189
-999
-999
-999
0.1077343
0.9118131
0.04491162
-999
-999
0.8925331
0.07078484
0.1134314
-999
-999
0.5544097
0.42175
0.05533837
-999
-999
0.1522354
0.7162212
0.2203968
-999
-999
0.7487198
0.3516929
-999
-999
-999
0.4905952
0.2093751
0.3007239
0.08096636
-999
0.1366836
0.4459665
0.103297
0.3931558
-999
0.5005991
0.6146246
-999
-999
-999
0.3309583
0.5879768
0.1299655
-999
-999
0.05664542
0.1654909
0.3351598
0.5140438
-999
0.2189018
0.02347553
0.8344787
-999
-999
0.1195596
0.8557087
0.1161669
-999
-999
0.5581807
0.5237258
-999
-999
-999
0.1712322
0.9008511
-999
-999
-999
0.9789929
0.03396655
-999
-999
-999
0.6835911
0.3994906
-999
-999
-999
0.2625279
0.7491968
0.07449597
-999
-999
0.8567105
0.2356941
-999
-999
-999
0.6253978
0.1833164
0.2557298
-999
-999
0.2474564
0.4453201
0.1211608
0.2789304
-999
0.5413576
0.5478316
-999
-999
-999
0.3971273
0.6153469
0.03916156
-999
-999
0.1200536
0.1146759
0.4267477
0.4177945
-999
0.1814112
0.121627
0.7936661
-999
-999
0.1035037
0.9271311
0.02173103
-999
-999
0.6963892
0.4045328
-999
-999
-999
0.29995
0.8024745
-999
-999
-999
0.9717237
0.05573594
-999
-999
-999
0.7571176
0.2294021
0.1052788
-999
-999
0.3502159
0.5395718
0.03027287
0.1374261
-999
0.6789417
0.393235
-999
-999
-999
0.5345654
0.5036449
-999
-999
-999
0.2230298
0.1711372
0.3868306
0.3202552
-999
0.2555271
0.1289138
0.7000512
-999
-999
0.1772387
0.8934419
-999
-999
-999
0.7325208
0.3414337
-999
-999
-999
0.3598382
0.7499633
-999
-999
-999
0.9724998
0.03159304
-999
-999
-999
0.8113875
0.1675456
0.116763
-999
-999
0.4149953
0.4690224
0.07543647
0.1066322
-999
0.02994216
0.6261323
0.3969866
-999
-999
0.5170076
0.5703521
-999
-999
-999
0.2293572
0.07549204
0.5002311
0.2766435
-999
0.1548197
0.2420535
0.6858464
-999
-999
0.4288692
0.4816212
0.05647402
0.0848797
-999
0.1252732
0.8610347
0.09951168
-999
-999
0.9693764
0.03798522
-999
-999
-999
0.705742
0.4004628
-999
-999
-999
0.03430867
0.2940379
0.747384
-999
-999
0.229651
0.8583564
-999
-999
-999
0.3013126
0.6352487
0.1266569
-999
-999
0.201233
0.2843794
0.2617714
0.3541004
-999
0.6090451
0.4356022
-999
-999
-999
0.7459074
0.008309582
0.3126726
-999
-999
0.5811995
0.3885308
0.07044026
-999
-999
0.2492578
0.7966831
0.03131293
-999
-999
0.9962161
-999
-999
-999
-999
0.8073829
0.284379
-999
-999
-999
0.4013539
0.6512715
-999
-999
-999
0.2015318
0.01846064
0.8512406
-999
-999
0.2974334
0.7172088
0.06247092
-999
-999
0.2224263
0.1876532
0.3659717
0.3226625
-999
0.02653738
0.5072446
0.01071977
0.474713
-999
0.6852966
0.4137371
-999
-999
-999
0.5829983
0.2764544
0.1851269
0.00404589
-999
0.2845255
0.6833065
0.1076229
-999
-999
0.9500704
0.09106424
-999
-999
-999
0.8531542
0.2262819
-999
-999
-999
0.4825268
0.6318508
-999
-999
-999
0.02852995
0.08990537
0.930969
-999
-999
0.1158975
0.8843203
0.0784911
-999
-999
0.07641095
0.01357123
0.5354784
0.4107426
-999
0.2660149
0.1369121
0.6725334
-999
-999
0.42485
0.6824551
-999
-999
-999
0.3841671
0.1164
0.4321129
0.146929
-999
0.1740348
0.4594996
0.0993937
0.3465031
-999
0.7153372
0.3878178
-999
-999
-999
0.6973152
0.1428262
0.2413606
-999
-999
0.4209867
0.5420015
0.002306045
0.06100592
-999
0.07911419
0.8864766
0.1114909
-999
-999
0.9239349
0.09255571
0.03764958
-999
-999
0.6193126
0.4906927
-999
-999
-999
0.2144454
0.8719427
-999
-999
-999
0.01844776
0.9785801
-999
-999
-999
0.007415852
0.7109952
0.3449186
-999
-999
0.07695641
0.296462
0.7039902
-999
-999
0.2279071
0.8595604
-999
-999
-999
0.2359408
0.6771455
0.1647229
-999
-999
0.09569606
0.2038506
0.3117745
0.4703732
-999
0.4305841
0.6420887
-999
-999
-999
0.4793081
0.5498652
-999
-999
-999
0.3130291
0.2832645
0.2677331
0.2398899
-999
0.04620875
0.5909982
0.4049178
-999
-999
0.7058136
0.3808515
-999
-999
-999
0.5329289
0.3029296
0.1852001
0.04253784
-999
0.2093627
0.6771669
0.1913671
-999
-999
0.8754144
0.2099295
-999
-999
-999
0.7288544
0.2672731
0.08628848
-999
-999
0.3664009
0.6779208
0.01468466
-999
-999
0.006533231
0.9572865
0.05704088
-999
-999
0.8729951
0.1929381
-999
-999
-999
0.5038637
0.6075205
-999
-999
-999
0.1061231
0.9463364
-999
-999
-999
0.9478095
0.09916086
-999
-999
-999
0.6105384
0.4937817
-999
-999
-999
0.006333932
0.1957093
0.8626791
-999
-999
0.0707151
0.9529552
0.001030581
-999
-999
0.01703214
0.680694
0.3633038
-999
-999
0.07281143
0.2727448
0.7370266
-999
-999
0.1742256
0.9028585
-999
-999
-999
0.1362972
0.7152684
0.234183
-999
-999
0.1160717
0.3366883
0.5964617
-999
-999
0.259523
0.8179802
-999
-999
-999
0.2488525
0.7203386
0.1158365
-999
-999
0.09128485
0.1338157
0.3888029
0.4586188
-999
0.3197439
0.03482168
0.7169405
-999
-999
0.3473115
0.7043213
0.01175224
-999
-999
0.1969367
0.1269877
0.4316034
0.3324918
-999
0.3507667
0.0896204
0.6130133
-999
-999
0.4244874
0.6754958
-999
-999
-999
0.2946972
0.09915102
0.4681795
0.2212931
-999
0.05103542
0.3520179
0.1457528
0.5140018
-999
0.4746671
0.6405592
-999
-999
-999
0.3788428
0.05520156
0.5016231
0.1250204
-999
0.1350549
0.326113
0.2052637
0.4235049
-999
0.4945558
0.604024
-999
-999
-999
0.4435801
9.308351e-05
0.5344583
0.04217358
-999
0.2121735
0.2776383
0.2701927
0.3424522
-999
0.48349
0.5684057
-999
-999
-999
0.4834936
0.5684097
-999
-999
-999
0.2776464
0.2121692
0.3424611
0.2701973
-999
0.0001013135
0.4435776
0.04218248
0.5344613
-999
0.4945568
0.604023
-999
-999
-999
0.3261167
0.1350467
0.4235009
0.2052637
-999
0.05520575
0.3788369
0.1250158
0.5016231
-999
0.4746676
0.6405592
-999
-999
-999
0.3520244
0.0510275
0.5140018
0.1457478
-999
0.09915937
0.2946908
0.2212931
0.4681749
-999
0.4244865
0.6754945
-999
-999
-999
0.3507718
0.6130163
0.08961546
-999
-999
0.1269956
0.1969335
0.3324969
0.4315982
-999
0.3473104
0.01175681
0.7043186
-999
-999
0.3197458
0.7169427
0.03481678
-999
-999
0.1338192
0.09128173
0.4586239
0.3887973
-999
0.248851
0.1158415
0.7203348
-999
-999
0.2595241
0.8179814
-999
-999
-999
0.1160746
0.5964667
0.3366912
-999
-999
0.1362948
0.2341885
0.7152709
-999
-999
0.1742265
0.9028586
-999
-999
-999
0.07281496
0.7370242
0.2727508
-999
-999
0.01703214
0.3633007
0.6806998
-999
-999
0.0707151
0.001028134
0.952957
-999
-999
0.006333932
0.862675
0.1957005
-999
-999
0.4937752
0.6105289
-999
-999
-999
0.09915539
0.9478049
-999
-999
-999
0.9463412
0.1061149
-999
-999
-999
0.6075302
0.5038542
-999
-999
-999
0.1929469
0.8729889
-999
-999
-999
0.9572893
0.006525903
0.05704061
-999
-999
0.6779298
0.366392
0.01468612
-999
-999
0.267282
0.7288476
0.08628586
-999
-999
0.875415
0.2099287
-999
-999
-999
0.6771744
0.2093627
0.1913685
-999
-999
0.3029383
0.5329289
0.04254075
0.1851944
-999
0.7058136
0.3808486
-999
-999
-999
0.5909982
0.04620245
0.4049197
-999
-999
0.2832645
0.3130234
0.2398951
0.2677283
-999
0.4793065
0.549862
-999
-999
-999
0.4305877
0.6420895
-999
-999
-999
0.2038567
0.0956931
0.4703773
0.3117803
-999
0.2359397
0.1647277
0.6771502
-999
-999
0.2279085
0.8595606
-999
-999
-999
0.07695942
0.7039857
0.2964558
-999
-999
0.007414842
0.3449128
0.7109892
-999
-999
0.01844845
0.9785786
-999
-999
-999
0.8719471
0.2144483
-999
-999
-999
0.4906992
0.6193156
-999
-999
-999
0.09256115
0.9239362
0.03764669
-999
-999
0.8864749
0.07910436
0.1114905
-999
-999
0.5419984
0.4209763
0.06100843
0.00230232
-999
0.1428234
0.6973099
0.2413573
-999
-999
0.7153416
0.3878168
-999
-999
-999
0.4595098
0.174031
0.3465053
0.0993937
-999
0.1164102
0.3841649
0.1469327
0.4321129
-999
0.4248511
0.6824551
-999
-999
-999
0.2660185
0.6725334
0.1369038
-999
-999
0.01357519
0.07640868
0.4107426
0.535469
-999
0.1158982
0.0784911
0.8843148
-999
-999
0.02853316
0.9309724
0.0899107
-999
-999
0.63186
0.4825331
-999
-999
-999
0.2262906
0.8531585
-999
-999
-999
0.950069
0.09106242
-999
-999
-999
0.6833007
0.2845255
0.107624
-999
-999
0.2764484
0.5829983
0.004049201
0.1851228
-999
0.6852966
0.4137346
-999
-999
-999
0.5072446
0.02653399
0.4747138
0.0107125
-999
0.1876532
0.2224239
0.322666
0.3659629
-999
0.2974335
0.06247504
0.7172024
-999
-999
0.2015343
0.8512416
0.01845555
-999
-999
0.651279
0.4013474
-999
-999
-999
0.2843876
0.8073777
-999
-999
-999
0.9962162
-999
-999
-999
-999
0.7966885
0.2492525
0.03131293
-999
-999
0.3885372
0.5811952
0.07043428
-999
-999
0.008314638
0.7459072
0.312668
-999
-999
0.6090493
0.4356017
-999
-999
-999
0.2843848
0.2012289
0.3541044
0.2617658
-999
0.3013122
0.1266628
0.6352435
-999
-999
0.2296544
0.8583552
-999
-999
-999
0.03431374
0.747388
0.2940316
-999
-999
0.4004686
0.7057362
-999
-999
-999
0.03799015
0.969375
-999
-999
-999
0.8610391
0.1252697
0.09951222
-999
-999
0.4816277
0.428866
0.08487888
0.05647402
-999
0.07945876
0.2174038
0.7895279
-999
-999
0.2662294
0.8294058
-999
-999
-999
0.3151123
0.0154845
0.5612063
0.1557282
-999
0.1928537
0.3566101
0.1897401
0.3529568
-999
0.6768613
0.3915568
-999
-999
-999
0.7780436
0.05842575
0.2441696
-999
-999
0.5740028
0.4485548
0.005521646
-999
-999
0.2268852
0.8440076
-999
-999
-999
0.9973511
-999
-999
-999
-999
0.0009625382
0.7685288
0.2946478
-999
-999
0.0681491
0.3575297
0.6284614
-999
-999
0.2924367
0.7801853
-999
-999
-999
0.3918159
0.6249604
0.03074281
-999
-999
0.2979256
0.2594502
0.2902279
0.252136
-999
0.07566823
0.6071783
0.3648259
-999
-999
0.7945329
0.2947469
-999
-999
-999
0.6691238
0.3083058
0.08979092
-999
-999
0.3372307
0.7226982
-999
-999
-999
0.9877766
-999
-999
-999
-999
0.8792822
0.197217
-999
-999
-999
0.4978702
0.5706229
-999
-999
-999
0.1509004
0.09942977
0.8375512
-999
-999
0.2687407
0.7927279
0.004806399
-999
-999
0.2272722
0.09102669
0.4759936
0.2830532
-999
0.05398443
0.3980037
0.1070488
0.4940649
-999
0.6102031
0.5037811
-999
-999
-999
0.5778566
0.1567628
0.3047723
0.002310889
-999
0.3271403
0.5441001
0.0271221
0.1525619
-999
0.02017485
0.8606471
0.1862459
-999
-999
0.8728482
0.1231566
0.0825036
-999
-999
0.5695571
0.5252143
-999
-999
-999
0.1806724
0.8963954
-999
-999
-999
0.9787819
0.01591771
-999
-999
-999
0.6955431
0.3705287
-999
-999
-999
0.0756365
0.2811062
0.721035
-999
-999
0.2313959
0.8568909
-999
-999
-999
0.2471353
0.6608188
0.1622536
-999
-999
0.1124267
0.2241107
0.2957076
0.4502642
-999
0.4679
0.6013283
-999
-999
-999
0.5322049
0.5031846
-999
-999
-999
0.3677149
0.3099541
0.2317591
0.1845711
-999
0.09084384
0.645294
0.3249665
-999
-999
0.7887827
0.2972618
-999
-999
-999
0.6204247
0.313865
0.1203952
-999
-999
0.2787046
0.7126761
0.0853476
-999
-999
0.9483395
0.09756911
-999
-999
-999
0.8206903
0.2459165
-999
-999
-999
0.4454313
0.6607224
-999
-999
-999
0.06266078
0.9682353
-999
-999
-999
0.9216415
0.1351339
-999
-999
-999
0.5646888
0.524949
-999
-999
-999
0.05823832
0.1571173
0.8630021
-999
-999
0.1333026
0.9084685
0.01041823
-999
-999
0.07844058
0.6197044
0.3542437
-999
-999
0.1677294
0.2239669
0.6858406
-999
-999
0.2955213
0.8051832
-999
-999
-999
0.2583002
0.6108935
0.1843314
-999
-999
0.08124325
0.2450524
0.2600579
0.4888824
-999
0.4375209
0.6534349
-999
-999
-999
0.4383187
0.5532058
0.03271072
-999
-999
0.2468494
0.2814097
0.2678635
0.3036859
-999
0.5414683
0.4891655
-999
-999
-999
0.6023378
0.466899
-999
-999
-999
0.4155104
0.2763673
0.2537061
0.1430786
-999
0.1162666
0.595518
0.3339566
-999
-999
0.7333021
0.3697138
-999
-999
-999
0.5772682
0.2369455
0.225309
0.009112906
-999
0.2531686
0.5978138
0.1971393
-999
-999
0.8179768
0.2735803
-999
-999
-999
0.7209787
0.1739287
0.1896828
-999
-999
0.3910861
0.5559417
0.08091202
-999
-999
0.03793196
0.8509376
0.1851603
-999
-999
0.8363813
0.0979868
0.1523187
-999
-999
0.5254483
0.4825733
0.002719658
-999
-999
0.1451441
0.8352148
0.1072249
-999
-999
0.9159408
0.01744832
0.116881
-999
-999
0.6511796
0.3907259
0.007149274
-999
-999
0.256334
0.7798417
0.04035192
-999
-999
0.9559925
0.08560091
-999
-999
-999
0.7628767
0.2909185
0.01379041
-999
-999
0.3701205
0.6961856
-999
-999
-999
0.0009293507
0.9567592
0.059555
-999
-999
0.8548882
0.1902569
0.02408626
-999
-999
0.4842109
0.5948427
-999
-999
-999
0.09292584
0.9214043
0.03913337
-999
-999
0.9214103
0.0929312
0.03913506
-999
-999
0.5948552
0.4842172
-999
-999
-999
0.1902684
0.8548925
0.02408493
-999
-999
0.9567578
0.0009293507
0.05955538
-999
-999
0.6961797
0.3701205
-999
-999
-999
0.2909126
0.7628767
0.01378852
-999
-999
0.9559925
0.08560063
-999
-999
-999
0.7798417
0.2563281
0.04035342
-999
-999
0.3907259
0.6511739
0.007144657
-999
-999
0.01744832
0.915939
0.1168793
-999
-999
0.8352188
0.1451386
0.1072271
-999
-999
0.4825794
0.5254425
0.00271687
-999
-999
0.09799217
0.8363784
0.1523171
-999
-999
0.8509402
0.03792703
0.1851609
-999
-999
0.5559474
0.3910805
0.08091448
-999
-999
0.1739342
0.720975
0.1896793
-999
-999
0.817978
0.2735802
-999
-999
-999
0.5978189
0.2531713
0.1971427
-999
-999
0.236951
0.5772703
0.009117786
0.2253059
-999
0.7333021
0.3697128
-999
-999
-999
0.595516
0.1162712
0.3339586
-999
-999
0.2763647
0.4155146
0.1430821
0.2537
-999
0.6023389
0.466896
-999
-999
-999
0.5414655
0.4891676
-999
-999
-999
0.281405
0.2468437
0.3036917
0.2678537
-999
0.4383162
0.03271696
0.5531991
-999
-999
0.4375234
0.6534361
-999
-999
-999
0.245058
0.08123832
0.4888905
0.2600525
-999
0.2582974
0.1843411
0.6108889
-999
-999
0.2955226
0.8051826
-999
-999
-999
0.1677337
0.6858446
0.2239611
-999
-999
0.07843795
0.3542493
0.6196985
-999
-999
0.1333028
0.01042294
0.9084664
-999
-999
0.05824126
0.8630055
0.1571088
-999
-999
0.5249551
0.5646791
-999
-999
-999
0.1351393
0.9216359
-999
-999
-999
0.9682389
0.06265558
-999
-999
-999
0.6607317
0.445425
-999
-999
-999
0.2459255
0.8206858
-999
-999
-999
0.9483405
0.09756787
-999
-999
-999
0.7126817
0.27871
0.08534934
-999
-999
0.3138711
0.6204292
0.1203901
-999
-999
0.7887828
0.2972592
-999
-999
-999
0.6452898
0.09083954
0.324968
-999
-999
0.3099487
0.367711
0.1845756
0.2317522
-999
0.5322041
0.5031798
-999
-999
-999
0.4679026
0.601329
-999
-999
-999
0.224115
0.1124282
0.4502698
0.2956991
-999
0.2471358
0.1622606
0.6608114
-999
-999
0.2313952
0.8568902
-999
-999
-999
0.07563503
0.7210414
0.2811
-999
-999
0.3705374
0.695537
-999
-999
-999
0.01592503
0.9787801
-999
-999
-999
0.8963996
0.1806724
-999
-999
-999
0.5252208
0.5695571
-999
-999
-999
0.1231621
0.8728482
0.0825036
-999
-999
0.8606471
0.02016817
0.1862459
-999
-999
0.5441001
0.3271334
0.1525619
0.02711794
-999
0.1567628
0.5778528
0.002310889
0.3047683
-999
0.6102054
0.5037794
-999
-999
-999
0.3980103
0.05398754
0.4940668
0.107041
-999
0.09103368
0.227274
0.2830574
0.4759851
-999
0.2687399
0.004810568
0.7927229
-999
-999
0.1508977
0.8375542
0.09942431
-999
-999
0.5706311
0.4978637
-999
-999
-999
0.1972253
0.8792778
-999
-999
-999
0.9877781
-999
-999
-999
-999
0.7227041
0.3372225
-999
-999
-999
0.308312
0.6691176
0.08978547
-999
-999
0.7945338
0.2947434
-999
-999
-999
0.6071852
0.07566439
0.3648264
-999
-999
0.2594584
0.2979229
0.2521402
0.2902226
-999
0.391816
0.03074832
0.6249561
-999
-999
0.2924395
0.7801853
-999
-999
-999
0.06815289
0.6284657
0.3575203
-999
-999
0.0009624476
0.2946533
0.7685204
-999
-999
0.99735
-999
-999
-999
-999
0.8440149
0.2268798
-999
-999
-999
0.4485644
0.5739979
0.005517898
-999
-999
0.05843366
0.7780426
0.2441663
-999
-999
0.676865
0.3915558
-999
-999
-999
0.3566156
0.1928509
0.3529589
0.1897443
-999
0.01548923
0.3151117
0.1557318
0.5612104
-999
0.2662315
0.8294075
-999
-999
-999
0.07946216
0.7895254
0.2174038
-999
-999
0.7316236
0.3642567
-999
-999
-999
0.7686679
0.1346966
0.1834541
-999
-999
0.5182748
0.5357232
-999
-999
-999
0.1665529
0.9014582
-999
-999
-999
0.9780279
0.01025483
-999
-999
-999
0.03267083
0.6946713
0.3347853
-999
-999
0.1431925
0.2828676
0.6314018
-999
-999
0.3741229
0.7205546
-999
-999
-999
0.4568864
0.5292877
0.02534612
-999
-999
0.3320564
0.3428716
0.2033079
0.2120553
-999
0.08612181
0.7022691
0.2839582
-999
-999
0.8674776
0.1952128
-999
-999
-999
0.6984707
0.3538743
0.001469471
-999
-999
0.3381502
0.7596708
-999
-999
-999
0.9888204
-999
-999
-999
-999
0.04607027
0.8443743
0.184838
-999
-999
0.002472612
0.03185352
0.4568262
0.5202842
-999
0.2713612
0.06893361
0.7360482
-999
-999
0.4090618
0.6701577
-999
-999
-999
0.3540383
0.1679044
0.3775122
0.1849828
-999
0.145375
0.5173371
0.04425497
0.3455022
-999
0.7630104
0.3393129
-999
-999
-999
0.7219926
0.1891159
0.1706889
-999
-999
0.4294247
0.5957815
0.007071348
-999
-999
0.08249877
0.9329275
0.02606635
-999
-999
0.9491057
0.09605789
-999
-999
-999
0.6292754
0.4737726
-999
-999
-999
0.03300924
0.2202705
0.8202231
-999
-999
0.1646322
0.9050534
-999
-999
-999
0.1693672
0.6525089
0.2432252
-999
-999
0.04426062
0.2179725
0.2657514
0.5311542
-999
0.4417355
0.6495616
-999
-999
-999
0.4885207
0.5066621
0.005760655
-999
-999
0.32339
0.3354957
0.2112508
0.2213572
-999
0.05810146
0.663257
0.3380838
-999
-999
0.7888526
0.2820489
-999
-999
-999
0.6073322
0.3473935
0.09080611
-999
-999
0.2648249
0.7467042
0.0647424
-999
-999
0.9688297
0.05816909
-999
-999
-999
0.8234796
0.2617013
-999
-999
-999
0.4409956
0.6696388
-999
-999
-999
0.0586473
0.9603637
-999
-999
-999
0.03954619
0.900727
0.1212142
-999
-999
0.5457222
0.4869592
-999
-999
-999
0.1503461
0.1459943
0.7929805
-999
-999
0.2512895
0.8263398
-999
-999
-999
0.1977374
0.02199544
0.5577498
0.2726498
-999
0.02406647
0.2830192
0.1891251
0.5542154
-999
0.4577385
0.6516856
-999
-999
-999
0.4321997
0.0443075
0.4884174
0.07327554
-999
0.2253262
0.362471
0.1867352
0.3152362
-999
0.6238908
0.4427992
-999
-999
-999
0.6580804
0.02438908
0.3697496
-999
-999
0.437056
0.3761075
0.1478301
0.1084477
-999
0.1184635
0.7168432
0.243249
-999
-999
0.8398439
0.2337553
-999
-999
-999
0.639699
0.3299758
0.08609383
-999
-999
0.2795997
0.7229683
0.07123872
-999
-999
0.9454484
0.1016724
-999
-999
-999
0.8090571
0.2431997
0.01443383
-999
-999
0.4354316
0.6542016
-999
-999
-999
0.05746286
0.9621157
-999
-999
-999
0.9239079
0.1370238
-999
-999
-999
0.5750872
0.537701
-999
-999
-999
0.1696145
0.9010664
-999
-999
-999
0.9739903
0.02761922
-999
-999
-999
0.6891198
0.4009356
-999
-999
-999
0.2782362
0.7880825
-999
-999
-999
0.07330231
0.962808
-999
-999
-999
0.03897295
0.7716142
0.263388
-999
-999
0.01889577
0.3808226
0.6500688
-999
-999
0.1366958
0.01140976
0.9039257
-999
-999
0.1312277
0.8211311
0.135633
-999
-999
0.00582188
0.02023009
0.475642
0.5069827
-999
0.1744347
0.09779812
0.8142045
-999
-999
0.206744
0.840088
0.02190849
-999
-999
0.09675653
0.5617259
0.3705436
-999
-999
0.1836638
0.1879317
0.7085742
-999
-999
0.2585084
0.8331782
-999
-999
-999
0.176189
0.6385647
0.2460376
-999
-999
0.1651417
0.2826253
0.5976622
-999
-999
0.2815469
0.8056139
-999
-999
-999
0.2373529
0.7056517
0.1348941
-999
-999
0.06171313
0.1226167
0.3825754
0.4879406
-999
0.2739568
0.03645059
0.7620106
-999
-999
0.2739594
0.7620156
0.03644576
-999
-999
0.1226227
0.06171625
0.4879513
0.3825699
-999
0.2373548
0.1349044
0.7056479
-999
-999
0.2815463
0.8056149
-999
-999
-999
0.1651389
0.597667
0.2826197
-999
-999
0.176189
0.246043
0.6385599
-999
-999
0.2585084
0.8331776
-999
-999
-999
0.1836638
0.7085783
0.1879207
-999
-999
0.09675403
0.3705493
0.5617148
-999
-999
0.2067433
0.02191325
0.8400833
-999
-999
0.1744363
0.8142105
0.09779282
-999
-999
0.02023295
0.005819411
0.5069942
0.4756361
-999
0.1312267
0.1356436
0.8211272
-999
-999
0.1366967
0.9039273
0.01140239
-999
-999
0.01889828
0.6500742
0.3808133
-999
-999
0.03897161
0.2633938
0.7716064
-999
-999
0.07330276
0.9628078
-999
-999
-999
0.7880901
0.2782301
-999
-999
-999
0.400945
0.6891138
-999
-999
-999
0.0276267
0.9739884
-999
-999
-999
0.9010703
0.1696059
-999
-999
-999
0.5377074
0.5750777
-999
-999
-999
0.1370293
0.9239026
-999
-999
-999
0.9621194
0.05745254
-999
-999
-999
0.6542108
0.4354192
-999
-999
-999
0.2432087
0.809048
0.01443485
-999
-999
0.94545
0.1016726
-999
-999
-999
0.7229791
0.2795941
0.07123809
-999
-999
0.3299879
0.6396941
0.08609383
-999
-999
0.8398431
0.2337553
-999
-999
-999
0.7168473
0.1184587
0.243249
-999
-999
0.3761132
0.4370515
0.1084477
0.1478262
-999
0.02439395
0.6580787
0.3697471
-999
-999
0.6238934
0.4427997
-999
-999
-999
0.3624758
0.2253204
0.3152394
0.1867376
-999
0.0443121
0.4321966
0.07327946
0.4884194
-999
0.4577405
0.6516859
-999
-999
-999
0.2830246
0.02406334
0.5542137
0.189117
-999
0.02200142
0.1977355
0.2726474
0.5577417
-999
0.2512899
0.8263366
-999
-999
-999
0.1503485
0.7929851
0.1459859
-999
-999
0.4869677
0.5457128
-999
-999
-999
0.03954619
0.1212221
0.9007215
-999
-999
0.960367
0.0586396
-999
-999
-999
0.6696479
0.4409862
-999
-999
-999
0.2617101
0.8234725
-999
-999
-999
0.9688308
0.05816802
-999
-999
-999
0.7467124
0.2648169
0.06474318
-999
-999
0.3474027
0.6073254
0.09080777
-999
-999
0.7888519
0.2820499
-999
-999
-999
0.663263
0.05809735
0.3380836
-999
-999
0.3355039
0.3233864
0.2213559
0.211246
-999
0.4885197
0.005758978
0.5066583
-999
-999
0.4417378
0.6495615
-999
-999
-999
0.2179766
0.04426062
0.5311577
0.2657514
-999
0.1693672
0.24323
0.6525089
-999
-999
0.1646322
0.9050534
-999
-999
-999
0.03300924
0.8202231
0.2202647
-999
-999
0.4737726
0.6292693
-999
-999
-999
0.09605789
0.9491028
-999
-999
-999
0.9329307
0.08249135
0.02606556
-999
-999
0.5957878
0.4294166
0.007073029
-999
-999
0.1891216
0.7219881
0.1706855
-999
-999
0.7630132
0.3393113
-999
-999
-999
0.5173447
0.1453712
0.3455035
0.04424787
-999
0.1679122
0.354036
0.184986
0.3775045
-999
0.4090625
0.6701528
-999
-999
-999
0.2713644
0.7360502
0.06892573
-999
-999
0.03185727
0.002470401
0.5202914
0.4568166
-999
0.04607054
0.1848457
0.8443672
-999
-999
0.9888216
-999
-999
-999
-999
0.7596792
0.3381444
-999
-999
-999
0.3538837
0.6984661
0.001466176
-999
-999
0.8674776
0.1952105
-999
-999
-999
0.7022737
0.08611576
0.2839581
-999
-999
0.3428773
0.3320515
0.2120575
0.2033079
-999
0.4568858
0.02534932
0.5292877
-999
-999
0.3741269
0.7205546
-999
-999
-999
0.1431985
0.6314018
0.2828615
-999
-999
0.03267048
0.3347853
0.6946653
-999
-999
0.01025483
0.978026
-999
-999
-999
0.9014623
0.1665568
-999
-999
-999
0.5357295
0.5182787
-999
-999
-999
0.1347021
0.7686694
0.1834487
-999
-999
0.7316213
0.3642542
-999
-999
-999
0.02268364
0.9309553
0.08655035
-999
-999
0.03540063
0.5896537
0.4077313
-999
-999
0.2214462
0.1853155
0.657482
-999
-999
0.4402103
0.6688048
-999
-999
-999
0.4833949
0.07309825
0.4324959
0.04562366
-999
0.3191555
0.4431603
0.1112636
0.198018
-999
0.0569305
0.7931561
0.2261517
-999
-999
0.9006366
0.04606896
0.1124573
-999
-999
0.6713606
0.4214654
-999
-999
-999
0.291654
0.8039781
-999
-999
-999
0.06104613
0.9667419
-999
-999
-999
0.1225047
0.7671775
0.1943481
-999
-999
0.05957967
0.1252318
0.3762985
0.4897268
-999
0.3896975
0.009499136
0.6443501
-999
-999
0.5277254
0.543413
-999
-999
-999
0.4416133
0.2520355
0.2648963
0.1162295
-999
0.1949163
0.6292075
0.2304474
-999
-999
0.8774949
0.2018372
-999
-999
-999
0.8011906
0.2246399
0.04831307
-999
-999
0.4673811
0.6307024
-999
-999
-999
0.09707288
0.9482917
-999
-999
-999
0.02895314
0.9354326
0.07436654
-999
-999
0.01494323
0.6039437
0.415477
-999
-999
0.1688349
0.1995911
0.7088287
-999
-999
0.338642
0.7638418
-999
-999
-999
0.3463262
0.02756234
0.5344006
0.133051
-999
0.186575
0.3495168
0.1911527
0.3558002
-999
0.6319214
0.4382899
-999
-999
-999
0.6992797
0.03838756
0.3233318
-999
-999
0.4967005
0.4100126
0.08841677
0.04161303
-999
0.1740828
0.7888143
0.1218027
-999
-999
0.9512888
0.08086564
-999
-999
-999
0.7557075
0.3325924
-999
-999
-999
0.3693074
0.7356532
-999
-999
-999
0.005373409
0.9792768
-999
-999
-999
0.04042957
0.8598863
0.1690707
-999
-999
0.4848951
0.5266778
-999
-999
-999
0.1945661
0.09579916
0.7929783
-999
-999
0.2936757
0.7745471
-999
-999
-999
0.2297244
0.07806096
0.4872199
0.2706799
-999
0.04414576
0.3599593
0.1307815
0.5118278
-999
0.5452998
0.5655638
-999
-999
-999
0.5082613
0.1018958
0.3910717
0.03743056
-999
0.2771549
0.4498923
0.1088714
0.2370243
-999
0.7369013
0.3237078
-999
-999
-999
0.7679623
0.06622563
0.2420706
-999
-999
0.5166187
0.4431914
0.04454843
0.009001627
-999
0.166926
0.813012
0.103399
-999
-999
0.9460234
0.0823955
-999
-999
-999
0.7247041
0.3549607
-999
-999
-999
0.334417
0.7610657
-999
-999
-999
0.9956392
-999
-999
-999
-999
0.8594498
0.2214624
-999
-999
-999
0.4750563
0.6173413
-999
-999
-999
0.04888512
0.0851509
0.9187424
-999
-999
0.09321959
0.8963809
0.07636192
-999
-999
0.01978106
0.5705119
0.4342444
-999
-999
0.148392
0.1772769
0.7589659
-999
-999
0.2424212
0.8419221
-999
-999
-999
0.1857347
0.611818
0.2508833
-999
-999
0.01397321
0.214143
0.2483868
0.5672972
-999
0.3709303
0.7252768
-999
-999
-999
0.3522992
0.6021427
0.08662936
-999
-999
0.1712686
0.2384645
0.2958715
0.3788554
-999
0.4619195
0.5796561
-999
-999
-999
0.5043532
0.5534987
-999
-999
-999
0.3341022
0.2220662
0.3206268
0.2105088
-999
0.06550535
0.504139
0.02714589
0.4299461
-999
0.6249562
0.4808214
-999
-999
-999
0.4925507
0.1726943
0.3262237
0.06706441
-999
0.2068407
0.4957389
0.06896406
0.2901462
-999
0.6997136
0.3971907
-999
-999
-999
0.6338702
0.1014223
0.3175242
-999
-999
0.3519112
0.4441102
0.1050487
0.1659919
-999
0.02956706
0.7214864
0.3117397
-999
-999
0.7446074
0.01886799
0.2992929
-999
-999
0.4939363
0.361797
0.136948
0.05859292
-999
0.1501853
0.692065
0.2299641
-999
-999
0.8132581
0.2755727
-999
-999
-999
0.6238424
0.2618997
0.1662626
-999
-999
0.2755388
0.620536
0.1544333
-999
-999
0.8331639
0.249204
-999
-999
-999
0.7309046
0.1550704
0.1942953
-999
-999
0.4010268
0.519383
0.02392109
0.08587298
-999
0.04866658
0.8038584
0.2218877
-999
-999
0.8038635
0.04866171
0.2218901
-999
-999
0.519394
0.4010212
0.08587848
0.02392109
-999
0.1550809
0.7309007
0.1942953
-999
-999
0.8331649
0.249204
-999
-999
-999
0.6205409
0.2755333
0.1544333
-999
-999
0.2619051
0.6238377
0.1662599
-999
-999
0.8132574
0.275572
-999
-999
-999
0.692069
0.1501751
0.2299659
-999
-999
0.3618025
0.4939262
0.05859606
0.1369447
-999
0.01887271
0.7446033
0.2992914
-999
-999
0.7214919
0.02956243
0.3117408
-999
-999
0.4441206
0.3519063
0.165995
0.105045
-999
0.1014321
0.6338672
0.3175217
-999
-999
0.699715
0.3971909
-999
-999
-999
0.4957433
0.2068336
0.290149
0.068958
-999
0.1726992
0.4925452
0.06706809
0.3262185
-999
0.6249561
0.48082
-999
-999
-999
0.5041442
0.06550121
0.4299495
0.02713943
-999
0.2220733
0.3340985
0.2105148
0.3206202
-999
0.504352
0.5534954
-999
-999
-999
0.4619218
0.5796584
-999
-999
-999
0.2384686
0.1712634
0.3788616
0.2958741
-999
0.3522965
0.08663598
0.6021445
-999
-999
0.3709322
0.7252766
-999
-999
-999
0.2141479
0.01396711
0.5672951
0.2483896
-999
0.1857307
0.2508807
0.6118205
-999
-999
0.2424219
0.8419228
-999
-999
-999
0.1483968
0.7589641
0.1772769
-999
-999
0.01977915
0.4342416
0.5705119
-999
-999
0.09321934
0.07635937
0.8963809
-999
-999
0.04888665
0.9187424
0.08514557
-999
-999
0.6173413
0.47505
-999
-999
-999
0.2214624
0.8594452
-999
-999
-999
0.9956402
-999
-999
-999
-999
0.7610713
0.33442
-999
-999
-999
0.3549669
0.7247068
-999
-999
-999
0.9460238
0.0823955
-999
-999
-999
0.8130097
0.1669182
0.103399
-999
-999
0.4431883
0.5166111
0.009001627
0.0445434
-999
0.06622303
0.7679592
0.242067
-999
-999
0.7369056
0.3237078
-999
-999
-999
0.4499002
0.2771484
0.237028
0.1088648
-999
0.1019033
0.5082577
0.03743566
0.391066
-999
0.5453019
0.5655622
-999
-999
-999
0.3599653
0.0441409
0.5118316
0.1307764
-999
0.07806744
0.2297213
0.2706864
0.4872145
-999
0.2936762
0.7745445
-999
-999
-999
0.1945698
0.7929806
0.09580173
-999
-999
0.526683
0.4848983
-999
-999
-999
0.04042938
0.1690758
0.8598884
-999
-999
0.9792762
0.005368565
-999
-999
-999
0.7356504
0.3693014
-999
-999
-999
0.3325893
0.7557024
-999
-999
-999
0.9512885
0.08086336
-999
-999
-999
0.7888191
0.1740828
0.1218033
-999
-999
0.4100189
0.4967005
0.04161604
0.08841292
-999
0.0383926
0.6992797
0.3233289
-999
-999
0.6319214
0.4382897
-999
-999
-999
0.3495168
0.1865717
0.3558029
0.1911449
-999
0.02756234
0.346325
0.1330548
0.5343933
-999
0.3386435
0.7638394
-999
-999
-999
0.1688382
0.7088333
0.1995854
-999
-999
0.01494168
0.4154849
0.6039374
-999
-999
0.0289541
0.0743738
0.9354294
-999
-999
0.9482945
0.09706508
-999
-999
-999
0.6307086
0.4673724
-999
-999
-999
0.2246458
0.801185
0.04831307
-999
-999
0.8774973
0.2018372
-999
-999
-999
0.6292156
0.1949099
0.2304474
-999
-999
0.252044
0.441609
0.1162295
0.2648916
-999
0.5277261
0.5434096
-999
-999
-999
0.3897028
0.6443505
0.009494161
-999
-999
0.1252382
0.05957788
0.4897307
0.3762923
-999
0.1225047
0.1943528
0.7671723
-999
-999
0.06104793
0.9667415
-999
-999
-999
0.803983
0.291654
-999
-999
-999
0.4214716
0.6713606
-999
-999
-999
0.0460741
0.9006366
0.1124586
-999
-999
0.7931561
0.05692636
0.226152
-999
-999
0.4431603
0.3191519
0.1980173
0.111266
-999
0.07309825
0.4833938
0.04562224
0.4324982
-999
0.4402125
0.6688058
-999
-999
-999
0.2214503
0.6574808
0.185307
-999
-999
0.03540108
0.4077289
0.5896441
-999
-999
0.02268288
0.08654798
0.9309501
-999
-999
0.461139
0.1776726
0.3311598
0.09130032
-999
0.2581928
0.5609
0.01582807
0.2046371
-999
0.87131
0.183539
-999
-999
-999
0.8856511
0.1339936
0.0408731
-999
-999
0.5911824
0.5167832
-999
-999
-999
0.2065467
0.8569854
-999
-999
-999
0.1311928
0.9249561
-999
-999
-999
0.1727289
0.6604515
0.2288222
-999
-999
0.08181719
0.2294728
0.2710251
0.4805306
-999
0.50318
0.5663551
-999
-999
-999
0.613659
0.4229574
-999
-999
-999
0.4777219
0.3513008
0.1514857
0.07294188
-999
0.1957738
0.738512
0.1440634
-999
-999
0.9510829
0.09042104
-999
-999
-999
0.8115202
0.2726933
-999
-999
-999
0.44162
0.6627883
-999
-999
-999
0.05101761
0.066714
0.9273946
-999
-999
0.1482781
0.8585866
0.06567671
-999
-999
0.1194806
0.03510217
0.5173961
0.3664157
-999
0.3085397
0.1340766
0.5956157
-999
-999
0.5038405
0.605139
-999
-999
-999
0.4962222
0.1084467
0.3875649
0.04712128
-999
0.2913757
0.4717459
0.08721665
0.2124692
-999
0.01727646
0.7887339
0.2569387
-999
-999
0.848656
0.07261616
0.1527891
-999
-999
0.5997387
0.456925
-999
-999
-999
0.2321962
0.8436052
-999
-999
-999
0.9983333
-999
-999
-999
-999
0.7844959
0.2909909
-999
-999
-999
0.004312591
0.384446
0.6534125
-999
-999
0.1811992
0.01399357
0.8633258
-999
-999
0.2494022
0.7537867
0.07036715
-999
-999
0.166775
0.1258732
0.4176972
0.3578019
-999
0.3982443
0.06135009
0.5623242
-999
-999
0.5509319
0.5503324
-999
-999
-999
0.4771624
0.1717486
0.3309603
0.07737985
-999
0.2318577
0.5278892
0.04273846
0.2477138
-999
0.7924073
0.2889201
-999
-999
-999
0.7741184
0.1328455
0.1746598
-999
-999
0.4886454
0.5243526
-999
-999
-999
0.1335533
0.8818691
0.04805605
-999
-999
0.9652318
0.03310639
0.003110654
-999
-999
0.6995409
0.4051099
-999
-999
-999
0.2986495
0.7944471
-999
-999
-999
0.02523506
0.9813105
-999
-999
-999
0.03590081
0.8050084
0.2285255
-999
-999
0.01864729
0.4181043
0.5919396
-999
-999
0.1885439
0.04365331
0.8382881
-999
-999
0.2438806
0.7811199
0.04614548
-999
-999
0.1502123
0.07995065
0.469411
0.3565515
-999
0.3210104
0.1095289
0.6132212
-999
-999
0.4477461
0.655533
-999
-999
-999
0.3751999
0.09285906
0.4500418
0.1390913
-999
0.1543211
0.3965029
0.1406705
0.3771398
-999
0.6138243
0.4800433
-999
-999
-999
0.5980884
0.06029908
0.3765892
-999
-999
0.3616952
0.40259
0.138338
0.1667813
-999
0.05759887
0.7088949
0.2975076
-999
-999
0.7865047
0.2731371
-999
-999
-999
0.5705904
0.3467568
0.1094871
-999
-999
0.2254518
0.7173661
0.1310809
-999
-999
0.9073714
0.160408
-999
-999
-999
0.7589855
0.2497932
0.06339645
-999
-999
0.3986605
0.6488253
-999
-999
-999
0.03770997
0.9418868
0.05156846
-999
-999
0.9027839
0.1341628
0.008664011
-999
-999
0.5668082
0.5294331
-999
-999
-999
0.1722711
0.894033
-999
-999
-999
0.9836552
0.01656477
-999
-999
-999
0.7174006
0.3871556
-999
-999
-999
0.31158
0.7856612
-999
-999
-999
0.9957758
-999
-999
-999
-999
0.8381493
0.2425317
-999
-999
-999
0.4515525
0.6438162
-999
-999
-999
0.007839419
0.0686814
0.9465433
-999
-999
0.01566338
0.9194528
0.1071677
-999
-999
0.587069
0.4909357
-999
-999
-999
0.02213454
0.1889742
0.8516974
-999
-999
0.0648185
0.9562458
-999
-999
-999
0.711934
0.341417
-999
-999
-999
0.01021835
0.3176994
0.7287547
-999
-999
0.08834943
0.948535
-999
-999
-999
0.05172433
0.8190207
0.2026439
-999
-999
0.4533377
0.5924841
-999
-999
-999
0.08360932
0.07737831
0.9005175
-999
-999
0.08361122
0.9005229
0.07737831
-999
-999
0.5924959
0.4533377
-999
-999
-999
0.0517229
0.2026551
0.8190207
-999
-999
0.08834979
0.948535
-999
-999
-999
0.01022025
0.7287547
0.3176935
-999
-999
0.341417
0.7119285
-999
-999
-999
0.06481833
0.9562445
-999
-999
-999
0.02213602
0.8517016
0.1889685
-999
-999
0.4909418
0.5870629
-999
-999
-999
0.01566201
0.107173
0.9194495
-999
-999
0.007841226
0.9465458
0.06867617
-999
-999
0.6438223
0.4515462
-999
-999
-999
0.2425375
0.8381445
-999
-999
-999
0.9957763
-999
-999
-999
-999
0.7856666
0.3115709
-999
-999
-999
0.3871618
0.7173918
-999
-999
-999
0.01656969
0.9836527
-999
-999
-999
0.8940392
0.1722628
-999
-999
-999
0.5294425
0.5667989
-999
-999
-999
0.1341711
0.9027788
0.008662662
-999
-999
0.9418903
0.03771244
0.05156862
-999
-999
0.6488343
0.3986636
-999
-999
-999
0.2498019
0.7589877
0.06339314
-999
-999
0.9073712
0.1604071
-999
-999
-999
0.7173637
0.2254544
0.1310831
-999
-999
0.3467539
0.5705928
0.1094824
-999
-999
0.7865054
0.2731347
-999
-999
-999
0.7088932
0.05759887
0.297509
-999
-999
0.4025873
0.3616952
0.1667856
0.138334
-999
0.06029664
0.5980884
0.3765862
-999
-999
0.6138243
0.4800433
-999
-999
-999
0.3965029
0.1543173
0.3771428
0.1406658
-999
0.09285906
0.3751974
0.1390953
0.4500374
-999
0.4477465
0.6555315
-999
-999
-999
0.3210136
0.6132237
0.1095289
-999
-999
0.07995455
0.1502135
0.3565561
0.469411
-999
0.2438808
0.04615
0.7811199
-999
-999
0.188543
0.8382881
0.04364573
-999
-999
0.01864573
0.5919396
0.4180949
-999
-999
0.03589977
0.2285255
0.805001
-999
-999
0.02523655
0.9813107
-999
-999
-999
0.7944546
0.2986405
-999
-999
-999
0.4051192
0.6995322
-999
-999
-999
0.03311392
0.9652293
0.00311211
-999
-999
0.881875
0.1335482
0.04805586
-999
-999
0.5243619
0.48864
-999
-999
-999
0.1328536
0.7741157
0.174661
-999
-999
0.7924096
0.2889204
-999
-999
-999
0.5278945
0.2318599
0.2477128
0.04273846
-999
0.1717539
0.4771639
0.07737831
0.3309603
-999
0.5509315
0.5503324
-999
-999
-999
0.3982424
0.5623242
0.06134262
-999
-999
0.125871
0.1667728
0.3578019
0.4176888
-999
0.249402
0.07036715
0.7537808
-999
-999
0.1812013
0.8633273
0.01398858
-999
-999
0.004315722
0.6534199
0.3844397
-999
-999
0.2909994
0.7844905
-999
-999
-999
0.9983328
-999
-999
-999
-999
0.8436101
0.2321878
-999
-999
-999
0.4569313
0.5997307
-999
-999
-999
0.07262133
0.8486533
0.1527891
-999
-999
0.7887391
0.01727231
0.2569387
-999
-999
0.4717544
0.2913716
0.2124692
0.08720995
-999
0.1084544
0.4962204
0.04712128
0.3875584
-999
0.5038422
0.6051362
-999
-999
-999
0.3085437
0.595619
0.1340766
-999
-999
0.03510628
0.1194785
0.3664223
0.5173961
-999
0.1482789
0.06568338
0.8585866
-999
-999
0.051021
0.9273946
0.06670885
-999
-999
0.6627883
0.4416139
-999
-999
-999
0.2726933
0.8115156
-999
-999
-999
0.9510837
0.09041847
-999
-999
-999
0.7385173
0.1957692
0.1440636
-999
-999
0.3513069
0.4777183
0.07294476
0.1514813
-999
0.6136588
0.4229539
-999
-999
-999
0.5031833
0.5663546
-999
-999
-999
0.2294774
0.08181719
0.4805335
0.271028
-999
0.1727289
0.2288266
0.6604543
-999
-999
0.1311928
0.924957
-999
-999
-999
0.8569836
0.2065495
-999
-999
-999
0.5167801
0.5911853
-999
-999
-999
0.1339908
0.8856523
0.04086905
-999
-999
0.8713085
0.1835369
-999
-999
-999
0.5608971
0.2581869
0.2046382
0.01582135
-999
0.1776699
0.461136
0.09130412
0.3311524
-999
0.4643562
0.6411331
-999
-999
-999
0.04977117
0.09361284
0.9093193
-999
-999
0.1805177
0.8572249
0.02171303
-999
-999
0.1861677
0.03649352
0.5304384
0.2899012
-999
0.0632821
0.3443533
0.1512055
0.4890005
-999
0.6027105
0.4975333
-999
-999
-999
0.6527129
0.09012281
0.3092893
-999
-999
0.4551368
0.4719611
0.04208434
0.05051011
-999
0.1488886
0.844973
0.07933508
-999
-999
0.9791302
-999
-999
-999
-999
0.7570255
0.3404939
-999
-999
-999
0.3630922
0.6999099
-999
-999
-999
0.1617301
0.00128426
0.8841385
-999
-999
0.252239
0.7438778
0.07408821
-999
-999
0.1936439
0.1473575
0.3960041
0.3331468
-999
0.02208926
0.4522945
0.04228408
0.4947527
-999
0.6485369
0.4540602
-999
-999
-999
0.5982925
0.1986117
0.2402762
-999
-999
0.3408906
0.5891579
0.1012554
-999
-999
0.03421962
0.9051231
0.1109484
-999
-999
0.9186156
0.109764
0.008411575
-999
-999
0.6176254
0.4892558
-999
-999
-999
0.2257275
0.8443947
-999
-999
-999
0.09342946
0.9485006
-999
-999
-999
0.1153698
0.7106524
0.2434096
-999
-999
0.02027938
0.1470258
0.3223075
0.5441623
-999
0.3719312
0.6921769
-999
-999
-999
0.4551702
0.57653
-999
-999
-999
0.3391605
0.2503584
0.2859277
0.2036521
-999
0.1019361
0.5842584
0.3437296
-999
-999
0.7744083
0.3205293
-999
-999
-999
0.6754752
0.2373657
0.1493869
-999
-999
0.3679104
0.6344531
0.03823243
-999
-999
0.03503
0.9375684
0.05951717
-999
-999
0.9192902
0.1264657
-999
-999
-999
0.5959891
0.5115278
-999
-999
-999
0.2008498
0.8664106
-999
-999
-999
0.06413845
0.9594368
-999
-999
-999
0.05771186
0.708609
0.2956445
-999
-999
0.1029114
0.31484
0.628525
-999
-999
0.2772
0.7972967
-999
-999
-999
0.3147775
0.6699145
0.07023843
-999
-999
0.1911027
0.1889269
0.34884
0.3461347
-999
0.4539149
0.01623611
0.5355566
-999
-999
0.5732669
0.5163958
-999
-999
-999
0.4607901
0.2028409
0.3028401
0.0932661
-999
0.1981494
0.5458573
0.02509999
0.2699279
-999
0.7751927
0.3160486
-999
-999
-999
0.7221991
0.148676
0.2020631
-999
-999
0.4308373
0.5304005
0.04369849
-999
-999
0.08928542
0.8622423
0.1195411
-999
-999
0.9184324
0.05012593
0.07786073
-999
-999
0.6495126
0.4263567
-999
-999
-999
0.2627408
0.816744
-999
-999
-999
0.9987449
-999
-999
-999
-999
0.8157926
0.2753578
-999
-999
-999
0.4251842
0.6722451
-999
-999
-999
0.01680607
0.04917273
0.9520828
-999
-999
0.04358625
0.8978229
0.1146186
-999
-999
0.5577856
0.4825191
-999
-999
-999
0.1011117
0.1664207
0.8112156
-999
-999
0.1756584
0.8870307
-999
-999
-999
0.117949
0.6447884
0.2896371
-999
-999
0.1502382
0.2718473
0.6250795
-999
-999
0.2844922
0.8004914
-999
-999
-999
0.2673888
0.6790894
0.1153618
-999
-999
0.1099968
0.1584611
0.3590188
0.4325985
-999
0.3545341
0.02438639
0.6680658
-999
-999
0.399424
0.6639913
-999
-999
-999
0.2623553
0.1283028
0.423617
0.255135
-999
0.02983334
0.3763347
0.1063053
0.5176518
-999
0.4969263
0.6102637
-999
-999
-999
0.4070794
0.06868595
0.4640463
0.1006575
-999
0.1702256
0.3501076
0.1834624
0.3681865
-999
0.5461764
0.5311773
-999
-999
-999
0.5291573
0.4811696
-999
-999
-999
0.3118605
0.2846401
0.254636
0.2296725
-999
0.02910407
0.5415477
0.4386552
-999
-999
0.6127845
0.4776135
-999
-999
-999
0.4441072
0.1931219
0.3188347
0.1059202
-999
0.1547758
0.4873951
0.0643655
0.3414273
-999
0.6459732
0.4566635
-999
-999
-999
0.5532311
0.08849454
0.3749438
-999
-999
0.2801744
0.3954378
0.1522326
0.2449746
-999
0.6244843
0.4215429
-999
-999
-999
0.6244884
0.421546
-999
-999
-999
0.3954468
0.2801744
0.2449817
0.1522287
-999
0.08850373
0.5532311
0.3749412
-999
-999
0.6459732
0.4566638
-999
-999
-999
0.4873951
0.1547713
0.3414302
0.06435748
-999
0.1931219
0.4441033
0.1059241
0.3188278
-999
0.6127836
0.4776114
-999
-999
-999
0.5415506
0.02909989
0.4386595
-999
-999
0.2846446
0.3118562
0.2296802
0.2546401
-999
0.5291553
0.481172
-999
-999
-999
0.546178
0.5311762
-999
-999
-999
0.3501116
0.1702215
0.3681829
0.1834578
-999
0.06869029
0.4070766
0.1006532
0.4640427
-999
0.4969266
0.6102632
-999
-999
-999
0.3763378
0.02982774
0.5176549
0.1063005
-999
0.1283069
0.2623506
0.2551395
0.4236124
-999
0.3994227
0.6639891
-999
-999
-999
0.3545372
0.6680679
0.02438171
-999
-999
0.1584664
0.1099922
0.4326032
0.3590134
-999
0.2673865
0.1153666
0.6790854
-999
-999
0.2844937
0.8004919
-999
-999
-999
0.1502424
0.6250839
0.2718389
-999
-999
0.1179498
0.2896425
0.6447805
-999
-999
0.1756583
0.8870285
-999
-999
-999
0.1011107
0.811221
0.1664125
-999
-999
0.4825277
0.5577766
-999
-999
-999
0.04358641
0.1146263
0.8978176
-999
-999
0.01680544
0.9520859
0.04916766
-999
-999
0.6722537
0.4251779
-999
-999
-999
0.2753665
0.8157875
-999
-999
-999
0.9987448
-999
-999
-999
-999
0.816749
0.2627352
-999
-999
-999
0.4263629
0.6495069
-999
-999
-999
0.05013102
0.9184304
0.07786217
-999
-999
0.8622458
0.08928542
0.1195409
-999
-999
0.5304064
0.4308373
0.04369655
-999
-999
0.1486814
0.7221991
0.2020589
-999
-999
0.7751927
0.3160475
-999
-999
-999
0.5458573
0.1981428
0.2699307
0.02510205
-999
0.2028409
0.4607852
0.093271
0.3028421
-999
0.5732669
0.5163968
-999
-999
-999
0.4539199
0.5355558
0.01624075
-999
-999
0.1889334
0.1910986
0.3461328
0.3488453
-999
0.3147763
0.07023636
0.6699184
-999
-999
0.2772027
0.7972963
-999
-999
-999
0.1029162
0.6285205
0.314843
-999
-999
0.05771088
0.2956392
0.7086119
-999
-999
0.06413927
0.9594375
-999
-999
-999
0.8664086
0.2008498
-999
-999
-999
0.5115248
0.5959891
-999
-999
-999
0.126463
0.9192902
-999
-999
-999
0.9375684
0.035023
0.05951772
-999
-999
0.6344531
0.3679025
0.03823127
-999
-999
0.2373657
0.6754698
0.1493869
-999
-999
0.7744095
0.3205293
-999
-999
-999
0.5842652
0.1019323
0.3437296
-999
-999
0.2503662
0.3391575
0.2036521
0.2859228
-999
0.4551699
0.5765265
-999
-999
-999
0.3719338
0.6921772
-999
-999
-999
0.1470296
0.02027618
0.5441663
0.3223075
-999
0.1153688
0.2434144
0.7106524
-999
-999
0.09343138
0.9485006
-999
-999
-999
0.8443947
0.2257189
-999
-999
-999
0.4892558
0.6176165
-999
-999
-999
0.109764
0.9186116
0.00840943
-999
-999
0.9051275
0.03421962
0.1109476
-999
-999
0.5891668
0.3408906
0.1012564
-999
-999
0.1986201
0.5982925
0.2402781
-999
-999
0.6485369
0.4540614
-999
-999
-999
0.4522945
0.02208621
0.4947522
0.04227677
-999
0.1473575
0.193642
0.333145
0.3959955
-999
0.2522392
0.07408623
0.7438713
-999
-999
0.1617325
0.8841391
0.001279515
-999
-999
0.699917
0.3630862
-999
-999
-999
0.3405025
0.7570201
-999
-999
-999
0.9791294
-999
-999
-999
-999
0.8449776
0.1488909
0.07933445
-999
-999
0.4719674
0.455139
0.05051204
0.04208847
-999
0.09012808
0.6527137
0.3092931
-999
-999
0.6027092
0.4975348
-999
-999
-999
0.3443509
0.06328336
0.4889987
0.1511975
-999
0.03649132
0.1861682
0.2898973
0.5304295
-999
0.1805172
0.02170904
0.8572198
-999
-999
0.04976984
0.9093223
0.09360516
-999
-999
0.6411415
0.4643473
-999
-999
-999
0.003812342
0.4620482
0.02357711
0.5057595
-999
0.6694239
0.4283236
-999
-999
-999
0.629746
0.2181643
0.1983397
-999
-999
0.3741504
0.6157709
0.0433744
-999
-999
0.06225124
0.9380006
0.02838406
-999
-999
0.9523739
0.08640163
-999
-999
-999
0.646081
0.4329195
-999
-999
-999
0.07923431
0.2470165
0.7422818
-999
-999
0.2654487
0.8224105
-999
-999
-999
0.3266805
0.6072838
0.1017378
-999
-999
0.223742
0.2775782
0.258985
0.3161804
-999
0.01994305
0.5970456
0.4081297
-999
-999
0.7572947
0.3178346
-999
-999
-999
0.6355028
0.3055836
0.1040579
-999
-999
0.3275201
0.705477
0.0163493
-999
-999
0.005420115
0.9769055
-999
-999
-999
0.9068443
0.1572657
-999
-999
-999
0.5573832
0.5179153
-999
-999
-999
0.1009265
0.1643238
0.8109007
-999
-999
0.2426614
0.837065
-999
-999
-999
0.2483459
0.002475157
0.5742975
0.2019538
-999
0.1144138
0.2993892
0.2124413
0.4352298
-999
0.559469
0.5153891
-999
-999
-999
0.6326867
0.01513303
0.386172
-999
-999
0.4634363
0.3692328
0.1346928
0.07699874
-999
0.1713025
0.7396119
0.1624783
-999
-999
0.9282338
0.1236051
-999
-999
-999
0.7804931
0.2817649
-999
-999
-999
0.420578
0.6799728
-999
-999
-999
0.05764452
0.9635817
-999
-999
-999
0.02869823
0.914782
0.09983797
-999
-999
0.5768265
0.4436286
-999
-999
-999
0.1510049
0.1833348
0.7396412
-999
-999
0.2923397
0.7997805
-999
-999
-999
0.2842418
0.5746157
0.1656159
-999
-999
0.1319343
0.2876215
0.2297296
0.4161938
-999
0.53433
0.5320873
-999
-999
-999
0.5961717
0.4333319
-999
-999
-999
0.4267933
0.3260365
0.1890184
0.1179964
-999
0.1430279
0.6735958
0.2423285
-999
-999
0.8509066
0.2291815
-999
-999
-999
0.7170108
0.2606623
0.08661929
-999
-999
0.3813861
0.6580169
-999
-999
-999
0.03650256
0.9525073
0.02588532
-999
-999
0.9218551
0.1281983
-999
-999
-999
0.5932804
0.5125448
-999
-999
-999
0.1989308
0.8697749
-999
-999
-999
0.03702734
0.9707167
-999
-999
-999
0.01884655
0.7272485
0.3079077
-999
-999
0.05116729
0.3344001
0.6627145
-999
-999
0.1965488
0.8622226
-999
-999
-999
0.2193283
0.7504529
0.1024806
-999
-999
0.1056029
0.1038509
0.4198706
0.4170853
-999
0.3221074
0.06835628
0.6588103
-999
-999
0.4152018
0.6707031
-999
-999
-999
0.3216072
0.1045893
0.4434181
0.1880197
-999
0.1031536
0.3877746
0.1291919
0.4300454
-999
0.5736157
0.5262545
-999
-999
-999
0.538418
0.05899359
0.4094467
-999
-999
0.3085658
0.3825921
0.1598555
0.2177471
-999
0.02248581
0.6617884
0.358279
-999
-999
0.7249079
0.3342244
-999
-999
-999
0.5215635
0.3159824
0.1614288
0.03740727
-999
0.1987633
0.6638913
0.1945494
-999
-999
0.846762
0.2369481
-999
-999
-999
0.7201286
0.210101
0.1391351
-999
-999
0.3877499
0.5890911
0.04827011
-999
-999
0.04253155
0.8815557
0.1331855
-999
-999
0.8764108
0.0878518
0.1001221
-999
-999
0.5781279
0.4635931
-999
-999
-999
0.1995251
0.8300171
0.03274004
-999
-999
0.9653176
0.05124879
-999
-999
-999
0.753179
0.315776
-999
-999
-999
0.367711
0.7133466
-999
-999
-999
0.008990182
0.9746475
-999
-999
-999
0.8928345
0.1665072
-999
-999
-999
0.5400752
0.560259
-999
-999
-999
0.1501526
0.9096662
-999
-999
-999
0.9783994
0.02753179
-999
-999
-999
0.7054904
0.3955317
-999
-999
-999
0.304975
0.7889615
-999
-999
-999
0.9982399
-999
-999
-999
-999
0.8486193
0.2353394
-999
-999
-999
0.4695197
0.6355388
-999
-999
-999
0.08803377
0.9516746
-999
-999
-999
0.9516804
0.08802863
-999
-999
-999
0.6355509
0.4695134
-999
-999
-999
0.2353509
0.8486146
-999
-999
-999
0.9982405
-999
-999
-999
-999
0.7889667
0.3049631
-999
-999
-999
0.3955378
0.7054788
-999
-999
-999
0.02753666
0.9783958
-999
-999
-999
0.9096738
0.1501581
-999
-999
-999
0.5602713
0.5400814
-999
-999
-999
0.1665182
0.8928384
-999
-999
-999
0.9746459
0.008985395
-999
-999
-999
0.7133409
0.3677049
-999
-999
-999
0.31577
0.7531737
-999
-999
-999
0.965317
0.05124766
-999
-999
-999
0.8300216
0.1995196
0.03274223
-999
-999
0.4635992
0.5781221
-999
-999
-999
0.08785705
0.876408
0.1001199
-999
-999
0.8815583
0.0425268
0.1331862
-999
-999
0.5890967
0.3877443
0.04827312
-999
-999
0.2101065
0.7201247
0.1391316
-999
-999
0.8467625
0.2369473
-999
-999
-999
0.6638958
0.1987558
0.194552
-999
-999
0.3159879
0.5215567
0.03741156
0.1614239
-999
0.724906
0.3342218
-999
-999
-999
0.6617929
0.02247947
0.3582805
-999
-999
0.3825996
0.3085594
0.2177516
0.1598514
-999
0.05900059
0.5384145
0.4094436
-999
-999
0.5736176
0.5262543
-999
-999
-999
0.3877806
0.10315
0.4300484
0.1291848
-999
0.1045959
0.3216045
0.1880238
0.4434113
-999
0.4152018
0.6707002
-999
-999
-999
0.3221101
0.6588137
0.06836116
-999
-999
0.1038546
0.1056004
0.4170922
0.4198762
-999
0.2193275
0.1024876
0.7504569
-999
-999
0.1965502
0.8622218
-999
-999
-999
0.05117005
0.6627098
0.3343912
-999
-999
0.01884655
0.3079022
0.7272402
-999
-999
0.03702734
0.9707147
-999
-999
-999
0.8697811
0.1989336
-999
-999
-999
0.512554
0.5932833
-999
-999
-999
0.1282063
0.9218567
-999
-999
-999
0.9525061
0.03650738
0.02588491
-999
-999
0.6580139
0.3813916
-999
-999
-999
0.2606593
0.7170148
0.08661651
-999
-999
0.8509063
0.2291801
-999
-999
-999
0.6735912
0.1430302
0.2423295
-999
-999
0.3260309
0.4267952
0.117999
0.1890205
-999
0.5961722
0.4333333
-999
-999
-999
0.5343287
0.5320872
-999
-999
-999
0.2876193
0.1319343
0.4161922
0.2297349
-999
0.2842418
0.1656138
0.5746206
-999
-999
0.2923397
0.799782
-999
-999
-999
0.1510049
0.739638
0.1833348
-999
-999
0.4436234
0.5768265
-999
-999
-999
0.02869868
0.09983305
0.914782
-999
-999
0.9635817
0.0576396
-999
-999
-999
0.6799728
0.4205722
-999
-999
-999
0.2817649
0.7804886
-999
-999
-999
0.9282341
0.1236067
-999
-999
-999
0.7396168
0.1713025
0.1624779
-999
-999
0.3692386
0.4634363
0.07699664
0.1346867
-999
0.01513785
0.6326867
0.386167
-999
-999
0.559469
0.5153885
-999
-999
-999
0.2993892
0.1144096
0.4352339
0.212436
-999
0.002475157
0.2483443
0.2019599
0.5742923
-999
0.2426634
0.8370628
-999
-999
-999
0.1009307
0.8109036
0.1643266
-999
-999
0.5179208
0.5573863
-999
-999
-999
0.1572709
0.9068463
-999
-999
-999
0.9769046
0.005413382
-999
-999
-999
0.7054741
0.3275123
0.0163499
-999
-999
0.3055807
0.6354972
0.1040541
-999
-999
0.7572951
0.3178321
-999
-999
-999
0.5970519
0.01993966
0.4081297
-999
-999
0.277586
0.2237393
0.3161831
0.2589769
-999
0.3266801
0.1017414
0.6072765
-999
-999
0.2654509
0.8224087
-999
-999
-999
0.07923768
0.7422869
0.2470223
-999
-999
0.4329276
0.6460869
-999
-999
-999
0.08640897
0.9523765
-999
-999
-999
0.9379976
0.0622444
0.02838256
-999
-999
0.6157648
0.3741433
0.04337529
-999
-999
0.2181586
0.629742
0.1983337
-999
-999
0.6694263
0.4283196
-999
-999
-999
0.4620549
0.003808182
0.5057603
0.02356982
-999
0.992221
-999
-999
-999
-999
0.8598031
0.2113149
-999
-999
-999
0.4901669
0.5502934
-999
-999
-999
0.1845737
0.1085568
0.780255
-999
-999
0.3476351
0.7373635
-999
-999
-999
0.354518
0.08507573
0.4563643
0.1490625
-999
0.2006625
0.4272594
0.1174614
0.3115915
-999
0.731176
0.3309394
-999
-999
-999
0.8096532
0.06288189
0.1947084
-999
-999
0.5987365
0.4357404
-999
-999
-999
0.2557346
0.8191281
-999
-999
-999
0.9981304
-999
-999
-999
-999
0.01111472
0.8222662
0.220826
-999
-999
0.01781455
0.4396537
0.5486887
-999
-999
0.2434295
0.06609982
0.7560741
-999
-999
0.3806129
0.6939046
-999
-999
-999
0.3463218
0.1266316
0.4116175
0.171632
-999
0.163369
0.4623962
0.08270115
0.3377031
-999
0.7300773
