0.05859497
0.8996577
0.2337111
-999
-999
0.9416032
0.06366143
0.1653776
-999
-999
0.8842383
0.2462053
0.07282669
-999
-999
0.7438286
0.4459903
-999
-999
-999
0.5546419
0.6459684
-999
-999
-999
0.02497029
0.3512238
0.8169611
-999
-999
0.1232888
0.1574686
0.9229228
-999
-999
0.201559
0.9358764
-999
-999
-999
0.247402
0.8520908
0.1307466
-999
-999
0.2523708
0.01303292
0.6944943
0.2831776
-999
0.2154947
0.1675554
0.4987784
0.4267076
-999
0.1437197
0.3279084
0.2968156
0.5404292
-999
0.04890606
0.4774173
0.1088022
0.602354
-999
0.5926868
0.598335
-999
-999
-999
0.6498829
0.5293384
-999
-999
-999
0.6351663
0.1594284
0.4109134
0.04065796
-999
0.5522296
0.3535839
0.2653423
0.1293551
-999
0.4201899
0.5573598
0.1129733
0.1954992
-999
0.2638268
0.7467432
0.2285615
-999
-999
0.1042612
0.887059
0.2225993
-999
-999
0.9439883
0.02262775
0.1787186
-999
-999
0.901365
0.2022571
0.1045966
-999
-999
0.7714176
0.4034026
0.01141298
-999
-999
0.5869212
0.6123061
-999
-999
-999
0.3834489
0.8024604
-999
-999
-999
0.04192433
0.1868606
0.9370178
-999
-999
0.1030242
0.01078227
0.9817243
-999
-999
0.1352051
0.9236021
0.1445202
-999
-999
0.1329366
0.7793653
0.321376
-999
-999
0.09662348
0.05530788
0.5847083
0.500165
-999
0.03243722
0.182622
0.3756002
0.6579648
-999
0.2971991
0.1767885
0.7653651
-999
-999
0.3821118
0.0005259971
0.7969074
-999
-999
0.4214728
0.7442294
0.03206521
-999
-999
0.4068898
0.05796968
0.6210685
0.1733736
-999
0.34155
0.2193204
0.4552121
0.3120323
-999
0.2386182
0.3845586
0.2751164
0.4311665
-999
0.1152976
0.5347391
0.1012646
0.5107855
-999
0.6444555
0.5344323
-999
-999
-999
0.6896605
0.4967164
-999
-999
-999
0.6590096
0.1469973
0.4061249
0.01879933
-999
0.5602885
0.3346231
0.2806694
0.123829
-999
0.4159336
0.5295177
0.1400816
0.2127219
-999
0.2518926
0.7081757
0.2724636
-999
-999
0.08869108
0.8377856
0.2925358
-999
-999
0.8870022
0.009815091
0.2690694
-999
-999
0.8421497
0.1880805
0.2065709
-999
-999
0.7157317
0.3886881
0.1159213
-999
-999
0.5386186
0.5986883
0.01014733
0.03555629
-999
0.3438711
0.792368
0.08281697
-999
-999
0.1555397
0.9330019
0.1015855
-999
-999
0.9851509
0.009736369
0.08877817
-999
-999
0.9336703
0.1883415
0.04651574
-999
-999
0.7935176
0.3897023
-999
-999
-999
0.6000605
0.6011063
-999
-999
-999
0.3900688
0.7970136
-999
-999
-999
0.01344374
0.1893438
0.9405737
-999
-999
0.04968888
0.0109102
0.9957421
-999
-999
0.05697142
0.9464921
0.1628235
-999
-999
0.03407984
0.8071902
0.3575758
-999
-999
0.6132473
0.5622674
-999
-999
-999
0.05327519
0.401912
0.7530285
-999
-999
0.1230171
0.1995079
0.8952088
-999
-999
0.1642208
0.01941231
0.9542291
-999
-999
0.1697606
0.9133821
0.1264404
-999
-999
0.1386218
0.7843815
0.3122145
-999
-999
0.07633314
0.03395993
0.5998443
0.5078455
-999
0.1330101
0.3955537
0.691659
-999
-999
0.2114547
0.1977209
0.8318887
-999
-999
0.256749
0.02027061
0.8959301
-999
-999
0.2604699
0.866303
0.08994207
-999
-999
0.2218858
0.7513018
0.267689
-999
-999
0.14829
0.08150123
0.5797777
0.4556652
-999
0.05184176
0.188574
0.3854101
0.6342972
-999
0.2732082
0.1941368
0.7743838
-999
-999
0.3212469
0.02056429
0.8448547
-999
-999
0.3233207
0.8271489
0.05950905
-999
-999
0.2790028
0.7261209
0.2318206
-999
-999
0.1970114
0.1067756
0.5670382
0.4153466
-999
0.09130017
0.2178745
0.3817146
0.5922619
-999
0.3054252
0.196017
0.7352149
-999
-999
0.3544261
0.02537281
0.8138227
-999
-999
0.3550842
0.8079568
0.03787113
-999
-999
0.3072608
0.7192062
0.2078658
-999
-999
0.2205394
0.1098567
0.5699053
0.3906983
-999
0.1098585
0.2205378
0.3907011
0.5699028
-999
0.3072598
0.2078685
0.7192043
-999
-999
0.3550838
0.03787358
0.807956
-999
-999
0.3544264
0.8138233
0.02537042
-999
-999
0.3054262
0.7352166
0.1960143
-999
-999
0.217876
0.0912985
0.5922645
0.3817116
-999
0.1067773
0.19701
0.4153495
0.5670355
-999
0.2790017
0.2318234
0.7261189
-999
-999
0.3233204
0.05951151
0.8271479
-999
-999
0.3212472
0.844855
0.02055939
-999
-999
0.2732093
0.7743855
0.1941313
-999
-999
0.1885755
0.05183865
0.6342998
0.3854041
-999
0.08150294
0.1482873
0.4556681
0.5797719
-999
0.221884
0.2676918
0.7512972
-999
-999
0.2604693
0.08994458
0.8663005
-999
-999
0.2567498
0.8959306
0.02026802
-999
-999
0.2114566
0.831892
0.197718
-999
-999
0.1330128
0.6916641
0.3955506
-999
-999
0.03396317
0.07633141
0.5078514
0.5998413
-999
0.1386206
0.3122203
0.7843789
-999
-999
0.1697603
0.1264458
0.9133807
-999
-999
0.1642213
0.9542292
0.01940978
-999
-999
0.1230185
0.8952103
0.199505
-999
-999
0.05327705
0.7530311
0.4019088
-999
-999
0.5622705
0.6132441
-999
-999
-999
0.03407932
0.3575788
0.8071875
-999
-999
0.05697123
0.1628263
0.9464906
-999
-999
0.04968921
0.9957423
0.01090771
-999
-999
0.01344446
0.9405754
0.1893409
-999
-999
0.7970163
0.3900656
-999
-999
-999
0.6011095
0.6000574
-999
-999
-999
0.3897054
0.793515
-999
-999
-999
0.1883444
0.9336689
0.04651492
-999
-999
0.00973885
0.9851509
0.08877775
-999
-999
0.9330035
0.1555356
0.1015856
-999
-999
0.7923706
0.3438666
0.08281747
-999
-999
0.5986915
0.5386142
0.03555722
0.01014479
-999
0.3886914
0.715728
0.115919
-999
-999
0.1880834
0.8421477
0.2065692
-999
-999
0.009817628
0.8870022
0.2690684
-999
-999
0.8377878
0.08868743
0.2925358
-999
-999
0.7081792
0.2518888
0.2724646
-999
-999
0.529522
0.4159301
0.2127237
0.1400794
-999
0.3346275
0.5602858
0.1238312
0.2806673
-999
0.1470014
0.6590081
0.01880191
0.4061232
-999
0.6896607
0.4967155
-999
-999
-999
0.6444573
0.5344321
-999
-999
-999
0.5347422
0.1152956
0.5107862
0.1012621
-999
0.3845624
0.2386163
0.431168
0.2751138
-999
0.2193243
0.3415487
0.3120342
0.4552094
-999
0.05797322
0.4068891
0.1733757
0.6210662
-999
0.421473
0.03206734
0.7442279
-999
-999
0.3821128
0.7969072
0.0005223143
-999
-999
0.2972007
0.7653661
0.1767841
-999
-999
0.1826238
0.03243617
0.657967
0.3755954
-999
0.05530981
0.0966227
0.5001677
0.5847037
-999
0.1329362
0.3213787
0.7793612
-999
-999
0.1352053
0.1445228
0.9235997
-999
-999
0.103025
0.9817241
0.01077973
-999
-999
0.04192539
0.93702
0.1868577
-999
-999
0.8024643
0.3834458
-999
-999
-999
0.6123109
0.5869182
-999
-999
-999
0.4034074
0.7714151
0.01141071
-999
-999
0.2022615
0.9013637
0.1045946
-999
-999
0.0226316
0.9439886
0.1787173
-999
-999
0.8870606
0.1042624
0.2225987
-999
-999
0.7467459
0.263828
0.2285619
-999
-999
0.5573627
0.420191
0.1955003
0.112971
-999
0.3535869
0.5522305
0.129357
0.26534
-999
0.1594312
0.6351667
0.04066013
0.4109114
-999
0.6498827
0.5293369
-999
-999
-999
0.5926862
0.5983343
-999
-999
-999
0.4774163
0.04890454
0.6023544
0.1087982
-999
0.3279071
0.1437185
0.5404306
0.2968111
-999
0.1675542
0.2154938
0.4267096
0.4987738
-999
0.01303176
0.2523706
0.2831798
0.6944901
-999
0.2474024
0.130749
0.8520879
-999
-999
0.20156
0.9358754
-999
-999
-999
0.1232902
0.9229243
0.1574707
-999
-999
0.02497193
0.8169644
0.3512261
-999
-999
0.6459728
0.5546442
-999
-999
-999
0.4459949
0.7438306
-999
-999
-999
0.2462098
0.8842394
0.07282513
-999
-999
0.06366535
0.9416032
0.1653763
-999
-999
0.8996567
0.05859388
0.2337103
-999
-999
0.6135357
0.5847976
-999
-999
-999
0.643499
0.07525603
0.4744549
-999
-999
0.6024689
0.2607377
0.3302039
0.08479163
-999
0.5003881
0.4640583
0.1742084
0.1513567
-999
0.3590117
0.6679114
0.0226677
0.1885498
-999
0.2018653
0.8424845
0.1900525
-999
-999
0.04698174
0.9507889
0.1555974
-999
-999
0.9640353
0.09636456
0.09107896
-999
-999
0.8783803
0.2800068
0.006228336
-999
-999
0.7174283
0.4773929
-999
-999
-999
0.5178366
0.6695237
-999
-999
-999
0.0764844
0.312212
0.8262754
-999
-999
0.1720127
0.1210973
0.9133756
-999
-999
0.2429134
0.9076844
-999
-999
-999
0.277245
0.8108071
0.1457483
-999
-999
0.268464
0.04974555
0.6480742
0.2961709
-999
0.2182928
0.2052633
0.4539498
0.435706
-999
0.1359352
0.3630481
0.2574227
0.5435728
-999
0.0342462
0.5049365
0.07613119
0.5987658
-999
0.6072385
0.5887485
-999
-999
-999
0.6480808
0.0103872
0.515889
-999
-999
0.6175377
0.1840521
0.39618
0.05968047
-999
0.5230974
0.3771997
0.2513939
0.1505637
-999
0.3854917
0.5763372
0.1009767
0.2184072
-999
0.2287297
0.7563227
0.2523559
-999
-999
0.0720352
0.8829547
0.2462714
-999
-999
0.9248948
0.04267609
0.2012896
-999
-999
0.8703561
0.2250258
0.1253268
-999
-999
0.7345272
0.4283222
0.02989953
-999
-999
0.5501143
0.6379732
-999
-999
-999
0.3505852
0.8265651
-999
-999
-999
0.0003872582
0.1594969
0.9568768
-999
-999
0.04980675
0.9954536
0.009095741
-999
-999
0.07221312
0.9311053
0.1784041
-999
-999
0.06394801
0.7821656
0.3648684
-999
-999
0.02638673
0.01338061
0.5848629
0.5547609
-999
0.1241653
0.374759
0.723693
-999
-999
0.2205117
0.1759086
0.8397092
-999
-999
0.2884344
1.406703e-05
0.8746622
-999
-999
0.3158393
0.8190225
0.08223995
-999
-999
0.2972941
0.01620344
0.6877266
0.2398741
-999
0.2365103
0.159719
0.5111892
0.3978316
-999
0.1446259
0.3030703
0.320311
0.5370631
-999
0.03563085
0.4296382
0.1369939
0.6336471
-999
0.5187026
0.6666611
-999
-999
-999
0.5519367
0.6280928
-999
-999
-999
0.5216624
0.1017582
0.5272587
0.1033277
-999
0.4348929
0.2709164
0.385697
0.231539
-999
0.3096273
0.4433097
0.2271649
0.3443105
-999
0.1666504
0.5982206
0.07014783
0.4244997
-999
0.02285955
0.7083321
0.4569445
-999
-999
0.7486681
0.4347673
-999
-999
-999
0.7088507
0.1511638
0.3627163
-999
-999
0.5991287
0.3377179
0.2548291
0.08721422
-999
0.4444208
0.5310566
0.1283437
0.1806021
-999
0.2720652
0.7079614
0.24933
-999
-999
0.1028376
0.8362392
0.282062
-999
-999
0.885233
0.2727196
-999
-999
-999
0.8415031
0.1682449
0.2230837
-999
-999
0.7170923
0.3634904
0.1420053
-999
-999
0.5420827
0.5685725
0.04181897
0.05372963
-999
0.3489541
0.7595796
0.1153175
-999
-999
0.1615712
0.9018692
0.1490334
-999
-999
0.9609164
0.1493148
-999
-999
-999
0.920052
0.1624204
0.1161131
-999
-999
0.7909621
0.3597988
0.05491361
-999
-999
0.606207
0.5694449
-999
-999
-999
0.4015507
0.7681261
0.01859922
-999
-999
0.2032394
0.9208184
0.05405653
-999
-999
0.02525558
0.9908767
0.06186675
-999
-999
0.9584405
0.1438216
0.0407921
-999
-999
0.8329504
0.339676
-999
-999
-999
0.646998
0.5498098
-999
-999
-999
0.4380215
0.7524259
-999
-999
-999
0.2341547
0.9133581
-999
-999
-999
0.05066557
0.995003
0.005640788
-999
-999
0.9744462
0.1202345
-999
-999
-999
0.8577091
0.3132058
-999
-999
-999
0.6757975
0.5222818
-999
-999
-999
0.466769
0.727379
-999
-999
-999
0.2603734
0.8957142
-999
-999
-999
0.01873604
0.07334768
0.9892933
-999
-999
0.01910592
0.982285
0.09622582
-999
-999
0.8767454
0.2861878
-999
-999
-999
0.7012655
0.493986
-999
-999
-999
0.4939892
0.7012624
-999
-999
-999
0.2861908
0.8767431
-999
-999
-999
0.0191057
0.09622855
0.9822841
-999
-999
0.01873627
0.9892939
0.07334504
-999
-999
0.8957163
0.2603703
-999
-999
-999
0.727382
0.4667657
-999
-999
-999
0.522285
0.6757944
-999
-999
-999
0.3132089
0.8577066
-999
-999
-999
0.1202372
0.9744452
-999
-999
-999
0.9950034
0.05066035
0.005640788
-999
-999
0.9133601
0.2341488
-999
-999
-999
0.7524288
0.438015
-999
-999
-999
0.549813
0.6469918
-999
-999
-999
0.3396792
0.8329455
-999
-999
-999
0.1438244
0.9584381
0.04079151
-999
-999
0.9908774
0.02525314
0.06186657
-999
-999
0.920822
0.2032364
0.05405686
-999
-999
0.7681317
0.4015475
0.01859995
-999
-999
0.5694513
0.6062039
-999
-999
-999
0.3598052
0.7909595
0.0549125
-999
-999
0.1624261
0.9200506
0.1161124
-999
-999
0.9609166
0.1493145
-999
-999
-999
0.9018708
0.1615684
0.1490337
-999
-999
0.7595822
0.3489511
0.1153183
-999
-999
0.5685756
0.5420797
0.05373071
0.04181656
-999
0.3634934
0.7170899
0.1420031
-999
-999
0.1682477
0.8415018
0.2230821
-999
-999
0.885233
0.2727188
-999
-999
-999
0.8362406
0.1028351
0.2820622
-999
-999
0.7079638
0.2720626
0.2493312
-999
-999
0.5310594
0.4444182
0.180604
0.1283417
-999
0.3377208
0.5991266
0.08721656
0.2548272
-999
0.1511665
0.7088495
0.3627149
-999
-999
0.7486681
0.4347665
-999
-999
-999
0.7083333
0.02285633
0.4569446
-999
-999
0.5982227
0.166647
0.4245006
0.07014439
-999
0.4433123
0.3096242
0.344312
0.2271613
-999
0.2709191
0.4348904
0.2315409
0.3856935
-999
0.1017608
0.521661
0.1033297
0.5272558
-999
0.5519369
0.6280912
-999
-999
-999
0.5187041
0.6666611
-999
-999
-999
0.4296408
0.0356283
0.6336486
0.1369912
-999
0.3030735
0.1446237
0.5370657
0.3203081
-999
0.1597223
0.2365084
0.3978351
0.5111864
-999
0.01620662
0.2972931
0.2398778
0.6877241
-999
0.3158394
0.08224341
0.819021
-999
-999
0.2884356
0.874662
1.163232e-05
-999
-999
0.2205137
0.8397105
0.1759057
-999
-999
0.1241677
0.7236953
0.3747559
-999
-999
0.01338317
0.02638599
0.5547637
0.5848597
-999
0.06394763
0.3648714
0.7821629
-999
-999
0.07221321
0.1784068
0.9311037
-999
-999
0.04980726
0.009098165
0.9954534
-999
-999
0.0003881246
0.956878
0.1594928
-999
-999
0.8265676
0.3505807
-999
-999
-999
0.6379765
0.5501099
-999
-999
-999
0.4283254
0.7345234
0.02989798
-999
-999
0.2250286
0.8703539
0.1253255
-999
-999
0.04267868
0.9248948
0.2012886
-999
-999
0.8829566
0.07203286
0.2462711
-999
-999
0.7563263
0.2287273
0.2523562
-999
-999
0.5763416
0.3854893
0.2184079
0.1009732
-999
0.3772043
0.5230955
0.150565
0.2513903
-999
0.1840563
0.6175367
0.05968199
0.3961768
-999
0.01039096
0.6480809
0.5158867
-999
-999
0.6072397
0.5887475
-999
-999
-999
0.5049385
0.03424701
0.5987663
0.07612862
-999
0.3630505
0.1359359
0.5435748
0.2574199
-999
0.2052657
0.2182933
0.4357089
0.4539467
-999
0.04974781
0.2684644
0.2961742
0.6480713
-999
0.2772449
0.1457517
0.8108051
-999
-999
0.242913
0.9076835
-999
-999
-999
0.1720121
0.9133762
0.1210931
-999
-999
0.07648361
0.8262774
0.3122074
-999
-999
0.6695265
0.5178319
-999
-999
-999
0.477396
0.717424
-999
-999
-999
0.2800097
0.8783774
0.006226966
-999
-999
0.09636719
0.9640344
0.09107784
-999
-999
0.9507903
0.04698352
0.1555966
-999
-999
0.8424878
0.2018671
0.1900522
-999
-999
0.6679158
0.3590135
0.1885501
0.02266549
-999
0.4640629
0.5003895
0.1513575
0.1742061
-999
0.2607422
0.6024697
0.08479284
0.3302016
-999
0.07525996
0.6434991
0.4744529
-999
-999
0.6135349
0.5847964
-999
-999
-999
0.2519805
0.8619919
0.1020528
-999
-999
0.2698269
0.7124081
0.2460122
-999
-999
0.2453504
0.150001
0.521974
0.3818503
-999
0.1831965
0.315569
0.32229
0.490936
-999
0.09402921
0.4766913
0.1342515
0.5534757
-999
0.6109488
0.556027
-999
-999
-999
0.6925747
0.4980081
-999
-999
-999
0.7024724
0.1188737
0.3920016
-999
-999
0.6381418
0.3093319
0.2575894
0.05329865
-999
0.5151154
0.5150368
0.1137116
0.1132362
-999
0.35854
0.71626
0.1455859
-999
-999
0.1923891
0.8811621
0.1450818
-999
-999
0.03335799
0.9730769
0.1118093
-999
-999
0.9670648
0.1171971
0.0511713
-999
-999
0.86486
0.301517
-999
-999
-999
0.6937463
0.4976664
-999
-999
-999
0.4905514
0.6857372
-999
-999
-999
0.09791544
0.2858618
0.8353485
-999
-999
0.1875126
0.09794361
0.9133767
-999
-999
0.2498807
0.8991395
0.01411354
-999
-999
0.2742787
0.7965906
0.162683
-999
-999
0.2560595
0.06047545
0.6318474
0.3157034
-999
0.1987177
0.211685
0.4385772
0.4577378
-999
0.1123349
0.3620929
0.2444075
0.5676079
-999
0.009596388
0.4934815
0.06587861
0.6238747
-999
0.5834457
0.6137257
-999
-999
-999
0.6128043
0.01383914
0.5395668
-999
-999
0.5745845
0.1841082
0.4177182
0.09195596
-999
0.4777937
0.3715798
0.2703905
0.1905938
-999
0.342595
0.5623591
0.1174001
0.2660225
-999
0.1911673
0.7318026
0.3060566
-999
-999
0.04086167
0.8477015
0.303302
-999
-999
0.8818286
0.04672489
0.2582884
-999
-999
0.8248563
0.2286415
0.1792334
-999
-999
0.6920941
0.4311722
0.07861386
-999
-999
0.5142717
0.6398146
0.01870078
-999
-999
0.3224245
0.8274872
0.04897624
-999
-999
0.1384432
0.9575136
0.05188166
-999
-999
0.9968712
0.02382184
0.02696506
-999
-999
0.9342601
0.1992437
-999
-999
-999
0.7873667
0.3944117
-999
-999
-999
0.5917254
0.5959084
-999
-999
-999
0.03448394
0.3825657
0.7786561
-999
-999
0.1121416
0.1839746
0.9083652
-999
-999
0.1649423
0.007854505
0.9532685
-999
-999
0.1842693
0.9008394
0.1249331
-999
-999
0.1666717
0.7656255
0.3001674
-999
-999
0.1152982
0.06474487
0.5802126
0.4806261
-999
0.03858536
0.1822832
0.3784611
0.6455008
-999
0.2835303
0.184509
0.7664232
-999
-999
0.3531183
0.01093884
0.816251
-999
-999
0.3781338
0.7821348
0.0355911
-999
-999
0.3534415
0.01885874
0.6729798
0.188532
-999
0.2841122
0.1612601
0.514194
0.3457077
-999
0.1830238
0.3031878
0.3348131
0.4907098
-999
0.06554577
0.4282889
0.1574232
0.6012068
-999
0.5162948
0.6550081
-999
-999
-999
0.5493273
0.6395731
-999
-999
-999
0.519859
0.06652895
0.5586194
0.08400258
-999
0.4346271
0.2257229
0.4300792
0.2216033
-999
0.3111154
0.3877726
0.2772701
0.3502398
-999
0.1696627
0.5341556
0.1203659
0.4523343
-999
0.02694948
0.640469
0.5096404
-999
-999
0.6839216
0.5101228
-999
-999
-999
0.6538907
0.08882365
0.4536749
-999
-999
0.5578007
0.2588694
0.3521717
0.1201919
-999
0.416955
0.4351988
0.2238181
0.2374045
-999
0.2561896
0.5983739
0.08624538
0.3342982
-999
0.09542482
0.7212616
0.3953842
-999
-999
0.7769305
0.4090141
-999
-999
-999
0.7512118
0.09090374
0.372381
-999
-999
0.6508081
0.2663204
0.2928554
0.04353126
-999
0.4993401
0.4510854
0.1845831
0.1540585
-999
0.3251689
0.6259589
0.0629805
0.2491062
-999
0.151086
0.7626186
0.3149569
-999
-999
0.8312068
0.3400621
-999
-999
-999
0.8139842
0.07859325
0.3195551
-999
-999
0.7155837
0.2550012
0.2574307
-999
-999
0.5601957
0.4431975
0.1647448
0.09796204
-999
0.3784893
0.624916
0.05520312
0.1944574
-999
0.1956708
0.7719662
0.2667061
-999
-999
0.02701036
0.8529097
0.3028883
-999
-999
0.8468674
0.05646059
0.296294
-999
-999
0.7554891
0.2304601
0.2481868
-999
-999
0.601936
0.4179035
0.16724
0.06597343
-999
0.4179064
0.6019334
0.06597503
0.1672386
-999
0.2304629
0.7554872
0.2481858
-999
-999
0.05646312
0.8468667
0.2962936
-999
-999
0.8529102
0.02700797
0.3028885
-999
-999
0.771968
0.1956682
0.266707
-999
-999
0.6249186
0.3784865
0.1944587
0.05519965
-999
0.4432004
0.560193
0.0979636
0.1647416
-999
0.255004
0.7155817
0.2574283
-999
-999
0.07859574
0.8139831
0.3195538
-999
-999
0.8312072
0.3400622
-999
-999
-999
0.7626202
0.1510807
0.3149582
-999
-999
0.6259613
0.3251636
0.2491087
0.06297854
-999
0.4510882
0.499335
0.1540617
0.1845813
-999
0.2663232
0.6508041
0.0435348
0.2928539
-999
0.09090628
0.7512097
0.3723801
-999
-999
0.7769309
0.4090139
-999
-999
-999
0.7212645
0.09542236
0.3953848
-999
-999
0.5983784
0.2561871
0.3342994
0.08624327
-999
0.435204
0.4169527
0.2374062
0.223816
-999
0.2588748
0.5577988
0.1201937
0.35217
-999
0.08882861
0.6538897
0.4536735
-999
-999
0.6839218
0.5101224
-999
-999
-999
0.6404702
0.02694737
0.5096408
-999
-999
0.5341576
0.1696605
0.4523356
0.1203624
-999
0.3877751
0.3111132
0.3502416
0.2772666
-999
0.2257254
0.4346254
0.2216054
0.4300759
-999
0.06653135
0.5198581
0.08400474
0.558617
-999
0.5493274
0.639572
-999
-999
-999
0.5162957
0.6550086
-999
-999
-999
0.4282906
0.065544
0.6012088
0.1574205
-999
0.3031899
0.1830222
0.4907128
0.3348104
-999
0.1612624
0.2841108
0.3457112
0.5141913
-999
0.01886088
0.3534408
0.1885356
0.6729777
-999
0.3781338
0.03559447
0.7821336
-999
-999
0.353119
0.816251
0.01093519
-999
-999
0.2835316
0.7664245
0.1845048
-999
-999
0.182285
0.03858338
0.6455031
0.3784564
-999
0.06474664
0.1152967
0.4806287
0.580208
-999
0.166671
0.3001701
0.7656217
-999
-999
0.1842693
0.1249357
0.9008371
-999
-999
0.1649432
0.9532683
0.007851978
-999
-999
0.1121431
0.9083673
0.1839717
-999
-999
0.03448596
0.7786599
0.3825625
-999
-999
0.5959129
0.5917222
-999
-999
-999
0.3944163
0.7873641
-999
-999
-999
0.199248
0.9342583
-999
-999
-999
0.02382558
0.9968711
0.02696443
-999
-999
0.9575151
0.1384406
0.05188147
-999
-999
0.8274897
0.3224216
0.04897648
-999
-999
0.6398178
0.5142688
0.01870145
-999
-999
0.4311753
0.6920917
0.07861147
-999
-999
0.2286445
0.8248549
0.1792313
-999
-999
0.0467275
0.8818284
0.2582869
-999
-999
0.8477027
0.04085833
0.3033014
-999
-999
0.7318048
0.1911638
0.3060571
-999
-999
0.5623618
0.3425917
0.2660239
0.1173978
-999
0.3715827
0.477791
0.1905958
0.2703881
-999
0.1841109
0.5745829
0.09195841
0.417716
-999
0.01384159
0.6128042
0.5395653
-999
-999
0.583447
0.6137251
-999
-999
-999
0.4934841
0.009594788
0.6238751
0.06587476
-999
0.3620962
0.1123335
0.5676092
0.2444031
-999
0.2116885
0.1987166
0.4577399
0.4385728
-999
0.06047877
0.256059
0.3157056
0.6318432
-999
0.2742787
0.1626853
0.7965875
-999
-999
0.2498814
0.01411566
0.8991379
-999
-999
0.1875139
0.9133775
0.09794088
-999
-999
0.0979169
0.8353512
0.2858587
-999
-999
0.6857412
0.4905483
-999
-999
-999
0.4976709
0.6937434
-999
-999
-999
0.3015213
0.8648579
-999
-999
-999
0.1172011
0.967064
0.0511718
-999
-999
0.9730775
0.03335452
0.1118097
-999
-999
0.881164
0.1923853
0.1450819
-999
-999
0.7162628
0.3585362
0.1455858
-999
-999
0.5150399
0.515112
0.1132358
0.1137094
-999
0.3093349
0.6381396
0.05329805
0.2575873
-999
0.1188765
0.7024717
0.3919997
-999
-999
0.6925758
0.4980068
-999
-999
-999
0.6109514
0.5560266
-999
-999
-999
0.4766948
0.09403025
0.5534762
0.1342488
-999
0.3155728
0.1831973
0.4909373
0.322287
-999
0.1500047
0.2453509
0.3818523
0.521971
-999
0.269827
0.2460143
0.7124054
-999
-999
0.25198
0.1020549
0.86199
-999
-999
0.8912377
0.2600005
0.001646144
-999
-999
0.7380434
0.45032
-999
-999
-999
0.5433338
0.6363155
-999
-999
-999
0.08359855
0.339552
0.7904152
-999
-999
0.1898286
0.1480143
0.8807404
-999
-999
0.2748762
0.8844565
-999
-999
-999
0.3251178
0.8005559
0.08897022
-999
-999
0.3311368
0.04054718
0.6504745
0.2249494
-999
0.2917343
0.2020981
0.4659245
0.3513501
-999
0.2144826
0.3720031
0.2751622
0.4509136
-999
0.1123897
0.5337852
0.09644702
0.5059747
-999
0.6632262
0.5051094
-999
-999
-999
0.7341842
0.4485067
-999
-999
-999
0.7295687
0.14229
0.3478736
-999
-999
0.650553
0.3342148
0.2209529
0.03780295
-999
0.5158963
0.5395579
0.08491134
0.09661418
-999
0.3520222
0.7375183
0.1291509
-999
-999
0.1824138
0.8957537
0.1302693
-999
-999
0.02253808
0.9785474
0.09978476
-999
-999
0.9634266
0.1279112
0.04254353
-999
-999
0.854697
0.3133351
-999
-999
-999
0.6806867
0.5104638
-999
-999
-999
0.4775791
0.6992928
-999
-999
-999
0.08745707
0.2746421
0.8493978
-999
-999
0.1690272
0.08903141
0.9276797
-999
-999
0.2230632
0.913488
0.02774349
-999
-999
0.2403893
0.8107449
0.1815872
-999
-999
0.2178044
0.04345703
0.6455024
0.34176
-999
0.1594559
0.1852846
0.4514214
0.492719
-999
0.07507408
0.3240913
0.2562091
0.6123669
-999
0.4429575
0.07652603
0.6774195
-999
-999
0.5219803
0.6729081
-999
-999
-999
0.5449069
0.5999252
0.01558421
-999
-999
0.5065469
0.1562884
0.4750204
0.136461
-999
0.4154625
0.3325989
0.3218016
0.2488736
-999
0.2896117
0.5103589
0.1617267
0.338604
-999
0.1486306
0.6670002
0.009398837
0.391011
-999
0.00805882
0.7737689
0.3960909
-999
-999
0.805808
0.02957952
0.3528148
-999
-999
0.7547787
0.2057847
0.2696115
-999
-999
0.6337677
0.4017542
0.1606123
0.03778984
-999
0.4697295
0.6040015
0.04045985
0.1060111
-999
0.2906272
0.7873622
0.1492564
-999
-999
0.1168939
0.9174671
0.1607392
-999
-999
0.9625
0.01886644
0.1385287
-999
-999
0.9099193
0.1953639
0.08631012
-999
-999
0.7742899
0.3936446
0.01195925
-999
-999
0.58825
0.6014922
-999
-999
-999
0.3857408
0.7947193
-999
-999
-999
0.1909865
0.9385039
-999
-999
-999
0.02214762
0.01663673
0.9982702
-999
-999
0.03626356
0.9573163
0.1453187
-999
-999
0.02233085
0.8272384
0.3339047
-999
-999
0.6405722
0.5336142
-999
-999
-999
0.0339291
0.433258
0.7234015
-999
-999
0.1106
0.231867
0.8717483
-999
-999
0.1627305
0.05071123
0.9451805
-999
-999
0.1819272
0.9240318
0.07814593
-999
-999
0.1648114
0.8141835
0.2522859
-999
-999
0.1144032
0.01635644
0.6433816
0.4382019
-999
0.0388801
0.1245235
0.4459038
0.6185455
-999
0.2180836
0.2491669
0.766414
-999
-999
0.2837033
0.06920541
0.851326
-999
-999
0.3099817
0.8520468
0.009866843
-999
-999
0.2918532
0.7683843
0.1698393
-999
-999
0.2328436
0.0650165
0.621304
0.3420844
-999
0.1434812
0.1876529
0.4412525
0.5126189
-999
0.03707583
0.296459
0.2552603
0.6589091
-999
0.3755951
0.08084082
0.753732
-999
-999
0.4106829
0.7751718
-999
-999
-999
0.3945304
0.7177833
0.09744431
-999
-999
0.3305123
0.08866271
0.5957318
0.2588698
-999
0.2309436
0.221497
0.4349188
0.4220907
-999
0.1117651
0.3422164
0.2612882
0.5681618
-999
0.4333523
0.09351726
0.6726269
-999
-999
0.4780767
0.7131836
-999
-999
-999
0.4669088
0.6800246
0.03909608
-999
-999
0.4022936
0.08961324
0.5812173
0.1933594
-999
0.2973706
0.2276982
0.4382439
0.3527758
-999
0.169971
0.3558375
0.2757815
0.5012152
-999
0.03636286
0.4559962
0.1135292
0.6163176
-999
0.5098359
0.6752915
-999
-999
-999
0.5058479
0.6644758
-999
-999
-999
0.4449254
0.07118607
0.58648
0.1456343
-999
0.3399047
0.2094647
0.4587463
0.3048489
-999
0.2094668
0.3399028
0.3048514
0.4587441
-999
0.07118821
0.4449242
0.1456366
0.5864784
-999
0.5058474
0.6644751
-999
-999
-999
0.5098363
0.6752918
-999
-999
-999
0.4559974
0.03636083
0.6163191
0.1135243
-999
0.3558393
0.169969
0.5012171
0.2757765
-999
0.2277003
0.2973687
0.3527782
0.4382391
-999
0.08961544
0.4022923
0.1933618
0.5812135
-999
0.4669083
0.0390983
0.6800225
-999
-999
0.4780769
0.7131837
-999
-999
-999
0.4333534
0.6726292
0.0935148
-999
-999
0.3422181
0.1117614
0.5681658
0.2612856
-999
0.2214989
0.2309402
0.4220955
0.4349162
-999
0.08866469
0.3305098
0.2588748
0.5957296
-999
0.3945292
0.09744915
0.7177819
-999
-999
0.4106832
0.7751714
-999
-999
-999
0.3755969
0.7537329
0.08083832
-999
-999
0.296462
0.0370742
0.658911
0.2552576
-999
0.1876564
0.1434796
0.5126213
0.4412496
-999
0.06502034
0.2328424
0.3420871
0.6213015
-999
0.2918527
0.1698419
0.7683824
-999
-999
0.3099817
0.009869106
0.8520461
-999
-999
0.283704
0.8513265
0.06920158
-999
-999
0.2180848
0.7664159
0.2491625
-999
-999
0.1245251
0.03887887
0.618548
0.4458993
-999
0.01635817
0.1144021
0.4382047
0.6433772
-999
0.1648109
0.2522888
0.8141802
-999
-999
0.1819272
0.07814844
0.9240302
-999
-999
0.162731
0.9451811
0.05070863
-999
-999
0.110601
0.871751
0.2318641
-999
-999
0.03393043
0.7234055
0.4332547
-999
-999
0.5336188
0.6405692
-999
-999
-999
0.02233046
0.3339091
0.8272359
-999
-999
0.03626356
0.1453227
0.957315
-999
-999
0.02214807
0.9982704
0.01663304
-999
-999
0.9385055
0.1909823
-999
-999
-999
0.7947219
0.3857363
-999
-999
-999
0.6014954
0.5882455
-999
-999
-999
0.3936477
0.7742862
0.01195992
-999
-999
0.1953667
0.9099169
0.08631056
-999
-999
0.01886896
0.9624998
0.138529
-999
-999
0.9174693
0.1168914
0.1607392
-999
-999
0.7873658
0.2906245
0.1492562
-999
-999
0.604006
0.4697268
0.1060106
0.04045803
-999
0.4017589
0.6337654
0.0377892
0.1606105
-999
0.205789
0.7547774
0.26961
-999
-999
0.02958336
0.8058078
0.3528138
-999
-999
0.77377
0.008056731
0.3960906
-999
-999
0.6670022
0.1486284
0.3910115
0.00939553
-999
0.5103615
0.2896096
0.3386051
0.1617231
-999
0.3326015
0.4154608
0.2488752
0.321798
-999
0.1562909
0.5065458
0.1364629
0.4750171
-999
0.5449068
0.01558605
0.5999228
-999
-999
0.5219811
0.6729072
-999
-999
-999
0.442959
0.6774201
0.07652342
-999
-999
0.3240934
0.07507193
0.6123691
0.2562061
-999
0.1852868
0.1594543
0.4927222
0.4514183
-999
0.0434591
0.2178033
0.3417636
0.6454996
-999
0.2403892
0.1815909
0.8107428
-999
-999
0.223064
0.02774692
0.9134871
-999
-999
0.1690288
0.9276803
0.0890274
-999
-999
0.08745918
0.8493997
0.2746376
-999
-999
0.6992955
0.4775744
-999
-999
-999
0.5104668
0.6806823
-999
-999
-999
0.3133381
0.8546937
-999
-999
-999
0.1279139
0.9634252
0.04254194
-999
-999
0.9785482
0.02253576
0.09978379
-999
-999
0.8957565
0.1824113
0.1302689
-999
-999
0.7375225
0.3520197
0.1291514
-999
-999
0.5395626
0.5158939
0.09661525
0.08491239
-999
0.3342193
0.6505513
0.03780453
0.2209539
-999
0.1422941
0.729568
0.3478744
-999
-999
0.7341847
0.4485072
-999
-999
-999
0.6632279
0.5051095
-999
-999
-999
0.5337875
0.1123872
0.5059744
0.09644439
-999
0.3720056
0.2144805
0.4509129
0.2751593
-999
0.2021007
0.2917329
0.3513492
0.4659216
-999
0.04054952
0.3311364
0.2249483
0.6504718
-999
0.3251185
0.08896919
0.8005542
-999
-999
0.2748779
0.884456
-999
-999
-999
0.1898309
0.8807412
0.1480115
-999
-999
0.08360115
0.7904172
0.3395489
-999
-999
0.6363183
0.5433307
-999
-999
-999
0.4503228
0.7380406
-999
-999
-999
0.2600033
0.8912359
0.001643701
-999
-999
0.6499465
0.3062821
0.2472076
0.03925809
-999
0.5328565
0.5104029
0.1038258
0.09159566
-999
0.3802926
0.7116809
0.1173098
-999
-999
0.2159517
0.8798029
0.1123772
-999
-999
0.05694098
0.9789266
0.07759083
-999
-999
0.983014
0.08693754
0.01825961
-999
-999
0.8909101
0.2604823
-999
-999
-999
0.7270765
0.4449078
-999
-999
-999
0.0145719
0.5272211
0.6227619
-999
-999
0.1321155
0.3224758
0.7674375
-999
-999
0.2392625
0.1323334
0.8492522
-999
-999
0.3218302
0.8479563
-999
-999
-999
0.3659547
0.7638909
0.07709035
-999
-999
0.3631085
0.06224958
0.6177844
0.2097239
-999
0.3138659
0.2250351
0.4393872
0.3332056
-999
0.2276346
0.3947034
0.2550833
0.4311495
-999
0.1185655
0.5540373
0.08203198
0.4866855
-999
0.0006059438
0.6785148
0.488612
-999
-999
0.742653
0.4365183
-999
-999
-999
0.7309896
0.1458257
0.3409869
-999
-999
0.6464583
0.3362034
0.2187072
0.03902587
-999
0.5087107
0.5392279
0.08625614
0.1016619
-999
0.3439718
0.7343159
0.1388681
-999
-999
0.1749496
0.8898249
0.1448509
-999
-999
0.0163352
0.9710763
0.1186261
-999
-999
0.9563385
0.1278726
0.06439917
-999
-999
0.8497441
0.3144408
-999
-999
-999
0.6786815
0.5141853
-999
-999
-999
0.4783512
0.7077954
-999
-999
-999
0.04597924
0.27749
0.8650867
-999
-999
0.1182681
0.09316915
0.9520751
-999
-999
0.1648283
0.9460084
0.03787988
-999
-999
0.1781203
0.8485686
0.1988803
-999
-999
0.1558261
0.6848202
0.3697183
-999
-999
0.1017917
0.1264716
0.4889819
0.5351543
-999
0.02448449
0.2500102
0.2900692
0.6720105
-999
0.3546625
0.1059613
0.7540044
-999
-999
0.4238489
0.7620353
-999
-999
-999
0.4442824
0.6940911
0.0517223
-999
-999
0.4116669
0.09837084
0.5663959
0.1886464
-999
0.3327779
0.257444
0.4047146
0.32099
-999
0.222232
0.4166129
0.2334615
0.4327326
-999
0.09652768
0.5567209
0.06960852
0.5056365
-999
0.6538081
0.5252732
-999
-999
-999
0.6869744
0.4873977
-999
-999
-999
0.6482272
0.1496683
0.4000597
0.02187772
-999
0.5468607
0.3305251
0.2796885
0.1272555
-999
0.4043934
0.517278
0.1443364
0.2183607
-999
0.2446274
0.6883526
0.008531859
0.2827328
-999
0.08615883
0.8140954
0.3096843
-999
-999
0.865977
0.2942527
-999
-999
-999
0.8304504
0.154423
0.2393154
-999
-999
0.7169067
0.3447877
0.1543428
-999
-999
0.5520734
0.5464672
0.05170643
0.04890859
-999
0.3663395
0.738209
0.1068602
-999
-999
0.1831645
0.8881395
0.1381686
-999
-999
0.01602954
0.9623736
0.1378942
-999
-999
0.9409929
0.1257166
0.1060821
-999
-999
0.8299544
0.3154428
0.04774433
-999
-999
0.6573552
0.5205463
-999
-999
-999
0.4578807
0.7220641
-999
-999
-999
0.2592408
0.8892103
0.01002627
-999
-999
0.07761433
0.985984
0.02007652
-999
-999
0.9868083
0.07917133
0.004458579
-999
-999
0.8914492
0.2624279
-999
-999
-999
0.7251664
0.4638203
-999
-999
-999
0.5239339
0.6675087
-999
-999
-999
0.3187033
0.8457515
-999
-999
-999
0.0432118
0.1286354
0.9630636
-999
-999
0.06313293
0.9897852
0.02700203
-999
-999
0.05399339
0.9184222
0.2017214
-999
-999
0.01724515
0.7683709
0.3965102
-999
-999
0.5741637
0.5987141
-999
-999
-999
0.04092785
0.3688171
0.7843224
-999
-999
0.0945425
0.1745492
0.9198506
-999
-999
0.1202561
0.002250552
0.9731086
-999
-999
0.1138714
0.9295381
0.1429024
-999
-999
0.07645672
0.8011313
0.3308723
-999
-999
0.01392685
0.6190203
0.5307073
-999
-999
0.05784634
0.4172124
0.722106
-999
-999
0.1174231
0.2209047
0.8741947
-999
-999
0.1486505
0.04382133
0.9534003
-999
-999
0.146356
0.938808
0.0901002
-999
-999
0.110934
0.8344545
0.2721619
-999
-999
0.0481861
0.6668091
0.4700176
-999
-999
0.04818491
0.4700207
0.6668063
-999
-999
0.1109332
0.2721648
0.8344523
-999
-999
0.1463557
0.09010281
0.9388072
-999
-999
0.1486507
0.9534007
0.04381632
-999
-999
0.1174238
0.8741966
0.220899
-999
-999
0.05784746
0.7221087
0.4172062
-999
-999
0.01392579
0.5307103
0.6190143
-999
-999
0.07645594
0.3308753
0.8011264
-999
-999
0.113871
0.1429052
0.9295353
-999
-999
0.1202562
0.9731086
0.002248107
-999
-999
0.09454312
0.9198536
0.1745464
-999
-999
0.04092885
0.7843276
0.3688141
-999
-999
0.5987202
0.5741606
-999
-999
-999
0.01724359
0.3965163
0.7683681
-999
-999
0.05399272
0.2017271
0.9184204
-999
-999
0.06313311
0.02700705
0.989785
-999
-999
0.0432128
0.9630647
0.1286327
-999
-999
0.8457538
0.3187003
-999
-999
-999
0.6675117
0.5239308
-999
-999
-999
0.4638234
0.7251635
-999
-999
-999
0.2624309
0.8914472
-999
-999
-999
0.07917395
0.9868074
0.004457924
-999
-999
0.9859849
0.07761043
0.02007646
-999
-999
0.8892124
0.2592364
0.01002677
-999
-999
0.722067
0.4578761
-999
-999
-999
0.5205495
0.6573509
-999
-999
-999
0.3154458
0.8299509
0.04774272
-999
-999
0.1257194
0.9409913
0.106081
-999
-999
0.9623744
0.0160272
0.1378938
-999
-999
0.888142
0.1831618
0.138169
-999
-999
0.7382131
0.3663366
0.1068613
-999
-999
0.5464718
0.5520707
0.0489101
0.05170401
-999
0.3447922
0.7169044
0.1543406
-999
-999
0.1544271
0.8304492
0.2393137
-999
-999
0.8659772
0.2942519
-999
-999
-999
0.8140969
0.08615534
0.3096845
-999
-999
0.688355
0.2446238
0.2827339
0.008532904
-999
0.5172809
0.4043898
0.2183625
0.1443374
-999
0.3305279
0.5468578
0.1272578
0.2796895
-999
0.149671
0.6482255
0.02188015
0.4000604
-999
0.6869743
0.4873982
-999
-999
-999
0.6538097
0.5252732
-999
-999
-999
0.5567237
0.09652567
0.5056362
0.06960614
-999
0.4166164
0.2222301
0.4327319
0.2334589
-999
0.2574477
0.3327764
0.3209891
0.404712
-999
0.09837437
0.411666
0.1886453
0.5663936
-999
0.4442823
0.0517213
0.6940896
-999
-999
0.4238496
0.7620349
-999
-999
-999
0.3546639
0.7540052
0.1059574
-999
-999
0.2500119
0.02448312
0.6720123
0.2900648
-999
0.1264735
0.1017907
0.5351568
0.4889772
-999
0.1558255
0.3697211
0.6848159
-999
-999
0.1781203
0.1988829
0.8485655
-999
-999
0.1648287
0.03788221
0.9460073
-999
-999
0.118269
0.9520761
0.09316652
-999
-999
0.04598049
0.8650896
0.277487
-999
-999
0.7077995
0.4783481
-999
-999
-999
0.5141899
0.6786785
-999
-999
-999
0.3144452
0.8497419
-999
-999
-999
0.1278767
0.9563376
0.06439763
-999
-999
0.9710767
0.01633179
0.1186251
-999
-999
0.8898268
0.1749458
0.1448506
-999
-999
0.7343187
0.3439678
0.1388686
-999
-999
0.539231
0.5087072
0.1016631
0.0862531
-999
0.3362064
0.6464556
0.0390275
0.2187042
-999
0.1458284
0.7309884
0.3409844
-999
-999
0.7426537
0.4365165
-999
-999
-999
0.678517
0.0006041022
0.4886114
-999
-999
0.5540407
0.1185638
0.4866863
0.08203328
-999
0.3947073
0.2276331
0.4311513
0.2550848
-999
0.225039
0.3138647
0.3332083
0.4393886
-999
0.06225315
0.3631081
0.209727
0.6177857
-999
0.365955
0.07709346
0.7638917
-999
-999
0.3218312
0.8479567
-999
-999
-999
0.2392639
0.8492519
0.1323306
-999
-999
0.1321173
0.7674365
0.3224728
-999
-999
0.01457368
0.6227608
0.527218
-999
-999
0.4449064
0.7270736
-999
-999
-999
0.260481
0.8909082
-999
-999
-999
0.08693632
0.9830134
0.01825804
-999
-999
0.9789274
0.05693863
0.07758973
-999
-999
0.879805
0.2159492
0.1123768
-999
-999
0.7116838
0.3802901
0.11731
-999
-999
0.5104061
0.5328543
0.09159652
0.1038221
-999
0.3062851
0.649945
0.03925949
0.2472038
-999
0.3003269
0.2150073
0.4474819
0.3423447
-999
0.2269571
0.3883562
0.2589614
0.4303285
-999
0.1278411
0.555347
0.0836002
0.4744947
-999
0.0163509
0.6919255
0.4659739
-999
-999
0.7712448
0.406537
-999
-999
-999
0.7744967
0.1365653
0.3077453
-999
-999
0.7008575
0.3262186
0.1858651
-999
-999
0.5679628
0.5303612
0.05625722
0.03849369
-999
0.4024576
0.7298156
0.06368598
-999
-999
0.2289102
0.8939688
0.06156539
-999
-999
0.06399498
0.9875669
0.03245308
-999
-999
0.002562873
0.9860801
0.08046479
-999
-999
0.02757111
0.889924
0.2510021
-999
-999
0.02597032
0.7241985
0.4321528
-999
-999
0.03227945
0.5242109
0.6072007
-999
-999
0.1493078
0.3202829
0.7506657
-999
-999
0.2545992
0.1312384
0.833905
-999
-999
0.3339276
0.8368177
-999
-999
-999
0.3738426
0.7586519
0.06887405
-999
-999
0.3666316
0.05876336
0.618446
0.2027639
-999
0.3137361
0.2180473
0.4446752
0.3294893
-999
0.2250842
0.3832522
0.2632999
0.4330438
-999
0.1148607
0.5376508
0.09168266
0.4962003
-999
0.6577876
0.5064735
-999
-999
-999
0.7195514
0.4616848
-999
-999
-999
0.7083989
0.1288326
0.3710279
-999
-999
0.6270676
0.3142873
0.2507589
0.05640326
-999
0.494044
0.5124429
0.1178861
0.1278866
-999
0.3342089
0.704122
0.1745806
-999
-999
0.1693828
0.8595623
0.1892448
-999
-999
0.01393619
0.9454185
0.1694257
-999
-999
0.9394334
0.1139329
0.1184184
-999
-999
0.8432505
0.3000582
0.04398653
-999
-999
0.6813961
0.5018197
-999
-999
-999
0.4874626
0.7015214
-999
-999
-999
0.2900817
0.8700373
-999
-999
-999
0.03935709
0.1070284
0.9724736
-999
-999
0.07932696
0.982567
0.03902633
-999
-999
0.09094878
0.897513
0.2068935
-999
-999
0.07235896
0.7397225
0.389314
-999
-999
0.02651111
0.03867501
0.5437052
0.5721794
-999
0.144155
0.3405402
0.7318578
-999
-999
0.2331995
0.1503104
0.8387586
-999
-999
0.292925
0.8679305
-999
-999
-999
0.3129707
0.8118083
0.08289547
-999
-999
0.2895342
0.01143539
0.6846539
0.2382239
-999
0.2270448
0.1477743
0.5143986
0.3952027
-999
0.1362237
0.2831006
0.3295448
0.5364488
-999
0.0299727
0.4024713
0.1507223
0.6395097
-999
0.487548
0.6834925
-999
-999
-999
0.5220165
0.6582482
-999
-999
-999
0.4984531
0.05822951
0.5696943
0.09183302
-999
0.4219847
0.2148112
0.4366477
0.2247063
-999
0.3077274
0.3758085
0.2819862
0.3476232
-999
0.1741461
0.5244082
0.1248723
0.4441128
-999
0.03709323
0.6376932
0.4974958
-999
-999
0.6928663
0.497024
-999
-999
-999
0.6770368
0.06979997
0.4427973
-999
-999
0.5940265
0.2384069
0.345715
0.08213685
-999
0.4622649
0.4171665
0.2225007
0.1905866
-999
0.305697
0.5893487
0.08957978
0.2811074
-999
0.1450128
0.729638
0.3403816
-999
-999
0.8098391
0.3580184
-999
-999
-999
0.8105189
0.05410708
0.330659
-999
-999
0.731502
0.2269061
0.2634607
-999
-999
0.5919732
0.4148125
0.1678489
0.06911351
-999
0.420089
0.6027718
0.05719272
0.1555804
-999
0.241277
0.7655538
0.2192795
-999
-999
0.07241789
0.8718376
0.2504279
-999
-999
0.8959534
0.0211179
0.2436642
-999
-999
0.8314721
0.1923236
0.2001855
-999
-999
0.695078
0.3823482
0.1272526
-999
-999
0.5168937
0.5786685
0.03541202
0.06386255
-999
0.3264292
0.7580409
0.1319361
-999
-999
0.1442596
0.8885136
0.1741789
-999
-999
0.9396697
0.1839615
-999
-999
-999
0.8978236
0.1452361
0.159647
-999
-999
0.7742458
0.3325666
0.1052326
-999
-999
0.5983314
0.5314069
0.02881955
0.0005121866
-999
0.4024917
0.7215495
0.07383471
-999
-999
0.2110773
0.8724287
0.1264754
-999
-999
0.03763038
0.9509301
0.1508318
-999
-999
0.9364715
0.09256169
0.143016
-999
-999
0.8330224
0.2740868
0.1043018
-999
-999
0.666646
0.4710536
0.04063693
-999
-999
0.4710567
0.6666432
0.04063588
-999
-999
0.2740898
0.8330202
0.104301
-999
-999
0.09256431
0.9364704
0.1430156
-999
-999
0.9509305
0.03762537
0.1508319
-999
-999
0.8724303
0.2110717
0.126476
-999
-999
0.7215521
0.4024858
0.07383576
-999
-999
0.53141
0.5983254
0.0005134863
0.02881823
-999
0.3325697
0.774241
0.1052317
-999
-999
0.1452389
0.8978211
0.1596463
-999
-999
0.9396699
0.1839614
-999
-999
-999
0.8885165
0.144257
0.1741793
-999
-999
0.7580458
0.3264263
0.1319369
-999
-999
0.5786744
0.5168909
0.06386374
0.03541051
-999
0.3823541
0.6950755
0.1272513
-999
-999
0.1923292
0.8314705
0.2001846
-999
-999
0.02112281
0.895953
0.2436638
-999
-999
0.8718387
0.07241549
0.2504281
-999
-999
0.765556
0.2412743
0.2192803
-999
-999
0.6027746
0.4200863
0.1555816
0.05719008
-999
0.4148155
0.5919707
0.06911497
0.1678464
-999
0.2269089
0.7315002
0.2634588
-999
-999
0.05410952
0.8105183
0.3306578
-999
-999
0.8098398
0.3580183
-999
-999
-999
0.7296397
0.1450092
0.3403825
-999
-999
0.5893511
0.3056933
0.2811091
0.08957673
-999
0.4171692
0.4622615
0.190589
0.2224978
-999
0.2384096
0.5940239
0.08213945
0.3457124
-999
0.06980249
0.6770356
0.4427955
-999
-999
0.6928668
0.4970233
-999
-999
-999
0.6376952
0.03709114
0.4974964
-999
-999
0.5244113
0.174144
0.4441145
0.1248687
-999
0.3758122
0.3077254
0.3476259
0.2819825
-999
0.2148148
0.4219832
0.2247093
0.4366444
-999
0.0582329
0.4984523
0.09183608
0.5696917
-999
0.5220165
0.6582468
-999
-999
-999
0.4875489
0.6834928
-999
-999
-999
0.4024729
0.02997023
0.6395114
0.1507236
-999
0.2831025
0.1362214
0.5364517
0.3295462
-999
0.1477764
0.2270429
0.3952062
0.5143999
-999
0.01143744
0.2895333
0.2382275
0.6846551
-999
0.3129706
0.08289896
0.8118089
-999
-999
0.292926
0.8679305
-999
-999
-999
0.2332012
0.8387581
0.1503076
-999
-999
0.1441573
0.7318568
0.3405371
-999
-999
0.03867752
0.0265102
0.5721781
0.5437022
-999
0.07235853
0.3893125
0.7397197
-999
-999
0.09094869
0.2068922
0.8975111
-999
-999
0.07932737
0.03902511
0.9825663
-999
-999
0.03935791
0.9724745
0.1070244
-999
-999
0.8700394
0.2900773
-999
-999
-999
0.7015243
0.487458
-999
-999
-999
0.5018229
0.6813919
-999
-999
-999
0.3000612
0.8432474
0.04398523
-999
-999
0.1139355
0.9394322
0.1184174
-999
-999
0.9454194
0.01393391
0.1694251
-999
-999
0.8595651
0.1693804
0.1892447
-999
-999
0.7041261
0.3342064
0.1745812
-999
-999
0.5124475
0.4940417
0.1278875
0.1178831
-999
0.3142919
0.6270659
0.05640443
0.250756
-999
0.1288366
0.7083982
0.3710254
-999
-999
0.7195517
0.4616832
-999
-999
-999
0.6577891
0.5064732
-999
-999
-999
0.5376528
0.1148581
0.4962012
0.09167892
-999
0.3832547
0.2250819
0.4330457
0.2632958
-999
0.2180498
0.3137344
0.329492
0.4446711
-999
0.05876567
0.3666309
0.2027669
0.6184423
-999
0.373843
0.06887712
0.7586493
-999
-999
0.333929
0.8368167
-999
-999
-999
0.2546014
0.8339061
0.1312397
-999
-999
0.1493104
0.7506684
0.3202844
-999
-999
0.03228222
0.6072044
0.5242125
-999
-999
0.02597009
0.432157
0.7241999
-999
-999
0.02757128
0.2510062
0.889925
-999
-999
0.002563471
0.08046852
0.9860803
-999
-999
0.9875665
0.06399259
0.03245342
-999
-999
0.8939679
0.2289076
0.06156557
-999
-999
0.7298142
0.4024549
0.06368592
-999
-999
0.5303596
0.5679604
0.03849339
0.05625426
-999
0.3262171
0.7008559
0.1858622
-999
-999
0.1365639
0.7744962
0.3077427
-999
-999
0.7712454
0.4065351
-999
-999
-999
0.6919272
0.01634912
0.4659731
-999
-999
0.5553495
0.1278395
0.4744952
0.08359578
-999
0.3883589
0.2269557
0.4303301
0.2589566
-999
0.2150099
0.300326
0.342347
0.4474768
-999
0.03500685
0.5025212
0.630428
-999
-999
0.1572643
0.3015766
0.7611182
-999
-999
0.2701705
0.1161041
0.8280828
-999
-999
0.3591658
0.8150913
-999
-999
-999
0.4095302
0.7254262
0.05621979
-999
-999
0.4115748
0.0807326
0.5799981
0.1756765
-999
0.3648849
0.2494876
0.4065263
0.2838776
-999
0.2785145
0.4277051
0.2288881
0.3666383
-999
0.1669789
0.598492
0.06244225
0.4102959
-999
0.04500979
0.7366426
0.4065958
-999
-999
0.8144617
0.3562665
-999
-999
-999
0.8132309
0.134772
0.2686869
-999
-999
0.7332642
0.3228925
0.1579026
-999
-999
0.5937265
0.5255683
0.03781909
0.007897428
-999
0.4223869
0.7242622
0.03635362
-999
-999
0.244253
0.8892359
0.03948902
-999
-999
0.07594749
0.9858484
0.01684608
-999
-999
0.01091987
0.989241
0.06627159
-999
-999
0.0335229
0.8984766
0.2350541
-999
-999
0.02946409
0.7371237
0.4159479
-999
-999
0.02122984
0.5396885
0.5935561
-999
-999
0.1340169
0.3365581
0.7435511
-999
-999
0.2349952
0.1470677
0.8372697
-999
-999
0.3107729
0.852679
-999
-999
-999
0.3488208
0.7858377
0.06379672
-999
-999
0.3419954
0.03013814
0.6531854
0.2029589
-999
0.2916211
0.1812155
0.4824636
0.3384797
-999
0.2068939
0.3376634
0.3004909
0.4544852
-999
0.1010603
0.4843292
0.1260574
0.5325178
-999
0.6000388
0.5574038
-999
-999
-999
0.6627526
0.5238131
-999
-999
-999
0.6584079
0.08984216
0.4388833
-999
-999
0.5880286
0.2659688
0.3187418
0.08777744
-999
0.4671731
0.4550323
0.1817634
0.1736218
-999
0.3182159
0.6402891
0.04311648
0.2356851
-999
0.161757
0.795184
0.264351
-999
-999
0.01207002
0.8887076
0.2546748
-999
-999
0.8978969
0.08118166
0.2083621
-999
-999
0.8203159
0.2627007
0.1330662
-999
-999
0.6755167
0.4622121
0.03949902
-999
-999
0.4940419
0.6646094
0.002657124
-999
-999
0.3040571
0.8433415
0.03170008
-999
-999
0.1243959
0.9640553
0.03570269
-999
-999
0.9971448
0.02335809
0.01408328
-999
-999
0.933542
0.1942971
-999
-999
-999
0.7903091
0.384553
-999
-999
-999
0.6003948
0.5822709
-999
-999
-999
0.01494094
0.3965819
0.7650425
-999
-999
0.08767599
0.2017415
0.9014212
-999
-999
0.1378031
0.02762293
0.9604189
-999
-999
0.157722
0.9264979
0.09596316
-999
-999
0.144129
0.8087528
0.2673955
-999
-999
0.09929632
0.01177407
0.6354139
0.4485959
-999
0.03018304
0.1202158
0.4391129
0.6224476
-999
0.2160861
0.2451973
0.7633328
-999
-999
0.2866053
0.0682579
0.8430127
-999
-999
0.3201799
0.842303
-999
-999
-999
0.3105977
0.7613851
0.1457771
-999
-999
0.2596784
0.06337079
0.6197011
0.3080343
-999
0.17647
0.1915574
0.445532
0.4686432
-999
0.07359394
0.3100855
0.2643811
0.607833
-999
0.4032713
0.09320849
0.7016342
-999
-999
0.4552373
0.7299635
-999
-999
-999
0.4556737
0.6861001
0.03731493
-999
-999
0.4044896
0.08269662
0.5803193
0.1830194
-999
0.3118561
0.2253402
0.4344261
0.3312556
-999
0.1936089
0.3628225
0.2720023
0.4670149
-999
0.06547185
0.4779013
0.111309
0.5704677
-999
0.5511279
0.6221622
-999
-999
-999
0.5675387
0.6108739
-999
-999
-999
0.5234912
0.074247
0.539142
0.08059011
-999
0.4285205
0.2249324
0.4219582
0.2193327
-999
0.3006344
0.3754827
0.2797395
0.3524525
-999
0.1589121
0.5086966
0.1310016
0.4635897
-999
0.01823504
0.6031005
0.5344865
-999
-999
0.6395586
0.5511222
-999
-999
-999
0.6097587
0.04490345
0.5099264
0.0004219664
-999
0.5205339
0.197455
0.4195437
0.1329195
-999
0.390284
0.3544165
0.296685
0.2652921
-999
0.2406154
0.4999469
0.1593936
0.3839917
-999
0.0893425
0.6123828
0.02205809
0.4720488
-999
0.6698518
0.5136273
-999
-999
-999
0.6593192
0.001161807
0.5002265
-999
-999
0.5832709
0.1503294
0.4346597
0.06861895
-999
0.4583715
0.3073007
0.3296912
0.2024413
-999
0.3073031
0.4583693
0.2024434
0.3296894
-999
0.1503318
0.5832693
0.06862102
0.4346583
-999
0.001163977
0.6593185
0.5002258
-999
-999
0.6698522
0.5136275
-999
-999
-999
0.6123842
0.08933797
0.4720499
0.022056
-999
0.4999489
0.2406107
0.3839933
0.1593915
-999
0.3544188
0.3902797
0.265294
0.296683
-999
0.1974574
0.5205305
0.1329215
0.4195421
-999
0.04490576
0.6097568
0.0004239699
0.5099254
-999
0.6395587
0.551122
-999
-999
-999
0.6031026
0.01823291
0.5344871
-999
-999
0.5087001
0.1589099
0.4635912
0.1309994
-999
0.3754871
0.3006323
0.3524544
0.2797372
-999
0.2249371
0.4285188
0.2193348
0.4219561
-999
0.0742515
0.52349
0.08059219
0.5391404
-999
0.5675384
0.6108733
-999
-999
-999
0.5511286
0.6221626
-999
-999
-999
0.4779029
0.06546988
0.5704689
0.1113054
-999
0.3628244
0.1936069
0.4670168
0.2719986
-999
0.2253423
0.3118545
0.3312578
0.4344224
-999
0.08269876
0.4044884
0.1830217
0.5803164
-999
0.4556734
0.03731708
0.6860983
-999
-999
0.4552377
0.7299634
-999
-999
-999
0.4032724
0.7016356
0.0932048
-999
-999
0.310087
0.07359145
0.6078358
0.2643769
-999
0.1915594
0.1764679
0.4686468
0.4455279
-999
0.06337275
0.2596768
0.3080381
0.6196974
-999
0.310597
0.1457808
0.7613825
-999
-999
0.3201801
0.842302
-999
-999
-999
0.2866065
0.8430136
0.06825403
-999
-999
0.216088
0.7633354
0.2451931
-999
-999
0.1202182
0.03018189
0.6224512
0.4391083
-999
0.01177662
0.09929544
0.4486
0.6354095
-999
0.1441285
0.2673996
0.8087494
-999
-999
0.157722
0.09596693
0.926496
-999
-999
0.1378037
0.9604193
0.02762412
-999
-999
0.08767695
0.9014233
0.2017429
-999
-999
0.01494216
0.7650462
0.3965835
-999
-999
0.5822754
0.6003963
-999
-999
-999
0.3845576
0.7903104
-999
-999
-999
0.1943012
0.9335428
-999
-999
-999
0.02336177
0.9971451
0.01408361
-999
-999
0.9640546
0.1243933
0.03570275
-999
-999
0.8433404
0.3040543
0.03169997
-999
-999
0.6646079
0.4940391
0.002656797
-999
-999
0.4622104
0.6755142
0.03949902
-999
-999
0.2626992
0.8203142
0.1330662
-999
-999
0.08118036
0.8978963
0.2083621
-999
-999
0.8887084
0.0120667
0.2546748
-999
-999
0.7951861
0.1617534
0.264351
-999
-999
0.6402918
0.3182124
0.2356851
0.04311442
-999
0.4550352
0.4671699
0.1736218
0.1817613
-999
0.2659715
0.5880263
0.08777744
0.3187399
-999
0.08984467
0.658407
0.4388817
-999
-999
0.6627533
0.5238122
-999
-999
-999
0.600041
0.5574037
-999
-999
-999
0.4843323
0.1010585
0.5325186
0.1260536
-999
0.337667
0.2068925
0.4544868
0.3004868
-999
0.1812192
0.2916201
0.3384817
0.4824594
-999
0.03014147
0.341995
0.202961
0.6531818
-999
0.3488211
0.06379878
0.7858352
-999
-999
0.3107739
0.8526784
-999
-999
-999
0.2349965
0.8372712
0.1470636
-999
-999
0.1340186
0.743554
0.3365536
-999
-999
0.02123153
0.59356
0.5396839
-999
-999
0.02946368
0.4159521
0.7371194
-999
-999
0.03352313
0.2350581
0.8984735
-999
-999
0.01092065
0.06627525
0.9892399
-999
-999
0.9858496
0.07594871
0.01684524
-999
-999
0.889239
0.2442544
0.03948884
-999
-999
0.7242665
0.4223883
0.03635408
-999
-999
0.525573
0.5937277
0.007898308
0.03782008
-999
0.322897
0.7332651
0.1579035
-999
-999
0.134776
0.8132311
0.2686877
-999
-999
0.8144614
0.3562671
-999
-999
-999
0.7366418
0.04500784
0.4065961
-999
-999
0.5984907
0.1669771
0.4102958
0.06243868
-999
0.4277036
0.278513
0.3666377
0.2288842
-999
0.2494863
0.3648838
0.2838769
0.4065221
-999
0.08073139
0.4115745
0.1756756
0.5799943
-999
0.4095306
0.05621895
0.7254235
-999
-999
0.3591668
0.8150901
-999
-999
-999
0.2701721
0.8280835
0.1160994
-999
-999
0.1572662
0.7611206
0.3015714
-999
-999
0.03500865
0.6304315
0.5025157
-999
-999
0.3776565
0.7626205
0.04799062
-999
-999
0.2078455
0.9152204
0.03558565
-999
-999
0.04742281
0.9941164
-999
-999
-999
0.03511177
0.9787726
0.087418
-999
-999
0.06386478
0.8733652
0.2504332
-999
-999
0.06502119
0.7042171
0.4200875
-999
-999
0.03840285
0.07266127
0.5053306
0.5798079
-999
0.2004248
0.304842
0.7060686
-999
-999
0.3180209
0.1198339
0.7741623
-999
-999
0.4098673
0.7683504
-999
-999
-999
0.4603681
0.6900446
0.02023559
-999
-999
0.4595761
0.08393154
0.5570244
0.1355699
-999
0.407655
0.252964
0.3944102
0.2418841
-999
0.3148014
0.4319123
0.224898
0.3262493
-999
0.1966885
0.6042432
0.0638461
0.3756113
-999
0.06882739
0.7450523
0.3811029
-999
-999
0.8265741
0.3416797
-999
-999
-999
0.8294243
0.1151786
0.2645816
-999
-999
0.7528794
0.2996696
0.1622751
-999
-999
0.6152943
0.4999426
0.04805142
-999
-999
0.4442595
0.6991882
0.03281406
-999
-999
0.265132
0.869509
0.04374411
-999
-999
0.09506742
0.9768968
0.02886233
-999
-999
0.9946254
0.04464798
-999
-999
-999
0.013314
0.9178702
0.2123433
-999
-999
0.009483075
0.7666708
0.3949989
-999
-999
0.5742559
0.5791444
-999
-999
-999
0.0874389
0.3718104
0.7419365
-999
-999
0.1817147
0.1802694
0.8542367
-999
-999
0.2533846
0.009978202
0.8905378
-999
-999
0.2912759
0.8415952
0.0585141
-999
-999
0.2886719
0.7197564
0.2057175
-999
-999
0.2460527
0.1157608
0.5519271
0.3544257
-999
0.1708887
0.2589538
0.3667663
0.4891194
-999
0.07463836
0.3942759
0.1857361
0.5897368
-999
0.5038179
0.02095969
0.6371641
-999
-999
0.5684334
0.6210865
-999
-999
-999
0.574722
0.02773412
0.5450969
0.0135336
-999
0.5212924
0.1891162
0.4248527
0.1283167
-999
0.4194711
0.3630664
0.2808615
0.2344668
-999
0.28785
0.5359722
0.1313493
0.3192277
-999
0.1450354
0.6857655
0.369609
-999
-999
0.004995944
0.7854357
0.3766233
-999
-999
0.8125495
0.02489464
0.3389417
-999
-999
0.7603542
0.1950254
0.2634793
-999
-999
0.6415983
0.3840261
0.1624733
0.02640571
-999
0.4814962
0.5800433
0.04913501
0.09758694
-999
0.3062346
0.7608847
0.1468318
-999
-999
0.1352554
0.8955997
0.1669863
-999
-999
0.9538188
0.1548526
-999
-999
-999
0.9203496
0.1489585
0.1123749
-999
-999
0.8040827
0.3372979
0.04590952
-999
-999
0.6326604
0.5390429
-999
-999
-999
0.4381568
0.7352414
-999
-999
-999
0.2456266
0.8961654
0.004493788
-999
-999
0.06961143
0.987955
0.008299905
-999
-999
0.9871349
0.07517474
-999
-999
-999
0.8939288
0.2530262
-999
-999
-999
0.7321215
0.4481351
-999
-999
-999
0.5356084
0.6460659
-999
-999
-999
0.01723216
0.333965
0.8216054
-999
-999
0.07213712
0.1459519
0.9420652
-999
-999
0.1019984
0.9787955
-999
-999
-999
0.102247
0.9219939
0.1573822
-999
-999
0.07284334
0.7866053
0.3403078
-999
-999
0.01829215
0.6034878
0.5322939
-999
-999
0.07613251
0.4043926
0.7135697
-999
-999
0.1461232
0.2121908
0.8553544
-999
-999
0.1893702
0.03913131
0.9274232
-999
-999
0.1989289
0.9116153
0.06587962
-999
-999
0.1731629
0.812081
0.23578
-999
-999
0.116399
0.005060485
0.652814
0.4191932
-999
0.03723798
0.1034852
0.4648833
0.6013987
-999
0.1869953
0.2743577
0.7584214
-999
-999
0.2442506
0.09744211
0.8610196
-999
-999
0.2659507
0.8853754
-999
-999
-999
0.2482304
0.8252588
0.1433524
-999
-999
0.1942604
0.695642
0.3183618
-999
-999
0.1129259
0.09976412
0.5243053
0.4996903
-999
0.01552188
0.1931197
0.3391632
0.6681013
-999
0.2626813
0.1603066
0.7967613
-999
-999
0.2974101
0.8586537
-999
-999
-999
0.2910861
0.8386242
0.06486007
-999
-999
0.244878
0.7417352
0.2326412
-999
-999
0.16684
0.06870237
0.5903589
0.4127644
-999
0.06870391
0.1668387
0.4127673
0.5903563
-999
0.2448771
0.2326439
0.7417333
-999
-999
0.2910856
0.06486255
0.8386233
-999
-999
0.2974103
0.8586539
-999
-999
-999
0.2626821
0.7967628
0.1603041
-999
-999
0.193121
0.01551876
0.6681037
0.3391604
-999
0.0997656
0.1129232
0.4996931
0.5243024
-999
0.1942582
0.3183646
0.6956396
-999
-999
0.2482294
0.1433549
0.8252572
-999
-999
0.2659508
0.8853751
-999
-999
-999
0.2442518
0.8610207
0.09743956
-999
-999
0.1869975
0.7584234
0.2743548
-999
-999
0.103488
0.03723663
0.6014014
0.4648804
-999
0.005063654
0.1163979
0.419196
0.6528113
-999
0.1731623
0.2357827
0.812079
-999
-999
0.1989288
0.06588202
0.9116145
-999
-999
0.1893705
0.9274238
0.03912763
-999
-999
0.146124
0.855356
0.2121866
-999
-999
0.07613371
0.7135722
0.4043881
-999
-999
0.01829114
0.5322968
0.6034833
-999
-999
0.07284267
0.3403107
0.7866015
-999
-999
0.1022468
0.1573849
0.9219916
-999
-999
0.1019986
0.978795
-999
-999
-999
0.0721378
0.9420671
0.1459479
-999
-999
0.01723317
0.821609
0.3339605
-999
-999
0.6460703
0.5356038
-999
-999
-999
0.4481396
0.7321173
-999
-999
-999
0.2530305
0.8939257
-999
-999
-999
0.07517853
0.9871336
-999
-999
-999
0.987956
0.06960769
0.008299849
-999
-999
0.8961685
0.2456223
0.004494061
-999
-999
0.7352455
0.4381523
-999
-999
-999
0.5390475
0.6326562
-999
-999
-999
0.3373024
0.8040793
0.04590774
-999
-999
0.1489625
0.920348
0.1123737
-999
-999
0.9538192
0.1548519
-999
-999
-999
0.895602
0.1352566
0.1669864
-999
-999
0.7608885
0.306236
0.1468326
-999
-999
0.5800477
0.4814975
0.09758843
0.04913584
-999
0.3840305
0.6415995
0.02640754
0.1624741
-999
0.1950295
0.7603549
0.26348
-999
-999
0.02489828
0.8125497
0.3389422
-999
-999
0.7854352
0.004993922
0.3766234
-999
-999
0.6857645
0.1450332
0.3696088
-999
-999
0.5359709
0.2878479
0.3192271
0.1313493
-999
0.3630651
0.4194692
0.234466
0.2808615
-999
0.1891149
0.5212912
0.1283158
0.4248527
-999
0.02773298
0.5747216
0.01353271
0.5450969
-999
0.5684341
0.6210865
-999
-999
-999
0.5038193
0.6371641
0.02095732
-999
-999
0.3942778
0.07463595
0.5897368
0.1857334
-999
0.258956
0.1708867
0.4891194
0.3667634
-999
0.1157629
0.2460513
0.3544257
0.5519243
-999
0.2886714
0.2057175
0.7197541
-999
-999
0.2912763
0.0585141
0.8415937
-999
-999
0.253386
0.8905376
0.009974558
-999
-999
0.1817167
0.8542378
0.1802653
-999
-999
0.08744116
0.7419388
0.3718058
-999
-999
0.5791471
0.5742513
-999
-999
-999
0.009482798
0.3950019
0.7666668
-999
-999
0.01331411
0.212346
0.9178674
-999
-999
0.04465034
0.9946247
-999
-999
-999
0.9768983
0.09506372
0.02886233
-999
-999
0.8695124
0.265128
0.04374411
-999
-999
0.6991926
0.4442554
0.03281406
-999
-999
0.4999472
0.6152907
0.04804868
-999
-999
0.2996741
0.7528769
0.1622726
-999
-999
0.1151826
0.8294234
0.2645794
-999
-999
0.8265752
0.3416784
-999
-999
-999
0.745055
0.06882831
0.3811025
-999
-999
0.6042469
0.1966894
0.3756119
0.0638473
-999
0.4319164
0.3148022
0.3262508
0.2248992
-999
0.2529682
0.4076556
0.2418863
0.3944115
-999
0.08393516
0.4595763
0.1355726
0.5570256
-999
0.4603679
0.02023823
0.6900454
-999
-999
0.4098667
0.7683508
-999
-999
-999
0.31802
0.7741621
0.11983
-999
-999
0.2004239
0.7060678
0.3048376
-999
-999
0.07266024
0.03840227
0.5798068
0.5053259
-999
0.06502101
0.4200861
0.7042128
-999
-999
0.06386503
0.250432
0.873362
-999
-999
0.03511235
0.0874168
0.9787711
-999
-999
0.9941171
0.04741866
-999
-999
-999
0.9152231
0.207841
0.03558588
-999
-999
0.7626246
0.377652
0.04799062
-999
-999
0.1470232
0.6475311
0.01640411
0.3925279
-999
0.0275698
0.7791182
0.3708591
-999
-999
0.8465152
0.3077801
-999
-999
-999
0.8334413
0.1663694
0.2140742
-999
-999
0.7431883
0.3544604
0.1031149
-999
-999
0.5967364
0.5541962
-999
-999
-999
0.4219297
0.7460639
-999
-999
-999
0.2427966
0.9004386
-999
-999
-999
0.02305205
0.07483202
0.9847065
-999
-999
0.07714462
0.977486
0.05381151
-999
-999
0.1061686
0.8807123
0.2105407
-999
-999
0.1057172
0.7184634
0.3751118
-999
-999
0.07586168
0.0800026
0.5237002
0.5329263
-999
0.02112456
0.2093806
0.3247523
0.6625696
-999
0.3291405
0.1394754
0.7403143
-999
-999
0.4236621
0.7490522
-999
-999
-999
0.477074
0.6867197
-999
-999
-999
0.4789243
0.06245809
0.5674126
0.1060785
-999
0.4288313
0.227296
0.4141877
0.215757
-999
0.3366651
0.4029714
0.2496209
0.30753
-999
0.2181156
0.574467
0.09008279
0.3681762
-999
0.08896824
0.7185428
0.3872882
-999
-999
0.8082137
0.3612977
-999
-999
-999
0.8229316
0.0789876
0.2950229
-999
-999
0.7590361
0.2573932
0.1995988
-999
-999
0.6318259
0.4534076
0.08829666
0.005284827
-999
0.4673122
0.6528314
0.05095819
-999
-999
0.290963
0.8306644
0.07300584
-999
-999
0.1209493
0.9541892
0.06827407
-999
-999
0.9942679
0.01358951
0.03745554
-999
-999
0.9402492
0.1793272
-999
-999
-999
0.8063495
0.3635163
-999
-999
-999
0.6232405
0.5552951
-999
-999
-999
0.0131918
0.4229939
0.7341754
-999
-999
0.09839656
0.2289879
0.871141
-999
-999
0.1647773
0.05390522
0.9367219
-999
-999
0.202897
0.914416
0.04707575
-999
-999
0.2065669
0.8100152
0.2028351
-999
-999
0.1751607
0.02501462
0.6481983
0.3666973
-999
0.1138647
0.15073
0.4596911
0.5243732
-999
0.03169346
0.2706554
0.269776
0.6547537
-999
0.3707223
0.09395574
0.73422
-999
-999
0.43543
0.7454032
-999
-999
-999
0.4527817
0.6856703
0.0348884
-999
-999
0.4192842
0.08469382
0.5685421
0.1685638
-999
0.3415748
0.2369602
0.4167728
0.3002065
-999
0.2333946
0.3900185
0.2529455
0.4157069
-999
0.1102313
0.5270329
0.09360968
0.498107
-999
0.626588
0.5324411
-999
-999
-999
0.668968
0.5117276
-999
-999
-999
0.6446516
0.09421859
0.4402322
-999
-999
0.559186
0.2623686
0.3314406
0.1079317
-999
0.4302908
0.4392325
0.2023637
0.2085836
-999
0.2797127
0.6080918
0.06812711
0.2885629
-999
0.1259236
0.744338
0.3359805
-999
-999
0.8211603
0.3426749
-999
-999
-999
0.8204768
0.06371983
0.3074245
-999
-999
0.742458
0.2361041
0.2364681
-999
-999
0.6054305
0.424076
0.1409539
0.04575453
-999
0.4362494
0.61356
0.03308479
0.1219997
-999
0.2594188
0.7806005
0.1764312
-999
-999
0.09151008
0.8946844
0.2011497
-999
-999
0.9293828
0.009065275
0.1921965
-999
-999
0.8757061
0.1769731
0.151033
-999
-999
0.7473702
0.3651348
0.08398001
-999
-999
0.572901
0.563253
-999
-999
-999
0.3820368
0.7509198
0.05454629
-999
-999
0.1966119
0.8981122
0.09151176
-999
-999
0.02866295
0.9730678
0.1016371
-999
-999
0.9566187
0.1028809
0.08340807
-999
-999
0.8531502
0.2843258
0.03952223
-999
-999
0.6879569
0.4820089
-999
-999
-999
0.4936149
0.6802745
-999
-999
-999
0.2972289
0.8526647
0.01107698
-999
-999
0.1154455
0.9660768
0.03590707
-999
-999
0.9930899
0.02583485
0.03595747
-999
-999
0.926477
0.1971877
0.01122091
-999
-999
0.7835704
0.3889131
-999
-999
-999
0.5961549
0.5900602
-999
-999
-999
0.39552
0.7791986
-999
-999
-999
0.2035268
0.9252253
-999
-999
-999
0.03152142
0.9959507
0.0086203
-999
-999
0.9730284
0.1119563
0.0006373628
-999
-999
0.8626081
0.2947116
-999
-999
-999
0.6916075
0.4933132
-999
-999
-999
0.4933163
0.6916046
-999
-999
-999
0.2947146
0.8626058
-999
-999
-999
0.1119589
0.9730273
0.0006370378
-999
-999
0.9959509
0.031519
0.008620411
-999
-999
0.925227
0.203524
-999
-999
-999
0.7792012
0.395517
-999
-999
-999
0.5900633
0.5961519
-999
-999
-999
0.3889161
0.7835677
-999
-999
-999
0.1971905
0.9264753
0.01121981
-999
-999
0.0258373
0.9930897
0.03595707
-999
-999
0.9660779
0.1154428
0.03590743
-999
-999
0.8526671
0.297226
0.01107809
-999
-999
0.6802774
0.4936118
-999
-999
-999
0.482012
0.6879541
-999
-999
-999
0.2843287
0.8531482
0.039521
-999
-999
0.1028836
0.9566178
0.08340736
-999
-999
0.9730682
0.02865934
0.101637
-999
-999
0.898114
0.1966078
0.09151228
-999
-999
0.7509225
0.3820324
0.0545474
-999
-999
0.563256
0.5728967
-999
-999
-999
0.3651378
0.7473666
0.08398001
-999
-999
0.1769759
0.875704
0.151033
-999
-999
0.009067698
0.9293826
0.1921965
-999
-999
0.8946862
0.09150644
0.2011497
-999
-999
0.7806038
0.2594148
0.1764312
-999
-999
0.6135641
0.4362453
0.1219997
0.03308317
-999
0.4240803
0.6054269
0.04575453
0.1409523
-999
0.2361082
0.7424555
0.2364667
-999
-999
0.06372359
0.8204758
0.3074238
-999
-999
0.8211612
0.3426747
-999
-999
-999
0.7443405
0.1259201
0.3359809
-999
-999
0.6080953
0.2797092
0.288564
0.06812403
-999
0.4392366
0.4302876
0.208585
0.2023606
-999
0.2623726
0.5591835
0.1079334
0.3314378
-999
0.09422228
0.6446502
0.4402301
-999
-999
0.6689682
0.5117266
-999
-999
-999
0.6265898
0.5324413
-999
-999
-999
0.5270358
0.1102323
0.4981084
0.09361091
-999
0.3900219
0.2333956
0.4157093
0.2529466
-999
0.2369638
0.3415755
0.3002094
0.416774
-999
0.08469719
0.4192846
0.1685669
0.5685433
-999
0.4527817
0.03489136
0.6856711
-999
-999
0.4354297
0.7454033
-999
-999
-999
0.3707216
0.7342196
0.09395574
-999
-999
0.2706546
0.03169214
0.654753
0.269776
-999
0.1507291
0.1138636
0.524372
0.4596911
-999
0.02501372
0.1751599
0.366696
0.6481983
-999
0.2065668
0.2028339
0.8100152
-999
-999
0.2028974
0.04707468
0.914416
-999
-999
0.164778
0.9367219
0.05390269
-999
-999
0.0983977
0.871141
0.2289851
-999
-999
0.01319319
0.7341754
0.4229908
-999
-999
0.5552951
0.6232375
-999
-999
-999
0.3635163
0.806347
-999
-999
-999
0.1793272
0.9402478
-999
-999
-999
0.01358951
0.9942679
0.03745618
-999
-999
0.9541904
0.1209455
0.06827431
-999
-999
0.8306668
0.290959
0.07300578
-999
-999
0.6528344
0.4673082
0.05095767
-999
-999
0.4534107
0.6318224
0.005284007
0.08829666
-999
0.2573961
0.7590339
0.1995988
-999
-999
0.07899018
0.8229311
0.2950229
-999
-999
0.8082149
0.3612977
-999
-999
-999
0.7185456
0.08896529
0.3872882
-999
-999
0.5744708
0.2181127
0.3681762
0.09007918
-999
0.4029754
0.3366626
0.30753
0.2496172
-999
0.2272999
0.4288296
0.215757
0.4141839
-999
0.06246167
0.4789238
0.1060785
0.5674093
-999
0.4770746
0.6867175
-999
-999
-999
0.4236638
0.7490515
-999
-999
-999
0.329143
0.7403153
0.1394767
-999
-999
0.2093836
0.02112507
0.662572
0.3247538
-999
0.08000553
0.07586194
0.5329297
0.5237017
-999
0.1057173
0.3751156
0.7184649
-999
-999
0.1061685
0.2105445
0.8807132
-999
-999
0.07714427
0.05381487
0.9774864
-999
-999
0.02305154
0.9847062
0.07482839
-999
-999
0.9004376
0.2427926
-999
-999
-999
0.7460625
0.4219256
-999
-999
-999
0.5541947
0.5967326
-999
-999
-999
0.3544589
0.7431855
0.1031158
-999
-999
0.166368
0.83344
0.2140749
-999
-999
0.846516
0.3077807
-999
-999
-999
0.7791206
0.02756665
0.3708594
-999
-999
0.6475346
0.14702
0.3925279
0.01640523
-999
0.3656893
0.0631704
0.7616141
-999
-999
0.4542274
0.7273148
-999
-999
-999
0.4986272
0.6290015
0.02992764
-999
-999
0.4900636
0.1354089
0.4870331
0.1325476
-999
0.4302977
0.3114612
0.3249359
0.2218187
-999
0.3308395
0.4963645
0.1618555
0.2863328
-999
0.2079299
0.6720296
0.009800195
0.3160994
-999
0.07697645
0.8119987
0.3059877
-999
-999
0.887894
0.2577787
-999
-999
-999
0.8814051
0.1368542
0.1794316
-999
-999
0.7941805
0.3199289
0.08208232
-999
-999
0.6468766
0.5164347
-999
-999
-999
0.4682683
0.7091203
-999
-999
-999
0.2837797
0.8706203
-999
-999
-999
0.03410987
0.1100815
0.9688936
-999
-999
0.09002516
0.9800067
0.01608881
-999
-999
0.1208417
0.9010316
0.1684325
-999
-999
0.1218995
0.7517942
0.3312201
-999
-999
0.09303184
0.05730553
0.563752
0.492099
-999
0.03862727
0.1841566
0.3661911
0.6316747
-999
0.3031269
0.1788763
0.7265114
-999
-999
0.3995649
0.01174023
0.7568406
-999
-999
0.4580406
0.7156481
-999
-999
-999
0.4675283
0.01837653
0.6123778
0.0847005
-999
0.4261151
0.1745761
0.4680001
0.2019822
-999
0.3418944
0.342536
0.3057221
0.3063067
-999
0.2293388
0.5096152
0.1439245
0.383914
-999
0.1038798
0.6554741
0.4221245
-999
-999
0.7551
0.413882
-999
-999
-999
0.7871327
0.02619315
0.3607553
-999
-999
0.7439253
0.1950448
0.2722435
-999
-999
0.6357018
0.3830442
0.1619082
0.02769663
-999
0.4850609
0.5791827
0.04296468
0.0883966
-999
0.3167212
0.7624914
0.1262613
-999
-999
0.1499214
0.9030845
0.1358702
-999
-999
0.9704753
0.115761
-999
-999
-999
0.9475486
0.1305444
0.06895342
-999
-999
0.8403144
0.3128196
0.00188656
-999
-999
0.6743423
0.5088984
-999
-999
-999
0.4813553
0.7018999
-999
-999
-999
0.2873186
0.8647994
-999
-999
-999
0.05095752
0.1080321
0.9655938
-999
-999
0.08831152
0.9798716
0.02158498
-999
-999
0.09818713
0.9038764
0.1829016
-999
-999
0.07906914
0.7567451
0.3594114
-999
-999
0.03385519
0.02044377
0.5697261
0.5394718
-999
0.1216226
0.372305
0.7028148
-999
-999
0.2085123
0.1845887
0.82255
-999
-999
0.2695815
0.01680385
0.8732536
-999
-999
0.295071
0.8426066
0.04129003
-999
-999
0.2804821
0.7381682
0.1927254
-999
-999
0.2284211
0.08439299
0.5831383
0.3511184
-999
0.147513
0.2113805
0.4050393
0.5026663
-999
0.04915799
0.32793
0.2262134
0.6273786
-999
0.4188068
0.06040065
0.7031924
-999
-999
0.4688543
0.7140111
-999
-999
-999
0.4684127
0.657365
0.04212365
-999
-999
0.4175715
0.1043056
0.5457046
0.1793892
-999
0.3261273
0.2507737
0.4001942
0.3161522
-999
0.209281
0.3935024
0.2421376
0.4383065
-999
0.08223066
0.5154247
0.08744769
0.5283223
-999
0.5966784
0.5700028
-999
-999
-999
0.6210759
0.554847
-999
-999
-999
0.5832723
0.08591506
0.4860212
0.03791589
-999
0.491453
0.2428722
0.3768328
0.1614446
-999
0.3632797
0.4037121
0.2449433
0.2786897
-999
0.2184472
0.5520475
0.1064748
0.3762128
-999
0.07289189
0.6657533
0.4393848
-999
-999
0.7227898
0.4569204
-999
-999
-999
0.7103224
0.04072763
0.4254231
-999
-999
0.6312615
0.1995304
0.3509106
0.03964648
-999
0.5027068
0.3688824
0.2461607
0.1522827
-999
0.3476829
0.5350189
0.1258533
0.2542131
-999
0.1867085
0.6765441
0.002514694
0.3328417
-999
0.0336748
0.7682037
0.3760171
-999
-999
0.7898694
0.3761053
-999
-999
-999
0.7363279
0.1343168
0.3330901
-999
-999
0.6201422
0.3036341
0.2545798
0.05529376
-999
0.4649774
0.4778921
0.152716
0.1607005
-999
0.295251
0.6386776
0.0401
0.251611
-999
0.1292178
0.7608312
0.316016
-999
-999
0.819385
0.3436423
-999
-999
-999
0.8004507
0.05801343
0.32961
-999
-999
0.7086596
0.2208412
0.2764339
-999
-999
0.5645812
0.3945039
0.1929723
0.09107136
-999
0.3945066
0.5645788
0.091073
0.1929708
-999
0.2208438
0.7086578
0.2764328
-999
-999
0.05801573
0.8004498
0.3296095
-999
-999
0.8193853
0.3436424
-999
-999
-999
0.7608327
0.1292154
0.3160168
-999
-999
0.6386798
0.2952484
0.2516122
0.04009648
-999
0.4778947
0.4649749
0.1607019
0.1527127
-999
0.3036368
0.6201401
0.05529535
0.254577
-999
0.1343193
0.7363266
0.3330883
-999
-999
0.7898691
0.3761046
-999
-999
-999
0.7682047
0.03367254
0.3760177
-999
-999
0.676546
0.1867061
0.3328436
0.002511866
-999
0.5350214
0.3476804
0.254216
0.1258504
-999
0.368885
0.5027046
0.152286
0.246158
-999
0.1995329
0.6312599
0.03964993
0.3509086
-999
0.04072986
0.7103218
0.4254219
-999
-999
0.7227902
0.4569203
-999
-999
-999
0.6657547
0.07288863
0.4393858
-999
-999
0.5520496
0.2184439
0.3762147
0.1064748
-999
0.4037145
0.3632765
0.2786923
0.2449433
-999
0.2428747
0.4914505
0.1614474
0.3768328
-999
0.08591741
0.5832708
0.03791863
0.4860212
-999
0.6210758
0.554847
-999
-999
-999
0.5966796
0.5700028
-999
-999
-999
0.5154271
0.08222771
0.5283223
0.08744542
-999
0.3935055
0.2092783
0.4383065
0.2421352
-999
0.250777
0.3261249
0.3161522
0.4001918
-999
0.1043088
0.4175698
0.1793892
0.5457025
-999
0.468412
0.04212365
0.6573638
-999
-999
0.4688549
0.7140108
-999
-999
-999
0.4188084
0.7031929
0.060397
-999
-999
0.3279324
0.04915565
0.6273801
0.2262094
-999
0.2113833
0.1475108
0.5026685
0.4050351
-999
0.08439596
0.2284195
0.3511207
0.5831345
-999
0.2804813
0.1927278
0.7381652
-999
-999
0.2950711
0.0412922
0.842605
-999
-999
0.2695824
0.8732538
0.01680496
-999
-999
0.208514
0.822552
0.18459
-999
-999
0.1216247
0.7028181
0.3723064
-999
-999
0.02044625
0.03385559
0.5394757
0.5697276
-999
0.07906939
0.3594156
0.7567464
-999
-999
0.09818723
0.1829055
0.9038774
-999
-999
0.08831136
0.02158854
0.9798718
-999
-999
0.05095708
0.9655932
0.1080321
-999
-999
0.8647983
0.2873186
-999
-999
-999
0.7018985
0.4813553
-999
-999
-999
0.5088969
0.6743423
-999
-999
-999
0.3128181
0.8403144
0.001885419
-999
-999
0.1305431
0.9475486
0.06895257
-999
-999
0.9704753
0.1157604
-999
-999
-999
0.9030845
0.149919
0.1358702
-999
-999
0.7624914
0.3167186
0.1262616
-999
-999
0.5791827
0.4850584
0.0883973
0.0429665
-999
0.3830442
0.6356998
0.02769772
0.16191
-999
0.1950448
0.7439241
0.272245
-999
-999
0.02619315
0.7871325
0.3607565
-999
-999
0.755101
0.4138825
-999
-999
-999
0.655476
0.1038769
0.4221242
-999
-999
0.5096176
0.229336
0.3839131
0.1439245
-999
0.3425387
0.3418922
0.3063053
0.3057221
-999
0.1745786
0.4261136
0.2019805
0.4680001
-999
0.01837878
0.4675278
0.0846986
0.6123778
-999
0.4580414
0.7156481
-999
-999
-999
0.3995667
0.7568406
0.01173663
-999
-999
0.3031294
0.7265114
0.1788723
-999
-999
0.1841595
0.03862575
0.6316747
0.3661867
-999
0.05730844
0.09303086
0.492099
0.5637475
-999
0.1218992
0.3312201
0.7517902
-999
-999
0.1208421
0.1684325
0.9010289
-999
-999
0.09002618
0.01608881
0.980006
-999
-999
0.03411137
0.9688951
0.1100828
-999
-999
0.8706232
0.2837811
-999
-999
-999
0.7091244
0.4682697
-999
-999
-999
0.5164393
0.6468779
-999
-999
-999
0.3199332
0.7941815
0.08207987
-999
-999
0.1368582
0.8814055
0.1794295
-999
-999
0.8878939
0.2577772
-999
-999
-999
0.8119978
0.07697343
0.3059871
-999
-999
0.6720284
0.207927
0.3160996
0.009801298
-999
0.4963631
0.3308368
0.2863339
0.1618567
-999
0.3114598
0.4302959
0.2218205
0.3249373
-999
0.1354076
0.4900627
0.1325499
0.4870343
-999
0.4986276
0.02993
0.6290025
-999
-999
0.454229
0.7273154
-999
-999
-999
0.3656917
0.7616141
0.06317169
-999
-999
0.0603063
0.01736542
0.9887226
-999
-999
0.1125258
0.945419
0.09616257
-999
-999
0.1381415
0.8224159
0.2474768
-999
-999
0.1332299
0.01036086
0.6476715
0.4000497
-999
0.09856346
0.1463374
0.4521964
0.537985
-999
0.03932424
0.2840549
0.2597537
0.6408448
-999
0.4103083
0.08401392
0.6892372
-999
-999
0.5078629
0.6727314
-999
-999
-999
0.5596733
0.5949815
-999
-999
-999
0.5552728
0.1161577
0.4718687
0.07130723
-999
0.4955898
0.290682
0.3242409
0.1602961
-999
0.3924955
0.4764532
0.170701
0.2294503
-999
0.2634539
0.6570671
0.02403898
0.2690231
-999
0.1252775
0.8072841
0.2726572
-999
-999
0.898177
0.2397393
-999
-999
-999
0.908431
0.09259474
0.175643
-999
-999
0.8354529
0.2692994
0.08969449
-999
-999
0.6968624
0.4621696
-999
-999
-999
0.5209472
0.6570258
-999
-999
-999
0.3345615
0.8296104
-999
-999
-999
0.0149557
0.1563419
0.9487989
-999
-999
0.07208929
0.9872507
-999
-999
-999
0.1058238
0.9350661
0.123741
-999
-999
0.1112343
0.8055506
0.286641
-999
-999
0.08748928
0.006974872
0.6275629
0.4537078
-999
0.03815194
0.1270035
0.4316777
0.6079196
-999
0.2415442
0.2406281
0.7262364
-999
-999
0.3378031
0.06712146
0.7856612
-999
-999
0.4016473
0.772776
-999
-999
-999
0.4218575
0.6905996
0.06666042
-999
-999
0.394561
0.09737737
0.5569693
0.194462
-999
0.3249513
0.2526367
0.395891
0.3156167
-999
0.2250033
0.4101532
0.2287281
0.4159995
-999
0.1088816
0.5534104
0.06991209
0.4802904
-999
0.6607895
0.4968159
-999
-999
-999
0.7115126
0.46233
-999
-999
-999
0.6943099
0.1115496
0.3834916
-999
-999
0.6131111
0.2858471
0.2739008
0.05979984
-999
0.4849882
0.4718681
0.1489182
0.1407904
-999
0.3321473
0.6534935
0.02146259
0.200928
-999
0.1741163
0.8056642
0.2316973
-999
-999
0.02405044
0.8993084
0.228229
-999
-999
0.912542
0.06083775
0.1910896
-999
-999
0.8420155
0.2344197
0.1260648
-999
-999
0.7048411
0.4263251
0.04207636
-999
-999
0.5292677
0.6242515
-999
-999
-999
0.342442
0.8057203
0.01994311
-999
-999
0.1633672
0.9399181
0.03338254
-999
-999
0.002110248
0.997049
0.02256145
-999
-999
0.9624956
0.1338216
-999
-999
-999
0.8452399
0.3142349
-999
-999
-999
0.6725838
0.5076091
-999
-999
-999
0.4762723
0.6972659
-999
-999
-999
0.03105665
0.2813168
0.8568619
-999
-999
0.0846189
0.1024485
0.955482
-999
-999
0.1134168
0.9696555
0.01869045
-999
-999
0.1131648
0.8957226
0.1801546
-999
-999
0.08390195
0.7519774
0.3578659
-999
-999
0.02997718
0.01788468
0.5685208
0.5409187
-999
0.1097364
0.3740388
0.709726
-999
-999
0.1851366
0.1883586
0.8374677
-999
-999
0.2338988
0.02177632
0.8976101
-999
-999
0.2483157
0.8756672
0.05163408
-999
-999
0.2259333
0.7770768
0.2109613
-999
-999
0.1705267
0.03920293
0.624133
0.3811415
-999
0.09061684
0.1484597
0.4448431
0.5488313
-999
0.2451401
0.2627357
0.6931381
-999
-999
0.3167427
0.09271006
0.7890589
-999
-999
0.3518738
0.8160356
-999
-999
-999
0.3442385
0.7676899
0.08233653
-999
-999
0.2952458
0.02634809
0.6552642
0.2387895
-999
0.2134012
0.1469005
0.5016849
0.4007987
-999
0.1109368
0.2603907
0.3314414
0.5531691
-999
0.3535501
0.1633679
0.6746495
-999
-999
0.412239
0.008634171
0.7428766
-999
-999
0.4259277
0.7430173
-999
-999
-999
0.3919725
0.6750389
0.119376
-999
-999
0.3167998
0.1113409
0.5537275
0.2745414
-999
0.2131021
0.2345656
0.4014346
0.4303147
-999
0.09510785
0.3439485
0.239429
0.5698368
-999
0.4244231
0.08293319
0.6717294
-999
-999
0.4622246
0.7162389
-999
-999
-999
0.4500549
0.6935699
0.0213015
-999
-999
0.3903229
0.05100548
0.6088019
0.1698813
-999
0.2940397
0.1762227
0.4792799
0.3267149
-999
0.1762246
0.294038
0.3267173
0.4792776
-999
0.05100743
0.3903217
0.1698835
0.6088002
-999
0.4500542
0.02130364
0.6935691
-999
-999
0.4622248
0.7162391
-999
-999
-999
0.4244241
0.6717306
0.0829286
-999
-999
0.3439501
0.09510603
0.5698387
0.239424
-999
0.2345674
0.2131004
0.430317
0.4014297
-999
0.1113429
0.3167984
0.2745438
0.5537232
-999
0.3919716
0.1193782
0.6750359
-999
-999
0.4259276
0.7430162
-999
-999
-999
0.4122395
0.7428777
0.008630813
-999
-999
0.3535512
0.6746525
0.1633642
-999
-999
0.2603923
0.1109351
0.5531734
0.3314374
-999
0.1469023
0.2133998
0.4008036
0.5016811
-999
0.02634992
0.2952447
0.2387944
0.6552611
-999
0.3442381
0.08234113
0.767688
-999
-999
0.351874
0.8160354
-999
-999
-999
0.3167436
0.7890603
0.09271006
-999
-999
0.2451414
0.6931409
0.2627357
-999
-999
0.1484613
0.09061482
0.548835
0.4448431
-999
0.03920469
0.1705251
0.3811454
0.624133
-999
0.2259323
0.2109651
0.7770768
-999
-999
0.2483157
0.05163753
0.8756672
-999
-999
0.2338995
0.8976101
0.02177395
-999
-999
0.1851381
0.8374677
0.188356
-999
-999
0.1097383
0.709726
0.3740359
-999
-999
0.01788687
0.02997568
0.5409187
0.5685179
-999
0.08390089
0.3578659
0.7519747
-999
-999
0.1131644
0.1801546
0.895721
-999
-999
0.1134171
0.01869045
0.9696551
-999
-999
0.08461986
0.9554828
0.1024447
-999
-999
0.03105809
0.856864
0.2813125
-999
-999
0.6972686
0.4762678
-999
-999
-999
0.507612
0.6725794
-999
-999
-999
0.3142377
0.8452364
-999
-999
-999
0.1338243
0.9624938
-999
-999
-999
0.9970493
0.002111389
0.022561
-999
-999
0.9399203
0.1633686
0.03338254
-999
-999
0.805724
0.3424434
0.01994368
-999
-999
0.624256
0.529269
-999
-999
-999
0.4263296
0.7048423
0.04207489
-999
-999
0.2344239
0.8420163
0.1260636
-999
-999
0.0608415
0.9125422
0.1910888
-999
-999
0.8993081
0.02405044
0.2282287
-999
-999
0.8056632
0.1741163
0.2316975
-999
-999
0.6534922
0.3321473
0.2009286
0.02146067
-999
0.4718667
0.4849882
0.1407915
0.1489161
-999
0.2858458
0.6131111
0.0598012
0.273899
-999
0.1115482
0.6943099
0.3834901
-999
-999
0.7115126
0.4623291
-999
-999
-999
0.6607895
0.4968157
-999
-999
-999
0.5534104
0.1088799
0.480291
0.06991442
-999
0.4101532
0.2250016
0.4160008
0.2287306
-999
0.2526367
0.3249499
0.3156185
0.3958936
-999
0.09737737
0.3945602
0.1944639
0.5569716
-999
0.4218574
0.06666239
0.6906013
-999
-999
0.401648
0.7727767
-999
-999
-999
0.3378043
0.7856608
0.06712146
-999
-999
0.2415458
0.726235
0.2406281
-999
-999
0.1270053
0.03815054
0.6079175
0.4316777
-999
0.006976627
0.08748841
0.4537053
0.6275629
-999
0.1112341
0.2866384
0.8055506
-999
-999
0.1058243
0.1237387
0.9350661
-999
-999
0.07209032
0.9872507
-999
-999
-999
0.01495726
0.9487989
0.156338
-999
-999
0.8296104
0.3345572
-999
-999
-999
0.6570258
0.520943
-999
-999
-999
0.4621696
0.6968587
-999
-999
-999
0.2692994
0.8354504
0.0896931
-999
-999
0.09259474
0.9084302
0.1756418
-999
-999
0.8981781
0.2397385
-999
-999
-999
0.8072869
0.1252786
0.272657
-999
-999
0.657071
0.2634549
0.2690235
0.0240358
-999
0.4764576
0.3924965
0.2294512
0.1706976
-999
0.2906861
0.4955904
0.1602974
0.3242373
-999
0.1161615
0.5552731
0.0713087
0.4718655
-999
0.5596731
0.5949791
-999
-999
-999
0.5078623
0.6727301
-999
-999
-999
0.4103074
0.6892376
0.08401516
-999
-999
0.2840539
0.03932261
0.6408466
0.259755
-999
0.1463363
0.09856231
0.5379878
0.4521979
-999
0.01035981
0.1332294
0.4000531
0.647673
-999
0.1381418
0.2474803
0.8224171
-999
-999
0.1125267
0.09616593
0.9454198
-999
-999
0.06030785
0.9887226
0.01736655
-999
-999
0.9097062
0.0408074
0.2038533
-999
-999
0.8700184
0.2080323
0.1144734
-999
-999
0.7568453
0.3929073
0.0134793
-999
-999
0.5949364
0.5843203
-999
-999
-999
0.4122306
0.7618617
-999
-999
-999
0.02573682
0.2306974
0.8971315
-999
-999
0.1041373
0.06346112
0.9616438
-999
-999
0.1626085
0.9395761
0.0355198
-999
-999
0.1929467
0.8365083
0.1782396
-999
-999
0.1903888
0.002136762
0.6762182
0.3250384
-999
0.1553501
0.1394974
0.4885729
0.462814
-999
0.09326581
0.2807617
0.2984981
0.5736107
-999
0.01264042
0.4134561
0.1215943
0.638545
-999
0.5204921
0.6445653
-999
-999
-999
0.5838463
0.5903846
-999
-999
-999
0.5909283
0.07300154
0.4871142
0.02341187
-999
0.5402383
0.2415379
0.3530766
0.1160737
-999
0.4421001
0.423956
0.2068298
0.1938162
-999
0.3138669
0.6066448
0.06255867
0.2467588
-999
0.1733149
0.7671203
0.2669643
-999
-999
0.03417543
0.8772233
0.2511331
-999
-999
0.9126188
0.03620163
0.2018632
-999
-999
0.8645671
0.2047939
0.126652
-999
-999
0.7448232
0.3924663
0.03529626
-999
-999
0.5791245
0.5886559
-999
-999
-999
0.3952225
0.7731855
-999
-999
-999
0.2142839
0.9170578
-999
-999
-999
0.02400006
0.04859379
0.9900842
-999
-999
0.06072032
0.9742059
0.0734611
-999
-999
0.07217167
0.873511
0.2362081
-999
-999
0.0566856
0.7118477
0.4097821
-999
-999
0.01650629
0.04251583
0.5203279
0.5803281
-999
0.1485323
0.3253419
0.7262871
-999
-999
0.2410925
0.1435483
0.8220775
-999
-999
0.3081901
0.8469992
-999
-999
-999
0.3392322
0.7951319
0.04512614
-999
-999
0.3287504
0.6785451
0.1841973
-999
-999
0.2786323
0.1372635
0.5209268
0.3244813
-999
0.1973284
0.2792442
0.3471991
0.4524338
-999
0.0966027
0.413204
0.1763135
0.55059
-999
0.5220565
0.01937762
0.6018915
-999
-999
0.5875688
0.5960714
-999
-999
-999
0.5967382
0.008006538
0.5343427
-999
-999
0.5476185
0.1621918
0.4288139
0.09276588
-999
0.450272
0.3293961
0.2971066
0.1990874
-999
0.3220668
0.4983681
0.1561493
0.2892372
-999
0.1809865
0.6502767
0.01847445
0.351051
-999
0.04101626
0.7608092
0.3745624
-999
-999
0.8074083
0.3556163
-999
-999
-999
0.7792569
0.1245745
0.2975769
-999
-999
0.6829848
0.3003728
0.2099362
-999
-999
0.5391052
0.4878616
0.1048028
0.07786249
-999
0.3723657
0.6708093
0.1414533
-999
-999
0.2033648
0.8240463
0.1804542
-999
-999
0.04522702
0.9184127
0.189161
-999
-999
0.9319547
0.04811459
0.1662236
-999
-999
0.8612602
0.2184105
0.1151383
-999
-999
0.723414
0.4071987
0.04300058
-999
-999
0.5467193
0.6031644
-999
-999
-999
0.3584601
0.785247
0.02614222
-999
-999
0.177806
0.9239154
0.05169716
-999
-999
0.0149668
0.9894671
0.05281188
-999
-999
0.9655311
0.113633
0.02933234
-999
-999
0.8582637
0.2924252
-999
-999
-999
0.6927579
0.4865247
-999
-999
-999
0.5001203
0.6810232
-999
-999
-999
0.3059613
0.8510373
-999
-999
-999
0.126038
0.9654235
-999
-999
-999
0.01563505
0.9977942
0.006928627
-999
-999
0.01134994
0.9398446
0.1708216
-999
-999
0.8061772
0.3545691
-999
-999
-999
0.6260098
0.5490814
-999
-999
-999
0.4295004
0.7360885
-999
-999
-999
0.03438118
0.238724
0.8880957
-999
-999
0.06806052
0.06585639
0.9746289
-999
-999
0.07581604
0.974808
0.05670991
-999
-999
0.05650947
0.8885873
0.2266871
-999
-999
0.01293044
0.7367811
0.4139929
-999
-999
0.5498536
0.6067487
-999
-999
-999
0.03784549
0.3553283
0.7835545
-999
-999
0.08484034
0.1715148
0.9152398
-999
-999
0.1064713
0.007534541
0.973459
-999
-999
0.09953785
0.9437541
0.110639
-999
-999
0.06508581
0.8336533
0.2871496
-999
-999
0.00803496
0.6683435
0.4780179
-999
-999
0.00803386
0.4780208
0.6683407
-999
-999
0.06508505
0.2871524
0.8336512
-999
-999
0.0995375
0.1106415
0.943753
-999
-999
0.1064714
0.9734592
0.007529818
-999
-999
0.08484085
0.9152414
0.1715095
-999
-999
0.03784631
0.7835569
0.3553225
-999
-999
0.6067516
0.5498477
-999
-999
-999
0.01292955
0.4139958
0.7367759
-999
-999
0.05650896
0.2266898
0.8885837
-999
-999
0.07581595
0.05671239
0.9748065
-999
-999
0.06806089
0.9746302
0.06585273
-999
-999
0.03438181
0.8880996
0.2387197
-999
-999
0.7360937
0.4294959
-999
-999
-999
0.5490874
0.6260054
-999
-999
-999
0.3545749
0.8061735
-999
-999
-999
0.01134972
0.170827
0.9398423
-999
-999
0.01563522
0.006933235
0.997794
-999
-999
0.9654251
0.126038
-999
-999
-999
0.8510408
0.3059613
-999
-999
-999
0.6810275
0.5001203
-999
-999
-999
0.4865292
0.6927579
-999
-999
-999
0.2924296
0.8582637
-999
-999
-999
0.1136369
0.9655311
0.02933177
-999
-999
0.9894671
0.0149644
0.05281172
-999
-999
0.9239154
0.1778034
0.05169734
-999
-999
0.785247
0.3584572
0.02614279
-999
-999
0.6031644
0.5467165
-999
-999
-999
0.4071987
0.7234115
0.04299935
-999
-999
0.2184105
0.8612586
0.1151374
-999
-999
0.04811459
0.9319541
0.1662231
-999
-999
0.9184135
0.0452236
0.1891609
-999
-999
0.8240483
0.203361
0.1804545
-999
-999
0.670812
0.3723617
0.1414542
-999
-999
0.4878645
0.5391015
0.07786359
0.1048002
-999
0.3003756
0.682982
0.2099339
-999
-999
0.124577
0.7792555
0.2975751
-999
-999
0.8074085
0.3556153
-999
-999
-999
0.760811
0.04101737
0.3745625
-999
-999
0.6502798
0.1809875
0.351052
0.01847243
-999
0.4983717
0.3220679
0.289239
0.1561471
-999
0.3294001
0.4502729
0.1990897
0.2971045
-999
0.1621956
0.547619
0.09276844
0.4288121
-999
0.008009837
0.5967385
0.5343413
-999
-999
0.5875684
0.5960709
-999
-999
-999
0.5220558
0.6018919
0.01937542
-999
-999
0.413203
0.0966027
0.5505912
0.176311
-999
0.2792431
0.1973284
0.4524356
0.3471965
-999
0.1372625
0.2786323
0.3244834
0.5209242
-999
0.3287504
0.1841995
0.6785429
-999
-999
0.3392322
0.04512815
0.7951305
-999
-999
0.3081901
0.846999
-999
-999
-999
0.2410925
0.8220786
0.1435509
-999
-999
0.1485323
0.726289
0.3253448
-999
-999
0.04251583
0.01650545
0.5803306
0.520331
-999
0.05668518
0.4097848
0.7118505
-999
-999
0.07217167
0.2362107
0.8735131
-999
-999
0.06072065
0.07346351
0.9742067
-999
-999
0.02400079
0.9900838
0.04859379
-999
-999
0.917056
0.2142839
-999
-999
-999
0.773183
0.3952225
-999
-999
-999
0.5886529
0.5791245
-999
-999
-999
0.3924633
0.7448232
0.03529701
-999
-999
0.2047911
0.8645671
0.1266526
-999
-999
0.03619919
0.9126188
0.2018637
-999
-999
0.8772233
0.03417236
0.2511333
-999
-999
0.7671203
0.1733117
0.2669643
-999
-999
0.6066448
0.3138638
0.2467586
0.06255655
-999
0.423956
0.4420975
0.1938157
0.2068276
-999
0.2415379
0.5402365
0.1160731
0.3530745
-999
0.07300154
0.5909278
0.02341113
0.4871124
-999
0.5838472
0.5903834
-999
-999
-999
0.5204942
0.644565
-999
-999
-999
0.4134589
0.01264109
0.6385455
0.1215904
-999
0.2807648
0.09326632
0.5736121
0.2984939
-999
0.1395006
0.1553504
0.4628159
0.4885685
-999
0.002139697
0.1903889
0.3250406
0.6762141
-999
0.1929466
0.1782418
0.8365052
-999
-999
0.1626081
0.03552189
0.9395747
-999
-999
0.1041367
0.9616442
0.06346232
-999
-999
0.02573614
0.8971338
0.2306987
-999
-999
0.7618654
0.4122319
-999
-999
-999
0.5843246
0.5949378
-999
-999
-999
0.3929116
0.7568463
0.01347724
-999
-999
0.2080364
0.870019
0.1144716
-999
-999
0.04081097
0.9097062
0.2038518
-999
-999
0.5871063
0.04059797
0.5141144
0.007348392
-999
0.5597915
0.2063618
0.3762869
0.09255724
-999
0.4807953
0.389166
0.2264429
0.1623988
-999
0.3648498
0.5779332
0.07901496
0.2081322
-999
0.2296852
0.7525656
0.223112
-999
-999
0.09061185
0.8853263
0.2049964
-999
-999
0.948553
0.156607
-999
-999
-999
0.9269317
0.1480123
0.08489781
-999
-999
0.825859
0.3246174
-999
-999
-999
0.6683799
0.5115315
-999
-999
-999
0.483573
0.6920209
-999
-999
-999
0.03103267
0.2958739
0.8408689
-999
-999
0.1146709
0.1207279
0.9296872
-999
-999
0.1796931
0.9379825
-999
-999
-999
0.2171983
0.8636991
0.1121271
-999
-999
0.2213467
0.7243796
0.2562469
-999
-999
0.1914595
0.1004769
0.5478579
0.3976657
-999
0.13228
0.2403076
0.3605948
0.5207987
-999
0.05222313
0.3755739
0.1810935
0.6071112
-999
0.4906435
0.01920831
0.6405955
-999
-999
0.5676486
0.6143345
-999
-999
-999
0.5920773
0.0102482
0.533787
-999
-999
0.5588757
0.1685282
0.4141742
0.08416653
-999
0.4748588
0.3428019
0.2740706
0.1737594
-999
0.3554932
0.5228594
0.1296143
0.2437518
-999
0.2186045
0.6902671
0.2844639
-999
-999
0.07916132
0.8194999
0.2894711
-999
-999
0.8846686
0.2579416
-999
-999
-999
0.8705231
0.1264625
0.1949606
-999
-999
0.7805024
0.3055289
0.1096244
-999
-999
0.6348282
0.4990456
0.01212206
-999
-999
0.4603941
0.6917887
-999
-999
-999
0.2807
0.8588334
0.01457379
-999
-999
0.1112189
0.9695266
0.01018492
-999
-999
0.9984653
0.01341117
-999
-999
-999
0.005281874
0.9383028
0.1730994
-999
-999
0.8039802
0.349746
-999
-999
-999
0.6243601
0.5335534
-999
-999
-999
0.03130656
0.428967
0.7063554
-999
-999
0.1159792
0.2393631
0.8423899
-999
-999
0.1822709
0.0674579
0.9147272
-999
-999
0.2211327
0.9064773
0.01183461
-999
-999
0.2265117
0.8196595
0.1595236
-999
-999
0.1975249
0.003596412
0.6740761
0.3171716
-999
0.1388001
0.1248989
0.4972298
0.4735281
-999
0.05875609
0.2426261
0.3136814
0.6109632
-999
0.3445323
0.1398591
0.7079029
-999
-999
0.416457
0.7453713
-999
-999
-999
0.4462375
0.7151521
-999
-999
-999
0.4282844
0.01822203
0.6239112
0.1124918
-999
0.3660069
0.1590848
0.4898262
0.2462395
-999
0.2703106
0.3045658
0.3345719
0.3726432
-999
0.1552882
0.4420191
0.1764011
0.4766545
-999
0.03392615
0.5538776
0.02726705
0.542092
-999
0.6213316
0.5568765
-999
-999
-999
0.630924
0.5180669
-999
-999
-999
0.5806066
0.1366689
0.4332156
0.05719934
-999
0.4807484
0.2979558
0.3169871
0.169784
-999
0.3492622
0.4615633
0.1855881
0.2717305
-999
0.2046707
0.6102161
0.05241722
0.3507841
-999
0.06134265
0.7213169
0.3950872
-999
-999
0.7732162
0.3970352
-999
-999
-999
0.754311
0.07451907
0.3562776
-999
-999
0.6689408
0.2386725
0.2798647
0.009688105
-999
0.5351059
0.4144064
0.1794369
0.1064932
-999
0.3760099
0.5879731
0.06734962
0.1910944
-999
0.211922
0.7376594
0.2534006
-999
-999
0.05640181
0.8373214
0.2844336
-999
-999
0.8653744
0.2792051
-999
-999
-999
0.8151076
0.1495548
0.2385801
-999
-999
0.6983448
0.3247261
0.1689414
-999
-999
0.5391337
0.5086625
0.0798775
0.06465416
-999
0.3630417
0.6840671
0.1380868
-999
-999
0.1895998
0.8256192
0.1897874
-999
-999
0.03027842
0.9057936
0.2125199
-999
-999
0.9059592
0.04946064
0.2027977
-999
-999
0.8260753
0.2155391
0.162135
-999
-999
0.6847142
0.3976882
0.09649253
-999
-999
0.5093896
0.5842018
0.01426536
0.04759996
-999
0.325447
0.7544537
0.114729
-999
-999
0.1502182
0.8807461
0.1600914
-999
-999
0.9364424
0.1773991
-999
-999
-999
0.9080354
0.1022335
0.1640564
-999
-999
0.8025522
0.2744353
0.1220743
-999
-999
0.643603
0.4597447
0.057357
-999
-999
0.4597475
0.6436003
0.05735471
-999
-999
0.2744381
0.8025502
0.1220726
-999
-999
0.102236
0.9080342
0.1640555
-999
-999
0.9364427
0.1773992
-999
-999
-999
0.8807477
0.1502132
0.1600923
-999
-999
0.7544561
0.3254414
0.1147308
-999
-999
0.5842046
0.509384
0.04760222
0.01426268
-999
0.397691
0.6847092
0.09649024
-999
-999
0.2155417
0.8260719
0.1621333
-999
-999
0.04946299
0.9059579
0.2027968
-999
-999
0.9057947
0.03027503
0.2125202
-999
-999
0.8256226
0.1895959
0.1897885
-999
-999
0.684072
0.3630377
0.1380888
-999
-999
0.508668
0.5391298
0.06465665
0.07987601
-999
0.3247317
0.6983415
0.1689402
-999
-999
0.1495599
0.8151057
0.2385792
-999
-999
0.865374
0.2792047
-999
-999
-999
0.8373231
0.05640181
0.2844338
-999
-999
0.7376624
0.211922
0.2534013
-999
-999
0.5879769
0.3760099
0.1910956
0.0673479
-999
0.4144105
0.5351059
0.1064946
0.1794352
-999
0.2386764
0.6689408
0.009689649
0.2798633
-999
0.07452269
0.754311
0.3562768
-999
-999
0.7732162
0.3970349
-999
-999
-999
0.7213169
0.06134051
0.3950875
-999
-999
0.6102161
0.2046685
0.3507851
0.05241521
-999
0.4615633
0.3492601
0.2717319
0.1855861
-999
0.2979558
0.4807466
0.1697857
0.3169851
-999
0.1366689
0.5806054
0.05720109
0.4332141
-999
0.6309237
0.518066
-999
-999
-999
0.6213322
0.5568762
-999
-999
-999
0.553879
0.03392337
0.5420925
0.02726385
-999
0.442021
0.1552855
0.4766558
0.1763976
-999
0.3045681
0.2703082
0.372645
0.3345683
-999
0.159087
0.3660051
0.2462416
0.4898227
-999
0.0182241
0.4282834
0.1124939
0.6239085
-999
0.4462377
0.7151507
-999
-999
-999
0.4164581
0.7453713
-999
-999
-999
0.3445344
0.7079045
0.1398567
-999
-999
0.2426288
0.05875666
0.6109659
0.3136786
-999
0.1249017
0.1388007
0.4735316
0.497227
-999
0.003599192
0.1975253
0.3171753
0.6740736
-999
0.2265118
0.1595271
0.8196577
-999
-999
0.2211325
0.01183788
0.9064765
-999
-999
0.1822705
0.9147277
0.0674554
-999
-999
0.1159787
0.8423916
0.2393603
-999
-999
0.03130593
0.7063578
0.428964
-999
-999
0.5335562
0.624357
-999
-999
-999
0.3497487
0.8039777
-999
-999
-999
0.005281874
0.1731021
0.9383011
-999
-999
0.01341345
0.9984649
-999
-999
-999
0.9695277
0.1112214
0.01018465
-999
-999
0.8588356
0.2807027
0.01457396
-999
-999
0.6917915
0.4603968
-999
-999
-999
0.4990485
0.6348307
0.01212051
-999
-999
0.3055318
0.7805043
0.109623
-999
-999
0.1264651
0.8705239
0.1949595
-999
-999
0.8846683
0.2579409
-999
-999
-999
0.8194984
0.07916132
0.2894709
-999
-999
0.6902647
0.2186045
0.2844643
-999
-999
0.5228567
0.3554932
0.2437527
0.1296153
-999
0.3427992
0.4748588
0.1737607
0.2740718
-999
0.1685255
0.5588757
0.08416802
0.4141752
-999
0.01024594
0.5920773
0.5337877
-999
-999
0.5676486
0.6143349
-999
-999
-999
0.4906435
0.6405955
0.01920601
-999
-999
0.3755739
0.05222119
0.6071108
0.1810909
-999
0.2403076
0.1322784
0.5207978
0.3605919
-999
0.1004769
0.1914585
0.3976647
0.547855
-999
0.2213464
0.2562457
0.7243771
-999
-999
0.2171988
0.112126
0.8636974
-999
-999
0.1796943
0.9379819
-999
-999
-999
0.1146725
0.929688
0.1207241
-999
-999
0.03103468
0.8408709
0.2958698
-999
-999
0.6920234
0.4835686
-999
-999
-999
0.5115343
0.6683758
-999
-999
-999
0.3246202
0.825856
-999
-999
-999
0.1480148
0.9269301
0.0848959
-999
-999
0.9485536
0.1566056
-999
-999
-999
0.8853287
0.09061292
0.2049956
-999
-999
0.7525693
0.2296862
0.2231119
-999
-999
0.5779374
0.3648508
0.2081329
0.07901219
-999
0.3891703
0.480796
0.1624002
0.22644
-999
0.2063658
0.5597919
0.09255898
0.376284
-999
0.04060142
0.5871063
0.007350477
0.514112
-999
0.2163296
0.736507
0.2483733
-999
-999
0.2003364
0.09204599
0.5587727
0.3808676
-999
0.1533304
0.2385151
0.3704996
0.4934578
-999
0.08224105
0.3851852
0.190109
0.569225
-999
0.5169138
0.02740752
0.5944045
-999
-999
0.614612
0.5639769
-999
-999
-999
0.6604196
1.936932e-05
0.4839793
-999
-999
0.6448066
0.1599986
0.3687427
0.01433694
-999
0.5711062
0.3390923
0.2351843
0.08630769
-999
0.4538752
0.5288282
0.09786646
0.1398502
-999
0.3124363
0.7122263
0.1680298
-999
-999
0.1643239
0.8636091
0.1667893
-999
-999
0.02187535
0.9539985
0.1363136
-999
-999
0.9624427
0.07780209
0.08096393
-999
-999
0.8868389
0.2453953
0.007824061
-999
-999
0.7451255
0.4274516
-999
-999
-999
0.5657255
0.6113718
-999
-999
-999
0.004153859
0.3755979
0.7759485
-999
-999
0.09032987
0.1935329
0.8938664
-999
-999
0.160846
0.0294884
0.9401932
-999
-999
0.2066721
0.9038321
0.04804951
-999
-999
0.2209886
0.7935563
0.1909457
-999
-999
0.2015049
0.03395021
0.6331929
0.3378302
-999
0.1513194
0.1669956
0.4503396
0.4758294
-999
0.07776573
0.2995695
0.267204
0.5873313
-999
0.4186033
0.09741561
0.6537428
-999
-999
0.5078374
0.6619918
-999
-999
-999
0.5519888
0.6103464
-999
-999
-999
0.5424526
0.07581259
0.509254
0.05824768
-999
0.4811476
0.2366307
0.376518
0.1620189
-999
0.3796218
0.4074951
0.2305289
0.2525952
-999
0.2541231
0.5747264
0.08560925
0.3187856
-999
0.1201321
0.7173381
0.3506866
-999
-999
0.810677
0.3429753
-999
-999
-999
0.8349278
0.03408158
0.2969722
-999
-999
0.7844412
0.1994864
0.2201108
-999
-999
0.6707426
0.3832502
0.1231816
-999
-999
0.5165528
0.5753544
0.01707012
0.04297915
-999
0.3459666
0.7567907
0.08210343
-999
-999
0.177515
0.9001949
0.09709438
-999
-999
0.02223847
0.9766577
0.08588265
-999
-999
0.9679298
0.09126536
0.0500236
-999
-999
0.8761979
0.2635864
-999
-999
-999
0.7228369
0.451537
-999
-999
-999
0.5373188
0.6421735
-999
-999
-999
0.3456646
0.81333
-999
-999
-999
0.03393615
0.1650002
0.9361329
-999
-999
0.07563411
0.003807726
0.9840677
-999
-999
0.0925957
0.9453866
0.1083768
-999
-999
0.08239145
0.829632
0.2754476
-999
-999
0.04649601
0.6622928
0.4529218
-999
-999
0.05641147
0.4725414
0.6262516
-999
-999
0.1440834
0.2835078
0.773151
-999
-999
0.2128534
0.1091052
0.8676257
-999
-999
0.253257
0.8891958
-999
-999
-999
0.2589392
0.832752
0.1006616
-999
-999
0.2289577
0.7113199
0.2565598
-999
-999
0.1681489
0.09184431
0.5492456
0.4175418
-999
0.085315
0.2044402
0.3717041
0.5688375
-999
0.3028409
0.1976373
0.6899636
-999
-999
0.3740816
0.03804938
0.7593571
-999
-999
0.4067108
0.7624339
-999
-999
-999
0.3948722
0.6985083
0.08443716
-999
-999
0.3407359
0.07930692
0.5811444
0.2287671
-999
0.2535726
0.2092778
0.4316375
0.3739979
-999
0.1461397
0.3329396
0.27082
0.5058509
-999
0.03073685
0.4360249
0.1140446
0.606053
-999
0.5029094
0.6569791
-999
-999
-999
0.5214907
0.6483506
-999
-999
-999
0.4881197
0.02951638
0.5819735
0.07215173
-999
0.4092599
0.1666811
0.4708652
0.2076999
-999
0.2986007
0.3058866
0.3334816
0.3412101
-999
0.1717969
0.4342591
0.187289
0.4589376
-999
0.04211954
0.5348825
0.04505706
0.5443401
-999
0.590739
0.5825731
-999
-999
-999
0.5908536
0.5661697
-999
-999
-999
0.5352027
0.09196042
0.4983974
0.07192922
-999
0.4347251
0.2355655
0.3917499
0.2028686
-999
0.3064274
0.3779411
0.2627535
0.3297233
-999
0.1672361
0.5039663
0.1266594
0.4389129
-999
0.03004468
0.5951226
0.5148175
-999
-999
0.6347118
0.5442442
-999
-999
-999
0.6145661
0.0002587884
0.5215359
-999
-999
0.5389128
0.1389005
0.4510855
0.08893687
-999
0.4223293
0.2834499
0.3453671
0.2199744
-999
0.283452
0.4223273
0.2199783
0.3453635
-999
0.1389027
0.5389113
0.08894081
0.4510827
-999
0.0002607912
0.6145653
0.5215346
-999
-999
0.6347119
0.5442443
-999
-999
-999
0.5951236
0.03004055
0.5148192
-999
-999
0.503968
0.1672319
0.4389158
0.1266552
-999
0.3779431
0.3064234
0.3297269
0.2627493
-999
0.2355677
0.4347216
0.2028727
0.3917462
-999
0.0919626
0.5352002
0.07193317
0.4983946
-999
0.5908527
0.5661684
-999
-999
-999
0.5907399
0.5825734
-999
-999
-999
0.534885
0.0421166
0.5443422
0.04505499
-999
0.4342627
0.1717939
0.4589408
0.1872868
-999
0.3058908
0.2985979
0.3412139
0.3334793
-999
0.1666853
0.4092577
0.207704
0.4708634
-999
0.02952046
0.4881184
0.07215577
0.5819721
-999
0.5214905
0.64835
-999
-999
-999
0.5029103
0.6569794
-999
-999
-999
0.4360269
0.03073685
0.6060542
0.1140423
-999
0.3329422
0.1461397
0.5058526
0.2708175
-999
0.2092807
0.2535726
0.374
0.4316351
-999
0.07930984
0.3407359
0.2287693
0.5811422
-999
0.3948722
0.08443935
0.698507
-999
-999
0.4067108
0.7624335
-999
-999
-999
0.3740816
0.7593578
0.03804705
-999
-999
0.3028409
0.6899652
0.1976348
-999
-999
0.2044402
0.08531361
0.5688397
0.3717015
-999
0.09184431
0.1681478
0.4175442
0.5492429
-999
0.228957
0.2565623
0.7113177
-999
-999
0.2589391
0.1006639
0.8327506
-999
-999
0.2532574
0.8891954
-999
-999
-999
0.2128543
0.8676266
0.1091015
-999
-999
0.1440846
0.7731529
0.2835037
-999
-999
0.05641292
0.6262541
0.472537
-999
-999
0.04649488
0.4529246
0.6622886
-999
-999
0.08239084
0.2754503
0.8296286
-999
-999
0.09259576
0.1083792
0.9453848
-999
-999
0.07563478
0.9840677
0.003805437
-999
-999
0.03393731
0.9361349
0.1649976
-999
-999
0.8133335
0.3456617
-999
-999
-999
0.6421778
0.5373159
-999
-999
-999
0.4515413
0.7228342
-999
-999
-999
0.2635905
0.876196
-999
-999
-999
0.09126909
0.9679292
0.05002294
-999
-999
0.9766581
0.02223626
0.08588233
-999
-999
0.9001967
0.1775125
0.09709438
-999
-999
0.7567934
0.345964
0.08210389
-999
-999
0.5753573
0.5165502
0.04297999
0.01706771
-999
0.3832531
0.6707405
0.1231792
-999
-999
0.1994892
0.7844399
0.2201088
-999
-999
0.03408401
0.8349276
0.2969707
-999
-999
0.8106779
0.3429748
-999
-999
-999
0.7173399
0.1201342
0.3506869
-999
-999
0.5747288
0.2541251
0.3187867
0.0856071
-999
0.4074977
0.3796236
0.252597
0.2305267
-999
0.2366333
0.4811489
0.1620211
0.3765159
-999
0.07581491
0.5424532
0.05825004
0.5092523
-999
0.5519886
0.6103451
-999
-999
-999
0.5078364
0.6619915
-999
-999
-999
0.4186016
0.6537434
0.09741686
-999
-999
0.2995675
0.07776573
0.5873327
0.2672054
-999
0.1669934
0.1513194
0.4758313
0.450341
-999
0.03394818
0.2015049
0.3378325
0.6331942
-999
0.2209886
0.1909479
0.7935573
-999
-999
0.2066721
0.04805165
0.9038327
-999
-999
0.160846
0.940193
0.02948605
-999
-999
0.09032987
0.8938658
0.1935302
-999
-999
0.004153859
0.7759475
0.375595
-999
-999
0.6113705
0.5657227
-999
-999
-999
0.4274503
0.745123
-999
-999
-999
0.2453939
0.8868371
0.007824665
-999
-999
0.07780086
0.9624421
0.08096436
-999
-999
0.9539993
0.02187224
0.136314
-999
-999
0.8636111
0.1643206
0.1667895
-999
-999
0.7122289
0.3124329
0.1680296
-999
-999
0.5288311
0.4538721
0.13985
0.0978634
-999
0.3390951
0.571104
0.08630724
0.2351811
-999
0.1600011
0.6448055
0.01433638
0.3687399
-999
2.169585e-05
0.6604199
0.483977
-999
-999
0.6146137
0.5639755
-999
-999
-999
0.5169165
0.5944045
0.02740467
-999
-999
0.3851885
0.08224165
0.5692262
0.1901057
-999
0.2385185
0.1533308
0.49346
0.3704961
-999
0.09204931
0.2003366
0.3808705
0.5587693
-999
0.2163296
0.2483765
0.7365039
-999
-999
0.7333554
0.4388307
-999
-999
-999
0.5573956
0.6162635
-999
-999
-999
0.01977401
0.3706437
0.771432
-999
-999
0.1163959
0.1913636
0.8782104
-999
-999
0.1997528
0.02937172
0.9141265
-999
-999
0.2595941
0.8707516
0.02357968
-999
-999
0.2870927
0.7582092
0.1516729
-999
-999
0.2777594
0.06530768
0.5997973
0.2795057
-999
0.2331492
0.2132354
0.4214649
0.395257
-999
0.160254
0.3656721
0.2437491
0.4841436
-999
0.06898787
0.5089988
0.07916657
0.5319131
-999
0.6244429
0.5297957
-999
-999
-999
0.6921768
0.4781972
-999
-999
-999
0.6984595
0.0913344
0.3865177
-999
-999
0.6419346
0.2620435
0.269235
0.02865551
-999
0.5343045
0.4477954
0.1409882
0.0919407
-999
0.3948195
0.6357782
0.01327245
0.1348186
-999
0.2429012
0.8042718
0.1516284
-999
-999
0.0933125
0.9251599
0.1399735
-999
-999
0.9726909
0.0008407665
0.1015263
-999
-999
0.9353828
0.1582349
0.04146188
-999
-999
0.8223143
0.3338037
-999
-999
-999
0.6581033
0.5192491
-999
-999
-999
0.4711708
0.6982622
-999
-999
-999
0.03312025
0.2842779
0.8464204
-999
-999
0.1063838
0.1112984
0.9362051
-999
-999
0.159511
0.947439
-999
-999
-999
0.185251
0.8774036
0.1241188
-999
-999
0.1797215
0.7423398
0.2758017
-999
-999
0.1437774
0.0672899
0.568959
0.4284666
-999
0.08269886
0.1911822
0.3832734
0.5667151
-999
0.00439679
0.3078705
0.2039308
0.6708376
-999
0.4039972
0.04119747
0.7219881
-999
-999
0.4652997
0.7095651
-999
-999
-999
0.4810241
0.6362272
0.03060759
-999
-999
0.4481947
0.1104143
0.5165815
0.1490786
-999
0.3729224
0.2648326
0.3706322
0.2624698
-999
0.2677756
0.4222627
0.2168427
0.3590472
-999
0.1471263
0.5673352
0.0683737
0.4257248
-999
0.023276
0.6795957
0.4516681
-999
-999
0.7386081
0.4322441
-999
-999
-999
0.7319016
0.07520279
0.3709441
-999
-999
0.6609551
0.2406933
0.277922
0.01273297
-999
0.5404475
0.4198971
0.1661912
0.09530327
-999
0.3914096
0.600295
0.0478456
0.1623546
-999
0.2335579
0.7610989
0.2056496
-999
-999
0.08100703
0.8758041
0.2190561
-999
-999
0.9204273
0.2005408
-999
-999
-999
0.884425
0.1466049
0.1528949
-999
-999
0.7763579
0.3248155
0.08274599
-999
-999
0.6192539
0.5157214
-999
-999
-999
0.4398407
0.7037783
0.006545113
-999
-999
0.2597515
0.8644196
0.03675792
-999
-999
0.09238864
0.9683493
0.04462831
-999
-999
0.9921462
0.02317256
0.02912785
-999
-999
0.929929
0.1858502
-999
-999
-999
0.7966626
0.3672779
-999
-999
-999
0.6200318
0.5584479
-999
-999
-999
0.4281513
0.7417672
-999
-999
-999
0.0002973313
0.2416368
0.8911541
-999
-999
0.04145156
0.07202018
0.9778128
-999
-999
0.05995004
0.9816734
0.04162082
-999
-999
0.05326342
0.9017819
0.2042493
-999
-999
0.02232084
0.7568378
0.3833715
-999
-999
0.575376
0.5686766
-999
-999
-999
0.04565361
0.3840534
0.7414948
-999
-999
0.1075699
0.2012844
0.8758544
-999
-999
0.1466405
0.03675478
0.94517
-999
-999
0.1573455
0.9333762
0.05340746
-999
-999
0.138074
0.8433229
0.2146414
-999
-999
0.09169507
0.6952044
0.3901042
-999
-999
0.02455536
0.04786948
0.5164573
0.568508
-999
0.1283142
0.3313901
0.7306322
-999
-999
0.1891979
0.1562206
0.8511789
-999
-999
0.2222059
0.9059695
-999
-999
-999
0.222273
0.882399
0.06659453
-999
-999
